svm_type epsilon_svr
kernel_type rbf
gamma 0.125
nr_class 2
total_sv 3878
rho -234750
SV
1 1:7.2574 2:52 3:1467 4:190 5:496 6:177 7:37.85 8:-122.24 
1 1:3.6591 2:52 3:2535 4:489 5:1094 6:514 7:37.84 8:-122.25 
1 1:3.6912 2:52 3:3549 4:707 5:1551 6:714 7:37.84 8:-122.25 
-1 1:1.4103 2:52 3:1511 4:390 5:901 6:403 7:37.83 8:-122.28 
-1 1:2.026 2:50 3:1125 4:322 5:616 6:304 7:37.83 8:-122.26 
-1 1:1.2185 2:22 3:3682 4:1270 5:2024 6:1250 7:37.82 8:-122.26 
1 1:2.4912 2:29 3:4656 4:1414 5:2304 6:1250 7:37.81 8:-122.25 
1 1:3.2177 2:28 3:5806 4:1603 5:2563 6:1497 7:37.81 8:-122.25 
1 1:2.8406 2:34 3:5871 4:1914 5:2689 6:1789 7:37.81 8:-122.26 
1 1:5.0917 2:52 3:1424 4:289 5:550 6:253 7:37.82 8:-122.25 
1 1:3.0233 2:26 3:3959 4:1196 5:1749 6:1217 7:37.82 8:-122.25 
1 1:3.4722 2:35 3:1613 4:428 5:675 6:422 7:37.83 8:-122.25 
-1 1:2.4234 2:28 3:5022 4:1750 5:2558 6:1661 7:37.83 8:-122.25 
1 1:5.8596 2:50 3:2515 4:399 5:970 6:373 7:37.84 8:-122.23 
1 1:5.956 2:41 3:2576 4:406 5:794 6:376 7:37.83 8:-122.24 
1 1:5.1773 2:52 3:3529 4:574 5:1177 6:555 7:37.84 8:-122.24 
1 1:7.2354 2:52 3:2612 4:365 5:901 6:367 7:37.85 8:-122.24 
1 1:7.5544 2:40 3:4991 4:674 5:1616 6:654 7:37.83 8:-122.21 
1 1:7.0548 2:34 3:3038 4:490 5:1140 6:496 7:37.84 8:-122.21 
1 1:11.6017 2:18 3:1617 4:210 5:533 6:194 7:37.84 8:-122.19 
1 1:7.4882 2:35 3:2865 4:460 5:1072 6:443 7:37.84 8:-122.2 
1 1:6.8976 2:34 3:5065 4:788 5:1627 6:766 7:37.83 8:-122.21 
1 1:6.8538 2:29 3:1791 4:271 5:661 6:269 7:37.83 8:-122.19 
1 1:6.3302 2:39 3:3770 4:534 5:1265 6:500 7:37.82 8:-122.2 
1 1:7.0549 2:52 3:2375 4:333 5:813 6:350 7:37.82 8:-122.21 
1 1:6.7851 2:45 3:2964 4:436 5:1067 6:426 7:37.81 8:-122.2 
1 1:8.1564 2:52 3:2927 4:402 5:1021 6:380 7:37.81 8:-122.22 
1 1:6.8591 2:52 3:2485 4:313 5:953 6:327 7:37.81 8:-122.24 
1 1:3.675 2:52 3:2513 4:502 5:1048 6:518 7:37.81 8:-122.24 
1 1:4.744 2:48 3:1694 4:259 5:610 6:238 7:37.8 8:-122.19 
-1 1:2.9844 2:50 3:968 4:195 5:462 6:184 7:37.79 8:-122.19 
-1 1:2.9297 2:28 3:3144 4:761 5:1737 6:669 7:37.79 8:-122.19 
-1 1:2.8015 2:40 3:494 4:114 5:547 6:135 7:37.77 8:-122.22 
-1 1:2.489 2:51 3:1637 4:463 5:1543 6:393 7:37.78 8:-122.22 
-1 1:2.4338 2:49 3:2272 4:498 5:1621 6:483 7:37.77 8:-122.2 
-1 1:1.8039 2:42 3:932 4:254 5:900 6:263 7:37.77 8:-122.19 
-1 1:3.3715 2:52 3:2170 4:428 5:1086 6:425 7:37.77 8:-122.19 
-1 1:3.5114 2:52 3:2329 4:445 5:1144 6:417 7:37.77 8:-122.19 
-1 1:3.9712 2:46 3:2109 4:387 5:922 6:329 7:37.79 8:-122.18 
-1 1:2.6667 2:50 3:954 4:217 5:546 6:201 7:37.79 8:-122.19 
1 1:5.4446 2:37 3:1643 4:262 5:620 6:266 7:37.81 8:-122.18 
1 1:6.2838 2:34 3:1355 4:195 5:442 6:195 7:37.8 8:-122.18 
1 1:5.9849 2:22 3:12842 4:2048 5:4985 6:1967 7:37.79 8:-122.16 
-1 1:3.3958 2:39 3:1612 4:342 5:912 6:322 7:37.77 8:-122.17 
-1 1:2.4659 2:52 3:2024 4:391 5:1030 6:350 7:37.76 8:-122.19 
-1 1:3.0298 2:46 3:1026 4:226 5:749 6:225 7:37.74 8:-122.17 
-1 1:2.069 2:43 3:1036 4:233 5:652 6:213 7:37.75 8:-122.18 
-1 1:2.5625 2:33 3:1280 4:307 5:999 6:286 7:37.76 8:-122.17 
-1 1:3.1587 2:47 3:998 4:211 5:597 6:185 7:37.75 8:-122.17 
1 1:5.5701 2:34 3:1513 4:231 5:545 6:211 7:37.76 8:-122.14 
1 1:7.6923 2:28 3:794 4:111 5:329 6:109 7:37.75 8:-122.12 
1 1:4.975 2:30 3:414 4:54 5:137 6:50 7:37.75 8:-122.13 
1 1:5.3602 2:36 3:768 4:93 5:229 6:93 7:37.75 8:-122.13 
-1 1:2.2917 2:34 3:1223 4:281 5:824 6:280 7:37.74 8:-122.17 
-1 1:3.4844 2:46 3:1029 4:181 5:567 6:211 7:37.74 8:-122.16 
1 1:3.3333 2:49 3:1283 4:238 5:576 6:236 7:37.9 8:-122.29 
1 1:5.338 2:52 3:1604 4:263 5:594 6:286 7:37.9 8:-122.29 
-1 1:3.5125 2:38 3:2263 4:522 5:1027 6:509 7:37.9 8:-122.3 
-1 1:3.1375 2:52 3:1571 4:349 5:693 6:326 7:37.89 8:-122.29 
-1 1:4.5268 2:42 3:1342 4:291 5:551 6:266 7:37.89 8:-122.33 
-1 1:5.0551 2:52 3:2178 4:421 5:940 6:423 7:37.89 8:-122.29 
1 1:5.6228 2:42 3:1650 4:274 5:645 6:256 7:37.9 8:-122.27 
1 1:7.9556 2:52 3:2079 4:273 5:684 6:275 7:37.9 8:-122.27 
1 1:6.174 2:52 3:1803 4:240 5:572 6:236 7:37.9 8:-122.27 
1 1:6.9414 2:52 3:2041 4:270 5:671 6:253 7:37.9 8:-122.27 
1 1:8.8342 2:52 3:3046 4:373 5:975 6:365 7:37.89 8:-122.27 
1 1:7.1754 2:52 3:2318 4:328 5:779 6:312 7:37.9 8:-122.28 
1 1:4.9083 2:52 3:2261 4:328 5:819 6:335 7:37.9 8:-122.28 
1 1:5.7912 2:52 3:1225 4:169 5:412 6:168 7:37.89 8:-122.28 
1 1:4.5893 2:52 3:2315 4:408 5:835 6:369 7:37.89 8:-122.28 
1 1:7.266 2:52 3:2640 4:366 5:973 6:355 7:37.89 8:-122.27 
1 1:7.8336 2:37 3:2220 4:335 5:903 6:362 7:37.9 8:-122.26 
1 1:6.381 2:52 3:3078 4:494 5:1005 6:462 7:37.89 8:-122.26 
1 1:6.6828 2:52 3:3706 4:531 5:1205 6:504 7:37.89 8:-122.26 
1 1:6.7138 2:42 3:2863 4:460 5:1031 6:448 7:37.89 8:-122.25 
1 1:6.2425 2:52 3:2551 4:417 5:894 6:404 7:37.88 8:-122.26 
1 1:4.2813 2:52 3:3360 4:648 5:1232 6:621 7:37.88 8:-122.27 
-1 1:3.875 2:52 3:895 4:198 5:386 6:204 7:37.87 8:-122.29 
1 1:3.3893 2:52 3:2888 4:604 5:1253 6:538 7:37.86 8:-122.26 
1 1:3.0417 2:48 3:2153 4:517 5:1656 6:459 7:37.86 8:-122.25 
1 1:1.7652 2:52 3:1587 4:444 5:878 6:449 7:37.86 8:-122.25 
1 1:5.3794 2:52 3:4048 4:663 5:1316 6:590 7:37.86 8:-122.25 
1 1:3.2619 2:52 3:3618 4:768 5:1508 6:755 7:37.85 8:-122.26 
-1 1:2.2625 2:48 3:2063 4:484 5:1054 6:466 7:37.85 8:-122.28 
1 1:8.1872 2:52 3:3051 4:381 5:1005 6:369 7:37.82 8:-122.23 
1 1:8.1194 2:52 3:2449 4:312 5:916 6:316 7:37.83 8:-122.24 
1 1:6.155 2:52 3:3665 4:517 5:1470 6:520 7:37.82 8:-122.24 
-1 1:3.4531 2:52 3:1527 4:320 5:825 6:264 7:37.77 8:-122.25 
-1 1:3.3438 2:52 3:970 4:217 5:528 6:208 7:37.78 8:-122.26 
1 1:3.75 2:27 3:3997 4:1073 5:1901 6:966 7:37.77 8:-122.28 
1 1:4.7778 2:52 3:1565 4:315 5:637 6:297 7:37.77 8:-122.26 
1 1:4.1458 2:52 3:1049 4:185 5:374 6:176 7:37.76 8:-122.23 
-1 1:4.4562 2:25 3:1914 4:365 5:897 6:390 7:37.74 8:-122.25 
1 1:7.611 2:5 3:18634 4:2885 5:7427 6:2718 7:37.72 8:-122.24 
1 1:3.567 2:52 3:2876 4:648 5:1340 6:632 7:37.76 8:-122.25 
1 1:7.2634 2:12 3:14316 4:2045 5:5781 6:2007 7:37.77 8:-122.06 
1 1:5.1498 2:35 3:2663 4:387 5:1086 6:367 7:37.71 8:-122.09 
1 1:5.2131 2:27 3:6740 4:1073 5:2723 6:1035 7:37.71 8:-122.1 
-1 1:3.4934 2:25 3:3402 4:758 5:1645 6:710 7:37.7 8:-122.08 
-1 1:4.0662 2:52 3:1071 4:201 5:440 6:192 7:37.74 8:-122.14 
1 1:4.6042 2:51 3:2619 4:403 5:922 6:393 7:37.73 8:-122.14 
-1 1:3.375 2:45 3:726 4:147 5:519 6:135 7:37.71 8:-122.18 
-1 1:3.5313 2:46 3:1369 4:284 5:766 6:289 7:37.72 8:-122.17 
-1 1:4.5553 2:37 3:1507 4:242 5:632 6:253 7:37.71 8:-122.16 
-1 1:4 2:35 3:1037 4:207 5:552 6:210 7:37.71 8:-122.12 
1 1:6.5095 2:25 3:1134 4:153 5:340 6:171 7:37.72 8:-122.13 
-1 1:2.6101 2:27 3:3094 4:866 5:1364 6:789 7:37.71 8:-122.14 
-1 1:5.0043 2:36 3:2239 4:391 5:1203 6:379 7:37.7 8:-122.16 
-1 1:3.6625 2:38 3:1246 4:221 5:637 6:222 7:37.69 8:-122.15 
-1 1:4.7609 2:24 3:2262 4:391 5:1125 6:366 7:37.69 8:-122.17 
-1 1:5.1312 2:39 3:1670 4:308 5:957 6:335 7:37.69 8:-122.15 
1 1:6.5 2:20 3:200 4:25 5:83 6:31 7:37.69 8:-122.03 
1 1:4.7813 2:21 3:1307 4:236 5:586 6:249 7:37.63 8:-122.04 
-1 1:3.4032 2:37 3:1352 4:342 5:691 6:324 7:37.68 8:-122.1 
-1 1:2.535 2:37 3:2116 4:503 5:1109 6:448 7:37.68 8:-122.1 
-1 1:3.8 2:36 3:2110 4:389 5:952 6:370 7:37.67 8:-122.11 
-1 1:4.1974 2:44 3:2147 4:399 5:1175 6:401 7:37.68 8:-122.13 
-1 1:4.2386 2:34 3:3036 4:533 5:1366 6:500 7:37.67 8:-122.14 
-1 1:4.0682 2:36 3:1487 4:249 5:641 6:243 7:37.67 8:-122.14 
-1 1:3.1734 2:38 3:2012 4:347 5:880 6:332 7:37.67 8:-122.13 
-1 1:4.2733 2:22 3:3882 4:816 5:1830 6:743 7:37.67 8:-122.06 
-1 1:2.1382 2:37 3:1997 4:436 5:1349 6:437 7:37.66 8:-122.08 
-1 1:2.8203 2:27 3:2630 4:722 5:1414 6:634 7:37.65 8:-122.09 
-1 1:4.5417 2:25 3:2538 4:494 5:1185 6:501 7:37.65 8:-122.1 
-1 1:4.6635 2:28 3:1784 4:311 5:735 6:278 7:37.64 8:-122.1 
-1 1:4.4427 2:31 3:1797 4:327 5:796 6:319 7:37.65 8:-122.1 
-1 1:4.5281 2:35 3:2361 4:458 5:1727 6:467 7:37.61 8:-122.1 
1 1:3.4861 2:18 3:4335 4:808 5:2041 6:734 7:37.65 8:-122.11 
-1 1:3.9167 2:34 3:1457 4:242 5:735 6:249 7:37.63 8:-122.09 
-1 1:4.7109 2:35 3:2072 4:352 5:1001 6:350 7:37.62 8:-122.03 
-1 1:6.396 2:35 3:1032 4:173 5:453 6:176 7:37.62 8:-122.04 
-1 1:4.1719 2:36 3:1151 4:216 5:727 6:215 7:37.61 8:-122.04 
1 1:5.5218 2:15 3:2576 4:418 5:1657 6:410 7:37.58 8:-122.08 
1 1:6.0661 2:16 3:1606 4:240 5:1117 6:268 7:37.58 8:-122.07 
1 1:4.6786 2:16 3:4371 4:889 5:2530 6:817 7:37.59 8:-122.03 
1 1:6.2073 2:31 3:2878 4:478 5:1276 6:485 7:37.58 8:-121.99 
1 1:5.8151 2:6 3:4405 4:717 5:2071 6:688 7:37.58 8:-122 
-1 1:3.8179 2:24 3:2563 4:485 5:1174 6:501 7:37.56 8:-122.01 
1 1:5 2:18 3:5505 4:1005 5:2641 6:971 7:37.56 8:-121.99 
-1 1:4.3393 2:20 3:6462 4:1294 5:3288 6:1235 7:37.56 8:-121.99 
-1 1:3.168 2:17 3:4924 4:1247 5:3080 6:1182 7:37.55 8:-121.97 
-1 1:3.1326 2:17 3:5133 4:1375 5:3386 6:1339 7:37.54 8:-121.98 
-1 1:2.9074 2:16 3:6647 4:2098 5:4649 6:1903 7:37.55 8:-121.99 
1 1:8.3996 2:15 3:5674 4:748 5:2412 6:714 7:37.56 8:-121.94 
1 1:6.6478 2:21 3:10687 4:1540 5:4552 6:1520 7:37.55 8:-121.95 
1 1:6.2179 2:27 3:3715 4:526 5:1631 6:538 7:37.54 8:-121.94 
1 1:2.6198 2:18 3:2375 4:652 5:1252 6:586 7:37.53 8:-121.96 
1 1:5.4299 2:26 3:2506 4:387 5:1273 6:406 7:37.53 8:-121.97 
1 1:3.9444 2:18 3:3584 4:715 5:1673 6:661 7:37.54 8:-121.99 
-1 1:5.3283 2:28 3:3046 4:507 5:1772 6:516 7:37.54 8:-121.99 
1 1:5.1616 2:29 3:4133 4:744 5:2023 6:749 7:37.54 8:-122 
1 1:5 2:32 3:2572 4:406 5:1128 6:395 7:37.54 8:-122.01 
-1 1:5.0423 2:25 3:5405 4:939 5:2831 6:923 7:37.53 8:-121.99 
1 1:4.7478 2:27 3:5532 4:973 5:2855 6:960 7:37.53 8:-121.93 
1 1:8.4045 2:7 3:28258 4:3864 5:12203 6:3701 7:37.53 8:-121.92 
1 1:5.3813 2:23 3:4314 4:676 5:1972 6:623 7:37.48 8:-121.92 
1 1:6.868 2:13 3:5377 4:744 5:2759 6:760 7:37.47 8:-121.91 
1 1:5.0838 2:20 3:6483 4:1068 5:3526 6:1060 7:37.54 8:-122.06 
-1 1:4.8214 2:35 3:1867 4:343 5:1213 6:338 7:37.54 8:-122.03 
1 1:5.7072 2:21 3:4280 4:673 5:2216 6:681 7:37.53 8:-122.02 
-1 1:5.347 2:22 3:4638 4:716 5:2302 6:687 7:37.72 8:-121.92 
1 1:5.1406 2:46 3:1280 4:209 5:512 6:208 7:37.64 8:-121.92 
1 1:7.316 2:13 3:3742 4:555 5:1590 6:559 7:37.69 8:-121.92 
1 1:7.2211 2:23 3:1655 4:223 5:706 6:219 7:37.68 8:-121.92 
1 1:6.4524 2:25 3:2244 4:301 5:937 6:324 7:37.67 8:-121.88 
1 1:6.5285 2:19 3:2034 4:288 5:852 6:295 7:37.67 8:-121.89 
1 1:7.2639 2:15 3:2130 4:273 5:876 6:285 7:37.67 8:-121.9 
1 1:7.4353 2:7 3:9540 4:1294 5:3926 6:1229 7:37.67 8:-121.9 
1 1:10.9506 2:20 3:1309 4:184 5:514 6:172 7:37.64 8:-121.88 
1 1:5.7519 2:27 3:1569 4:242 5:583 6:214 7:37.66 8:-121.87 
1 1:5.6417 2:13 3:13182 4:2074 5:4847 6:1950 7:37.66 8:-121.84 
1 1:5.7239 2:26 3:1786 4:306 5:771 6:279 7:37.61 8:-121.62 
-1 1:4.9375 2:12 3:1906 4:351 5:802 6:319 7:37.69 8:-121.82 
-1 1:3.3618 2:34 3:2358 4:498 5:1157 6:461 7:37.69 8:-121.78 
1 1:5.7907 2:20 3:8068 4:1217 5:3489 6:1259 7:37.67 8:-121.77 
-1 1:3.2135 2:37 3:1341 4:256 5:533 6:242 7:38.31 8:-120.8 
-1 1:2.0094 2:19 3:7254 4:1785 5:4030 6:1667 7:39.76 8:-121.86 
-1 1:4.3309 2:28 3:2551 4:378 5:1011 6:374 7:39.75 8:-121.8 
-1 1:0.9566 2:52 3:1457 4:389 5:802 6:342 7:39.72 8:-121.84 
-1 1:2.0064 2:52 3:1741 4:401 5:753 6:377 7:39.73 8:-121.83 
-1 1:3.5735 2:16 3:1453 4:299 5:904 6:286 7:39.79 8:-121.97 
-1 1:2.8657 2:14 3:1527 4:269 5:665 6:261 7:39.86 8:-121.59 
-1 1:1.625 2:20 3:743 4:171 5:395 6:168 7:39.79 8:-121.59 
-1 1:2.0458 2:18 3:2221 4:459 5:952 6:440 7:39.78 8:-121.57 
-1 1:2.7863 2:19 3:2636 4:523 5:1184 6:465 7:39.79 8:-121.58 
-1 1:1.0625 2:20 3:1173 4:261 5:523 6:258 7:39.75 8:-121.62 
-1 1:2.9625 2:17 3:3502 4:655 5:1763 6:613 7:39.66 8:-121.66 
-1 1:1.9766 2:19 3:2888 4:591 5:984 6:499 7:39.75 8:-121.6 
-1 1:2.9688 2:24 3:1028 4:185 5:471 6:186 7:39.52 8:-121.53 
-1 1:2.334 2:30 3:3085 4:610 5:1688 6:575 7:39.51 8:-121.52 
-1 1:1.6352 2:46 3:1885 4:385 5:871 6:347 7:39.51 8:-121.56 
-1 1:1.4833 2:23 3:1387 4:325 5:640 6:289 7:39.53 8:-121.65 
-1 1:1.0585 2:26 3:3215 4:827 5:2041 6:737 7:39.5 8:-121.55 
-1 1:1.5313 2:19 3:1537 4:329 5:617 6:274 7:39.49 8:-121.53 
-1 1:2.2045 2:41 3:461 4:107 5:284 6:90 7:39.48 8:-121.55 
-1 1:2.6563 2:30 3:1217 4:238 5:677 6:233 7:39.49 8:-121.52 
-1 1:1.7727 2:31 3:1434 4:283 5:811 6:289 7:39.44 8:-121.55 
-1 1:1.9943 2:27 3:2599 4:502 5:1241 6:502 7:39.37 8:-121.67 
-1 1:2.2813 2:21 3:1432 4:284 5:862 6:275 7:39.42 8:-121.71 
-1 1:2.3816 2:16 3:4221 4:781 5:1516 6:697 7:38.15 8:-120.46 
-1 1:2.5 2:10 3:1566 4:325 5:785 6:291 7:38.12 8:-120.55 
-1 1:2.9063 2:27 3:1199 4:224 5:463 6:199 7:38.07 8:-120.55 
-1 1:4.4063 2:13 3:2962 4:546 5:252 6:103 7:38.26 8:-120.33 
-1 1:2.5352 2:13 3:4495 4:856 5:1149 6:459 7:38.25 8:-120.37 
-1 1:2.5625 2:35 3:2791 4:552 5:1395 6:476 7:39.31 8:-122.17 
-1 1:1.7463 2:19 3:1629 4:386 5:551 6:214 7:39.3 8:-122.51 
-1 1:4.375 2:22 3:1046 4:195 5:527 6:164 7:37.99 8:-121.67 
-1 1:3.691 2:30 3:1428 4:287 5:989 6:287 7:37.86 8:-121.61 
-1 1:2.2639 2:52 3:1124 4:245 5:528 6:226 7:38.01 8:-121.81 
-1 1:2.905 2:37 3:2724 4:579 5:1400 6:540 7:38 8:-121.81 
-1 1:4.8359 2:25 3:1710 4:288 5:799 6:259 7:38 8:-121.83 
-1 1:5.6779 2:16 3:2919 4:462 5:1456 6:453 7:37.99 8:-121.83 
-1 1:2.7083 2:52 3:2264 4:439 5:1403 6:476 7:38.02 8:-121.87 
-1 1:4.8542 2:17 3:2713 4:442 5:1475 6:415 7:38 8:-121.87 
-1 1:4.9783 2:15 3:2203 4:312 5:1051 6:311 7:37.99 8:-121.87 
-1 1:2.1013 2:9 3:3360 4:833 5:2041 6:810 7:38.02 8:-121.95 
-1 1:3.5436 2:16 3:2176 4:464 5:1410 6:434 7:38.03 8:-121.92 
-1 1:2.0523 2:44 3:1625 4:432 5:825 6:385 7:38.02 8:-122.14 
-1 1:2.9583 2:52 3:2378 4:508 5:940 6:451 7:38.02 8:-122.13 
-1 1:3.625 2:37 3:978 4:202 5:462 6:184 7:38 8:-122.07 
-1 1:5.0509 2:19 3:4657 4:739 5:1914 6:732 7:37.99 8:-122.08 
1 1:4.3875 2:10 3:2864 4:514 5:1300 6:507 7:37.99 8:-122.11 
-1 1:4.675 2:33 3:1660 4:277 5:741 6:261 7:37.99 8:-122.12 
-1 1:4.0154 2:12 3:6915 4:1639 5:2940 6:1468 7:37.98 8:-122.07 
-1 1:4.5893 2:39 3:2199 4:388 5:1025 6:385 7:37.95 8:-122.07 
-1 1:5.0761 2:35 3:4043 4:689 5:1832 6:662 7:37.93 8:-122.08 
-1 1:4.725 2:44 3:2185 4:357 5:943 6:366 7:37.94 8:-122.08 
1 1:6.0265 2:32 3:1339 4:209 5:601 6:209 7:37.95 8:-122.09 
1 1:6.1922 2:29 3:6895 4:1022 5:2634 6:1022 7:37.94 8:-122.09 
-1 1:3.2 2:32 3:1504 4:279 5:749 6:267 7:37.99 8:-122.04 
-1 1:3.6042 2:45 3:2842 4:567 5:1261 6:535 7:37.98 8:-122.03 
-1 1:3.6133 2:7 3:3418 4:740 5:1583 6:676 7:37.95 8:-121.96 
-1 1:4.6071 2:30 3:3320 4:589 5:1470 6:543 7:37.97 8:-121.99 
-1 1:3.7 2:32 3:3364 4:666 5:1980 6:678 7:37.96 8:-122 
1 1:5.431 2:8 3:4253 4:709 5:1883 6:662 7:37.95 8:-121.97 
-1 1:3.1968 2:39 3:1323 4:245 5:705 6:261 7:37.97 8:-122.04 
-1 1:3.8456 2:35 3:2190 4:384 5:1154 6:401 7:37.96 8:-122.05 
1 1:6.0901 2:8 3:3866 4:539 5:1555 6:513 7:37.95 8:-122.01 
1 1:6.6727 2:25 3:2615 4:368 5:935 6:366 7:37.96 8:-122.02 
-1 1:2.4519 2:25 3:1205 4:260 5:608 6:272 7:37.95 8:-122.02 
-1 1:4.9485 2:32 3:1955 4:313 5:804 6:317 7:37.95 8:-122.03 
1 1:5.6642 2:22 3:3526 4:510 5:1660 6:508 7:37.95 8:-122.02 
1 1:6.7061 2:23 3:3741 4:501 5:1339 6:499 7:37.94 8:-122.01 
1 1:6.0704 2:26 3:1619 4:224 5:706 6:220 7:37.94 8:-122.01 
-1 1:5.6292 2:24 3:5732 4:873 5:2444 6:888 7:37.94 8:-122.04 
-1 1:4.7188 2:29 3:866 4:138 5:341 6:133 7:37.95 8:-122.04 
-1 1:2.85 2:22 3:5175 4:1213 5:2804 6:1091 7:37.95 8:-122.05 
1 1:5.5777 2:21 3:5541 4:776 5:2214 6:737 7:37.94 8:-122.03 
1 1:6.0918 2:21 3:4712 4:624 5:1773 6:615 7:37.93 8:-122.03 
1 1:4.0473 2:5 3:4274 4:1153 5:1503 6:881 7:37.93 8:-122.05 
1 1:7.6877 2:21 3:10093 4:1269 5:3645 6:1219 7:37.91 8:-122.01 
-1 1:4.1612 2:15 3:5393 4:1422 5:2133 6:1288 7:37.91 8:-122.06 
1 1:6.195 2:26 3:1733 4:265 5:796 6:274 7:37.92 8:-122.08 
1 1:5.0391 2:28 3:1731 4:295 5:810 6:295 7:37.91 8:-122.07 
1 1:7.0895 2:18 3:9576 4:1455 5:3486 6:1380 7:37.91 8:-122.09 
1 1:6.2924 2:39 3:3018 4:501 5:1223 6:489 7:37.89 8:-122.08 
1 1:5.6558 2:38 3:757 4:124 5:319 6:123 7:37.89 8:-122.07 
1 1:2.9526 2:24 3:4125 4:1020 5:1699 6:873 7:37.9 8:-122.05 
1 1:4.2625 2:37 3:1677 4:269 5:689 6:283 7:37.89 8:-122.05 
1 1:7.5349 2:33 3:2423 4:322 5:998 6:346 7:37.89 8:-122.04 
1 1:5.6986 2:20 3:5467 4:1044 5:2310 6:963 7:37.9 8:-122.04 
1 1:7.5 2:29 3:6349 4:858 5:2450 6:778 7:37.89 8:-122.02 
1 1:6.112 2:29 3:3025 4:477 5:1035 6:452 7:37.86 8:-122.03 
1 1:9.5862 2:27 3:6039 4:780 5:2181 6:761 7:37.85 8:-122.04 
1 1:6.2726 2:22 3:1980 4:291 5:861 6:290 7:37.73 8:-121.94 
1 1:6.1265 2:22 3:6719 4:1068 5:2843 6:994 7:37.73 8:-121.94 
1 1:6.2631 2:19 3:5721 4:837 5:2653 6:813 7:37.74 8:-121.95 
1 1:6.2781 2:17 3:2559 4:370 5:1238 6:377 7:37.75 8:-121.94 
1 1:6.8806 2:16 3:3326 4:419 5:1272 6:402 7:37.74 8:-121.93 
1 1:7.6473 2:17 3:3354 4:422 5:1457 6:425 7:37.8 8:-121.98 
1 1:8.155 2:16 3:2498 4:330 5:1027 6:343 7:37.8 8:-121.98 
1 1:8.3188 2:12 3:6488 4:778 5:2404 6:765 7:37.81 8:-121.96 
1 1:7.8287 2:8 3:11336 4:1657 5:4089 6:1555 7:37.8 8:-121.94 
1 1:6.3942 2:4 3:14652 4:2826 5:5613 6:2579 7:37.78 8:-121.95 
1 1:9.7037 2:8 3:3865 4:463 5:1548 6:432 7:37.76 8:-121.96 
1 1:10.3345 2:5 3:2255 4:269 5:876 6:258 7:37.76 8:-121.93 
1 1:6.7027 2:8 3:3743 4:581 5:1633 6:567 7:37.76 8:-121.97 
1 1:7.9393 2:8 3:2865 4:389 5:1376 6:417 7:37.74 8:-121.98 
1 1:6.5617 2:30 3:3917 4:549 5:1330 6:544 7:37.83 8:-122.01 
1 1:4.6042 2:20 3:2206 4:458 5:926 6:432 7:37.82 8:-122 
1 1:9.8708 2:24 3:5948 4:738 5:1997 6:710 7:37.83 8:-122.03 
1 1:7.6518 2:11 3:6200 4:907 5:2286 6:896 7:37.8 8:-122.02 
1 1:7.3732 2:16 3:3031 4:438 5:1087 6:421 7:37.88 8:-122.02 
1 1:8.4352 2:14 3:3056 4:369 5:1209 6:377 7:37.87 8:-122.02 
1 1:7.2655 2:25 3:3004 4:393 5:1145 6:376 7:37.86 8:-122.03 
1 1:7.5139 2:29 3:7479 4:977 5:2744 6:943 7:37.84 8:-121.96 
1 1:8.003 2:18 3:9117 4:1248 5:3280 6:1167 7:37.82 8:-121.98 
1 1:9.0776 2:5 3:7178 4:898 5:2823 6:907 7:37.81 8:-121.95 
1 1:8.3678 2:34 3:5683 4:755 5:1962 6:723 7:37.91 8:-122.12 
1 1:4.3235 2:32 3:2372 4:516 5:1067 6:492 7:37.89 8:-122.11 
1 1:6.2275 2:34 3:6986 4:1096 5:2865 6:1124 7:37.88 8:-122.14 
1 1:3.5536 2:11 3:1077 4:318 5:590 6:264 7:37.88 8:-122.07 
1 1:6.5814 2:33 3:3398 4:500 5:1351 6:457 7:37.87 8:-122.11 
1 1:7.6717 2:26 3:4048 4:513 5:1486 6:498 7:37.81 8:-122.12 
1 1:6.6657 2:26 3:2269 4:317 5:918 6:313 7:37.82 8:-122.12 
1 1:7.203 2:19 3:5130 4:741 5:1887 6:712 7:37.83 8:-122.11 
1 1:7.3267 2:27 3:9147 4:1276 5:3371 6:1269 7:37.85 8:-122.14 
1 1:7.52 2:16 3:4596 4:705 5:1480 6:650 7:37.83 8:-122.16 
1 1:8.1586 2:36 3:3359 4:493 5:1298 6:483 7:37.86 8:-122.16 
1 1:4.9 2:36 3:542 4:119 5:231 6:121 7:37.88 8:-122.18 
1 1:8.9571 2:33 3:4449 4:636 5:1684 6:617 7:37.86 8:-122.18 
1 1:8.7589 2:32 3:1779 4:241 5:721 6:258 7:37.89 8:-122.16 
1 1:7.6917 2:32 3:3633 4:508 5:1393 6:506 7:37.88 8:-122.17 
1 1:2.4444 2:20 3:95 4:13 5:31 6:15 7:37.88 8:-122.22 
1 1:7.3195 2:37 3:3881 4:560 5:1315 6:517 7:37.89 8:-122.2 
1 1:9.0064 2:36 3:4760 4:610 5:1511 6:572 7:37.9 8:-122.18 
1 1:8.1489 2:18 3:4845 4:735 5:1634 6:734 7:37.89 8:-122.18 
-1 1:5.5601 2:4 3:17032 4:2546 5:7653 6:2359 7:37.97 8:-121.78 
1 1:8.3209 2:12 3:4711 4:659 5:2089 6:621 7:37.81 8:-121.82 
1 1:8.1163 2:16 3:2638 4:345 5:1055 6:334 7:37.92 8:-122.01 
1 1:9.0243 2:14 3:1780 4:224 5:764 6:226 7:37.92 8:-121.99 
1 1:7.3445 2:13 3:2085 4:292 5:852 6:264 7:37.89 8:-121.93 
1 1:5.2798 2:14 3:5332 4:884 5:2093 6:839 7:37.96 8:-121.92 
1 1:6.2296 2:26 3:1299 4:174 5:533 6:180 7:37.94 8:-121.94 
1 1:6.6049 2:16 3:2169 4:262 5:877 6:245 7:37.93 8:-121.93 
-1 1:3.9345 2:41 3:1631 4:282 5:752 6:288 7:38.03 8:-122.26 
-1 1:3.4471 2:26 3:2335 4:413 5:980 6:417 7:38 8:-122.28 
-1 1:3.2759 2:18 3:4123 4:874 5:1895 6:772 7:38.01 8:-122.31 
1 1:6.5006 2:16 3:2978 4:411 5:1531 6:400 7:38 8:-122.25 
1 1:5.8418 2:15 3:1216 4:166 5:572 6:178 7:38 8:-122.27 
-1 1:5.1046 2:27 3:2133 4:347 5:850 6:350 7:37.98 8:-122.29 
-1 1:4.4911 2:20 3:3426 4:632 5:1512 6:580 7:37.97 8:-122.29 
-1 1:4.3958 2:38 3:2172 4:403 5:945 6:384 7:37.94 8:-122.31 
-1 1:4.35 2:36 3:1425 4:245 5:573 6:239 7:37.95 8:-122.32 
-1 1:2.9781 2:35 3:3779 4:711 5:2493 6:679 7:38 8:-122.33 
-1 1:4.6937 2:33 3:1595 4:292 5:991 6:300 7:37.97 8:-122.32 
-1 1:4.4135 2:32 3:1967 4:348 5:1144 6:364 7:37.98 8:-122.33 
-1 1:3.9118 2:46 3:1222 4:236 5:819 6:251 7:37.96 8:-122.33 
-1 1:2.5461 2:34 3:1428 4:335 5:1272 6:319 7:37.96 8:-122.35 
-1 1:2.1991 2:15 3:6487 4:1717 5:3408 6:1560 7:37.96 8:-122.34 
-1 1:5.5196 2:46 3:1901 4:295 5:833 6:352 7:37.94 8:-122.32 
-1 1:2.875 2:44 3:1788 4:368 5:933 6:329 7:37.95 8:-122.34 
-1 1:3.2833 2:38 3:1340 4:298 5:766 6:241 7:37.95 8:-122.34 
-1 1:3.0737 2:45 3:2142 4:431 5:1318 6:431 7:37.95 8:-122.35 
-1 1:3.6094 2:42 3:1485 4:290 5:971 6:303 7:37.95 8:-122.35 
-1 1:1.5139 2:38 3:1066 4:248 5:729 6:286 7:37.95 8:-122.36 
-1 1:1.3365 2:26 3:1540 4:343 5:1007 6:338 7:37.94 8:-122.36 
-1 1:1.822 2:41 3:2591 4:585 5:1638 6:462 7:37.94 8:-122.36 
-1 1:1.6 2:43 3:369 4:107 5:371 6:111 7:37.94 8:-122.36 
-1 1:1.0521 2:40 3:1064 4:266 5:912 6:239 7:37.94 8:-122.37 
-1 1:1.75 2:45 3:3150 4:756 5:1798 6:749 7:37.93 8:-122.37 
-1 1:1.7257 2:39 3:2002 4:416 5:1166 6:395 7:37.93 8:-122.35 
-1 1:1.9375 2:42 3:1796 4:389 5:1107 6:372 7:37.93 8:-122.36 
-1 1:1.3929 2:52 3:215 4:41 5:126 6:43 7:37.92 8:-122.36 
-1 1:2.64 2:45 3:2225 4:486 5:1304 6:459 7:37.93 8:-122.34 
-1 1:3.6417 2:43 3:2549 4:511 5:1060 6:528 7:37.91 8:-122.31 
1 1:6.0677 2:32 3:3943 4:605 5:1524 6:614 7:37.92 8:-122.3 
1 1:6.516 2:32 3:1736 4:234 5:602 6:231 7:37.92 8:-122.29 
1 1:4.5 2:34 3:2254 4:357 5:715 6:306 7:37.93 8:-122.3 
-1 1:2.675 2:33 3:296 4:73 5:216 6:63 7:37.93 8:-122.32 
1 1:4.0804 2:33 3:1615 4:271 5:710 6:285 7:37.92 8:-122.3 
-1 1:3.6321 2:40 3:2866 4:617 5:1305 6:589 7:37.91 8:-122.3 
1 1:6 2:36 3:1450 4:235 5:568 6:234 7:37.92 8:-122.29 
1 1:5.1691 2:38 3:2591 4:424 5:905 6:378 7:37.91 8:-122.29 
1 1:6.5576 2:38 3:2501 4:348 5:805 6:329 7:37.91 8:-122.28 
1 1:4.1212 2:52 3:1369 4:249 5:490 6:248 7:37.9 8:-122.28 
-1 1:2.4805 2:11 3:3159 4:616 5:1343 6:479 7:41.75 8:-124.23 
-1 1:1.7038 2:28 3:3003 4:699 5:1530 6:653 7:41.73 8:-124.22 
-1 1:3.1806 2:24 3:856 4:185 5:388 6:108 7:38.93 8:-119.97 
-1 1:2.3281 2:28 3:1194 4:272 5:494 6:203 7:38.93 8:-119.98 
1 1:3.9722 2:17 3:8005 4:1382 5:999 6:383 7:38.93 8:-120 
-1 1:2.996 2:22 3:3080 4:610 5:1045 6:425 7:38.93 8:-120.01 
-1 1:1.7188 2:23 3:964 4:246 5:485 6:198 7:38.92 8:-120.01 
-1 1:1.9851 2:17 3:2732 4:609 5:1005 6:499 7:38.91 8:-120.01 
-1 1:3.5714 2:17 3:2722 4:512 5:828 6:289 7:38.84 8:-119.96 
1 1:4.0714 2:19 3:2967 4:528 5:112 6:48 7:39.01 8:-120.06 
-1 1:2.8562 2:12 3:2180 4:423 5:1070 6:377 7:38.83 8:-120.87 
-1 1:6.314 2:9 3:13255 4:1739 5:5001 6:1627 7:38.7 8:-121.06 
-1 1:5.4413 2:8 3:4913 4:744 5:2005 6:723 7:38.67 8:-120.99 
1 1:4.0714 2:9 3:3707 4:602 5:1601 6:555 7:38.65 8:-120.97 
-1 1:4.5568 2:12 3:2213 4:384 5:1097 6:351 7:38.65 8:-120.93 
-1 1:4 2:13 3:2692 4:470 5:1302 6:420 7:38.71 8:-120.87 
-1 1:2.5625 2:15 3:1533 4:300 5:674 6:287 7:38.75 8:-120.86 
-1 1:2.9219 2:17 3:2146 4:396 5:862 6:351 7:38.73 8:-120.71 
-1 1:3.0789 2:14 3:1821 4:316 5:769 6:266 7:38.68 8:-120.63 
-1 1:4.0827 2:8 3:3417 4:604 5:1703 6:623 7:38.58 8:-120.88 
-1 1:1.372 2:47 3:1314 4:416 5:1155 6:326 7:36.73 8:-119.81 
-1 1:1.7011 2:45 3:925 4:231 5:797 6:228 7:36.73 8:-119.8 
-1 1:0.9513 2:43 3:1286 4:360 5:972 6:345 7:36.72 8:-119.8 
-1 1:1.5833 2:46 3:1414 4:268 5:902 6:243 7:36.72 8:-119.81 
-1 1:2.1518 2:44 3:1960 4:393 5:1286 6:381 7:36.73 8:-119.77 
-1 1:1.2344 2:52 3:1377 4:319 5:1280 6:259 7:36.73 8:-119.78 
-1 1:1.0513 2:35 3:853 4:296 5:1228 6:289 7:36.74 8:-119.79 
-1 1:0.799 2:25 3:1717 4:542 5:1343 6:471 7:36.74 8:-119.8 
-1 1:1.6435 2:25 3:2581 4:528 5:1642 6:509 7:36.72 8:-119.82 
-1 1:2.4167 2:43 3:355 4:81 5:233 6:75 7:36.71 8:-119.83 
-1 1:1.5625 2:25 3:1026 4:221 5:789 6:183 7:36.71 8:-119.81 
-1 1:1.0481 2:19 3:1334 4:336 5:1171 6:319 7:36.72 8:-119.8 
-1 1:1.3304 2:28 3:1592 4:304 5:962 6:282 7:36.7 8:-119.8 
-1 1:2.1458 2:22 3:354 4:121 5:530 6:115 7:36.72 8:-119.78 
-1 1:1.3047 2:41 3:1562 4:322 5:927 6:277 7:36.72 8:-119.79 
-1 1:1.3587 2:35 3:1987 4:394 5:1233 6:383 7:36.71 8:-119.78 
-1 1:2.1304 2:25 3:3972 4:842 5:2863 6:729 7:36.72 8:-119.74 
-1 1:7.2211 2:30 3:2437 4:349 5:1005 6:380 7:36.73 8:-119.69 
-1 1:5.2608 2:19 3:3972 4:585 5:1586 6:560 7:36.73 8:-119.71 
-1 1:1.6607 2:6 3:1931 4:422 5:1344 6:414 7:36.62 8:-119.65 
-1 1:2.1691 2:31 3:2214 4:432 5:1326 6:416 7:36.68 8:-119.8 
-1 1:2.6146 2:43 3:524 4:93 5:302 6:93 7:36.73 8:-119.89 
-1 1:1.976 2:15 3:3291 4:772 5:1738 6:634 7:36.76 8:-119.83 
-1 1:1.4635 2:43 3:2070 4:512 5:1925 6:444 7:36.75 8:-119.78 
-1 1:1.75 2:50 3:1343 4:322 5:1063 6:342 7:36.76 8:-119.78 
-1 1:1.8641 2:39 3:2233 4:563 5:2031 6:491 7:36.75 8:-119.76 
-1 1:2.5111 2:49 3:2331 4:460 5:1290 6:477 7:36.75 8:-119.75 
-1 1:1.7994 2:42 3:2093 4:470 5:1621 6:438 7:36.76 8:-119.74 
-1 1:1.3278 2:32 3:2072 4:497 5:2002 6:470 7:36.76 8:-119.75 
-1 1:3.8088 2:34 3:1768 4:303 5:888 6:314 7:36.8 8:-119.7 
-1 1:2.1461 2:11 3:5112 4:1384 5:2487 6:1243 7:36.77 8:-119.71 
-1 1:3.25 2:17 3:1415 4:267 5:861 6:293 7:36.8 8:-119.71 
-1 1:3 2:25 3:875 4:156 5:646 6:166 7:36.8 8:-119.71 
-1 1:2.625 2:23 3:2128 4:442 5:1047 6:450 7:36.8 8:-119.72 
-1 1:2.5737 2:30 3:2427 4:482 5:1375 6:518 7:36.77 8:-119.74 
-1 1:2.2467 2:27 3:4049 4:947 5:2254 6:882 7:36.78 8:-119.74 
-1 1:2.319 2:41 3:2227 4:462 5:1129 6:415 7:36.78 8:-119.79 
-1 1:2.5804 2:48 3:1805 4:329 5:741 6:331 7:36.77 8:-119.81 
-1 1:2.625 2:23 3:2168 4:503 5:1190 6:425 7:36.77 8:-119.83 
-1 1:2.8359 2:30 3:3162 4:640 5:1660 6:639 7:36.78 8:-119.83 
-1 1:3.3125 2:22 3:1970 4:332 5:1066 6:319 7:36.79 8:-119.9 
-1 1:1.8299 2:24 3:1961 4:422 5:1559 6:374 7:36.72 8:-120.05 
1 1:7.5 2:8 3:2580 4:372 5:1111 6:393 7:36.85 8:-119.88 
-1 1:4.8036 2:11 3:2497 4:427 5:1101 6:405 7:36.83 8:-119.85 
-1 1:4.6726 2:6 3:1891 4:341 5:969 6:330 7:36.81 8:-119.87 
-1 1:2.9565 2:14 3:4177 4:914 5:2300 6:867 7:36.8 8:-119.85 
-1 1:2.5595 2:18 3:2536 4:516 5:1196 6:466 7:36.8 8:-119.86 
1 1:10.5144 2:8 3:3791 4:487 5:1424 6:475 7:36.85 8:-119.84 
-1 1:8.7716 2:12 3:2396 4:290 5:863 6:258 7:36.84 8:-119.84 
-1 1:6.8645 2:17 3:2273 4:298 5:700 6:263 7:36.83 8:-119.84 
-1 1:7.4201 2:17 3:3012 4:408 5:987 6:362 7:36.83 8:-119.84 
-1 1:6.1175 2:16 3:2868 4:376 5:1016 6:379 7:36.83 8:-119.82 
-1 1:3.2143 2:25 3:2330 4:462 5:1215 6:467 7:36.82 8:-119.79 
-1 1:1.7708 2:22 3:4241 4:1147 5:1929 6:971 7:36.82 8:-119.78 
-1 1:3.4542 2:24 3:5377 4:1005 5:2010 6:982 7:36.82 8:-119.8 
-1 1:3.8571 2:24 3:3756 4:681 5:1586 6:739 7:36.8 8:-119.83 
-1 1:3.5958 2:29 3:2806 4:552 5:1242 6:540 7:36.8 8:-119.81 
-1 1:3.125 2:16 3:6101 4:1200 5:3407 6:1134 7:36.8 8:-119.83 
-1 1:2.9506 2:35 3:2314 4:443 5:954 6:457 7:36.79 8:-119.81 
-1 1:3.5542 2:43 3:2382 4:431 5:874 6:380 7:36.78 8:-119.8 
-1 1:4.25 2:33 3:1461 4:261 5:494 6:254 7:36.81 8:-119.79 
-1 1:3.3281 2:32 3:2463 4:468 5:1261 6:486 7:36.79 8:-119.76 
-1 1:2.197 2:30 3:3308 4:662 5:1894 6:648 7:36.8 8:-119.75 
-1 1:1.2716 2:19 3:4643 4:1429 5:4638 6:1335 7:36.81 8:-119.76 
-1 1:3.4279 2:25 3:1565 4:271 5:661 6:275 7:36.81 8:-119.77 
-1 1:5.2595 2:20 3:3214 4:446 5:1360 6:463 7:36.83 8:-119.76 
-1 1:2.3173 2:25 3:2379 4:540 5:1482 6:484 7:36.82 8:-119.7 
-1 1:2.7159 2:32 3:2623 4:528 5:1570 6:492 7:36.81 8:-119.7 
-1 1:5.0253 2:13 3:2589 4:413 5:1356 6:435 7:36.81 8:-119.68 
-1 1:2.7404 2:15 3:2524 4:451 5:1207 6:424 7:36.79 8:-119.69 
-1 1:4.9904 2:15 3:2397 4:353 5:1258 6:347 7:36.85 8:-119.64 
-1 1:4.5625 2:20 3:2822 4:479 5:1372 6:455 7:36.78 8:-119.53 
-1 1:2.1182 2:40 3:1195 4:326 5:1135 6:315 7:36.7 8:-119.56 
-1 1:2.1515 2:6 3:1186 4:234 5:1135 6:218 7:36.72 8:-119.55 
-1 1:2.59 2:21 3:1834 4:321 5:1120 6:314 7:36.71 8:-119.52 
-1 1:4.1838 2:44 3:3042 4:697 5:335 6:115 7:37.25 8:-119.21 
-1 1:3.7857 2:19 3:1616 4:324 5:187 6:80 7:36.79 8:-118.91 
-1 1:1.5642 2:15 3:1070 4:256 5:1070 6:243 7:36.62 8:-119.32 
-1 1:1.4481 2:25 3:831 4:230 5:947 6:244 7:36.62 8:-119.31 
-1 1:1.586 2:14 3:3004 4:793 5:3535 6:735 7:36.61 8:-119.55 
-1 1:2.6858 2:13 3:1788 4:405 5:1652 6:411 7:36.58 8:-119.62 
-1 1:4.0197 2:17 3:2287 4:390 5:1330 6:393 7:36.59 8:-119.62 
-1 1:1.8333 2:33 3:1923 4:403 5:1205 6:389 7:36.57 8:-119.6 
-1 1:1.5833 2:42 3:2242 4:521 5:1359 6:483 7:36.57 8:-119.61 
-1 1:1.2647 2:22 3:1794 4:435 5:1127 6:359 7:36.58 8:-119.63 
-1 1:4.2045 2:16 3:2703 4:415 5:1106 6:372 7:36.52 8:-119.54 
-1 1:2.2132 2:46 3:1889 4:390 5:971 6:403 7:36.51 8:-119.55 
-1 1:3.0294 2:31 3:1986 4:417 5:1042 6:422 7:36.52 8:-119.55 
-1 1:2.8125 2:29 3:1702 4:301 5:914 6:280 7:36.46 8:-119.69 
-1 1:2.1771 2:18 3:1128 4:237 5:772 6:220 7:36.44 8:-119.97 
-1 1:1.4191 2:12 3:1923 4:559 5:2809 6:535 7:36.19 8:-120.09 
-1 1:2.4786 2:14 3:1508 4:347 5:1679 6:345 7:36.49 8:-120.22 
-1 1:1.9417 2:20 3:1193 4:263 5:1274 6:241 7:36.55 8:-120.51 
-1 1:2.3295 2:42 3:1766 4:344 5:1084 6:323 7:36.97 8:-120.55 
-1 1:2.3507 2:39 3:4179 4:814 5:2111 6:809 7:39.74 8:-122.19 
-1 1:1.9375 2:16 3:2026 4:396 5:1031 6:382 7:39.75 8:-122.23 
-1 1:2.8333 2:37 3:2358 4:413 5:1060 6:424 7:39.51 8:-122.2 
-1 1:1.7308 2:52 3:2416 4:618 5:1150 6:571 7:40.8 8:-124.16 
-1 1:1.585 2:52 3:1606 4:419 5:891 6:367 7:40.8 8:-124.17 
-1 1:1.4668 2:40 3:1398 4:311 5:788 6:279 7:40.79 8:-124.18 
-1 1:2.9038 2:43 3:2241 4:446 5:932 6:395 7:40.78 8:-124.16 
-1 1:1.755 2:47 3:1486 4:335 5:765 6:329 7:40.8 8:-124.15 
-1 1:1.6111 2:52 3:2167 4:480 5:908 6:451 7:40.8 8:-124.16 
-1 1:2.0657 2:35 3:2987 4:578 5:1581 6:585 7:40.88 8:-124.1 
-1 1:2.4321 2:26 3:2683 4:555 5:1353 6:526 7:40.88 8:-124.09 
-1 1:1.0486 2:31 3:938 4:238 5:425 6:157 7:41.32 8:-123.85 
-1 1:2.0156 2:29 3:1029 4:239 5:509 6:196 7:41.36 8:-124.08 
-1 1:3.1406 2:20 3:1075 4:214 5:529 6:196 7:40.95 8:-124.16 
-1 1:3.8095 2:28 3:3513 4:634 5:1658 6:598 7:40.72 8:-124.02 
-1 1:2.0938 2:39 3:1186 4:238 5:539 6:212 7:40.59 8:-124.15 
-1 1:4.025 2:27 3:1148 4:206 5:521 6:219 7:40.6 8:-124.14 
-1 1:2.0463 2:17 3:1009 4:231 5:745 6:217 7:33.04 8:-115.62 
-1 1:2.2054 2:21 3:1302 4:327 5:1244 6:316 7:32.98 8:-115.52 
-1 1:3.3182 2:19 3:1087 4:171 5:649 6:173 7:32.86 8:-115.4 
-1 1:3.5735 2:30 3:1602 4:322 5:1130 6:335 7:32.82 8:-115.37 
-1 1:1.7604 2:32 3:741 4:191 5:623 6:169 7:32.81 8:-115.37 
-1 1:3.2396 2:33 3:1365 4:269 5:825 6:250 7:32.85 8:-115.57 
-1 1:1.7411 2:17 3:1039 4:256 5:728 6:246 7:32.85 8:-115.57 
-1 1:1.7188 2:17 3:1492 4:426 5:1595 6:428 7:32.8 8:-115.57 
-1 1:1.1853 2:16 3:1307 4:359 5:961 6:327 7:32.8 8:-115.57 
-1 1:2.1136 2:23 3:666 4:142 5:580 6:160 7:32.8 8:-115.55 
-1 1:1.2083 2:22 3:565 4:162 5:692 6:141 7:32.79 8:-115.55 
-1 1:1.1707 2:20 3:2372 4:835 5:2283 6:767 7:32.79 8:-115.56 
-1 1:3.1597 2:29 3:1568 4:283 5:848 6:245 7:32.78 8:-115.56 
-1 1:2.8025 2:5 3:2652 4:606 5:1767 6:536 7:32.78 8:-115.55 
-1 1:6.3814 2:8 3:2183 4:307 5:1000 6:287 7:32.79 8:-115.59 
-1 1:3.6042 2:34 3:1152 4:208 5:621 6:208 7:32.79 8:-115.57 
-1 1:2.5769 2:30 3:935 4:177 5:649 6:148 7:32.69 8:-115.59 
-1 1:1.899 2:17 3:1960 4:389 5:1691 6:356 7:32.69 8:-115.49 
-1 1:2.0109 2:15 3:1945 4:536 5:515 6:273 7:33.4 8:-115.99 
-1 1:1.8958 2:12 3:99 4:25 5:37 6:17 7:33.28 8:-115.95 
-1 1:3.1607 2:18 3:1183 4:363 5:374 6:127 7:33.07 8:-114.98 
-1 1:1.2132 2:23 3:1586 4:448 5:338 6:182 7:33.35 8:-115.73 
-1 1:0.8571 2:21 3:44 4:33 5:64 6:27 7:32.79 8:-114.65 
-1 1:4.1576 2:19 3:2460 4:405 5:1225 6:425 7:37.4 8:-118.43 
-1 1:2.75 2:22 3:3480 4:673 5:1541 6:636 7:37.17 8:-118.3 
-1 1:2.0357 2:34 3:2090 4:478 5:896 6:426 7:36.64 8:-118.05 
-1 1:2.1 2:19 3:619 4:239 5:490 6:164 7:36.4 8:-117.02 
-1 1:1.1471 2:14 3:1372 4:386 5:436 6:213 7:36 8:-116.22 
-1 1:1.8403 2:47 3:1691 4:402 5:913 6:358 7:35.42 8:-119.04 
-1 1:1.7109 2:11 3:8739 4:2190 5:4781 6:1919 7:35.4 8:-119.01 
-1 1:3.1297 2:23 3:5624 4:1148 5:2842 6:1042 7:35.39 8:-118.96 
-1 1:3.0938 2:6 3:4656 4:971 5:2320 6:935 7:35.41 8:-118.9 
-1 1:3.3462 2:32 3:4121 4:755 5:2590 6:721 7:35.37 8:-118.91 
-1 1:1.7467 2:41 3:1463 4:339 5:1066 6:318 7:35.37 8:-118.96 
-1 1:1.625 2:32 3:1361 4:363 5:1483 6:297 7:35.38 8:-118.97 
-1 1:1.0648 2:39 3:1497 4:383 5:1182 6:355 7:35.38 8:-118.98 
-1 1:1.4024 2:26 3:1317 4:374 5:1025 6:304 7:35.38 8:-118.99 
-1 1:1.4146 2:22 3:1812 4:457 5:1592 6:420 7:35.39 8:-118.98 
-1 1:1.7292 2:38 3:918 4:220 5:743 6:222 7:35.37 8:-118.99 
-1 1:1.1638 2:35 3:825 4:179 5:670 6:181 7:35.37 8:-118.98 
-1 1:1.9125 2:35 3:120 4:35 5:477 6:41 7:35.37 8:-119.01 
-1 1:1.4779 2:44 3:593 4:136 5:364 6:121 7:35.37 8:-119.01 
-1 1:3.3261 2:16 3:4507 4:1049 5:2261 6:959 7:35.36 8:-119.05 
-1 1:2.1818 2:46 3:1637 4:338 5:714 6:297 7:35.37 8:-119.04 
-1 1:1.7213 2:44 3:2687 4:620 5:1521 6:549 7:35.37 8:-119.02 
-1 1:2.2827 2:48 3:1833 4:396 5:947 6:363 7:35.36 8:-119.02 
-1 1:1.9671 2:41 3:2551 4:594 5:1342 6:595 7:35.36 8:-119.03 
-1 1:1.2157 2:36 3:2658 4:626 5:1490 6:529 7:35.36 8:-119.01 
-1 1:0.9407 2:40 3:850 4:227 5:764 6:186 7:35.36 8:-119 
-1 1:1.4015 2:35 3:1164 4:277 5:992 6:284 7:35.35 8:-119 
-1 1:1.7375 2:35 3:1021 4:280 5:1258 6:239 7:35.36 8:-119 
-1 1:0.9675 2:36 3:1562 4:398 5:1223 6:329 7:35.37 8:-118.98 
-1 1:1.2232 2:31 3:1498 4:359 5:1168 6:340 7:35.36 8:-118.99 
-1 1:1.7197 2:34 3:1379 4:333 5:1156 6:315 7:35.37 8:-118.97 
-1 1:1.5743 2:31 3:1418 4:306 5:1219 6:312 7:35.36 8:-118.97 
-1 1:1.7614 2:21 3:496 4:131 5:511 6:124 7:35.35 8:-118.98 
-1 1:0.9288 2:26 3:875 4:199 5:567 6:204 7:35.32 8:-118.99 
-1 1:1.1786 2:32 3:1293 4:317 5:1109 6:286 7:35.35 8:-118.99 
-1 1:2.2407 2:38 3:1472 4:305 5:670 6:282 7:35.35 8:-119.02 
-1 1:2.3125 2:38 3:1463 4:294 5:692 6:295 7:35.34 8:-119.02 
-1 1:8.5325 2:14 3:2113 4:256 5:842 6:265 7:35.35 8:-119.09 
-1 1:4.1528 2:15 3:1474 4:235 5:768 6:238 7:35.34 8:-119.08 
-1 1:1.5429 2:42 3:1120 4:255 5:677 6:213 7:35.33 8:-119.01 
-1 1:1.5357 2:35 3:1650 4:390 5:1145 6:343 7:35.34 8:-119.02 
-1 1:1.6575 2:35 3:1576 4:405 5:870 6:282 7:35.32 8:-118.99 
-1 1:2.9402 2:33 3:2248 4:434 5:1461 6:405 7:35.3 8:-118.99 
-1 1:1.6522 2:37 3:1337 4:275 5:767 6:273 7:35.31 8:-119 
-1 1:3.3529 2:14 3:2927 4:588 5:1821 6:561 7:35.32 8:-119.02 
-1 1:3.6369 2:10 3:7397 4:1369 5:4611 6:1310 7:35.3 8:-119.02 
-1 1:3.125 2:6 3:80 4:16 5:66 6:21 7:35.24 8:-119.01 
-1 1:2.9891 2:18 3:3278 4:762 5:1338 6:550 7:34.83 8:-118.95 
-1 1:2.5313 2:30 3:2943 4:697 5:1565 6:584 7:35.14 8:-119.46 
-1 1:3.1592 2:33 3:5050 4:964 5:2293 6:919 7:35.15 8:-119.45 
-1 1:2.3013 2:34 3:1440 4:309 5:808 6:294 7:35.13 8:-119.45 
-1 1:2.1955 2:46 3:2745 4:543 5:1423 6:482 7:35.13 8:-119.46 
-1 1:1.9718 2:32 3:2167 4:421 5:1301 6:394 7:35.4 8:-119.47 
-1 1:2.8269 2:34 3:1367 4:329 5:796 6:319 7:35.5 8:-119.27 
-1 1:1.1903 2:13 3:1657 4:362 5:1186 6:376 7:35.58 8:-119.35 
-1 1:2.3934 2:33 3:3240 4:654 5:1809 6:616 7:35.59 8:-119.34 
-1 1:1.8843 2:16 3:2874 4:677 5:3078 6:651 7:35.68 8:-119.22 
-1 1:1.6045 2:36 3:2332 4:656 5:2175 6:610 7:35.76 8:-119.25 
-1 1:1.517 2:36 3:1598 4:443 5:1658 6:417 7:35.75 8:-119.25 
-1 1:1.7813 2:28 3:1737 4:521 5:1764 6:514 7:35.77 8:-119.24 
-1 1:6.2885 2:6 3:1755 4:280 5:664 6:254 7:35.47 8:-118.92 
-1 1:2.0694 2:18 3:4754 4:1075 5:1366 6:690 7:35.72 8:-118.47 
-1 1:1.5957 2:18 3:3303 4:814 5:986 6:522 7:35.7 8:-118.5 
-1 1:1.4205 2:28 3:1491 4:408 5:98 6:48 7:35.72 8:-118.59 
-1 1:2.0441 2:33 3:2579 4:564 5:1155 6:431 7:35.63 8:-117.66 
-1 1:3.3269 2:15 3:2701 4:576 5:1245 6:513 7:35.65 8:-117.68 
-1 1:4.1518 2:13 3:2566 4:449 5:1181 6:414 7:35.73 8:-117.87 
-1 1:4.5724 2:4 3:923 4:166 5:352 6:135 7:35.1 8:-117.98 
-1 1:3.4338 2:28 3:2969 4:648 5:1644 6:570 7:35.03 8:-117.68 
-1 1:1.9107 2:36 3:1184 4:316 5:672 6:241 7:35 8:-117.65 
-1 1:2.16 2:29 3:1671 4:368 5:821 6:337 7:35.04 8:-118.15 
-1 1:3.4911 2:6 3:3660 4:646 5:1243 6:482 7:35.08 8:-118.61 
-1 1:1.9907 2:17 3:2783 4:678 5:2566 6:641 7:35.2 8:-118.85 
-1 1:2.0921 2:29 3:1401 4:317 5:1344 6:306 7:35.27 8:-118.91 
-1 1:2.0174 2:20 3:3815 4:924 5:3450 6:920 7:35.26 8:-118.92 
-1 1:1.7716 2:29 3:2888 4:753 5:2949 6:699 7:35.24 8:-118.91 
-1 1:3.0375 2:26 3:1912 4:339 5:1002 6:311 7:36.37 8:-119.55 
-1 1:2.6477 2:40 3:1178 4:244 5:586 6:187 7:36.32 8:-119.7 
-1 1:4.3911 2:21 3:1745 4:266 5:837 6:292 7:36.35 8:-119.65 
-1 1:3.1094 2:15 3:1724 4:374 5:947 6:391 7:36.35 8:-119.66 
-1 1:3.0846 2:47 3:1869 4:357 5:832 6:315 7:36.34 8:-119.65 
-1 1:1.7596 2:26 3:592 4:121 5:268 6:116 7:36.32 8:-119.68 
-1 1:2.9936 2:12 3:2739 4:535 5:1859 6:498 7:36.31 8:-119.68 
-1 1:1.3569 2:32 3:2205 4:523 5:1772 6:479 7:36.32 8:-119.64 
-1 1:2.3466 2:28 3:941 4:175 5:588 6:180 7:36.3 8:-119.65 
-1 1:1.5909 2:27 3:1513 4:314 5:1071 6:284 7:36.31 8:-119.64 
-1 1:2.3889 2:6 3:2015 4:413 5:992 6:319 7:36.09 8:-119.57 
-1 1:1.3967 2:21 3:1382 4:327 5:1469 6:355 7:36.1 8:-119.58 
-1 1:1.5313 2:29 3:424 4:78 5:284 6:73 7:36.1 8:-119.56 
-1 1:1.85 2:14 3:1267 4:290 5:1077 6:279 7:36.09 8:-119.56 
-1 1:1.5727 2:16 3:1461 4:400 5:1201 6:384 7:36.1 8:-119.57 
-1 1:2.0595 2:37 3:1676 4:316 5:707 6:274 7:36.1 8:-119.57 
-1 1:2.0221 2:33 3:1293 4:272 5:694 6:229 7:36.19 8:-119.82 
-1 1:2.0335 2:33 3:1726 4:420 5:1371 6:388 7:36 8:-120.14 
-1 1:2.1094 2:27 3:2199 4:527 5:744 6:316 7:39.02 8:-122.69 
-1 1:1.6607 2:16 3:975 4:219 5:337 6:155 7:38.99 8:-122.52 
-1 1:1.4767 2:16 3:1657 4:390 5:572 6:301 7:38.93 8:-122.6 
-1 1:1.7273 2:29 3:883 4:187 5:326 6:136 7:38.96 8:-122.64 
-1 1:1.7083 2:11 3:686 4:127 5:246 6:86 7:38.95 8:-122.63 
-1 1:2.9934 2:20 3:2067 4:384 5:904 6:333 7:38.97 8:-122.92 
-1 1:2.5 2:19 3:683 4:139 5:302 6:111 7:40.28 8:-120.96 
-1 1:2.6765 2:26 3:2399 4:518 5:1037 6:443 7:40.26 8:-120.2 
1 1:6.1946 2:27 3:5205 4:859 5:2363 6:888 7:34.27 8:-118.27 
-1 1:3.5568 2:37 3:2824 4:633 5:1619 6:573 7:34.26 8:-118.3 
-1 1:4.81 2:42 3:2186 4:423 5:1145 6:439 7:34.26 8:-118.3 
1 1:4.4485 2:35 3:2091 4:360 5:879 6:326 7:34.25 8:-118.27 
-1 1:4.6635 2:35 3:779 4:143 5:371 6:150 7:34.25 8:-118.27 
-1 1:5.1145 2:34 3:3258 4:610 5:1810 6:633 7:34.28 8:-118.31 
-1 1:3.599 2:43 3:1510 4:310 5:809 6:277 7:34.26 8:-118.3 
-1 1:3.1349 2:29 3:3034 4:732 5:1776 6:702 7:34.27 8:-118.33 
-1 1:4.5833 2:44 3:1442 4:285 5:859 6:292 7:34.25 8:-118.3 
-1 1:3.7566 2:32 3:2574 4:531 5:2609 6:472 7:34.28 8:-118.41 
-1 1:2.6652 2:22 3:3517 4:810 5:3134 6:847 7:34.28 8:-118.4 
-1 1:3.4519 2:36 3:973 4:221 5:1086 6:218 7:34.26 8:-118.42 
-1 1:3.9 2:37 3:1789 4:424 5:2279 6:411 7:34.26 8:-118.42 
-1 1:2.6429 2:33 3:827 4:192 5:981 6:184 7:34.25 8:-118.41 
1 1:4.8988 2:13 3:2664 4:518 5:1468 6:521 7:34.32 8:-118.47 
1 1:7.0598 2:25 3:1024 4:145 5:357 6:147 7:34.31 8:-118.49 
1 1:8.1248 2:18 3:7498 4:976 5:3189 6:955 7:34.32 8:-118.52 
1 1:7.5078 2:24 3:6145 4:868 5:2710 6:875 7:34.3 8:-118.51 
1 1:6.3911 2:29 3:4239 4:653 5:1890 6:631 7:34.28 8:-118.51 
-1 1:4.8015 2:30 3:1576 4:282 5:1004 6:284 7:34.27 8:-118.46 
-1 1:2.6193 2:28 3:1865 4:463 5:1182 6:440 7:34.27 8:-118.46 
-1 1:4.8359 2:35 3:1724 4:311 5:992 6:315 7:34.26 8:-118.45 
-1 1:5.5792 2:35 3:1898 4:344 5:1123 6:347 7:34.26 8:-118.47 
-1 1:4.3333 2:33 3:2088 4:383 5:960 6:362 7:34.25 8:-118.49 
1 1:7.8193 2:33 3:1975 4:271 5:801 6:287 7:34.28 8:-118.52 
1 1:5.3847 2:32 3:1931 4:298 5:948 6:314 7:34.27 8:-118.53 
1 1:8.203 2:21 3:4018 4:536 5:1508 6:529 7:34.26 8:-118.55 
1 1:5.5433 2:29 3:2472 4:354 5:1109 6:397 7:34.26 8:-118.51 
1 1:3.5497 2:25 3:8389 4:1872 5:4483 6:1747 7:34.26 8:-118.49 
1 1:7.167 2:20 3:8146 4:1131 5:3562 6:1054 7:34.26 8:-118.59 
1 1:6.0137 2:17 3:5406 4:895 5:2337 6:882 7:34.24 8:-118.61 
1 1:6.8643 2:25 3:2762 4:410 5:1166 6:439 7:34.22 8:-118.64 
1 1:8.7471 2:20 3:4679 4:609 5:1945 6:609 7:34.25 8:-118.57 
1 1:5.521 2:23 3:4883 4:769 5:2119 6:725 7:34.25 8:-118.58 
1 1:8.6454 2:31 3:5297 4:664 5:1986 6:657 7:34.24 8:-118.51 
1 1:7.2772 2:36 3:3324 4:448 5:1190 6:423 7:34.23 8:-118.51 
1 1:3.0926 2:6 3:3218 4:949 5:2295 6:876 7:34.24 8:-118.52 
1 1:8.3841 2:35 3:1471 4:210 5:735 6:219 7:34.23 8:-118.52 
1 1:6.2788 2:26 3:2639 4:378 5:1191 6:401 7:34.25 8:-118.54 
1 1:4.3458 2:21 3:5751 4:1082 5:2230 6:1016 7:34.24 8:-118.55 
1 1:4.7926 2:27 3:4580 4:918 5:2252 6:850 7:34.23 8:-118.51 
1 1:5.9401 2:34 3:2634 4:412 5:1114 6:423 7:34.24 8:-118.5 
-1 1:2.5008 2:22 3:8350 4:2717 5:9135 6:2452 7:34.23 8:-118.47 
-1 1:3.4514 2:38 3:921 4:239 5:1023 6:241 7:34.25 8:-118.43 
-1 1:4.0208 2:36 3:1488 4:313 5:1221 6:296 7:34.24 8:-118.43 
-1 1:4.8958 2:33 3:1121 4:231 5:1038 6:236 7:34.25 8:-118.44 
-1 1:5.6629 2:33 3:2478 4:457 5:1567 6:446 7:34.23 8:-118.42 
-1 1:3.9625 2:39 3:1500 4:333 5:998 6:309 7:34.22 8:-118.46 
-1 1:2.0699 2:24 3:3442 4:1168 5:4625 6:1097 7:34.22 8:-118.45 
-1 1:2.5833 2:25 3:4393 4:1369 5:3781 6:1267 7:34.23 8:-118.45 
-1 1:2.585 2:19 3:9902 4:2814 5:7307 6:2660 7:34.23 8:-118.46 
-1 1:4.8703 2:37 3:1665 4:335 5:1011 6:343 7:34.21 8:-118.44 
-1 1:2.9803 2:30 3:2453 4:544 5:1753 6:506 7:34.21 8:-118.4 
-1 1:4.1181 2:36 3:1643 4:349 5:1414 6:337 7:34.23 8:-118.4 
-1 1:5.35 2:35 3:2830 4:518 5:1577 6:524 7:34.21 8:-118.41 
-1 1:3.7708 2:35 3:1468 4:303 5:1295 6:300 7:34.21 8:-118.38 
-1 1:4.1857 2:34 3:3004 4:589 5:1938 6:568 7:34.22 8:-118.42 
-1 1:2.8784 2:36 3:2233 4:605 5:1934 6:599 7:34.18 8:-118.36 
-1 1:2.1 2:41 3:2924 4:867 5:2751 6:836 7:34.19 8:-118.37 
-1 1:3.5164 2:32 3:2734 4:654 5:2209 6:610 7:34.2 8:-118.41 
-1 1:1.9549 2:24 3:3148 4:908 5:2850 6:839 7:34.2 8:-118.42 
-1 1:2.2377 2:27 3:3201 4:970 5:3403 6:948 7:34.2 8:-118.42 
1 1:3.8906 2:31 3:2417 4:510 5:1102 6:507 7:34.18 8:-118.43 
1 1:5.7143 2:40 3:1013 4:150 5:449 6:166 7:34.18 8:-118.42 
1 1:3.0119 2:30 3:2008 4:513 5:1052 6:496 7:34.18 8:-118.41 
1 1:3.5711 2:32 3:3724 4:899 5:1912 6:791 7:34.18 8:-118.4 
1 1:4.2989 2:34 3:2638 4:580 5:1150 6:551 7:34.16 8:-118.4 
1 1:4.692 2:35 3:2027 4:428 5:879 6:402 7:34.17 8:-118.41 
1 1:4.569 2:40 3:1134 4:184 5:452 6:187 7:34.16 8:-118.43 
1 1:6.1359 2:31 3:2235 4:363 5:914 6:370 7:34.17 8:-118.42 
1 1:2.2652 2:24 3:4443 4:1283 5:2421 6:1180 7:34.17 8:-118.4 
1 1:3.2052 2:28 3:2790 4:748 5:1351 6:697 7:34.17 8:-118.39 
1 1:5.1584 2:37 3:1388 4:286 5:547 6:258 7:34.16 8:-118.39 
1 1:3.3177 2:46 3:2609 4:593 5:1055 6:585 7:34.16 8:-118.38 
-1 1:2.3851 2:44 3:2295 4:560 5:1543 6:528 7:34.17 8:-118.36 
-1 1:2.3784 2:15 3:3327 4:1011 5:2683 6:857 7:34.17 8:-118.37 
1 1:4.4122 2:40 3:1973 4:382 5:774 6:352 7:34.16 8:-118.37 
1 1:5.1423 2:45 3:1755 4:335 5:822 6:342 7:34.16 8:-118.36 
1 1:2.7118 2:25 3:4590 4:1477 5:2723 6:1195 7:34.2 8:-118.47 
-1 1:2.7237 2:20 3:5992 4:1820 5:4826 6:1632 7:34.19 8:-118.46 
1 1:3.1118 2:29 3:3051 4:694 5:1942 6:679 7:34.2 8:-118.43 
-1 1:2.936 2:17 3:2934 4:950 5:2517 6:889 7:34.2 8:-118.44 
-1 1:2.4583 2:29 3:1599 4:459 5:1143 6:438 7:34.19 8:-118.44 
1 1:4.5081 2:33 3:1791 4:386 5:844 6:397 7:34.18 8:-118.46 
1 1:4.0474 2:34 3:2622 4:467 5:1233 6:476 7:34.16 8:-118.43 
1 1:4.475 2:33 3:2544 4:500 5:1035 6:492 7:34.16 8:-118.45 
1 1:4.4423 2:28 3:2795 4:622 5:1173 6:545 7:34.16 8:-118.46 
-1 1:4.5125 2:35 3:1668 4:332 5:807 6:311 7:34.21 8:-118.5 
-1 1:4.2865 2:38 3:2182 4:409 5:1141 6:379 7:34.19 8:-118.51 
1 1:4.2143 2:34 3:2307 4:388 5:1168 6:427 7:34.18 8:-118.52 
-1 1:5.4548 2:35 3:782 4:144 5:425 6:140 7:34.19 8:-118.56 
1 1:4.8264 2:36 3:1366 4:224 5:719 6:270 7:34.18 8:-118.56 
1 1:4.1359 2:17 3:3262 4:753 5:1879 6:708 7:34.22 8:-118.57 
1 1:4.0313 2:13 3:6227 4:1317 5:3739 6:1226 7:34.21 8:-118.58 
1 1:4.7125 2:27 3:2209 4:353 5:1034 6:344 7:34.21 8:-118.58 
1 1:5.6356 2:33 3:1636 4:275 5:866 6:289 7:34.22 8:-118.62 
1 1:6.1074 2:26 3:3234 4:517 5:1597 6:513 7:34.21 8:-118.62 
1 1:6.7785 2:19 3:7411 4:1045 5:2814 6:950 7:34.2 8:-118.63 
-1 1:5.0483 2:35 3:1770 4:362 5:1083 6:355 7:34.2 8:-118.56 
-1 1:3.1818 2:18 3:7157 4:1869 5:4642 6:1699 7:34.2 8:-118.57 
-1 1:4.5568 2:36 3:2559 4:469 5:1358 6:445 7:34.2 8:-118.57 
1 1:6.4044 2:25 3:3124 4:468 5:1241 6:439 7:34.18 8:-118.62 
1 1:6.6689 2:32 3:1646 4:242 5:697 6:233 7:34.18 8:-118.63 
1 1:5.1641 2:33 3:3808 4:623 5:1784 6:615 7:34.18 8:-118.64 
1 1:7.642 2:23 3:7544 4:1031 5:3221 6:1043 7:34.19 8:-118.66 
1 1:7.7846 2:26 3:6767 4:903 5:2574 6:883 7:34.17 8:-118.64 
1 1:6.5304 2:36 3:2981 4:441 5:1243 6:413 7:34.18 8:-118.57 
1 1:6.2064 2:29 3:3393 4:574 5:1471 6:587 7:34.17 8:-118.58 
1 1:3.8819 2:19 3:5944 4:1345 5:2372 6:1250 7:34.17 8:-118.61 
1 1:3.0404 2:32 3:1491 4:355 5:756 6:296 7:34.17 8:-118.62 
1 1:6.8482 2:34 3:3268 4:538 5:1463 6:519 7:34.17 8:-118.62 
1 1:6.7977 2:33 3:5252 4:760 5:2041 6:730 7:34.18 8:-118.63 
1 1:7.4918 2:26 3:4607 4:656 5:1769 6:643 7:34.18 8:-118.65 
1 1:8.3912 2:25 3:6612 4:857 5:2519 6:843 7:34.18 8:-118.66 
1 1:4.9102 2:32 3:4491 4:815 5:1696 6:749 7:34.15 8:-118.61 
1 1:6.8107 2:29 3:4364 4:647 5:1550 6:624 7:34.16 8:-118.61 
1 1:7.457 2:30 3:3346 4:487 5:1296 6:495 7:34.16 8:-118.63 
1 1:7.9814 2:26 3:5661 4:791 5:2493 6:780 7:34.15 8:-118.62 
1 1:5.4847 2:36 3:1887 4:359 5:761 6:329 7:34.17 8:-118.59 
1 1:6.0794 2:32 3:3999 4:667 5:1628 6:631 7:34.16 8:-118.6 
1 1:10.5511 2:19 3:1303 4:155 5:450 6:145 7:34.14 8:-118.59 
1 1:5.0605 2:32 3:3011 4:529 5:1287 6:525 7:34.18 8:-118.55 
1 1:5.4088 2:39 3:1819 4:291 5:770 6:278 7:34.18 8:-118.56 
-1 1:3.0943 2:17 3:7214 4:1994 5:4100 6:1823 7:34.18 8:-118.54 
1 1:4.1429 2:37 3:880 4:154 5:369 6:155 7:34.17 8:-118.5 
1 1:11.2979 2:24 3:4394 4:535 5:1443 6:528 7:34.13 8:-118.49 
1 1:3.2241 2:28 3:6270 4:1706 5:2549 6:1497 7:34.15 8:-118.43 
1 1:7.672 2:42 3:1293 4:214 5:459 6:217 7:34.15 8:-118.43 
1 1:4.6375 2:15 3:4420 4:1076 5:1669 6:1016 7:34.15 8:-118.44 
1 1:3.6171 2:22 3:7828 4:2038 5:3303 6:1922 7:34.16 8:-118.45 
1 1:4.5656 2:20 3:3876 4:799 5:1334 6:753 7:34.15 8:-118.45 
1 1:3.4698 2:38 3:1495 4:300 5:598 6:280 7:34.16 8:-118.46 
1 1:4.6 2:30 3:3823 4:740 5:1449 6:612 7:34.16 8:-118.47 
1 1:7.9625 2:33 3:1741 4:274 5:588 6:267 7:34.14 8:-118.45 
1 1:3.1289 2:42 3:2358 4:546 5:1065 6:523 7:34.16 8:-118.38 
1 1:4.615 2:48 3:680 4:131 5:268 6:126 7:34.15 8:-118.42 
1 1:4.3214 2:18 3:1880 4:420 5:681 6:333 7:34.15 8:-118.42 
1 1:5.0754 2:44 3:2515 4:510 5:967 6:484 7:34.15 8:-118.4 
1 1:6.083 2:46 3:1628 4:259 5:500 6:258 7:34.15 8:-118.41 
1 1:5.5683 2:19 3:5076 4:1034 5:2021 6:960 7:34.14 8:-118.39 
1 1:3.1146 2:36 3:2696 4:713 5:905 6:659 7:34.15 8:-118.39 
1 1:4.3333 2:39 3:1610 4:278 5:511 6:278 7:34.13 8:-118.35 
1 1:4.2415 2:41 3:3257 4:679 5:1237 6:638 7:34.12 8:-118.34 
1 1:8.0499 2:36 3:6871 4:1180 5:2216 6:1130 7:34.13 8:-118.36 
1 1:6.0876 2:40 3:1965 4:354 5:666 6:357 7:34.14 8:-118.38 
1 1:5.738 2:33 3:778 4:143 5:258 6:130 7:34.14 8:-118.41 
1 1:5.2962 2:38 3:1826 4:300 5:793 6:297 7:34.14 8:-118.19 
-1 1:2.2267 2:25 3:1908 4:628 5:1412 6:588 7:34.14 8:-118.21 
-1 1:4.3359 2:47 3:2525 4:523 5:1514 6:498 7:34.14 8:-118.19 
-1 1:2.7098 2:47 3:1585 4:420 5:949 6:366 7:34.13 8:-118.22 
-1 1:2.3071 2:41 3:2591 4:682 5:2366 6:583 7:34.12 8:-118.19 
-1 1:2.5211 2:46 3:3659 4:1068 5:4153 6:993 7:34.11 8:-118.2 
-1 1:2.987 2:46 3:3387 4:820 5:2833 6:813 7:34.12 8:-118.19 
-1 1:2.6591 2:33 3:1523 4:391 5:753 6:298 7:34.11 8:-118.18 
-1 1:2.3984 2:44 3:1346 4:398 5:1204 6:344 7:34.11 8:-118.18 
-1 1:3.0377 2:47 3:5077 4:1271 5:3348 6:1106 7:34.1 8:-118.21 
1 1:4.1213 2:35 3:4003 4:788 5:2785 6:764 7:34.1 8:-118.22 
-1 1:2.1687 2:41 3:1353 4:379 5:1536 6:416 7:34.1 8:-118.23 
1 1:4.6528 2:47 3:1162 4:235 5:781 6:268 7:34.13 8:-118.23 
-1 1:4.2891 2:48 3:1308 4:286 5:835 6:294 7:34.13 8:-118.23 
-1 1:2.2167 2:39 3:1148 4:348 5:1161 6:333 7:34.11 8:-118.24 
1 1:3.5673 2:52 3:1740 4:402 5:749 6:335 7:34.11 8:-118.26 
-1 1:2.1071 2:47 3:1375 4:359 5:1512 6:418 7:34.13 8:-118.27 
-1 1:2.9392 2:46 3:1613 4:396 5:966 6:416 7:34.13 8:-118.27 
1 1:4.4094 2:39 3:3825 4:916 5:1378 6:746 7:34.11 8:-118.27 
1 1:3.1445 2:45 3:1607 4:331 5:633 6:332 7:34.11 8:-118.28 
1 1:3.0461 2:40 3:2681 4:737 5:1144 6:669 7:34.11 8:-118.29 
1 1:2.9417 2:39 3:2196 4:582 5:1165 6:538 7:34.1 8:-118.29 
1 1:7.2692 2:40 3:2822 4:443 5:907 6:414 7:34.13 8:-118.31 
1 1:4.0833 2:42 3:2462 4:543 5:857 6:482 7:34.11 8:-118.32 
1 1:2.6458 2:16 3:2930 4:1038 5:1648 6:980 7:34.1 8:-118.35 
1 1:3.9044 2:20 3:2745 4:782 5:1161 6:739 7:34.1 8:-118.35 
-1 1:1.8277 2:30 3:2193 4:965 5:2197 6:836 7:34.1 8:-118.32 
-1 1:1.7083 2:29 3:3403 4:1367 5:3432 6:1174 7:34.1 8:-118.3 
1 1:2.1927 2:29 3:3245 4:1190 5:3906 6:1102 7:34.09 8:-118.3 
-1 1:2.0307 2:32 3:2202 4:674 5:2178 6:635 7:34.09 8:-118.3 
1 1:3.8472 2:52 3:1003 4:200 5:514 6:204 7:34.08 8:-118.35 
1 1:3.2824 2:52 3:1965 4:480 5:794 6:451 7:34.08 8:-118.36 
1 1:3.125 2:52 3:1164 4:257 5:575 6:251 7:34.08 8:-118.32 
1 1:2.4196 2:46 3:2038 4:534 5:1250 6:525 7:34.08 8:-118.32 
1 1:3.37 2:52 3:1137 4:304 5:754 6:297 7:34.08 8:-118.32 
1 1:4.1429 2:52 3:2370 4:473 5:1053 6:434 7:34.08 8:-118.32 
1 1:2.8971 2:27 3:1514 4:510 5:1603 6:518 7:34.08 8:-118.31 
1 1:3.9783 2:52 3:2946 4:695 5:1258 6:650 7:34.08 8:-118.37 
1 1:3.3864 2:45 3:2195 4:483 5:1265 6:455 7:34.08 8:-118.36 
1 1:5.7524 2:52 3:1466 4:254 5:600 6:253 7:34.08 8:-118.37 
1 1:6.0338 2:52 3:1234 4:223 5:543 6:213 7:34.08 8:-118.37 
1 1:6.4459 2:51 3:3149 4:519 5:1082 6:510 7:34.1 8:-118.27 
1 1:5.7778 2:41 3:3729 4:740 5:1364 6:707 7:34.1 8:-118.27 
1 1:2.978 2:41 3:4138 4:1130 5:1859 6:1030 7:34.11 8:-118.27 
1 1:4.5781 2:52 3:1803 4:437 5:787 6:388 7:34.11 8:-118.28 
1 1:4.0602 2:44 3:2728 4:585 5:1227 6:567 7:34.1 8:-118.28 
1 1:4.7132 2:50 3:2113 4:398 5:793 6:418 7:34.1 8:-118.27 
-1 1:2.3333 2:52 3:2273 4:663 5:1480 6:597 7:34.09 8:-118.28 
1 1:3.7847 2:52 3:2327 4:555 5:1048 6:491 7:34.09 8:-118.27 
-1 1:2.7179 2:46 3:3007 4:854 5:2587 6:814 7:34.08 8:-118.27 
-1 1:3.1607 2:42 3:1618 4:522 5:1454 6:440 7:34.08 8:-118.28 
-1 1:2.4429 2:52 3:1739 4:464 5:938 6:482 7:34.09 8:-118.28 
-1 1:2.4677 2:49 3:3828 4:1197 5:2862 6:1009 7:34.09 8:-118.28 
-1 1:2.1108 2:44 3:1425 4:438 5:1121 6:374 7:34.08 8:-118.25 
-1 1:1.875 2:40 3:1081 4:282 5:970 6:263 7:34.09 8:-118.22 
-1 1:2.4375 2:49 3:1320 4:309 5:1405 6:328 7:34.08 8:-118.2 
-1 1:2.2708 2:34 3:1765 4:551 5:2203 6:500 7:34.07 8:-118.2 
-1 1:2.2222 2:41 3:1807 4:429 5:1699 6:424 7:34.08 8:-118.2 
-1 1:2.1333 2:31 3:1077 4:300 5:1198 6:274 7:34.07 8:-118.21 
-1 1:1.9038 2:35 3:1554 4:381 5:1487 6:374 7:34.08 8:-118.19 
-1 1:2.6083 2:27 3:2025 4:565 5:2189 6:577 7:34.06 8:-118.18 
-1 1:2.1071 2:52 3:1053 4:246 5:1036 6:249 7:34.03 8:-118.19 
-1 1:2.1923 2:52 3:846 4:271 5:1153 6:281 7:34.04 8:-118.21 
-1 1:1.5163 2:43 3:2343 4:803 5:2468 6:707 7:34.04 8:-118.22 
-1 1:2.2083 2:52 3:497 4:132 5:547 6:121 7:34.03 8:-118.21 
-1 1:2.5313 2:52 3:346 4:270 5:346 6:251 7:34.05 8:-118.23 
-1 1:1.7395 2:19 3:2870 4:1021 5:3325 6:978 7:34.06 8:-118.24 
1 1:4.0972 2:52 3:58 4:52 5:41 6:27 7:34.05 8:-118.26 
-1 1:1.5854 2:42 3:2541 4:1282 5:3974 6:1189 7:34.06 8:-118.26 
1 1:3.4812 2:52 3:1311 4:310 5:707 6:290 7:34.06 8:-118.34 
1 1:1.8238 2:46 3:5677 4:2610 5:7443 6:2406 7:34.07 8:-118.3 
1 1:2.2653 2:40 3:2657 4:794 5:2149 6:749 7:34.07 8:-118.31 
-1 1:1.468 2:47 3:1390 4:872 5:2860 6:827 7:34.06 8:-118.3 
1 1:4.125 2:43 3:2808 4:584 5:1654 6:569 7:34.06 8:-118.32 
-1 1:2.1736 2:45 3:1707 4:519 5:1446 6:466 7:34.05 8:-118.33 
1 1:4.6838 2:52 3:1801 4:313 5:714 6:293 7:34.08 8:-118.35 
-1 1:3.2645 2:52 3:2877 4:721 5:1186 6:704 7:34.08 8:-118.35 
1 1:2.3375 2:40 3:1821 4:447 5:777 6:441 7:34.07 8:-118.36 
1 1:4.7019 2:48 3:1740 4:360 5:748 6:357 7:34.07 8:-118.36 
1 1:4.3667 2:50 3:2519 4:537 5:1117 6:516 7:34.07 8:-118.37 
1 1:4.25 2:52 3:2203 4:437 5:899 6:384 7:34.07 8:-118.37 
1 1:5.24 2:52 3:2195 4:435 5:884 6:432 7:34.07 8:-118.37 
1 1:3.1677 2:39 3:2309 4:526 5:870 6:546 7:34.07 8:-118.37 
1 1:3.3989 2:25 3:4625 4:1307 5:1739 6:1191 7:34.08 8:-118.38 
1 1:3.7167 2:52 3:1482 4:336 5:768 6:300 7:34.06 8:-118.34 
1 1:3.7167 2:48 3:1354 4:279 5:716 6:309 7:34.06 8:-118.35 
1 1:3.25 2:39 3:2810 4:670 5:1109 6:624 7:34.06 8:-118.36 
1 1:4.5192 2:52 3:843 4:160 5:333 6:151 7:34.06 8:-118.37 
1 1:3.1475 2:28 3:2522 4:616 5:991 6:574 7:34.06 8:-118.38 
1 1:3.0862 2:35 3:2457 4:552 5:1159 6:523 7:34.05 8:-118.37 
1 1:2.9883 2:41 3:2369 4:544 5:1252 6:522 7:34.05 8:-118.37 
1 1:4.0583 2:52 3:2346 4:437 5:1121 6:400 7:34.05 8:-118.37 
1 1:3.625 2:52 3:1563 4:306 5:776 6:308 7:34.05 8:-118.37 
1 1:4.0625 2:47 3:1424 4:300 5:632 6:278 7:34.05 8:-118.36 
1 1:2.7917 2:49 3:995 4:184 5:462 6:194 7:34.04 8:-118.36 
1 1:3.0707 2:52 3:2053 4:480 5:900 6:417 7:34.05 8:-118.38 
1 1:5.7509 2:47 3:1621 4:314 5:724 6:311 7:34.05 8:-118.39 
1 1:4.2404 2:52 3:1004 4:231 5:590 6:226 7:34.05 8:-118.38 
-1 1:1.8685 2:36 3:1956 4:601 5:1672 6:546 7:34.04 8:-118.35 
-1 1:2.0538 2:34 3:3239 4:806 5:2331 6:765 7:34.04 8:-118.36 
-1 1:2.5625 2:45 3:1839 4:459 5:1312 6:460 7:34.04 8:-118.35 
-1 1:2.5927 2:33 3:1806 4:444 5:1161 6:393 7:34.04 8:-118.33 
-1 1:1.8783 2:45 3:1667 4:399 5:928 6:375 7:34.02 8:-118.33 
-1 1:3.3636 2:43 3:1350 4:287 5:811 6:307 7:34.03 8:-118.37 
-1 1:2.5156 2:49 3:1609 4:371 5:896 6:389 7:34.02 8:-118.34 
-1 1:3.1442 2:50 3:1172 4:261 5:685 6:260 7:34.02 8:-118.34 
-1 1:1.2786 2:39 3:993 4:506 5:1765 6:464 7:34.05 8:-118.3 
1 1:2.3536 2:26 3:1809 4:640 5:2543 6:640 7:34.05 8:-118.31 
-1 1:2.1571 2:47 3:2241 4:559 5:1775 6:504 7:34.03 8:-118.3 
-1 1:1.23 2:47 3:1315 4:247 5:785 6:245 7:34.03 8:-118.31 
-1 1:1.85 2:49 3:2120 4:483 5:1522 6:416 7:34.02 8:-118.3 
-1 1:2.131 2:38 3:1091 4:349 5:1786 6:340 7:34.02 8:-118.26 
-1 1:1.8382 2:40 3:1259 4:362 5:1499 6:327 7:34.02 8:-118.26 
-1 1:1.7813 2:30 3:405 4:86 5:376 6:68 7:34.01 8:-118.24 
-1 1:1.7425 2:43 3:1575 4:475 5:1980 6:469 7:34.01 8:-118.25 
-1 1:1.8641 2:43 3:2179 4:682 5:2624 6:609 7:34.01 8:-118.26 
-1 1:2.2813 2:29 3:1419 4:363 5:1696 6:317 7:34 8:-118.25 
-1 1:1.5556 2:42 3:2261 4:574 5:2496 6:527 7:33.99 8:-118.25 
-1 1:1.9208 2:37 3:2615 4:697 5:2484 6:630 7:34 8:-118.26 
-1 1:1.8086 2:38 3:1407 4:447 5:1783 6:402 7:33.99 8:-118.27 
-1 1:1.6699 2:42 3:2386 4:670 5:2327 6:661 7:34.02 8:-118.3 
-1 1:1.6851 2:46 3:2217 4:489 5:1227 6:448 7:34.02 8:-118.31 
-1 1:2.7727 2:52 3:1319 4:295 5:898 6:271 7:34 8:-118.29 
-1 1:2.0809 2:52 3:2579 4:494 5:1558 6:458 7:34 8:-118.29 
-1 1:2.2339 2:45 3:1489 4:339 5:791 6:316 7:33.99 8:-118.31 
-1 1:2.5848 2:52 3:1283 4:342 5:1363 6:329 7:33.99 8:-118.28 
-1 1:1.7159 2:49 3:2174 4:481 5:1861 6:484 7:33.99 8:-118.28 
-1 1:2.6667 2:52 3:3104 4:645 5:1498 6:581 7:34.01 8:-118.32 
-1 1:3.7727 2:47 3:1320 4:259 5:653 6:291 7:34.01 8:-118.33 
-1 1:1.9631 2:44 3:2182 4:492 5:878 6:493 7:34.01 8:-118.33 
-1 1:1.95 2:50 3:3250 4:693 5:2300 6:675 7:34 8:-118.32 
-1 1:2.1875 2:48 3:1260 4:284 5:791 6:280 7:33.99 8:-118.32 
-1 1:2.8274 2:43 3:2224 4:550 5:1598 6:545 7:33.99 8:-118.33 
-1 1:2.175 2:47 3:949 4:210 5:574 6:217 7:33.98 8:-118.32 
-1 1:3.2344 2:40 3:1298 4:277 5:791 6:255 7:33.98 8:-118.32 
-1 1:3.8235 2:47 3:2512 4:461 5:1082 6:426 7:33.98 8:-118.35 
-1 1:1.7067 2:49 3:1412 4:333 5:901 6:328 7:33.98 8:-118.32 
-1 1:3.8643 2:46 3:3745 4:798 5:1502 6:808 7:34.02 8:-118.36 
-1 1:4.3077 2:31 3:1893 4:450 5:819 6:426 7:34.02 8:-118.38 
-1 1:1.7945 2:37 3:4291 4:1102 5:1941 6:953 7:34.01 8:-118.34 
1 1:3.6629 2:33 3:3246 4:601 5:1585 6:603 7:34.01 8:-118.35 
1 1:3.25 2:28 3:3085 4:621 5:1162 6:558 7:34 8:-118.35 
-1 1:1.825 2:50 3:1985 4:454 5:1090 6:410 7:33.98 8:-118.31 
-1 1:0.9809 2:19 3:883 4:313 5:726 6:277 7:33.98 8:-118.28 
-1 1:1.689 2:31 3:1068 4:271 5:1091 6:281 7:33.97 8:-118.28 
-1 1:3.2188 2:52 3:1595 4:325 5:823 6:302 7:33.97 8:-118.31 
-1 1:1.747 2:43 3:2118 4:569 5:1266 6:500 7:33.96 8:-118.31 
-1 1:1.528 2:43 3:2149 4:493 5:1316 6:462 7:33.96 8:-118.31 
-1 1:4.0625 2:48 3:2015 4:356 5:1020 6:338 7:33.96 8:-118.31 
-1 1:1.4868 2:36 3:1717 4:417 5:902 6:368 7:33.96 8:-118.29 
-1 1:1.2273 2:41 3:1175 4:340 5:1241 6:352 7:33.96 8:-118.28 
-1 1:1.6652 2:34 3:2771 4:802 5:2782 6:715 7:33.97 8:-118.28 
-1 1:4.4861 2:47 3:1586 4:322 5:1077 6:339 7:33.96 8:-118.31 
-1 1:1.3801 2:39 3:2062 4:588 5:1933 6:570 7:33.98 8:-118.27 
-1 1:1.64 2:45 3:1546 4:371 5:1186 6:366 7:33.97 8:-118.27 
-1 1:1.5303 2:40 3:1475 4:347 5:1222 6:298 7:33.96 8:-118.26 
-1 1:1.5812 2:39 3:1255 4:323 5:902 6:327 7:33.96 8:-118.26 
-1 1:1.3971 2:37 3:1625 4:383 5:1243 6:350 7:33.96 8:-118.26 
-1 1:1.7656 2:42 3:1604 4:399 5:1581 6:387 7:33.96 8:-118.28 
-1 1:1.9655 2:40 3:2808 4:695 5:2357 6:627 7:33.95 8:-118.29 
-1 1:1.5268 2:30 3:1041 4:275 5:877 6:270 7:33.94 8:-118.27 
-1 1:1.5714 2:38 3:637 4:204 5:679 6:162 7:33.94 8:-118.28 
-1 1:2.3365 2:34 3:987 4:248 5:902 6:221 7:33.95 8:-118.27 
-1 1:1.65 2:41 3:1510 4:410 5:1408 6:389 7:33.94 8:-118.26 
-1 1:1.7986 2:40 3:1076 4:244 5:705 6:255 7:33.92 8:-118.26 
-1 1:1.449 2:30 3:1764 4:397 5:1406 6:362 7:33.94 8:-118.27 
-1 1:2.0313 2:41 3:936 4:257 5:913 6:226 7:33.93 8:-118.28 
-1 1:1.2098 2:38 3:2073 4:500 5:1657 6:470 7:33.93 8:-118.27 
-1 1:1.25 2:36 3:2316 4:543 5:1938 6:507 7:33.95 8:-118.24 
-1 1:0.8984 2:32 3:1063 4:282 5:992 6:253 7:33.93 8:-118.24 
1 1:15.0001 2:42 3:1918 4:216 5:632 6:224 7:34.05 8:-118.49 
1 1:6.2389 2:13 3:4833 4:1119 5:1649 6:807 7:34.06 8:-118.44 
1 1:5.8587 2:52 3:2425 4:435 5:962 6:412 7:34.04 8:-118.43 
1 1:2.6509 2:25 3:6902 4:2138 5:3136 6:1844 7:34.05 8:-118.46 
1 1:3.9489 2:21 3:2819 4:648 5:1435 6:593 7:34.04 8:-118.45 
1 1:3.7813 2:39 3:1657 4:402 5:931 6:363 7:34.03 8:-118.45 
1 1:5.2954 2:52 3:1782 4:308 5:735 6:307 7:34.04 8:-118.43 
1 1:4.5833 2:42 3:2725 4:569 5:1115 6:516 7:34.04 8:-118.43 
1 1:8.0239 2:49 3:601 4:95 5:228 6:106 7:34.04 8:-118.41 
1 1:4.0153 2:25 3:2814 4:701 5:1139 6:658 7:34.05 8:-118.39 
1 1:3.2222 2:24 3:1101 4:318 5:491 6:287 7:34.03 8:-118.4 
1 1:6.5669 2:43 3:1006 4:201 5:520 6:199 7:34.03 8:-118.4 
1 1:3.0965 2:16 3:5825 4:1866 5:3390 6:1752 7:34.02 8:-118.41 
-1 1:3.1827 2:43 3:888 4:170 5:514 6:161 7:34.04 8:-118.37 
1 1:5.2099 2:45 3:1740 4:311 5:788 6:306 7:34.03 8:-118.43 
1 1:3.2308 2:39 3:1733 4:429 5:855 6:387 7:34.03 8:-118.43 
1 1:3.1875 2:26 3:1706 4:516 5:894 6:435 7:34.03 8:-118.43 
1 1:3.6467 2:36 3:1552 4:388 5:867 6:352 7:34.03 8:-118.43 
1 1:3.625 2:37 3:1193 4:205 5:488 6:224 7:34.03 8:-118.44 
1 1:3.125 2:30 3:1039 4:303 5:606 6:274 7:34.03 8:-118.44 
1 1:3.3482 2:41 3:1240 4:320 5:711 6:304 7:34.03 8:-118.45 
1 1:4.0231 2:41 3:2083 4:528 5:993 6:481 7:34.03 8:-118.45 
1 1:4.2411 2:41 3:1164 4:265 5:561 6:251 7:34.03 8:-118.44 
1 1:6.2583 2:37 3:1592 4:308 5:783 6:321 7:34.02 8:-118.44 
1 1:5.8666 2:37 3:1328 4:250 5:626 6:228 7:34.01 8:-118.45 
1 1:6.3516 2:40 3:1361 4:240 5:559 6:229 7:34.01 8:-118.45 
1 1:5.3403 2:43 3:1487 4:242 5:675 6:247 7:34.01 8:-118.43 
1 1:6.2917 2:39 3:3278 4:632 5:1321 6:617 7:34.02 8:-118.44 
1 1:4.5278 2:44 3:629 4:131 5:326 6:156 7:34.03 8:-118.42 
1 1:3.6019 2:20 3:4374 4:1311 5:2165 6:1185 7:34.03 8:-118.41 
1 1:4.9676 2:34 3:2243 4:444 5:973 6:413 7:34.02 8:-118.42 
1 1:3.3462 2:34 3:1430 4:357 5:805 6:362 7:34.02 8:-118.41 
1 1:3.1746 2:22 3:3292 4:1134 5:1655 6:898 7:34.02 8:-118.42 
1 1:3.725 2:35 3:1728 4:442 5:1161 6:420 7:34.02 8:-118.41 
1 1:3.0833 2:27 3:2224 4:618 5:1594 6:625 7:34.02 8:-118.41 
1 1:4.7083 2:33 3:2731 4:535 5:1280 6:510 7:34.01 8:-118.42 
1 1:3.099 2:42 3:1594 4:369 5:952 6:362 7:34.01 8:-118.42 
1 1:3.6611 2:29 3:1996 4:489 5:960 6:449 7:34.01 8:-118.42 
1 1:3.9798 2:31 3:1930 4:456 5:1002 6:410 7:34 8:-118.42 
1 1:2.918 2:39 3:4098 4:1100 5:2054 6:1053 7:34 8:-118.46 
1 1:4.7344 2:36 3:1392 4:260 5:679 6:247 7:34 8:-118.46 
1 1:2.288 2:41 3:2331 4:636 5:1839 6:537 7:34 8:-118.47 
1 1:2.8417 2:34 3:1875 4:501 5:1491 6:526 7:33.99 8:-118.47 
1 1:2.6042 2:37 3:2586 4:765 5:1801 6:737 7:34 8:-118.47 
1 1:2.5523 2:46 3:2219 4:686 5:1107 6:590 7:33.99 8:-118.48 
1 1:2.8514 2:52 3:2167 4:622 5:1095 6:570 7:33.99 8:-118.47 
1 1:3.5234 2:52 3:1158 4:253 5:528 6:253 7:33.99 8:-118.46 
1 1:4.575 2:48 3:1923 4:408 5:1142 6:433 7:34 8:-118.45 
1 1:4.337 2:37 3:1828 4:460 5:1075 6:453 7:33.99 8:-118.46 
1 1:5.2121 2:32 3:2388 4:591 5:1009 6:556 7:33.98 8:-118.46 
1 1:5.8083 2:10 3:1526 4:339 5:705 6:268 7:34 8:-118.4 
1 1:2.8393 2:35 3:684 4:161 5:381 6:159 7:34 8:-118.41 
1 1:2.9338 2:18 3:1307 4:441 5:884 6:456 7:34 8:-118.41 
1 1:7.5426 2:19 3:8324 4:1590 5:2927 6:1538 7:33.98 8:-118.43 
1 1:4.4228 2:23 3:5548 4:1245 5:2847 6:1229 7:33.99 8:-118.42 
1 1:2.7153 2:35 3:1062 4:305 5:1026 6:307 7:34 8:-118.41 
1 1:2.825 2:39 3:1613 4:380 5:1113 6:356 7:33.99 8:-118.4 
1 1:3.9727 2:33 3:3331 4:777 5:1695 6:735 7:33.98 8:-118.41 
1 1:6.2673 2:38 3:993 4:175 5:374 6:180 7:33.97 8:-118.39 
1 1:7.4897 2:43 3:2715 4:458 5:1151 6:434 7:33.97 8:-118.38 
1 1:5.8143 2:45 3:1361 4:252 5:581 6:263 7:33.96 8:-118.39 
1 1:3.625 2:45 3:1436 4:374 5:662 6:292 7:33.96 8:-118.39 
1 1:6.0286 2:44 3:1802 4:306 5:753 6:282 7:33.96 8:-118.41 
1 1:4.6176 2:44 3:2789 4:503 5:3732 6:474 7:33.97 8:-118.41 
1 1:4.9375 2:44 3:1462 4:240 5:562 6:237 7:33.97 8:-118.42 
1 1:6.1985 2:38 3:1104 4:216 5:415 6:163 7:33.96 8:-118.43 
1 1:5.6169 2:35 3:913 4:161 5:451 6:172 7:33.97 8:-118.4 
1 1:5.9856 2:39 3:714 4:118 5:314 6:117 7:33.98 8:-118.4 
1 1:5.611 2:36 3:2526 4:452 5:996 6:441 7:33.98 8:-118.4 
1 1:5.9544 2:44 3:2825 4:453 5:1221 6:461 7:33.97 8:-118.4 
1 1:4.6923 2:44 3:2395 4:458 5:1287 6:450 7:33.96 8:-118.38 
1 1:3.2708 2:35 3:3259 4:967 5:2003 6:920 7:33.95 8:-118.38 
1 1:4.1471 2:32 3:1044 4:219 5:567 6:222 7:33.96 8:-118.41 
-1 1:2.1875 2:37 3:1761 4:409 5:1309 6:357 7:33.92 8:-118.28 
-1 1:3.8372 2:41 3:2475 4:532 5:1416 6:470 7:33.91 8:-118.29 
1 1:4.381 2:32 3:1700 4:340 5:864 6:317 7:33.87 8:-118.29 
1 1:4.7222 2:36 3:1428 4:268 5:825 6:250 7:33.84 8:-118.3 
-1 1:4.9196 2:37 3:1241 4:226 5:621 6:255 7:33.84 8:-118.3 
1 1:5.322 2:17 3:5544 4:1068 5:3008 6:1038 7:33.81 8:-118.3 
-1 1:2.9154 2:9 3:2782 4:884 5:1790 6:748 7:33.79 8:-118.3 
-1 1:3.1779 2:41 3:2004 4:481 5:1658 6:456 7:33.8 8:-118.26 
-1 1:3.1613 2:36 3:2218 4:561 5:1789 6:527 7:33.79 8:-118.27 
-1 1:2 2:10 3:3708 4:1016 5:2855 6:948 7:33.79 8:-118.29 
-1 1:3.5488 2:42 3:1162 4:264 5:1044 6:241 7:33.79 8:-118.26 
-1 1:2.25 2:24 3:574 4:173 5:784 6:162 7:33.78 8:-118.24 
-1 1:2.5262 2:21 3:3354 4:1174 5:4426 6:1110 7:33.78 8:-118.27 
1 1:2.9571 2:18 3:3821 4:795 5:2831 6:769 7:33.77 8:-118.3 
1 1:4.2308 2:19 3:2356 4:440 5:1291 6:418 7:33.75 8:-118.3 
1 1:4.3472 2:22 3:5042 4:974 5:2260 6:935 7:33.74 8:-118.31 
-1 1:2.5795 2:27 3:1650 4:443 5:1359 6:386 7:33.75 8:-118.29 
-1 1:3.5056 2:23 3:1957 4:517 5:1454 6:526 7:33.75 8:-118.3 
-1 1:2.0329 2:30 3:2074 4:533 5:1311 6:531 7:33.74 8:-118.29 
1 1:2.1382 2:21 3:2492 4:711 5:1699 6:672 7:33.73 8:-118.29 
1 1:2.7451 2:42 3:1731 4:435 5:866 6:403 7:33.73 8:-118.3 
1 1:4.2059 2:52 3:2025 4:361 5:957 6:363 7:33.73 8:-118.31 
-1 1:2.0469 2:39 3:2602 4:802 5:2178 6:737 7:33.73 8:-118.28 
1 1:4.1812 2:52 3:1642 4:287 5:692 6:288 7:33.73 8:-118.31 
1 1:4.7216 2:41 3:2168 4:357 5:1171 6:374 7:33.69 8:-118.33 
1 1:5.4533 2:33 3:2265 4:366 5:986 6:388 7:33.73 8:-118.31 
1 1:6.4246 2:25 3:6191 4:1081 5:2297 6:1023 7:33.72 8:-118.33 
1 1:3.7596 2:36 3:3135 4:746 5:1815 6:697 7:33.71 8:-118.29 
1 1:5.3074 2:42 3:1297 4:246 5:611 6:242 7:33.67 8:-118.31 
1 1:6.2028 2:35 3:2790 4:447 5:1167 6:441 7:33.72 8:-118.3 
1 1:3.1071 2:40 3:1644 4:471 5:780 6:416 7:33.71 8:-118.29 
1 1:4.5606 2:31 3:2809 4:666 5:1316 6:633 7:33.71 8:-118.29 
1 1:3.274 2:39 3:2651 4:590 5:1103 6:508 7:33.72 8:-118.29 
1 1:6 2:34 3:2377 4:362 5:1055 6:362 7:34.23 8:-118.23 
1 1:7.585 2:31 3:3812 4:595 5:1645 6:591 7:34.24 8:-118.24 
1 1:6.1873 2:35 3:1535 4:283 5:816 6:287 7:34.24 8:-118.26 
1 1:6.6277 2:35 3:1666 4:280 5:788 6:273 7:34.24 8:-118.26 
1 1:5.5362 2:30 3:2062 4:396 5:1089 6:375 7:34.22 8:-118.25 
1 1:3.8068 2:34 3:2510 4:535 5:1516 6:542 7:34.22 8:-118.25 
1 1:6.213 2:50 3:309 4:47 5:121 6:45 7:34.21 8:-118.23 
1 1:5.3925 2:51 3:1477 4:280 5:750 6:295 7:34.2 8:-118.23 
1 1:5.5756 2:41 3:2067 4:452 5:1282 6:455 7:34.2 8:-118.24 
1 1:7.2812 2:34 3:8206 4:1186 5:3141 6:1150 7:34.22 8:-118.27 
1 1:6.207 2:43 3:1708 4:280 5:768 6:276 7:34.18 8:-118.23 
1 1:8.1132 2:45 3:2332 4:343 5:943 6:339 7:34.18 8:-118.23 
1 1:5.9199 2:25 3:434 4:74 5:199 6:75 7:34.16 8:-118.21 
1 1:6.8317 2:31 3:5550 4:881 5:2465 6:862 7:34.16 8:-118.2 
1 1:5.1718 2:31 3:3105 4:582 5:1359 6:547 7:34.16 8:-118.23 
1 1:5.3369 2:40 3:2124 4:370 5:998 6:372 7:34.15 8:-118.23 
1 1:4.9135 2:52 3:2477 4:385 5:993 6:371 7:34.16 8:-118.25 
1 1:5.1242 2:52 3:1532 4:292 5:631 6:275 7:34.17 8:-118.25 
1 1:5.5118 2:48 3:1560 4:280 5:825 6:269 7:34.17 8:-118.27 
1 1:3.6587 2:45 3:1865 4:360 5:973 6:349 7:34.16 8:-118.27 
1 1:6.2976 2:52 3:3034 4:406 5:1158 6:399 7:34.18 8:-118.27 
1 1:6.884 2:50 3:2195 4:336 5:878 6:309 7:34.18 8:-118.28 
1 1:4.325 2:52 3:1732 4:305 5:875 6:311 7:34.17 8:-118.29 
1 1:3.6974 2:10 3:4292 4:1075 5:2719 6:987 7:34.18 8:-118.29 
1 1:3.2321 2:40 3:1875 4:460 5:869 6:438 7:34.16 8:-118.3 
1 1:3.0114 2:47 3:1453 4:356 5:787 6:345 7:34.16 8:-118.27 
1 1:2.8088 2:18 3:2481 4:756 5:1763 6:675 7:34.15 8:-118.26 
1 1:6.9408 2:52 3:850 4:162 5:493 6:160 7:34.16 8:-118.24 
-1 1:3.6875 2:15 3:3712 4:1005 5:1888 6:890 7:34.15 8:-118.25 
-1 1:2.5924 2:19 3:4852 4:1465 5:3171 6:1332 7:34.15 8:-118.24 
-1 1:2.9167 2:25 3:2864 4:844 5:1745 6:803 7:34.14 8:-118.23 
1 1:1.9125 2:36 3:1813 4:560 5:1501 6:544 7:34.14 8:-118.24 
1 1:5.6921 2:45 3:2170 4:401 5:1043 6:394 7:34.13 8:-118.24 
-1 1:2.4421 2:9 3:4877 4:1488 5:4486 6:1458 7:34.14 8:-118.24 
1 1:2.2244 2:36 3:2946 4:1025 5:2542 6:912 7:34.13 8:-118.25 
1 1:7.1262 2:27 3:7714 4:1132 5:3199 6:1100 7:34.22 8:-118.31 
1 1:3.5083 2:14 3:3615 4:913 5:1924 6:852 7:34.19 8:-118.3 
1 1:3.6071 2:43 3:1325 4:254 5:613 6:248 7:34.2 8:-118.33 
1 1:4.375 2:29 3:2209 4:444 5:952 6:403 7:34.2 8:-118.32 
1 1:3.0179 2:37 3:1519 4:331 5:613 6:315 7:34.19 8:-118.32 
-1 1:3.1051 2:23 3:7179 4:1985 5:4757 6:1924 7:34.2 8:-118.33 
-1 1:3.3205 2:5 3:5492 4:1549 5:2997 6:1405 7:34.18 8:-118.3 
-1 1:2.8125 2:46 3:1393 4:301 5:714 6:295 7:34.18 8:-118.34 
-1 1:3.8668 2:45 3:3566 4:701 5:1601 6:653 7:34.18 8:-118.34 
1 1:3.7941 2:37 3:2381 4:575 5:1235 6:499 7:34.16 8:-118.33 
1 1:3.692 2:46 3:1396 4:294 5:608 6:246 7:34.16 8:-118.34 
-1 1:2.3667 2:39 3:493 4:168 5:259 6:138 7:34.15 8:-118.33 
1 1:4.2679 2:44 3:1321 4:303 5:471 6:301 7:34.15 8:-118.33 
1 1:3.5637 2:40 3:3068 4:756 5:1190 6:695 7:34.15 8:-118.34 
1 1:4.0648 2:45 3:3448 4:690 5:1562 6:643 7:34.17 8:-118.32 
-1 1:1.7062 2:28 3:271 4:61 5:246 6:62 7:34.3 8:-118.43 
-1 1:2.3375 2:30 3:762 4:228 5:840 6:226 7:34.29 8:-118.45 
-1 1:6.2456 2:13 3:2996 4:495 5:1187 6:464 7:34.1 8:-117.8 
1 1:6.5253 2:26 3:8254 4:1153 5:3460 6:1131 7:34.14 8:-117.83 
1 1:8.0683 2:20 3:2421 4:306 5:1023 6:298 7:34.15 8:-117.83 
-1 1:4.6937 2:26 3:3773 4:694 5:2103 6:688 7:34.13 8:-117.84 
1 1:8.2827 2:24 3:5745 4:735 5:2061 6:679 7:34.15 8:-117.87 
1 1:7.5112 2:23 3:2308 4:322 5:1001 6:317 7:34.14 8:-117.88 
1 1:6.1049 2:35 3:2899 4:429 5:1251 6:429 7:34.14 8:-117.85 
1 1:6.2089 2:33 3:2344 4:363 5:1098 6:359 7:34.14 8:-117.86 
1 1:5.4224 2:37 3:2655 4:415 5:1056 6:401 7:34.15 8:-117.87 
1 1:3.1905 2:36 3:3097 4:667 5:1484 6:634 7:34.14 8:-117.86 
-1 1:4.3145 2:31 3:1959 4:318 5:1021 6:303 7:34.13 8:-117.85 
1 1:4.636 2:33 3:2383 4:428 5:1269 6:421 7:34.13 8:-117.86 
-1 1:3.4219 2:32 3:1741 4:373 5:872 6:333 7:34.13 8:-117.87 
-1 1:3.12 2:29 3:1677 4:413 5:873 6:400 7:34.13 8:-117.87 
-1 1:4.9844 2:29 3:2671 4:437 5:1484 6:445 7:34.11 8:-117.83 
-1 1:4.392 2:34 3:2026 4:345 5:1142 6:332 7:34.12 8:-117.84 
-1 1:4.5708 2:25 3:9255 4:1659 5:4944 6:1627 7:34.11 8:-117.85 
1 1:7.7876 2:13 3:18448 4:2474 5:7775 6:2397 7:34.08 8:-117.81 
-1 1:4.8229 2:23 3:7063 4:1176 5:3100 6:1112 7:34.12 8:-117.81 
-1 1:4.075 2:18 3:11026 4:1978 5:5407 6:1923 7:34.1 8:-117.83 
-1 1:2.621 2:28 3:4086 4:871 5:1973 6:853 7:34.1 8:-117.76 
-1 1:2.8818 2:50 3:2388 4:494 5:1241 6:459 7:34.1 8:-117.77 
-1 1:3.0735 2:23 3:7079 4:1381 5:3205 6:1327 7:34.11 8:-117.78 
1 1:6.2089 2:26 3:6459 4:894 5:2487 6:885 7:34.12 8:-117.73 
-1 1:2.4952 2:32 3:3241 4:895 5:1592 6:810 7:34.1 8:-117.72 
1 1:5.5 2:46 3:2477 4:458 5:1034 6:455 7:34.1 8:-117.72 
-1 1:4.1739 2:36 3:2637 4:476 5:1385 6:483 7:34.09 8:-117.71 
-1 1:3.5313 2:36 3:1543 4:297 5:1355 6:303 7:34.09 8:-117.73 
-1 1:3.6359 2:33 3:2824 4:523 5:1797 6:493 7:34.08 8:-117.75 
-1 1:1.9937 2:33 3:1831 4:486 5:1625 6:472 7:34.06 8:-117.76 
-1 1:3.1641 2:21 3:4031 4:923 5:2558 6:834 7:34.05 8:-117.82 
-1 1:2.8929 2:36 3:975 4:243 5:809 6:233 7:34.05 8:-117.73 
-1 1:2.0734 2:28 3:2758 4:771 5:2877 6:694 7:34.05 8:-117.73 
-1 1:3.4609 2:27 3:3623 4:809 5:3712 6:754 7:34.03 8:-117.74 
1 1:6.3875 2:10 3:17820 4:2812 5:8686 6:2666 7:33.99 8:-117.86 
1 1:6.0191 2:8 3:32054 4:5290 5:15507 6:5050 7:34.03 8:-117.78 
-1 1:5.0111 2:16 3:9446 4:1650 5:4911 6:1534 7:34.01 8:-117.83 
1 1:6.8758 2:26 3:797 4:117 5:383 6:114 7:34 8:-117.84 
1 1:6.4333 2:16 3:3552 4:575 5:2120 6:573 7:34.02 8:-117.87 
1 1:7.5286 2:24 3:3128 4:497 5:1406 6:472 7:34.06 8:-117.85 
1 1:7.5196 2:31 3:2524 4:349 5:1003 6:343 7:34.08 8:-117.86 
1 1:3.8167 2:21 3:4723 4:882 5:2210 6:768 7:34.07 8:-117.87 
-1 1:4.1411 2:30 3:3082 4:602 5:2008 6:619 7:34.11 8:-117.88 
-1 1:2.8547 2:25 3:2559 4:654 5:1674 6:623 7:34.13 8:-117.88 
-1 1:3.7736 2:32 3:2910 4:709 5:2583 6:670 7:34.07 8:-117.96 
-1 1:3.1034 2:29 3:1986 4:448 5:2013 6:432 7:34.11 8:-117.95 
-1 1:3.1621 2:6 3:1954 4:534 5:1584 6:496 7:34.09 8:-117.96 
-1 1:3.2266 2:30 3:2775 4:657 5:2847 6:642 7:34.1 8:-117.96 
-1 1:4.87 2:35 3:2393 4:417 5:1336 6:418 7:34.08 8:-117.94 
-1 1:4.125 2:36 3:1788 4:317 5:1139 6:320 7:34.08 8:-117.93 
-1 1:4.2986 2:36 3:1479 4:251 5:741 6:245 7:34.08 8:-117.92 
-1 1:5.7039 2:35 3:1897 4:311 5:965 6:323 7:34.08 8:-117.92 
-1 1:3.125 2:34 3:2048 4:411 5:1456 6:416 7:34.1 8:-117.89 
-1 1:2.3971 2:35 3:1205 4:330 5:583 6:319 7:34.09 8:-117.89 
-1 1:2.7763 2:30 3:6132 4:1538 5:3147 6:1449 7:34.08 8:-117.88 
-1 1:3.2943 2:32 3:5482 4:1251 5:3426 6:1117 7:34.08 8:-117.9 
1 1:10.1248 2:25 3:3652 4:470 5:1525 6:484 7:34.06 8:-117.87 
1 1:5.9254 2:23 3:6689 4:1124 5:3081 6:1047 7:34.06 8:-117.88 
1 1:5.4469 2:33 3:1701 4:290 5:831 6:275 7:34.06 8:-117.9 
-1 1:4.5179 2:35 3:834 4:137 5:392 6:123 7:34.07 8:-117.89 
-1 1:3.2122 2:29 3:1699 4:399 5:1052 6:411 7:34.07 8:-117.92 
-1 1:5.0758 2:35 3:3189 4:527 5:1727 6:500 7:34.05 8:-117.91 
-1 1:5.184 2:35 3:2894 4:467 5:1420 6:479 7:34.06 8:-117.92 
-1 1:4.0333 2:32 3:3418 4:662 5:2003 6:622 7:34.06 8:-117.94 
-1 1:5.3559 2:36 3:1207 4:209 5:683 6:213 7:34.07 8:-117.93 
-1 1:4.0274 2:36 3:2391 4:407 5:1967 6:398 7:34.06 8:-117.98 
-1 1:3.8409 2:34 3:1403 4:274 5:977 6:257 7:34.04 8:-117.94 
-1 1:3.3409 2:34 3:1519 4:304 5:1262 6:300 7:34.05 8:-117.94 
-1 1:4.2266 2:33 3:1733 4:361 5:1757 6:375 7:34.01 8:-117.93 
-1 1:3.9219 2:35 3:1469 4:306 5:1285 6:308 7:34.03 8:-117.92 
-1 1:4.9342 2:23 3:6361 4:1168 5:4580 6:1109 7:34.04 8:-117.93 
-1 1:4.8854 2:30 3:1336 4:239 5:905 6:253 7:34.04 8:-117.93 
-1 1:3.6275 2:23 3:4535 4:955 5:3881 6:930 7:34.01 8:-117.89 
-1 1:3.7917 2:27 3:1702 4:381 5:2091 6:352 7:34.01 8:-117.9 
1 1:6.6988 2:26 3:2988 4:397 5:1371 6:415 7:34 8:-117.99 
1 1:5.2405 2:21 3:5992 4:986 5:2647 6:969 7:34.02 8:-118.02 
1 1:6.019 2:22 3:3632 4:538 5:1968 6:566 7:34 8:-117.98 
1 1:7.0778 2:26 3:3343 4:455 5:1429 6:457 7:33.99 8:-117.98 
1 1:6.2217 2:27 3:2275 4:346 5:1039 6:333 7:33.98 8:-117.98 
1 1:6.9695 2:18 3:8399 4:1144 5:3727 6:1107 7:33.98 8:-117.99 
1 1:5.6716 2:15 3:16042 4:2602 5:7732 6:2552 7:33.98 8:-117.95 
1 1:4.9932 2:18 3:6100 4:1018 5:3112 6:982 7:33.99 8:-117.94 
1 1:6.8492 2:25 3:1075 4:138 5:451 6:132 7:33.99 8:-117.95 
1 1:5.7407 2:25 3:1259 4:184 5:599 6:170 7:33.98 8:-117.96 
-1 1:2.5275 2:27 3:2221 4:542 5:1328 6:523 7:34.14 8:-117.96 
1 1:4.9968 2:35 3:5005 4:848 5:2112 6:813 7:34.17 8:-117.97 
1 1:6.5254 2:38 3:2981 4:432 5:1063 6:437 7:34.18 8:-117.99 
1 1:4.275 2:48 3:3436 4:673 5:1540 6:648 7:34.15 8:-118 
1 1:4.1797 2:43 3:1694 4:283 5:674 6:267 7:34.15 8:-118.03 
1 1:7.2419 2:38 3:2726 4:398 5:1059 6:380 7:34.17 8:-118.06 
1 1:5.0482 2:45 3:2535 4:455 5:1036 6:437 7:34.17 8:-118.05 
1 1:7.1615 2:36 3:1401 4:218 5:667 6:225 7:34.16 8:-118.03 
1 1:3.6341 2:40 3:4307 4:918 5:1769 6:845 7:34.13 8:-118.06 
1 1:7.0315 2:42 3:2461 4:379 5:1179 6:360 7:34.14 8:-118.06 
1 1:4.7308 2:44 3:1446 4:250 5:721 6:243 7:34.14 8:-118.03 
1 1:4.645 2:22 3:3359 4:643 5:1227 6:588 7:34.13 8:-118.04 
1 1:4.7159 2:36 3:1332 4:217 5:648 6:203 7:34.13 8:-118.01 
1 1:7.7307 2:34 3:1966 4:319 5:980 6:297 7:34.13 8:-118.02 
1 1:6.5784 2:38 3:1778 4:288 5:870 6:281 7:34.12 8:-118.02 
-1 1:3.2841 2:24 3:2584 4:520 5:1869 6:503 7:34.13 8:-118 
-1 1:3.5625 2:43 3:1858 4:345 5:1054 6:329 7:34.11 8:-118.01 
1 1:5 2:44 3:773 4:120 5:405 6:121 7:34.11 8:-118.04 
1 1:5.1509 2:42 3:3677 4:627 5:1779 6:622 7:34.11 8:-118.05 
1 1:6.0878 2:39 3:2485 4:382 5:1072 6:342 7:34.13 8:-118.04 
1 1:5.2249 2:39 3:2522 4:380 5:1113 6:357 7:34.12 8:-118.04 
1 1:3.55 2:20 3:5218 4:959 5:2302 6:850 7:34.12 8:-118.05 
1 1:4.1875 2:35 3:2053 4:369 5:1044 6:375 7:34.12 8:-118.06 
1 1:4.8017 2:39 3:2302 4:412 5:1590 6:406 7:34.1 8:-118.04 
1 1:4.2321 2:30 3:2143 4:427 5:1107 6:416 7:34.1 8:-118.05 
1 1:4.2898 2:40 3:1975 4:389 5:1116 6:378 7:34.09 8:-118.06 
-1 1:4.0987 2:35 3:1224 4:267 5:887 6:276 7:34.09 8:-118.07 
-1 1:3.4286 2:32 3:1747 4:399 5:1199 6:402 7:34.09 8:-118.02 
-1 1:2.8029 2:29 3:1219 4:338 5:1152 6:323 7:34.09 8:-118.03 
-1 1:3.25 2:37 3:775 4:179 5:726 6:183 7:34.08 8:-118.03 
-1 1:2.9688 2:42 3:1597 4:373 5:1311 6:352 7:34.08 8:-118.03 
-1 1:3.4202 2:34 3:1197 4:260 5:942 6:245 7:34.08 8:-118.06 
-1 1:3.125 2:19 3:1554 4:393 5:1427 6:370 7:34.07 8:-118.07 
-1 1:3.2132 2:39 3:1258 4:245 5:988 6:228 7:34.06 8:-118.04 
-1 1:3.29 2:32 3:4089 4:975 5:3775 6:955 7:34.07 8:-118.08 
-1 1:2.375 2:36 3:21 4:7 5:21 6:9 7:34.03 8:-118.06 
-1 1:3.0625 2:33 3:2464 4:627 5:2932 6:568 7:34.05 8:-118.02 
1 1:7.8588 2:34 3:4062 4:597 5:1525 6:566 7:34.17 8:-118.07 
1 1:8.7835 2:52 3:2405 4:299 5:970 6:319 7:34.19 8:-118.12 
1 1:6.827 2:36 3:4915 4:725 5:1897 6:700 7:34.2 8:-118.11 
1 1:6.4288 2:46 3:2676 4:427 5:1022 6:395 7:34.2 8:-118.13 
-1 1:3.2216 2:48 3:1854 4:360 5:1126 6:382 7:34.19 8:-118.15 
1 1:8.72 2:44 3:1473 4:250 5:668 6:239 7:34.2 8:-118.18 
1 1:7.419 2:41 3:2031 4:294 5:859 6:302 7:34.2 8:-118.19 
1 1:6.7571 2:42 3:1493 4:237 5:665 6:224 7:34.21 8:-118.2 
1 1:4.7734 2:41 3:1676 4:263 5:757 6:255 7:34.21 8:-118.21 
-1 1:2.2328 2:46 3:2230 4:488 5:1985 6:456 7:34.18 8:-118.15 
-1 1:1.8932 2:44 3:1870 4:389 5:1345 6:391 7:34.18 8:-118.16 
-1 1:3.1741 2:52 3:1193 4:228 5:703 6:221 7:34.17 8:-118.16 
1 1:6.4223 2:52 3:3094 4:519 5:1309 6:488 7:34.18 8:-118.13 
1 1:3.2813 2:48 3:1111 4:229 5:421 6:202 7:34.17 8:-118.1 
1 1:3.7159 2:52 3:1835 4:330 5:777 6:317 7:34.17 8:-118.12 
1 1:7.3715 2:17 3:821 4:163 5:229 6:164 7:34.15 8:-118.16 
-1 1:2.7201 2:52 3:2687 4:600 5:1716 6:544 7:34.17 8:-118.14 
-1 1:3.1875 2:9 3:2099 4:625 5:1252 6:554 7:34.15 8:-118.13 
1 1:4 2:52 3:1872 4:357 5:984 6:364 7:34.16 8:-118.13 
1 1:3.4811 2:44 3:4505 4:894 5:2296 6:899 7:34.17 8:-118.1 
-1 1:3.0417 2:52 3:2166 4:483 5:1308 6:467 7:34.17 8:-118.12 
1 1:5.4223 2:52 3:3158 4:459 5:1229 6:444 7:34.16 8:-118.11 
1 1:4.2065 2:52 3:2489 4:437 5:1101 6:438 7:34.16 8:-118.11 
1 1:5.3272 2:46 3:2863 4:513 5:1412 6:498 7:34.16 8:-118.1 
-1 1:3.5568 2:52 3:670 4:141 5:268 6:110 7:34.15 8:-118.09 
1 1:6.4761 2:39 3:1804 4:265 5:730 6:276 7:34.16 8:-118.07 
1 1:3.375 2:42 3:3200 4:685 5:1668 6:628 7:34.14 8:-118.07 
1 1:3.88 2:42 3:2690 4:589 5:1149 6:535 7:34.14 8:-118.08 
1 1:5.3377 2:40 3:3092 4:549 5:1457 6:536 7:34.14 8:-118.09 
1 1:4.1324 2:44 3:3298 4:615 5:1417 6:643 7:34.14 8:-118.11 
1 1:5.8692 2:52 3:2337 4:352 5:981 6:328 7:34.14 8:-118.12 
1 1:4.8304 2:39 3:2099 4:397 5:1500 6:380 7:34.13 8:-118.13 
1 1:7.9213 2:44 3:2734 4:415 5:1057 6:424 7:34.13 8:-118.18 
1 1:6.1953 2:39 3:2902 4:460 5:1007 6:420 7:34.13 8:-118.18 
1 1:5.1072 2:49 3:4438 4:803 5:1650 6:741 7:34.13 8:-118.14 
1 1:5.9546 2:39 3:788 4:128 5:413 6:139 7:34.13 8:-118.08 
1 1:5.4536 2:38 3:2638 4:432 5:1284 6:433 7:34.12 8:-118.09 
1 1:4.2312 2:43 3:1554 4:287 5:802 6:277 7:34.12 8:-118.07 
1 1:5.5924 2:42 3:1969 4:353 5:927 6:354 7:34.11 8:-118.08 
1 1:4.6442 2:36 3:2966 4:527 5:1231 6:482 7:34.11 8:-118.09 
1 1:6.706 2:49 3:3367 4:523 5:1317 6:495 7:34.11 8:-118.1 
1 1:5.2131 2:48 3:2124 4:319 5:785 6:319 7:34.11 8:-118.12 
-1 1:2.7816 2:21 3:3862 4:1186 5:2773 6:1102 7:34.09 8:-118.13 
1 1:3.1975 2:24 3:4670 4:1185 5:2478 6:1107 7:34.1 8:-118.13 
1 1:2.8919 2:52 3:4061 4:861 5:2290 6:790 7:34.1 8:-118.14 
1 1:3.9485 2:52 3:4325 4:823 5:1927 6:795 7:34.1 8:-118.15 
1 1:7.4111 2:52 3:2375 4:369 5:930 6:351 7:34.11 8:-118.15 
1 1:3.7895 2:52 3:1746 4:330 5:704 6:306 7:34.11 8:-118.15 
1 1:3.8427 2:36 3:6119 4:1513 5:2719 6:1402 7:34.12 8:-118.15 
1 1:5.4165 2:38 3:2231 4:489 5:940 6:484 7:34.12 8:-118.16 
1 1:3.5875 2:39 3:2618 4:582 5:1314 6:532 7:34.11 8:-118.15 
1 1:3.4559 2:39 3:3856 4:867 5:1847 6:830 7:34.1 8:-118.15 
1 1:4.1661 2:31 3:5715 4:1154 5:2639 6:1079 7:34.11 8:-118.16 
1 1:4.9676 2:26 3:4971 4:996 5:2370 6:932 7:34.11 8:-118.17 
-1 1:2.8062 2:27 3:1935 4:460 5:1456 6:382 7:34.09 8:-118.15 
-1 1:3.1204 2:52 3:1722 4:448 5:1122 6:425 7:34.09 8:-118.16 
-1 1:3.665 2:52 3:695 4:145 5:523 6:170 7:34.07 8:-118.14 
-1 1:3.3229 2:44 3:2012 4:435 5:1454 6:456 7:34.1 8:-118.11 
-1 1:3.2307 2:25 3:4870 4:1371 5:3518 6:1296 7:34.09 8:-118.12 
-1 1:3.3801 2:20 3:3090 4:802 5:2109 6:738 7:34.1 8:-118.11 
-1 1:3.3512 2:32 3:4275 4:1061 5:2812 6:1012 7:34.1 8:-118.07 
-1 1:2.9688 2:43 3:1716 4:402 5:1343 6:386 7:34.08 8:-118.08 
-1 1:3.0357 2:33 3:1430 4:344 5:1165 6:328 7:34.08 8:-118.09 
-1 1:4.875 2:42 3:1460 4:289 5:829 6:273 7:34.09 8:-118.1 
-1 1:2.6884 2:24 3:4510 4:1296 5:3985 6:1240 7:34.08 8:-118.1 
-1 1:3.3421 2:30 3:2350 4:472 5:945 6:467 7:34.08 8:-118.11 
1 1:5.3032 2:52 3:1437 4:290 5:980 6:282 7:34.08 8:-118.12 
1 1:3.1583 2:49 3:1782 4:374 5:1010 6:367 7:34.08 8:-118.12 
1 1:3.2344 2:36 3:2433 4:585 5:1565 6:563 7:34.08 8:-118.12 
-1 1:3.085 2:32 3:1880 4:428 5:1404 6:424 7:34.07 8:-118.13 
-1 1:3.2875 2:52 3:1983 4:344 5:887 6:331 7:34.07 8:-118.15 
-1 1:2.4348 2:44 3:1626 4:383 5:1063 6:334 7:34.07 8:-118.15 
1 1:6.1509 2:25 3:4284 4:741 5:2163 6:701 7:34.06 8:-118.16 
1 1:3.4118 2:25 3:5478 4:1136 5:3062 6:1096 7:34.05 8:-118.14 
1 1:3.9531 2:35 3:3229 4:616 5:1879 6:595 7:34.05 8:-118.13 
-1 1:2.1061 2:32 3:1273 4:344 5:1148 6:368 7:34.06 8:-118.11 
-1 1:2.8229 2:16 3:2416 4:565 5:1750 6:514 7:34.06 8:-118.11 
-1 1:2.5938 2:45 3:593 4:133 5:481 6:128 7:34.07 8:-118.09 
-1 1:2.5 2:21 3:1349 4:352 5:1188 6:330 7:34.08 8:-118.1 
-1 1:2.5964 2:29 3:1179 4:313 5:1255 6:308 7:34.07 8:-118.1 
-1 1:2.9524 2:31 3:2852 4:740 5:3100 6:725 7:34.06 8:-118.1 
1 1:5.9214 2:35 3:1038 4:209 5:598 6:190 7:34.04 8:-118.12 
-1 1:3.3214 2:43 3:1949 4:464 5:1216 6:457 7:34.04 8:-118.14 
-1 1:3.7109 2:40 3:1966 4:391 5:1120 6:362 7:34.04 8:-118.14 
1 1:6.8189 2:29 3:4943 4:674 5:1913 6:641 7:33.95 8:-117.95 
1 1:7.2472 2:30 3:4873 4:667 5:1995 6:638 7:33.96 8:-117.97 
1 1:6.1898 2:35 3:4055 4:652 5:1758 6:639 7:33.95 8:-117.98 
1 1:10.4835 2:30 3:2217 4:284 5:851 6:291 7:33.95 8:-117.99 
1 1:5.0861 2:35 3:1755 4:322 5:774 6:290 7:33.95 8:-118.01 
1 1:9.1541 2:37 3:2414 4:323 5:878 6:305 7:33.96 8:-118 
1 1:6.2319 2:10 3:6531 4:1036 5:2975 6:1018 7:34.01 8:-118.03 
-1 1:3.9091 2:34 3:1962 4:396 5:1488 6:332 7:34.01 8:-118.06 
-1 1:3.7986 2:38 3:2245 4:444 5:1540 6:419 7:34.01 8:-118.07 
-1 1:2.9321 2:14 3:3789 4:810 5:2551 6:793 7:34.02 8:-118.08 
-1 1:2.7679 2:33 3:1091 4:233 5:890 6:226 7:34.01 8:-118.08 
-1 1:3.5469 2:36 3:1465 4:363 5:1538 6:342 7:34.01 8:-118.09 
-1 1:3.5757 2:35 3:2787 4:639 5:1923 6:614 7:33.99 8:-118.09 
-1 1:3.7328 2:38 3:1619 4:379 5:886 6:357 7:33.99 8:-118.05 
-1 1:4.375 2:38 3:862 4:178 5:484 6:176 7:33.99 8:-118.06 
-1 1:3 2:50 3:1951 4:458 5:1362 6:454 7:33.98 8:-118.04 
-1 1:2.625 2:43 3:2446 4:764 5:1699 6:692 7:33.98 8:-118.04 
1 1:3.8275 2:32 3:2468 4:552 5:1190 6:479 7:33.97 8:-118.03 
-1 1:4.2917 2:38 3:2139 4:426 5:1138 6:412 7:33.95 8:-118.02 
-1 1:4.108 2:36 3:1681 4:329 5:964 6:311 7:33.95 8:-118.02 
-1 1:3.0491 2:34 3:1759 4:431 5:1282 6:391 7:33.97 8:-118.04 
-1 1:3.5268 2:33 3:1927 4:482 5:1623 6:479 7:33.98 8:-118.1 
-1 1:3.3942 2:36 3:446 4:108 5:410 6:117 7:33.98 8:-118.11 
-1 1:3.3621 2:36 3:3271 4:603 5:2593 6:616 7:33.96 8:-118.09 
-1 1:3.9549 2:36 3:2013 4:435 5:1476 6:475 7:33.96 8:-118.1 
-1 1:4.0846 2:36 3:2762 4:472 5:1576 6:493 7:33.94 8:-118.09 
-1 1:1.9453 2:34 3:495 4:120 5:527 6:130 7:33.94 8:-118.05 
-1 1:3.4219 2:35 3:2469 4:522 5:2151 6:537 7:33.92 8:-118.04 
-1 1:3.9543 2:35 3:2603 4:482 5:1305 6:507 7:33.94 8:-118 
-1 1:5.1738 2:36 3:2911 4:534 5:1395 6:486 7:33.94 8:-118 
-1 1:3.75 2:37 3:903 4:158 5:444 6:158 7:33.94 8:-118 
-1 1:4.061 2:27 3:5805 4:1152 5:3106 6:1144 7:33.92 8:-117.99 
1 1:5.0923 2:16 3:10621 4:1782 5:3836 6:1480 7:33.91 8:-117.98 
-1 1:4.5144 2:35 3:1942 4:332 5:1127 6:325 7:33.9 8:-118 
-1 1:4.6 2:34 3:1653 4:292 5:1003 6:310 7:33.89 8:-118.01 
-1 1:5.5601 2:36 3:2417 4:421 5:1276 6:426 7:33.9 8:-118.02 
-1 1:4.6354 2:36 3:1589 4:265 5:804 6:272 7:33.89 8:-118.01 
1 1:3.0529 2:25 3:2655 4:558 5:1466 6:525 7:34.02 8:-118.12 
1 1:5.6112 2:20 3:2595 4:428 5:1751 6:479 7:34.03 8:-118.12 
-1 1:1.8906 2:32 3:1789 4:528 5:1429 6:517 7:34.02 8:-118.12 
-1 1:2.4612 2:45 3:1569 4:359 5:1203 6:359 7:34.03 8:-118.14 
-1 1:2.5033 2:44 3:1856 4:461 5:1853 6:452 7:34.06 8:-118.17 
-1 1:0.8941 2:33 3:278 4:71 5:266 6:56 7:34.06 8:-118.18 
-1 1:2.53 2:45 3:934 4:228 5:893 6:192 7:34.06 8:-118.18 
-1 1:1.825 2:52 3:1070 4:231 5:925 6:220 7:34.05 8:-118.18 
-1 1:2.4375 2:47 3:1273 4:264 5:1193 6:260 7:34.05 8:-118.19 
-1 1:2.5962 2:45 3:733 4:178 5:715 6:165 7:34.05 8:-118.17 
-1 1:2.1029 2:43 3:1682 4:422 5:1706 6:409 7:34.04 8:-118.19 
-1 1:2.3462 2:42 3:1845 4:497 5:2191 6:492 7:34.01 8:-118.18 
-1 1:2.1442 2:35 3:1734 4:493 5:2053 6:508 7:34.02 8:-118.16 
-1 1:1.9688 2:44 3:1218 4:374 5:1175 6:342 7:34.02 8:-118.16 
-1 1:2.6 2:40 3:1912 4:502 5:2077 6:500 7:34.02 8:-118.14 
-1 1:3.0208 2:38 3:2573 4:484 5:1568 6:459 7:34 8:-118.11 
-1 1:2.7708 2:4 3:1849 4:577 5:1529 6:418 7:33.99 8:-118.22 
-1 1:2.0357 2:30 3:1971 4:645 5:2650 6:605 7:33.98 8:-118.22 
-1 1:2.5352 2:32 3:2643 4:737 5:2784 6:711 7:33.98 8:-118.22 
-1 1:2.1591 2:32 3:927 4:250 5:970 6:248 7:33.97 8:-118.15 
-1 1:2.754 2:28 3:2474 4:702 5:2830 6:694 7:33.97 8:-118.2 
-1 1:2.4688 2:38 3:2090 4:519 5:1871 6:504 7:33.96 8:-118.21 
-1 1:1.9798 2:41 3:1576 4:339 5:1252 6:302 7:33.95 8:-118.25 
-1 1:1.7396 2:34 3:946 4:254 5:1101 6:239 7:33.96 8:-118.24 
-1 1:2.0655 2:37 3:1602 4:388 5:1553 6:342 7:33.96 8:-118.24 
-1 1:0.9518 2:27 3:504 4:142 5:789 6:167 7:33.95 8:-118.23 
-1 1:2.6179 2:35 3:1437 4:474 5:2113 6:484 7:33.96 8:-118.22 
-1 1:2.8371 2:43 3:1233 4:306 5:1190 6:282 7:33.96 8:-118.2 
-1 1:2.2988 2:35 3:2134 4:650 5:2248 6:587 7:33.95 8:-118.21 
-1 1:3.2768 2:44 3:1436 4:271 5:850 6:269 7:33.95 8:-118.19 
-1 1:3.7361 2:45 3:1570 4:328 5:1321 6:300 7:33.94 8:-118.2 
-1 1:3.4402 2:40 3:1929 4:417 5:1780 6:419 7:33.93 8:-118.2 
-1 1:3.0987 2:43 3:2339 4:487 5:1732 6:449 7:33.92 8:-118.19 
-1 1:3.5313 2:38 3:1626 4:307 5:1280 6:295 7:33.93 8:-118.2 
-1 1:2.2847 2:33 3:2739 4:801 5:3423 6:741 7:33.93 8:-118.21 
-1 1:2.6339 2:41 3:857 4:201 5:934 6:227 7:33.93 8:-118.2 
-1 1:2.7679 2:39 3:354 4:73 5:184 6:58 7:33.93 8:-118.21 
-1 1:2.1964 2:30 3:443 4:170 5:903 6:189 7:33.93 8:-118.22 
-1 1:2.2411 2:44 3:1079 4:210 5:601 6:182 7:33.92 8:-118.24 
-1 1:2.745 2:35 3:1818 4:374 5:1444 6:372 7:33.92 8:-118.27 
-1 1:2.4271 2:42 3:1386 4:320 5:1163 6:319 7:33.9 8:-118.25 
-1 1:3.1111 2:36 3:1950 4:365 5:1125 6:374 7:33.91 8:-118.25 
-1 1:2.5521 2:36 3:1135 4:231 5:614 6:227 7:33.9 8:-118.25 
-1 1:3.4917 2:35 3:1479 4:272 5:963 6:292 7:33.91 8:-118.25 
-1 1:1.7158 2:37 3:1607 4:377 5:1526 6:375 7:33.91 8:-118.24 
-1 1:2.1734 2:34 3:661 4:146 5:742 6:143 7:33.91 8:-118.23 
-1 1:3.0341 2:27 3:1694 4:393 5:1890 6:373 7:33.91 8:-118.23 
-1 1:1.6437 2:24 3:1555 4:406 5:1665 6:361 7:33.92 8:-118.23 
-1 1:1.4091 2:35 3:1649 4:424 5:1786 6:388 7:33.9 8:-118.22 
-1 1:3.2798 2:45 3:1283 4:253 5:1025 6:248 7:33.92 8:-118.2 
-1 1:1.9952 2:36 3:2326 4:543 5:2073 6:494 7:33.9 8:-118.19 
-1 1:2.2125 2:34 3:1552 4:444 5:2093 6:413 7:33.9 8:-118.2 
-1 1:3.4485 2:38 3:929 4:166 5:686 6:183 7:33.88 8:-118.21 
-1 1:2.125 2:41 3:990 4:228 5:776 6:207 7:33.89 8:-118.22 
-1 1:2.7426 2:27 3:500 4:159 5:732 6:162 7:33.91 8:-118.22 
-1 1:2.1838 2:32 3:1132 4:266 5:1211 6:279 7:33.89 8:-118.24 
-1 1:3.9 2:36 3:406 4:71 5:268 6:77 7:33.89 8:-118.25 
-1 1:2.4821 2:37 3:1843 4:366 5:1207 6:351 7:33.88 8:-118.24 
-1 1:2.1949 2:35 3:1255 4:344 5:1782 6:343 7:33.89 8:-118.23 
-1 1:5.1948 2:16 3:8732 4:1489 5:3944 6:1493 7:33.86 8:-118.22 
-1 1:5.9684 2:25 3:9594 4:1489 5:5237 6:1496 7:33.85 8:-118.24 
-1 1:4.8438 2:22 3:7368 4:1367 5:4721 6:1342 7:33.83 8:-118.24 
-1 1:5.144 2:27 3:489 4:98 5:403 6:97 7:33.85 8:-118.28 
-1 1:5.2034 2:29 3:2755 4:508 5:2046 6:488 7:33.81 8:-118.28 
-1 1:3.9227 2:24 3:6303 4:1277 5:3728 6:1252 7:33.84 8:-118.27 
-1 1:4.35 2:28 3:2152 4:415 5:1623 6:429 7:33.83 8:-118.27 
-1 1:4.5382 2:39 3:1631 4:322 5:1034 6:328 7:33.92 8:-118.08 
-1 1:3.5455 2:31 3:1983 4:419 5:1157 6:390 7:33.92 8:-118.09 
-1 1:4.1767 2:34 3:1414 4:263 5:983 6:264 7:33.92 8:-118.11 
1 1:6.1814 2:34 3:1947 4:284 5:841 6:277 7:33.94 8:-118.1 
1 1:6.4319 2:34 3:2319 4:334 5:941 6:356 7:33.95 8:-118.11 
1 1:4.8523 2:36 3:1426 4:235 5:698 6:240 7:33.96 8:-118.12 
1 1:4 2:38 3:1040 4:202 5:557 6:228 7:33.96 8:-118.13 
1 1:4.0536 2:34 3:2744 4:541 5:1333 6:503 7:33.96 8:-118.14 
1 1:5.4042 2:34 3:1736 4:297 5:823 6:292 7:33.97 8:-118.13 
1 1:3.9036 2:37 3:1709 4:333 5:778 6:344 7:33.95 8:-118.13 
1 1:3.1083 2:33 3:2418 4:485 5:1397 6:477 7:33.96 8:-118.15 
1 1:5.2485 2:35 3:1813 4:313 5:825 6:316 7:33.94 8:-118.12 
1 1:5.1587 2:36 3:1949 4:319 5:909 6:325 7:33.94 8:-118.11 
-1 1:2.7875 2:35 3:2753 4:702 5:1592 6:614 7:33.95 8:-118.15 
-1 1:4.0517 2:36 3:1442 4:271 5:990 6:268 7:33.91 8:-118.09 
-1 1:4.0926 2:42 3:991 4:215 5:717 6:219 7:33.89 8:-118.09 
1 1:3.5893 2:35 3:1623 4:304 5:868 6:272 7:33.88 8:-118.11 
-1 1:5.0753 2:35 3:1323 4:269 5:1084 6:240 7:33.9 8:-118.11 
-1 1:4.7663 2:38 3:1475 4:269 5:827 6:265 7:33.9 8:-118.13 
-1 1:4.375 2:37 3:932 4:171 5:578 6:175 7:33.91 8:-118.14 
-1 1:2.9643 2:38 3:901 4:205 5:760 6:208 7:33.91 8:-118.15 
-1 1:2.8681 2:12 3:3653 4:993 5:3215 6:854 7:33.9 8:-118.17 
-1 1:4.9107 2:37 3:1159 4:238 5:740 6:243 7:33.89 8:-118.14 
1 1:5.7619 2:17 3:4807 4:838 5:3059 6:853 7:33.88 8:-118.04 
1 1:6.299 2:17 3:2358 4:396 5:1387 6:364 7:33.87 8:-118.04 
1 1:5.8855 2:18 3:4928 4:773 5:2952 6:754 7:33.87 8:-118.05 
1 1:5.748 2:16 3:4934 4:825 5:2668 6:810 7:33.88 8:-118.07 
1 1:6.1968 2:18 3:2436 4:375 5:1303 6:386 7:33.88 8:-118.07 
1 1:5.7652 2:18 3:3405 4:556 5:1945 6:509 7:33.87 8:-118.07 
1 1:5.8733 2:17 3:2259 4:383 5:1378 6:386 7:33.86 8:-118.08 
1 1:6.2427 2:19 3:4261 4:678 5:2621 6:661 7:33.85 8:-118.08 
1 1:5.6818 2:17 3:3666 4:562 5:2104 6:579 7:33.86 8:-118.07 
1 1:5.0778 2:16 3:5603 4:938 5:3045 6:893 7:33.86 8:-118.06 
1 1:6.5513 2:16 3:2676 4:391 5:1377 6:395 7:33.86 8:-118.05 
1 1:6.0142 2:16 3:4851 4:726 5:2527 6:704 7:33.85 8:-118.06 
1 1:6.5515 2:18 3:8046 4:1221 5:4276 6:1228 7:33.88 8:-118.1 
1 1:6.3093 2:19 3:8120 4:1371 5:5026 6:1345 7:33.85 8:-118.09 
1 1:5.7039 2:19 3:993 4:174 5:572 6:175 7:33.85 8:-118.1 
-1 1:3.8654 2:27 3:3119 4:635 5:1887 6:567 7:33.88 8:-118.09 
-1 1:3.5562 2:32 3:1819 4:386 5:1679 6:360 7:33.89 8:-118.07 
-1 1:3.625 2:31 3:2377 4:600 5:2042 6:593 7:33.84 8:-118.08 
-1 1:4.8448 2:31 3:2906 4:578 5:1806 6:553 7:33.84 8:-118.08 
-1 1:4.7917 2:27 3:1594 4:295 5:1061 6:320 7:33.84 8:-118.09 
-1 1:6 2:22 3:1055 4:204 5:682 6:216 7:33.85 8:-118.08 
-1 1:4.7953 2:26 3:6960 4:1454 5:4367 6:1437 7:33.84 8:-118.06 
1 1:6.2519 2:26 3:4259 4:588 5:1644 6:581 7:33.82 8:-118.08 
-1 1:2.5978 2:17 3:4822 4:1168 5:3868 6:1117 7:33.83 8:-118.07 
-1 1:4.3194 2:44 3:2663 4:511 5:1277 6:462 7:33.86 8:-118.12 
-1 1:3.0893 2:42 3:1645 4:371 5:1161 6:351 7:33.88 8:-118.17 
-1 1:2.875 2:35 3:1769 4:436 5:1166 6:386 7:33.87 8:-118.19 
-1 1:3.1215 2:36 3:2013 4:546 5:1659 6:522 7:33.86 8:-118.19 
-1 1:3.4408 2:44 3:2137 4:461 5:1126 6:439 7:33.87 8:-118.18 
-1 1:4.0658 2:44 3:1832 4:401 5:1056 6:405 7:33.87 8:-118.18 
-1 1:3.07 2:39 3:2247 4:526 5:1670 6:525 7:33.85 8:-118.17 
-1 1:4.0815 2:36 3:1979 4:339 5:952 6:339 7:33.85 8:-118.16 
-1 1:5.9493 2:36 3:1473 4:253 5:713 6:257 7:33.85 8:-118.1 
-1 1:4.8393 2:36 3:2418 4:389 5:1138 6:387 7:33.85 8:-118.11 
-1 1:5.1836 2:36 3:2572 4:421 5:1318 6:434 7:33.84 8:-118.1 
-1 1:4.875 2:36 3:1523 4:263 5:717 6:278 7:33.84 8:-118.11 
-1 1:4.8438 2:36 3:1463 4:257 5:722 6:260 7:33.84 8:-118.11 
1 1:4.2841 2:46 3:2439 4:429 5:944 6:374 7:33.84 8:-118.13 
1 1:4.2917 2:44 3:1710 4:333 5:786 6:344 7:33.83 8:-118.13 
1 1:3.2024 2:43 3:2107 4:439 5:876 6:429 7:33.84 8:-118.14 
1 1:7.6526 2:29 3:2448 4:354 5:894 6:349 7:33.84 8:-118.15 
-1 1:3.75 2:37 3:1508 4:252 5:635 6:241 7:33.84 8:-118.15 
-1 1:4.1023 2:45 3:2019 4:363 5:880 6:339 7:33.83 8:-118.17 
-1 1:4.1771 2:44 3:2731 4:577 5:1396 6:555 7:33.84 8:-118.19 
-1 1:2.25 2:24 3:1228 4:320 5:537 6:273 7:33.84 8:-118.19 
-1 1:3.8026 2:49 3:1073 4:260 5:725 6:272 7:33.85 8:-118.19 
1 1:7.2096 2:35 3:3737 4:613 5:1305 6:583 7:33.83 8:-118.2 
1 1:6.4468 2:43 3:2641 4:411 5:1011 6:444 7:33.83 8:-118.19 
1 1:4.2411 2:45 3:1535 4:274 5:591 6:276 7:33.83 8:-118.18 
1 1:3.3125 2:39 3:3622 4:745 5:1330 6:648 7:33.83 8:-118.18 
1 1:3.835 2:43 3:2561 4:544 5:1063 6:537 7:33.84 8:-118.18 
1 1:3.5871 2:30 3:2246 4:552 5:1032 6:548 7:33.83 8:-118.19 
1 1:3.5521 2:19 3:2953 4:895 5:1914 6:855 7:33.82 8:-118.19 
-1 1:5.2606 2:43 3:1758 4:347 5:954 6:312 7:33.82 8:-118.2 
-1 1:1.9311 2:17 3:5357 4:1332 5:3030 6:1266 7:33.82 8:-118.22 
-1 1:3.8586 2:45 3:1816 4:398 5:1524 6:388 7:33.81 8:-118.21 
-1 1:3.0135 2:47 3:2549 4:626 5:1388 6:606 7:33.79 8:-118.2 
-1 1:2.5012 2:42 3:4577 4:1146 5:2749 6:1094 7:33.8 8:-118.2 
-1 1:4.0074 2:52 3:1009 4:216 5:614 6:231 7:33.8 8:-118.2 
-1 1:1.7938 2:41 3:2114 4:612 5:2357 6:529 7:33.79 8:-118.19 
-1 1:3.0513 2:15 3:2407 4:589 5:1591 6:506 7:33.8 8:-118.18 
-1 1:5.1171 2:36 3:1462 4:233 5:664 6:220 7:33.83 8:-118.11 
-1 1:4.6875 2:36 3:1742 4:340 5:857 6:341 7:33.82 8:-118.11 
1 1:7.6084 2:20 3:6295 4:937 5:2292 6:874 7:33.81 8:-118.08 
1 1:5.2155 2:36 3:1946 4:346 5:871 6:336 7:33.82 8:-118.1 
-1 1:3.7321 2:36 3:665 4:114 5:273 6:112 7:33.82 8:-118.13 
-1 1:4.3438 2:36 3:1026 4:182 5:505 6:176 7:33.8 8:-118.13 
-1 1:3.1042 2:44 3:1886 4:399 5:1167 6:372 7:33.8 8:-118.15 
1 1:5.7942 2:36 3:2223 4:370 5:1039 6:370 7:33.79 8:-118.11 
1 1:6.2187 2:37 3:1694 4:280 5:776 6:271 7:33.81 8:-118.11 
1 1:5.7368 2:35 3:2370 4:379 5:996 6:380 7:33.79 8:-118.1 
1 1:5.3441 2:36 3:1245 4:211 5:508 6:221 7:33.79 8:-118.13 
-1 1:3.4211 2:43 3:2506 4:531 5:1230 6:543 7:33.8 8:-118.14 
-1 1:3.4833 2:23 3:2573 4:688 5:1478 6:604 7:33.79 8:-118.14 
-1 1:3.0453 2:25 3:4013 4:1097 5:2297 6:969 7:33.79 8:-118.15 
-1 1:1.9808 2:14 3:1709 4:558 5:1939 6:520 7:33.78 8:-118.16 
-1 1:2.0156 2:33 3:2048 4:585 5:2074 6:597 7:33.78 8:-118.16 
-1 1:2.4 2:25 3:3742 4:1180 5:3916 6:1063 7:33.79 8:-118.16 
-1 1:1.4565 2:20 3:1852 4:556 5:1712 6:556 7:33.78 8:-118.18 
-1 1:1.7701 2:26 3:3042 4:1253 5:4812 6:1141 7:33.78 8:-118.18 
1 1:3.8125 2:49 3:3382 4:787 5:1314 6:756 7:33.77 8:-118.16 
1 1:3.8984 2:30 3:4439 4:1105 5:1749 6:1011 7:33.77 8:-118.16 
1 1:2.9384 2:38 3:3235 4:769 5:1284 6:752 7:33.77 8:-118.16 
1 1:3.875 2:51 3:2812 4:621 5:1171 6:566 7:33.77 8:-118.14 
1 1:4.1765 2:52 3:2204 4:498 5:899 6:445 7:33.77 8:-118.15 
1 1:3.901 2:37 3:3242 4:698 5:1080 6:629 7:33.76 8:-118.14 
1 1:3.5292 2:36 3:4366 4:1211 5:1912 6:1172 7:33.77 8:-118.15 
1 1:4.5469 2:52 3:2216 4:526 5:940 6:530 7:33.76 8:-118.13 
1 1:4.25 2:44 3:1543 4:463 5:652 6:406 7:33.76 8:-118.13 
1 1:4.7361 2:50 3:914 4:167 5:322 6:165 7:33.76 8:-118.14 
1 1:3.9352 2:44 3:2532 4:621 5:961 6:550 7:33.76 8:-118.13 
1 1:3.7813 2:43 3:3070 4:668 5:1240 6:646 7:33.76 8:-118.12 
1 1:5.6051 2:15 3:4690 4:1002 5:1879 6:974 7:33.76 8:-118.1 
1 1:5.1508 2:15 3:9103 4:1847 5:3333 6:1712 7:33.77 8:-118.11 
1 1:6.0362 2:20 3:4534 4:954 5:1941 6:892 7:33.77 8:-118.12 
1 1:4.6852 2:52 3:3697 4:691 5:1436 6:671 7:33.77 8:-118.13 
1 1:2.8333 2:52 3:2359 4:591 5:1100 6:431 7:33.34 8:-118.33 
-1 1:1.5078 2:36 3:1786 4:418 5:1367 6:393 7:33.95 8:-118.3 
-1 1:2.5679 2:36 3:3504 4:862 5:2521 6:836 7:33.94 8:-118.3 
-1 1:1.7244 2:32 3:1815 4:488 5:1715 6:475 7:33.93 8:-118.29 
-1 1:4.9464 2:43 3:1834 4:292 5:997 6:295 7:33.93 8:-118.31 
-1 1:3.1719 2:43 3:3819 4:708 5:1505 6:712 7:33.95 8:-118.32 
-1 1:5.0912 2:44 3:2131 4:360 5:1040 6:330 7:33.95 8:-118.32 
-1 1:2.7139 2:52 3:1590 4:302 5:844 6:295 7:33.97 8:-118.32 
-1 1:4.3919 2:46 3:1504 4:270 5:814 6:306 7:33.97 8:-118.32 
-1 1:2.3882 2:47 3:2649 4:684 5:2374 6:607 7:33.98 8:-118.34 
-1 1:3.1354 2:26 3:2773 4:681 5:1560 6:631 7:33.96 8:-118.35 
-1 1:3.95 2:45 3:1076 4:213 5:781 6:238 7:33.95 8:-118.35 
1 1:4.4038 2:45 3:1559 4:305 5:891 6:341 7:33.98 8:-118.36 
1 1:5.057 2:46 3:1425 4:283 5:782 6:273 7:33.98 8:-118.36 
-1 1:2.3125 2:38 3:2169 4:688 5:3036 6:639 7:33.94 8:-118.36 
-1 1:2.8462 2:35 3:1451 4:435 5:1888 6:420 7:33.94 8:-118.35 
-1 1:2.8304 2:33 3:4294 4:1224 5:4512 6:1189 7:33.93 8:-118.34 
-1 1:3.0677 2:37 3:1638 4:407 5:1341 6:369 7:33.93 8:-118.34 
-1 1:2.11 2:25 3:2260 4:692 5:1603 6:673 7:33.93 8:-118.35 
1 1:2.75 2:24 3:2728 4:845 5:2023 6:773 7:33.92 8:-118.35 
-1 1:2.6961 2:19 3:3103 4:918 5:2033 6:738 7:33.93 8:-118.36 
1 1:4.8611 2:39 3:1073 4:206 5:556 6:204 7:33.92 8:-118.37 
-1 1:3.0132 2:44 3:520 4:116 5:392 6:106 7:33.93 8:-118.36 
1 1:5.6704 2:35 3:1742 4:283 5:812 6:282 7:33.91 8:-118.37 
1 1:3.87 2:26 3:2159 4:523 5:1331 6:520 7:33.91 8:-118.35 
-1 1:2.4741 2:8 3:3937 4:1404 5:2691 6:1142 7:33.91 8:-118.34 
-1 1:5.3292 2:34 3:1374 4:240 5:906 6:248 7:33.92 8:-118.29 
-1 1:3.287 2:19 3:2421 4:689 5:1726 6:660 7:33.9 8:-118.3 
1 1:4.0536 2:26 3:1221 4:312 5:807 6:330 7:33.88 8:-118.3 
-1 1:3.4792 2:30 3:2407 4:581 5:1724 6:531 7:33.9 8:-118.31 
-1 1:3.7639 2:37 3:2278 4:508 5:1257 6:498 7:33.89 8:-118.31 
-1 1:4.1458 2:35 3:2144 4:423 5:1192 6:417 7:33.89 8:-118.31 
1 1:4.1776 2:36 3:1342 4:259 5:706 6:261 7:33.9 8:-118.34 
-1 1:4.1953 2:39 3:1880 4:361 5:982 6:357 7:33.89 8:-118.33 
-1 1:5.1874 2:42 3:1816 4:338 5:897 6:306 7:33.89 8:-118.33 
1 1:6.0088 2:36 3:2392 4:444 5:1346 6:445 7:33.89 8:-118.34 
-1 1:2.8777 2:13 3:2887 4:853 5:2197 6:800 7:33.9 8:-118.35 
-1 1:3.3971 2:22 3:1127 4:287 5:697 6:241 7:33.9 8:-118.35 
-1 1:3.0833 2:25 3:1769 4:440 5:1371 6:414 7:33.89 8:-118.35 
-1 1:3.2589 2:42 3:725 4:183 5:493 6:172 7:33.88 8:-118.34 
-1 1:3.2594 2:36 3:1567 4:362 5:1054 6:386 7:33.88 8:-118.35 
1 1:4.5987 2:32 3:2828 4:629 5:1313 6:534 7:33.92 8:-118.4 
1 1:4.7319 2:35 3:2217 4:447 5:1000 6:450 7:33.93 8:-118.4 
1 1:5.0596 2:38 3:3328 4:625 5:1455 6:619 7:33.93 8:-118.41 
1 1:4.1818 2:22 3:2514 4:605 5:1225 6:568 7:33.93 8:-118.41 
1 1:5.2338 2:38 3:1437 4:272 5:590 6:250 7:33.92 8:-118.41 
1 1:4.5743 2:28 3:4603 4:993 5:2191 6:943 7:33.93 8:-118.42 
1 1:7.3151 2:34 3:2674 4:435 5:1087 6:431 7:33.9 8:-118.4 
1 1:8.468 2:39 3:2311 4:404 5:1044 6:380 7:33.9 8:-118.41 
1 1:7.9059 2:38 3:2868 4:466 5:1098 6:438 7:33.9 8:-118.4 
1 1:6.3434 2:30 3:2532 4:464 5:1056 6:419 7:33.89 8:-118.39 
1 1:7.3356 2:38 3:1851 4:332 5:750 6:314 7:33.89 8:-118.39 
1 1:7.1845 2:40 3:826 4:143 5:389 6:147 7:33.89 8:-118.39 
1 1:4.4271 2:44 3:1362 4:237 5:709 6:247 7:33.88 8:-118.36 
1 1:5.6091 2:21 3:2696 4:548 5:1142 6:473 7:33.89 8:-118.37 
1 1:6.02 2:19 3:757 4:148 5:361 6:141 7:33.87 8:-118.37 
1 1:4.5357 2:27 3:1688 4:331 5:811 6:327 7:33.88 8:-118.37 
1 1:3.9868 2:17 3:1082 4:291 5:598 6:281 7:33.87 8:-118.36 
1 1:5.0114 2:18 3:2516 4:485 5:1128 6:433 7:33.87 8:-118.37 
1 1:3.5048 2:13 3:2907 4:726 5:1573 6:694 7:33.87 8:-118.37 
1 1:5.543 2:34 3:1865 4:345 5:963 6:302 7:33.86 8:-118.36 
1 1:6.5755 2:23 3:1829 4:331 5:891 6:356 7:33.87 8:-118.37 
1 1:5.8518 2:23 3:2387 4:418 5:1008 6:415 7:33.87 8:-118.38 
1 1:6.4242 2:12 3:4235 4:735 5:1798 6:683 7:33.86 8:-118.38 
1 1:6.7613 2:29 3:2787 4:475 5:1182 6:444 7:33.86 8:-118.38 
1 1:7.674 2:15 3:1778 4:311 5:908 6:330 7:33.86 8:-118.38 
1 1:6.9021 2:33 3:1993 4:371 5:918 6:361 7:33.87 8:-118.38 
1 1:4.8611 2:39 3:1489 4:282 5:743 6:270 7:33.88 8:-118.38 
1 1:5.0602 2:34 3:1830 4:315 5:822 6:307 7:33.88 8:-118.38 
1 1:7.6685 2:33 3:2496 4:387 5:1098 6:404 7:33.88 8:-118.39 
1 1:6.077 2:34 3:1973 4:367 5:843 6:345 7:33.88 8:-118.39 
1 1:5.9683 2:33 3:2543 4:439 5:1098 6:416 7:33.88 8:-118.39 
1 1:8.0015 2:35 3:1060 4:191 5:444 6:196 7:33.88 8:-118.4 
1 1:5.9683 2:34 3:2395 4:469 5:1087 6:438 7:33.87 8:-118.39 
1 1:6.435 2:40 3:1679 4:372 5:719 6:385 7:33.87 8:-118.4 
1 1:5.0976 2:34 3:3145 4:786 5:1352 6:727 7:33.87 8:-118.4 
1 1:5.687 2:34 3:2361 4:442 5:915 6:437 7:33.86 8:-118.39 
1 1:6.1404 2:28 3:3619 4:764 5:1735 6:789 7:33.86 8:-118.39 
1 1:5.1677 2:18 3:5152 4:1365 5:2286 6:1243 7:33.86 8:-118.4 
1 1:5.6017 2:29 3:2085 4:533 5:919 6:489 7:33.85 8:-118.4 
1 1:4.9384 2:28 3:4430 4:928 5:2131 6:885 7:33.85 8:-118.38 
1 1:5.7128 2:24 3:4373 4:871 5:1830 6:824 7:33.85 8:-118.39 
1 1:4.3594 2:17 3:1610 4:379 5:670 6:341 7:33.85 8:-118.39 
1 1:4.4615 2:20 3:2270 4:498 5:1070 6:521 7:33.83 8:-118.38 
1 1:5.1626 2:40 3:3070 4:570 5:1264 6:506 7:33.83 8:-118.38 
1 1:5.145 2:19 3:6206 4:1611 5:2455 6:1472 7:33.83 8:-118.43 
1 1:4.5179 2:35 3:2152 4:454 5:902 6:414 7:33.83 8:-118.38 
1 1:5.3244 2:28 3:3763 4:762 5:1967 6:724 7:33.87 8:-118.32 
1 1:4.3036 2:35 3:1818 4:339 5:828 6:319 7:33.88 8:-118.32 
1 1:4.7543 2:27 3:3348 4:695 5:1545 6:625 7:33.87 8:-118.31 
1 1:5.6254 2:35 3:2380 4:404 5:1212 6:422 7:33.87 8:-118.32 
1 1:6.4891 2:35 3:743 4:128 5:385 6:137 7:33.87 8:-118.33 
1 1:6.3992 2:36 3:854 4:160 5:473 6:150 7:33.86 8:-118.33 
1 1:5.4791 2:35 3:1936 4:343 5:1008 6:346 7:33.86 8:-118.34 
1 1:5.5 2:34 3:2823 4:500 5:1429 6:483 7:33.87 8:-118.35 
1 1:6.2778 2:36 3:1561 4:252 5:740 6:253 7:33.84 8:-118.34 
1 1:4.8906 2:36 3:1390 4:230 5:683 6:219 7:33.85 8:-118.36 
1 1:5.785 2:25 3:5622 4:998 5:2537 6:1009 7:33.85 8:-118.37 
1 1:3.703 2:22 3:11016 4:3170 5:6664 6:2838 7:33.84 8:-118.36 
1 1:5.3773 2:27 3:3245 4:605 5:1572 6:556 7:33.84 8:-118.37 
1 1:5.1984 2:36 3:1660 4:300 5:943 6:300 7:33.83 8:-118.36 
1 1:4.9583 2:35 3:1792 4:322 5:978 6:326 7:33.84 8:-118.37 
1 1:5.9143 2:35 3:1378 4:247 5:645 6:217 7:33.83 8:-118.36 
1 1:6.7105 2:32 3:1751 4:328 5:819 6:323 7:33.84 8:-118.37 
1 1:3.402 2:35 3:3462 4:814 5:1902 6:700 7:33.82 8:-118.31 
1 1:4.1406 2:39 3:2198 4:425 5:1160 6:436 7:33.82 8:-118.31 
