svm_type epsilon_svr
kernel_type rbf
gamma 0.25
nr_class 2
total_sv 1500
rho -0.101439
SV
0.7992187499999999 1:700 2:710.57 3:696 4:1997400 
0.7992187499999999 1:701.69 2:706.91 3:700.01 4:1402000 
-1 1:707.14 2:708.84 3:698.61 4:1647400 
-1 1:714.51 2:715.18 3:707.47 4:840900 
-1 1:713.97 2:718.82 3:710.52 4:3526000 
-1 1:723.26 2:724.65 3:716.97 4:1657000 
-1 1:716.6 2:729.1 3:715.05 4:3004900 
0.7992187499999999 1:699.17 2:707.82 3:698.43 4:2130100 
-1 1:715.92 2:716.47 3:699.55 4:3444900 
0.7992187499999999 1:699.23 2:703.51 3:693.48 4:2426000 
0.7992187499999999 1:685.39 2:691.65 3:683.79 4:1366700 
-1 1:687.59 2:695.61 3:684.51 4:1462300 
-1 1:695 2:695.51 3:685.7 4:1991700 
-1 1:702.24 2:705.89 3:694.11 4:2192500 
-1 1:691.31 2:699.22 3:685.69 4:3163600 
0.7992187499999999 1:660.17 2:675 3:658 4:2508700 
-1 1:669.97 2:670 3:666.1 4:922500 
0.798828125 1:668.99 2:669.8 3:660.4 4:2112200 
-1 1:669.51 2:678 3:664.57 4:2088700 
0.798828125 1:655.7 2:668.92 3:655.53 4:2368200 
0.798828125 1:645.99 2:653.02 3:636 4:3438200 
0.798828125 1:650 2:660 3:643.9 4:1848900 
-1 1:660.66 2:662.18 3:650.5 4:1668400 
-1 1:663.75 2:669.8 3:660.87 4:1405900 
0.798828125 1:654.65 2:668.34 3:650.3 4:3114100 
0.798828125 1:670.2 2:671.49 3:651.23 4:2597000 
-1 1:685.48 2:686.5 3:677.55 4:1582800 
-1 1:684.5 2:686.86 3:675.56 4:1635900 
0.7984374999999999 1:679.86 2:681 3:675 4:1537000 
0.7984374999999999 1:676.5 2:683.03 3:671.2 4:1950800 
-1 1:680 2:682 3:673.51 4:2401100 
0.7984374999999999 1:686.8 2:687 3:675.27 4:2496500 
-1 1:672.01 2:687.33 3:672 4:2916600 
0.7984374999999999 1:681.01 2:684.63 3:669.7 4:4055600 
-1 1:705.58 2:706.7 3:672 4:11482200 
-1 1:755.54 2:759.42 3:676 4:12442400 
0.7984374999999999 1:740.13 2:746.99 3:736.46 4:2058200 
0.7984374999999999 1:741.94 2:743.83 3:730.7 4:3019100 
-1 1:751.85 2:754.87 3:744.1 4:2404200 
-1 1:752.9 2:758.5 3:750.29 4:2383900 
-1 1:770.71 2:774.38 3:765.01 4:2735900 
-1 1:762.75 2:769.89 3:759.4 4:2454200 
0.7984374999999999 1:765.2 2:765.99 3:750.27 4:2790200 
-1 1:759.05 2:765 3:756.21 4:3168000 
0.7984374999999999 1:749.85 2:761.24 3:741 4:5672900 
0.7984374999999999 1:753.05 2:764.89 3:747.66 4:6058500 
0.7984374999999999 1:731 2:750.04 3:730.25 4:3563800 
0.7984374999999999 1:732.21 2:734.92 3:730.12 4:6359100 
0.7984374999999999 1:724.47 2:731.38 3:721.22 4:2907400 
0.7984374999999999 1:717.5 2:728.56 3:716.41 4:3098300 
0.7984374999999999 1:707.78 2:718.66 3:706.78 4:2066800 
0.7984374999999999 1:708.11 2:712.88 3:705 4:1508300 
0.7984374999999999 1:709.6 2:713 3:707.01 4:2618500 
0.7984374999999999 1:693.09 2:709 3:690.54 4:2659000 
-1 1:697.96 2:700.65 3:691 4:1873800 
-1 1:709.76 2:712.81 3:698.39 4:2560000 
0.7984374999999999 1:680 2:686.5 3:679.14 4:1708200 
-1 1:684.55 2:685 3:673.5 4:1889600 
-1 1:684 2:688.58 3:680.04 4:2127100 
0.7984374999999999 1:684.24 2:687.39 3:680.18 4:1626900 
-1 1:677.37 2:688.99 3:676.15 4:2990300 
0.7984374999999999 1:662.99 2:672 3:659.24 4:2613700 
0.7984374999999999 1:674.27 2:680.48 3:671 4:1784200 
-1 1:667.38 2:680.6 3:666.7 4:1909200 
0.7984374999999999 1:673.11 2:678 3:662.17 4:2222200 
-1 1:675.5 2:678.87 3:672.66 4:1758100 
-1 1:674.12 2:677.25 3:671.7 4:2177700 
0.7984374999999999 1:667.51 2:674.64 3:667.08 4:1717700 
0.7984374999999999 1:670.28 2:674.25 3:664.1 4:2410700 
0.7984374999999999 1:647.42 2:660.15 3:646.68 4:3267900 
0.7984374999999999 1:638.59 2:642.24 3:636.13 4:1434600 
0.7984374999999999 1:644.51 2:646.37 3:641.52 4:1070300 
-1 1:639.61 2:649.38 3:639.22 4:1782400 
0.7984374999999999 1:640 2:643.72 3:636.14 4:1897100 
0.7984374999999999 1:625.51 2:638.03 3:623.41 4:1977700 
0.7984374999999999 1:628.26 2:636.5 3:628.22 4:1865600 
0.7984374999999999 1:636.05 2:642.6 3:629.5 4:2186700 
-1 1:618.89 2:635 3:617.5 4:3549700 
0.7984374999999999 1:615 2:616.87 3:610.03 4:1685200 
0.7984374999999999 1:608.32 2:613.38 3:605.37 4:1823000 
-1 1:600.48 2:618.35 3:598.25 4:3561700 
0.7984374999999999 1:608.76 2:612.94 3:598.18 4:6463700 
0.7984374999999999 1:586.14 2:598.48 3:586 4:4674700 
0.7984374999999999 1:576.98 2:583.69 3:576.13 4:1548200 
0.7984374999999999 1:578.43 2:580.67 3:568.4 4:1680100 
0.7984374999999999 1:576.37 2:579.19 3:571.78 4:1462600 
-1 1:572.15 2:579.15 3:568.55 4:1976000 
-1 1:576.3 2:577.85 3:564.94 4:3499300 
-1 1:590.19 2:592.43 3:578.74 4:1923100 
-1 1:584.95 2:588.6 3:581.25 4:1715100 
0.7984374999999999 1:592.45 2:593.52 3:582.82 4:2161800 
-1 1:588.76 2:600.06 3:588.54 4:2345900 
0.7984374999999999 1:580.01 2:588.41 3:578 4:1189500 
0.7984374999999999 1:581.82 2:583 3:576.5 4:1655500 
0.7984374999999999 1:574.96 2:580.13 3:572.2 4:2519500 
0.7984374999999999 1:567.33 2:568.09 3:557.35 4:1581600 
-1 1:568 2:571.48 3:565.82 4:2227900 
0.7984374999999999 1:579.84 2:579.84 3:563.73 4:2011300 
-1 1:573.59 2:584.28 3:573.12 4:2076200 
0.7984374999999999 1:562.62 2:574.21 3:559.25 4:2496900 
0.7984374999999999 1:560.34 2:564.52 3:557.09 4:3001200 
0.7984374999999999 1:561.3 2:565.07 3:556.52 4:2344900 
-1 1:561.72 2:567 3:558.68 4:1954200 
-1 1:569.77 2:570.3 3:558.58 4:3224200 
-1 1:575.85 2:581 3:574.58 4:1410400 
0.7984374999999999 1:587.6 2:587.89 3:577.25 4:1758500 
-1 1:576.48 2:581.97 3:573.61 4:2095800 
0.7984374999999999 1:575.45 2:578.13 3:566.47 4:2339900 
-1 1:570.22 2:580.49 3:570.01 4:2432700 
0.7984374999999999 1:571.79 2:572.65 3:568.35 4:3057900 
-1 1:588.72 2:590 3:579 4:2968300 
-1 1:588.16 2:591.9 3:583.53 4:1906700 
-1 1:595.81 2:599.13 3:588.32 4:2605700 
0.7984374999999999 1:601 2:601.73 3:588.28 4:3581900 
-1 1:609.16 2:611.92 3:598.87 4:1891300 
-1 1:601.65 2:609.6 3:597.12 4:3178100 
0.7984374999999999 1:613.44 2:613.81 3:596 4:3051900 
-1 1:633.83 2:637.85 3:621.23 4:3353800 
0.7984374999999999 1:605.35 2:615 3:603.75 4:2102100 
0.7984374999999999 1:600.78 2:608.5 3:600.58 4:1824400 
-1 1:610.35 2:614.55 3:604.77 4:2099400 
-1 1:612.96 2:616.19 3:610.23 4:1535900 
-1 1:605.53 2:616.9 3:600.7 4:2677300 
0.7984374999999999 1:603.79 2:611.6 3:600.19 4:2002300 
0.7984374999999999 1:612.99 2:616.08 3:600.61 4:2407300 
-1 1:615.02 2:616.74 3:610.6 4:1636400 
0.7984374999999999 1:604 2:611.35 3:602.88 4:1821100 
0.7984374999999999 1:598.24 2:606.63 3:597.32 4:1929100 
0.7984374999999999 1:592.9 2:598.45 3:590.2 4:2197800 
0.7984374999999999 1:604.25 2:608.85 3:595.83 4:3058400 
-1 1:605.69 2:616.26 3:599 4:3294600 
-1 1:608.05 2:612.8 3:602.81 4:2669500 
-1 1:608.56 2:617.69 3:607.01 4:3023900 
0.7984374999999999 1:623 2:623.81 3:601.66 4:5692100 
-1 1:642.35 2:653.14 3:640.26 4:5756600 
0.7984374999999999 1:633.97 2:636 3:631.3 4:2199000 
0.7984374999999999 1:633.52 2:634.5 3:624.55 4:2482000 
-1 1:628.48 2:635.33 3:625.29 4:2182700 
-1 1:632.24 2:636.43 3:628.57 4:2318700 
-1 1:638.45 2:639 3:631.1 4:1627600 
-1 1:645.41 2:647.95 3:638.64 4:2044900 
-1 1:640.77 2:647.5 3:634.84 4:2284200 
-1 1:653.44 2:656.59 3:644.3 4:1924300 
0.7984374999999999 1:647.03 2:653.5 3:644.8 4:2007200 
-1 1:645 2:649.49 3:639.54 4:1819200 
0.7984374999999999 1:646.6 2:648.5 3:640.9 4:1940200 
0.7984374999999999 1:634.61 2:647.39 3:632.51 4:2469600 
0.7984374999999999 1:630.92 2:636.06 3:627.27 4:1540500 
0.7984374999999999 1:623.12 2:637.27 3:621.24 4:2172800 
0.7984374999999999 1:620.89 2:625.91 3:620.05 4:3050500 
0.7984374999999999 1:616.6 2:623.5 3:614.83 4:2435100 
-1 1:608.75 2:617.85 3:605.55 4:2245800 
0.7984374999999999 1:607.95 2:611.9 3:600 4:2670600 
-1 1:610.04 2:611.5 3:606.35 4:1345500 
0.7984374999999999 1:608.05 2:608.81 3:593.84 4:3174400 
-1 1:620.43 2:622.49 3:611.38 4:1593300 
-1 1:622.26 2:625.7 3:618.15 4:2237700 
0.7984374999999999 1:618.6 2:625.6 3:615.5 4:3136900 
0.7984374999999999 1:610 2:619.77 3:607.68 4:2847600 
0.7984374999999999 1:606.59 2:612.36 3:605.06 4:1813900 
0.7984374999999999 1:607.35 2:611.65 3:605.51 4:1935600 
0.7984374999999999 1:607 2:607.94 3:600.35 4:2055000 
-1 1:611.96 2:616.78 3:606.71 4:1967000 
0.7984374999999999 1:604.97 2:607.63 3:602.4 4:2449100 
-1 1:602.82 2:608.81 3:597.73 4:2530900 
0.7984374999999999 1:612.93 2:612.93 3:602.56 4:2425900 
-1 1:610.5 2:613.84 3:610.02 4:1816300 
0.7984374999999999 1:607.88 2:608.13 3:604 4:2325200 
-1 1:612.02 2:614.5 3:609 4:2264700 
-1 1:595.01 2:610.83 3:594.01 4:3679600 
0.7984374999999999 1:590.66 2:597.07 3:588.05 4:3168500 
0.7984374999999999 1:584.87 2:586.41 3:582.08 4:2414700 
0.7984374999999999 1:584.94 2:585.5 3:579.14 4:2320700 
0.7984374999999999 1:583 2:584 3:575.15 4:2142400 
0.7984374999999999 1:578.05 2:580 3:573.4 4:2330500 
-1 1:570.78 2:580.32 3:569.33 4:3617500 
0.7984374999999999 1:571.98 2:574.48 3:564.55 4:3226200 
-1 1:577.51 2:578.71 3:566.38 4:4987700 
-1 1:586 2:588.66 3:583.16 4:3412900 
-1 1:640.99 2:640.99 3:631.46 4:6305300 
0.7984374999999999 1:626.63 2:634 3:622.12 4:2761700 
0.7984374999999999 1:631.98 2:631.98 3:625.68 4:1909300 
0.7984374999999999 1:626.26 2:626.95 3:621.06 4:2307300 
-1 1:631.22 2:632.89 3:626.5 4:1875200 
0.7984374999999999 1:623.5 2:629.39 3:621.12 4:2400000 
0.7984374999999999 1:646.5 2:647 3:621.23 4:5822600 
-1 1:659.15 2:660 3:649.79 4:2692900 
-1 1:632.05 2:644.49 3:632 4:1606400 
0.7984374999999999 1:627.95 2:631.73 3:627.01 4:1822300 
0.7984374999999999 1:630.01 2:631.82 3:618.96 4:2497900 
-1 1:628 2:631.84 3:627.99 4:2388200 
0.7984374999999999 1:628.01 2:628.5 3:620 4:2143500 
-1 1:624.32 2:629.32 3:621.47 4:4459300 
0.7984374999999999 1:622.52 2:624 3:618.69 4:2408600 
0.7984374999999999 1:621.85 2:624.32 3:612.49 4:3903700 
-1 1:628.76 2:636.56 3:622.85 4:4028200 
0.7984374999999999 1:621.88 2:626.18 3:620.29 4:2183900 
0.7984374999999999 1:621.04 2:627.45 3:615.3 4:2413100 
0.7984374999999999 1:622.99 2:628.62 3:620.24 4:2326500 
-1 1:627.64 2:631.9 3:622.4 4:3197500 
0.7984374999999999 1:617.05 2:624 3:616.26 4:4085700 
0.7984374999999999 1:600 2:616 3:599 4:3620600 
0.7984374999999999 1:597.95 2:599.51 3:592.09 4:3397000 
0.7984374999999999 1:587.88 2:590.36 3:581.33 4:1831800 
0.7984374999999999 1:565.19 2:574.27 3:561.33 4:1562400 
-1 1:575.35 2:580.25 3:570.11 4:2325800 
-1 1:580 2:584.97 3:575.24 4:2405300 
-1 1:612.8 2:618.08 3:610.5 4:2676000 
0.7984374999999999 1:601.3 2:612.09 3:598.6 4:3977000 
-1 1:604.26 2:609.39 3:598.66 4:3711000 
0.7984374999999999 1:593.32 2:608.78 3:592.23 4:3357400 
0.7984374999999999 1:593.5 2:599.74 3:592.43 4:2834800 
-1 1:587 2:597.5 3:583.72 4:2669800 
-1 1:594.52 2:602.3 3:594.25 4:2508000 
0.7984374999999999 1:598.42 2:602.7 3:593.3 4:3780300 
0.7984374999999999 1:589.55 2:590.18 3:572.86 4:2873100 
-1 1:586.72 2:599.97 3:586.5 4:3426900 
0.7984374999999999 1:581.9 2:588.89 3:579.51 4:3379000 
0.7984374999999999 1:587.34 2:592.06 3:579.22 4:2931500 
0.7984374999999999 1:583.72 2:591.83 3:578 4:4008200 
-1 1:599.47 2:599.6 3:587.57 4:8529900 
0.7984374999999999 1:550.03 2:559 3:548.02 4:5687600 
0.7984374999999999 1:548.13 2:555.23 3:544.63 4:3177800 
0.7984374999999999 1:533.46 2:546.8 3:533.46 4:2853400 
0.7984374999999999 1:525.18 2:537.47 3:523.2 4:2322200 
0.7984374999999999 1:516.83 2:520.5 3:510.3 4:2855900 
0.7984374999999999 1:507.5 2:515.23 3:502.6 4:3424300 
0.7984374999999999 1:496.35 2:507.8 3:480.77 4:4534100 
0.7984374999999999 1:490.03 2:503.44 3:480.6 4:4158800 
-1 1:520.21 2:524 3:514.38 4:2723600 
-1 1:536.04 2:537.3 3:519.41 4:2906600 
-1 1:541.5 2:544.02 3:527.7 4:2263300 
0.7984374999999999 1:527.25 2:532.93 3:513.25 4:2634200 
0.7984374999999999 1:526.25 2:528.78 3:514 4:4400300 
-1 1:547.69 2:555 3:538.86 4:2514300 
-1 1:549.4 2:558.52 3:542.67 4:2779100 
0.7984374999999999 1:540.35 2:549.9 3:535.38 4:2468400 
0.7984374999999999 1:535.5 2:544.98 3:534.56 4:2960800 
0.7984374999999999 1:532.59 2:536.95 3:525.82 4:2694400 
0.7984374999999999 1:532 2:533.88 3:523.4 4:2354200 
-1 1:517.96 2:531.99 3:517.5 4:2670400 
0.7984374999999999 1:531.4 2:534.65 3:521.19 4:3268800 
-1 1:533.8 2:539.1 3:531.9 4:2380500 
0.7984374999999999 1:510.8 2:522.76 3:510.5 4:2715800 
-1 1:544.74 2:546.3 3:536 4:2693300 
0.7984374999999999 1:534.56 2:539.45 3:533.56 4:2335800 
0.7984374999999999 1:519.99 2:530.45 3:513.14 4:3596300 
0.7984374999999999 1:530.38 2:537.27 3:518.3 4:3293000 
-1 1:519.33 2:530 3:517.23 4:3594500 
-1 1:523.47 2:524.89 3:500.49 4:6290700 
-1 1:540.03 2:543.69 3:530.77 4:4079100 
-1 1:552.43 2:552.44 3:530.3 4:6939400 
-1 1:553.43 2:564.99 3:546.05 4:7144900 
-1 1:569.5 2:570.5 3:560.4 4:3154300 
0.7984374999999999 1:553.82 2:568.5 3:548.41 4:4830600 
-1 1:561 2:574.61 3:541.01 4:6469700 
0.7984374999999999 1:562.98 2:569 3:544.35 4:7496600 
0.7984374999999999 1:594.5 2:598.85 3:577.47 4:4914600 
-1 1:594.27 2:603 3:583.63 4:3825700 
0.7984374999999999 1:606 2:609.67 3:591.57 4:3200600 
-1 1:611.22 2:615.5 3:599.18 4:3966100 
-1 1:605.19 2:615.98 3:603 4:3108400 
-1 1:618.05 2:627.5 3:617.22 4:2342900 
0.7984374999999999 1:613.36 2:625.41 3:613 4:3131600 
0.7984374999999999 1:605.39 2:619.5 3:604.27 4:3528200 
0.7984374999999999 1:594.03 2:608.06 3:594.01 4:3469500 
0.7984374999999999 1:602.18 2:602.83 3:595.35 4:2227800 
-1 1:596.14 2:604.68 3:595.53 4:2967500 
0.7984374999999999 1:539.12 2:542 3:526.73 4:6649500 
-1 1:537 2:544 3:536.48 4:2790200 
0.7984374999999999 1:528.18 2:535.98 3:525.5 4:2839300 
-1 1:532.95 2:537.65 3:527.27 4:4770200 
0.7984374999999999 1:533.5 2:538.51 3:533.04 4:2695600 
0.7984374999999999 1:525.3 2:535.4 3:525.3 4:3849200 
0.7984374999999999 1:501.99 2:506.67 3:501.5 4:2428400 
0.7984374999999999 1:496.54 2:500.25 3:492.38 4:2343000 
0.7984374999999999 1:474 2:488.4 3:473.6 4:3444700 
0.7984374999999999 1:480.68 2:480.75 3:473.02 4:3805600 
-1 1:491.45 2:492.35 3:486.73 4:2407100 
-1 1:506.18 2:506.69 3:484.8 4:5245400 
-1 1:502.81 2:506.57 3:496.67 4:2757000 
-1 1:508.15 2:514.08 3:506.99 4:2341500 
-1 1:520 2:520 3:515.64 4:1689100 
0.7984374999999999 1:522.89 2:524.63 3:518.99 4:1907600 
-1 1:523.54 2:526.82 3:519.25 4:1942100 
0.7984374999999999 1:528.04 2:533.2 3:525.31 4:2955900 
-1 1:525 2:529.05 3:523.5 4:2687300 
0.7984374999999999 1:518.48 2:521.79 3:516.3 4:1745800 
0.7984374999999999 1:517.7 2:522.12 3:515 4:2118500 
0.7984374999999999 1:520.37 2:523.96 3:518.15 4:1900000 
-1 1:531.8 2:531.99 3:523.13 4:2317500 
0.7984374999999999 1:529.54 2:530.33 3:525.7 4:1953200 
0.7984374999999999 1:526.31 2:527.27 3:516.4 4:2958200 
-1 1:540 2:544.43 3:537.54 4:2042900 
0.7984374999999999 1:538.15 2:541.46 3:535.18 4:2056100 
0.7984374999999999 1:533.86 2:539.42 3:531.5 4:1997800 
-1 1:535.17 2:539 3:533.02 4:2117000 
0.7984374999999999 1:537.13 2:542.01 3:529.63 4:2081500 
-1 1:545.7 2:545.73 3:537.12 4:2133700 
0.7984374999999999 1:538.06 2:539.25 3:534.08 4:2000000 
0.7984374999999999 1:538 2:538.11 3:534.35 4:2298400 
0.7984374999999999 1:526.52 2:537.44 3:525.21 4:3500000 
0.7984374999999999 1:525.25 2:527 3:522.01 4:1630800 
0.7984374999999999 1:527.49 2:528.28 3:522.39 4:2470100 
-1 1:526.42 2:527.66 3:519 4:5039800 
-1 1:545.29 2:545.75 3:530.06 4:14043700 
-1 1:575.19 2:579.45 3:572.1 4:5456300 
0.7984374999999999 1:575.51 2:577.6 3:571.75 4:2069400 
0.7984374999999999 1:575 2:576.91 3:568.05 4:2085600 
-1 1:576.2 2:578.1 3:573 4:1858200 
-1 1:575.73 2:580.64 3:574.19 4:2531500 
0.7984374999999999 1:572.18 2:575.16 3:568 4:2668300 
0.7984374999999999 1:581.08 2:581.49 3:565.68 4:6047500 
-1 1:588.76 2:595.19 3:588.76 4:2613200 
0.7984374999999999 1:583 2:588.16 3:581.74 4:2029400 
0.7984374999999999 1:584.38 2:585.5 3:580.58 4:1422300 
0.7984374999999999 1:576 2:581.89 3:573.01 4:1604800 
0.7984374999999999 1:582.07 2:584.99 3:574.71 4:2218400 
-1 1:585.43 2:588.39 3:578.8 4:2098700 
0.7984374999999999 1:570.22 2:579.8 3:569.02 4:3020900 
0.7984374999999999 1:564.64 2:567.99 3:559.74 4:3298600 
0.7984374999999999 1:568.01 2:569.79 3:551.28 4:3798500 
0.7984374999999999 1:572.8 2:578.29 3:568.02 4:2816100 
-1 1:578.22 2:580 3:573.33 4:3032000 
-1 1:585.44 2:586.62 3:579.45 4:3128100 
-1 1:591 2:594.51 3:585.75 4:2151000 
0.7984374999999999 1:600.55 2:603.69 3:587 4:3462700 
0.7984374999999999 1:599.8 2:606 3:595.19 4:2026700 
0.7984374999999999 1:611.86 2:614.72 3:609.5 4:1932400 
-1 1:610.33 2:614.7 3:604 4:2889600 
0.7984374999999999 1:620.03 2:624.93 3:607.77 4:3639900 
-1 1:626 2:631.18 3:624.18 4:3217900 
0.7984374999999999 1:621.25 2:627.25 3:620.28 4:1478800 
0.7984374999999999 1:625.63 2:626.5 3:622.1 4:1684000 
-1 1:623.34 2:629.64 3:620.04 4:2128000 
0.7984374999999999 1:613.79 2:625 3:613 4:2589900 
0.7984374999999999 1:616.87 2:619.45 3:612.34 4:1842500 
-1 1:614.93 2:619.63 3:614.51 4:1694900 
0.7984374999999999 1:610.16 2:618.39 3:609.21 4:1799600 
0.7984374999999999 1:610.15 2:611.44 3:606.61 4:1550800 
0.7984374999999999 1:609.48 2:611.45 3:606.13 4:1495100 
-1 1:611 2:614.34 3:607.53 4:1760700 
0.7984374999999999 1:604.49 2:613.35 3:603.11 4:2745300 
0.7984374999999999 1:603.6 2:604.47 3:595.55 4:2804900 
0.7984374999999999 1:619.07 2:620.36 3:599.76 4:4231100 
0.7984374999999999 1:620.33 2:622.49 3:615.28 4:2038100 
-1 1:608.2 2:620.69 3:606.52 4:3646800 
0.7984374999999999 1:639.58 2:641.73 3:611.36 4:8904400 
-1 1:632.21 2:634.08 3:623.29 4:5485800 
-1 1:626.06 2:641.99 3:625.27 4:3617000 
0.7984374999999999 1:617.4 2:624.27 3:617.08 4:2365600 
0.7984374999999999 1:616.97 2:619.67 3:614.16 4:1334000 
0.7984374999999999 1:619.35 2:619.35 3:614.77 4:1632700 
0.7984374999999999 1:617.71 2:618.8 3:614.5 4:1439300 
0.7984374999999999 1:614.8 2:615.39 3:608.56 4:1579200 
0.7984374999999999 1:600.07 2:610.33 3:600.05 4:2532300 
0.7984374999999999 1:605.62 2:606.18 3:600.12 4:1824500 
0.7984374999999999 1:596.74 2:598.42 3:592.03 4:1539300 
-1 1:598 2:601.33 3:597.39 4:989500 
0.7984374999999999 1:602.05 2:603.87 3:598.01 4:1064800 
-1 1:602.74 2:603.78 3:599.5 4:1208100 
0.7984374999999999 1:598.57 2:604.72 3:597.61 4:1879500 
0.7984374999999999 1:594.65 2:597.88 3:588.66 4:1973300 
-1 1:592.85 2:593.77 3:588.07 4:1596900 
0.7984374999999999 1:594.2 2:596.45 3:589.15 4:2167700 
-1 1:597.09 2:598.29 3:592.48 4:1643300 
0.7984374999999999 1:597.12 2:603 3:594.09 4:2398500 
0.7984374999999999 1:593.88 2:595.58 3:589 4:1868900 
0.7984374999999999 1:591.97 2:592.52 3:583.69 4:1756900 
0.7984374999999999 1:591.27 2:593 3:586 4:3042200 
0.7984374999999999 1:569.45 2:576.48 3:568 4:2631200 
0.7984374999999999 1:568.66 2:573.33 3:565.35 4:2547900 
0.7984374999999999 1:574.32 2:574.32 3:553.31 4:7117400 
-1 1:589.17 2:589.8 3:579.95 4:2859700 
-1 1:590.46 2:592.98 3:587 4:1311100 
-1 1:587.31 2:596.6 3:587.05 4:2396400 
-1 1:587.47 2:593.44 3:582.75 4:2186600 
0.7984374999999999 1:585 2:589.5 3:581.37 4:2442500 
0.7984374999999999 1:592.76 2:597.89 3:583.45 4:3307400 
-1 1:603.08 2:604 3:594.05 4:3478900 
-1 1:613.99 2:616.9 3:601.21 4:3393000 
-1 1:619.7 2:619.85 3:614.21 4:2261600 
-1 1:622.08 2:623 3:617.51 4:2497000 
-1 1:624.02 2:629.49 3:623.13 4:2101300 
0.7984374999999999 1:623.18 2:625.49 3:621.11 4:1765700 
0.7984374999999999 1:624.64 2:629.92 3:622.1 4:3570800 
0.7984374999999999 1:617.5 2:621.83 3:613.5 4:3380500 
0.7984374999999999 1:618.67 2:620 3:614.58 4:1997600 
0.7984374999999999 1:615.73 2:620.66 3:611.21 4:3087100 
0.7984374999999999 1:617.07 2:619 3:612.99 4:2278300 
-1 1:613.1 2:621.23 3:611.03 4:2512900 
0.7984374999999999 1:615.59 2:624.74 3:614.97 4:3158400 
0.7984374999999999 1:608.85 2:614.82 3:602.86 4:4587900 
-1 1:600.55 2:619.69 3:600.55 4:7098200 
0.7984374999999999 1:599.27 2:601.64 3:591.6 4:14824800 
-1 1:547 2:547.49 3:542.33 4:3055600 
0.7984374999999999 1:536.21 2:537.2 3:529.14 4:2395800 
-1 1:539.26 2:539.95 3:529.94 4:2762300 
0.7984374999999999 1:529.16 2:531.87 3:518.92 4:3244100 
-1 1:527.85 2:532.94 3:524.71 4:2172200 
0.7984374999999999 1:533.48 2:533.59 3:518.45 4:3654700 
-1 1:528.85 2:536.85 3:528.85 4:3107400 
0.7984374999999999 1:521.74 2:527.83 3:518.26 4:3356900 
-1 1:512.86 2:517.78 3:511.68 4:2537100 
0.7984374999999999 1:509.68 2:519.98 3:508.91 4:4466300 
0.7984374999999999 1:483.75 2:491.2 3:481.18 4:5641600 
0.7984374999999999 1:479.95 2:482.45 3:479.41 4:1969500 
0.7984374999999999 1:479.95 2:481.89 3:478.5 4:2402800 
0.7984374999999999 1:482.01 2:484.75 3:480.08 4:2216500 
0.7984374999999999 1:477.83 2:480.4 3:470.58 4:2430600 
0.7984374999999999 1:465.19 2:472.5 3:464.51 4:2401800 
0.7984374999999999 1:464.5 2:467.59 3:463.02 4:1709900 
-1 1:470.52 2:471.88 3:467.44 4:2540400 
0.7984374999999999 1:462.84 2:464.43 3:460.31 4:1684200 
0.7984374999999999 1:454.98 2:464.94 3:452.5 4:3228300 
-1 1:459.15 2:459.76 3:452.42 4:1231400 
0.7984374999999999 1:456.06 2:457.26 3:450.44 4:1777000 
-1 1:450 2:457.81 3:450 4:2592100 
-1 1:461.5 2:468.25 3:457.73 4:2986200 
0.7984374999999999 1:467.97 2:471.59 3:461.02 4:3917600 
-1 1:490.44 2:490.87 3:481.55 4:2686400 
-1 1:489 2:491.19 3:486.01 4:1934700 
-1 1:483.94 2:494.75 3:482.51 4:2204600 
0.7984374999999999 1:497.73 2:498 3:491.5 4:2223000 
-1 1:502.35 2:506 3:498.57 4:2074000 
-1 1:502.25 2:505.5 3:501.36 4:1872200 
0.7984374999999999 1:505.4 2:505.74 3:496.05 4:3319500 
0.7984374999999999 1:492.18 2:507 3:491.05 4:3812500 
0.7984374999999999 1:490.5 2:492.46 3:486.76 4:1802300 
-1 1:488.99 2:493.28 3:486.94 4:1858700 
0.7984374999999999 1:479.65 2:487.36 3:479.14 4:2144100 
0.7984374999999999 1:485.95 2:488.88 3:479.33 4:2675500 
0.7984374999999999 1:494.94 2:495.25 3:482.67 4:2496000 
-1 1:490.58 2:497.5 3:490.17 4:2451200 
-1 1:480.77 2:490.59 3:480.01 4:2264400 
0.7984374999999999 1:483.23 2:488.98 3:482.48 4:2147700 
0.7984374999999999 1:484 2:485.7 3:475.43 4:3279600 
0.7984374999999999 1:461.01 2:469.65 3:457.52 4:4550300 
0.7984374999999999 1:469.12 2:470.56 3:459.52 4:7824800 
-1 1:491.73 2:494.7 3:482.68 4:4858200 
0.7984374999999999 1:482.25 2:492.99 3:480.28 4:3976300 
0.7984374999999999 1:471.96 2:473.26 3:462.78 4:4331500 
0.7984374999999999 1:453.55 2:457.33 3:449.66 4:2668900 
0.7984374999999999 1:444 2:447.67 3:433.63 4:2560100 
0.7984374999999999 1:441.62 2:442.28 3:436 4:1936000 
-1 1:445.29 2:448.4 3:433.63 4:3513600 
-1 1:463.44 2:464.55 3:451.12 4:3502100 
0.7984374999999999 1:477.06 2:477.65 3:470.56 4:2245200 
-1 1:489.9 2:496.6 3:485.73 4:2219700 
-1 1:499.9 2:500.97 3:484.89 4:2983500 
0.7984374999999999 1:503.45 2:505.87 3:496.69 4:1977300 
-1 1:496.17 2:504 3:496.11 4:2289300 
0.7984374999999999 1:483.08 2:500.4 3:482.18 4:4259600 
0.7984374999999999 1:494.48 2:494.5 3:483.19 4:2040400 
-1 1:482.5 2:488.71 3:481.62 4:1781700 
-1 1:487.85 2:488.84 3:477.54 4:2685100 
-1 1:499.06 2:500.91 3:483.15 4:3632700 
-1 1:499.72 2:509.25 3:496.7 4:3920300 
-1 1:495.11 2:508 3:494.7 4:3650700 
0.7984374999999999 1:486.68 2:493.87 3:481.46 4:2540800 
-1 1:492.74 2:493.45 3:483 4:2894800 
0.7984374999999999 1:469.06 2:485 3:464.4 4:9690800 
-1 1:485.07 2:485.58 3:473.8 4:4913300 
-1 1:510 2:510.97 3:497.07 4:2825500 
-1 1:516.5 2:522 3:510.37 4:3325800 
0.7984374999999999 1:512.04 2:512.04 3:502 4:3851800 
-1 1:515.67 2:519.88 3:508.22 4:3322600 
0.7984374999999999 1:499.97 2:505.32 3:481.33 4:5089000 
-1 1:508.75 2:517.52 3:460 4:5000100 
-1 1:500.98 2:515.72 3:500.47 4:4582200 
0.7984374999999999 1:531.13 2:537.68 3:525.44 4:2435400 
0.7984374999999999 1:532.1 2:534.83 3:521.03 4:3406100 
0.7984374999999999 1:528.95 2:538.33 3:527.23 4:3844700 
-1 1:544.97 2:544.99 3:529.21 4:4368800 
-1 1:547.25 2:549.32 3:542.27 4:2089400 
-1 1:552 2:552.5 3:543.35 4:3280700 
-1 1:556.46 2:560.25 3:552.16 4:2391500 
-1 1:554.17 2:559.66 3:551.06 4:2977400 
-1 1:592.17 2:597.84 3:588.29 4:6761800 
0.7984374999999999 1:590.06 2:592.34 3:584.01 4:3402700 
0.7984374999999999 1:572.53 2:588.88 3:571.13 4:3912300 
0.7984374999999999 1:567.35 2:574 3:566.22 4:2352400 
0.7984374999999999 1:567.49 2:568.77 3:564 4:2056600 
-1 1:563.32 2:569.85 3:560.05 4:1947500 
0.7984374999999999 1:567.3 2:568.75 3:561.86 4:2581000 
-1 1:569.46 2:570.89 3:565.4 4:2060100 
-1 1:570.9 2:574.88 3:569 4:1901500 
0.7984374999999999 1:565.05 2:569.74 3:562.81 4:3030800 
0.7984374999999999 1:562.83 2:567.63 3:560.28 4:1977900 
0.7984374999999999 1:563 2:564.72 3:560.57 4:3104500 
0.7984374999999999 1:565.27 2:567.39 3:560.02 4:2696200 
0.7984374999999999 1:559.02 2:572 3:558.66 4:3930900 
0.7984374999999999 1:545.51 2:559.85 3:539.7 4:6565200 
-1 1:556.11 2:566.85 3:554.28 4:4004800 
-1 1:566.23 2:568 3:557.28 4:4792400 
-1 1:564.72 2:568.44 3:562.96 4:1777200 
0.7984374999999999 1:568.3 2:571.45 3:564.25 4:3321600 
0.7984374999999999 1:566.68 2:569.45 3:556 4:4653900 
-1 1:588.14 2:588.28 3:579.16 4:2753400 
-1 1:574.26 2:586.21 3:574.2 4:4233300 
-1 1:564.78 2:565.18 3:561.01 4:2386400 
0.7984374999999999 1:546.5 2:556.13 3:546.2 4:3183800 
0.7984374999999999 1:542.36 2:548.12 3:539.25 4:3089400 
0.7984374999999999 1:535.48 2:545.66 3:535.01 4:4356800 
0.7984374999999999 1:529.2 2:533.29 3:527.74 4:2237900 
0.7984374999999999 1:527.42 2:531.75 3:523.48 4:2049300 
0.7984374999999999 1:527.12 2:528.49 3:520 4:3309200 
-1 1:533.98 2:538.44 3:530.51 4:2326600 
-1 1:543 2:543.63 3:532.29 4:2872600 
-1 1:536.87 2:544.13 3:534.3 4:3654400 
-1 1:533.32 2:540.49 3:529.5 4:2410000 
0.7984374999999999 1:534.07 2:537.79 3:527.69 4:2674500 
-1 1:539.54 2:541.53 3:535.07 4:2819600 
0.7984374999999999 1:532.5 2:542 3:531.53 4:2694300 
0.7984374999999999 1:528.4 2:533.5 3:522.46 4:3156000 
-1 1:528.67 2:542.1 3:528.23 4:2999100 
-1 1:534.6 2:535.81 3:530.3 4:2250800 
-1 1:544.49 2:547 3:530.6 4:3229100 
-1 1:541.27 2:547.65 3:535.31 4:3964400 
0.7984374999999999 1:537.97 2:549.6 3:536.29 4:4355500 
0.7984374999999999 1:546.59 2:549.88 3:535.51 4:4419900 
-1 1:564.5 2:570.6 3:534.86 4:6800400 
0.7984374999999999 1:585.98 2:585.98 3:575.29 4:3250700 
-1 1:581.2 2:590.42 3:576.29 4:4316700 
0.7984374999999999 1:593.34 2:593.56 3:578.04 4:5434500 
-1 1:583.9 2:594.2 3:582.81 4:4240100 
-1 1:597.65 2:598.16 3:588 4:4853300 
-1 1:604.46 2:604.46 3:594.04 4:7212900 
-1 1:592 2:603.25 3:589.11 4:4724300 
0.7984374999999999 1:609.4 2:610 3:592.65 4:6414300 
-1 1:625.86 2:625.86 3:606.36 4:3978700 
0.7984374999999999 1:624.75 2:625.4 3:619.98 4:1219800 
-1 1:618.5 2:622.73 3:618.01 4:1465600 
-1 1:621.66 2:625.99 3:618.48 4:1697900 
0.7984374999999999 1:612.93 2:619.52 3:612.27 4:858700 
0.7984374999999999 1:603.5 2:612.87 3:602.85 4:2072700 
0.7984374999999999 1:601.34 2:601.5 3:598.85 4:1880800 
0.7992187499999999 1:597.61 2:599.84 3:595.67 4:2571200 
-1 1:598.6 2:600.37 3:596.64 4:2809400 
0.7992187499999999 1:593.3 2:596.38 3:590.99 4:2280400 
-1 1:595.35 2:597.31 3:592.61 4:1913400 
0.7992187499999999 1:594.68 2:594.75 3:587.73 4:1720000 
-1 1:590.44 2:594.71 3:590.41 4:1668300 
0.7992187499999999 1:584.21 2:588.69 3:581 4:1636200 
-1 1:588.13 2:591.22 3:583 4:2320300 
0.7992187499999999 1:572 2:582.46 3:570.97 4:1384600 
-1 1:586.41 2:587.06 3:582.69 4:1461200 
0.7992187499999999 1:582.52 2:584.29 3:576.54 4:1605200 
0.7992187499999999 1:569.5 2:571.6 3:569.4 4:2006200 
-1 1:573.77 2:574 3:570 4:2168000 
-1 1:576.65 2:578.78 3:572.07 4:1549600 
0.7992187499999999 1:575 2:576.99 3:572.78 4:2199200 
-1 1:570.48 2:573.5 3:565.86 4:2319700 
0.7992187499999999 1:555.45 2:562.58 3:554.23 4:2649900 
0.7992187499999999 1:547.72 2:551.78 3:545.5 4:1826700 
0.7992187499999999 1:543.49 2:549.77 3:542.66 4:1847700 
0.7992187499999999 1:540.8 2:545.5 3:536.42 4:2332700 
0.7992187499999999 1:530.01 2:537.5 3:528.3 4:2380200 
0.7992187499999999 1:537.08 2:539.46 3:528.24 4:3202100 
-1 1:543.01 2:551.83 3:541 4:2522600 
0.7992187499999999 1:547.87 2:550 3:538.25 4:2567800 
-1 1:550.97 2:554.56 3:544.16 4:3216500 
-1 1:555.75 2:561.64 3:550.89 4:2970400 
0.7992187499999999 1:555.25 2:557.89 3:551.2 4:2392700 
-1 1:550 2:555 3:548 4:2336500 
0.7992187499999999 1:549.91 2:559.35 3:549 4:3670600 
-1 1:552.69 2:553.6 3:548.73 4:3217900 
0.7992187499999999 1:547.33 2:554.75 3:544.53 4:8841900 
0.7992187499999999 1:533.75 2:536.9 3:527.27 4:6100400 
0.7992187499999999 1:523.42 2:525.76 3:519.32 4:3322200 
0.7992187499999999 1:516.65 2:521.51 3:514.5 4:2738100 
0.7992187499999999 1:519.57 2:523.25 3:513.34 4:4303800 
-1 1:499 2:518.99 3:497.81 4:4874200 
0.7992187499999999 1:491.7 2:499.37 3:491.7 4:2732300 
0.7992187499999999 1:483.74 2:491.74 3:482.6 4:2600800 
-1 1:493 2:496.47 3:487 4:2813200 
-1 1:500 2:500.14 3:487.24 4:3141700 
-1 1:499.53 2:499.75 3:493.01 4:2099200 
0.7984374999999999 1:494.84 2:501.5 3:493.3 4:1839300 
0.7984374999999999 1:494.29 2:499.93 3:492 4:2049600 
-1 1:500.47 2:501.41 3:493 4:2527600 
-1 1:500.92 2:501.99 3:497.81 4:3041200 
0.7984374999999999 1:487.74 2:498.9 3:486.22 4:2116400 
0.7984374999999999 1:496.77 2:496.98 3:491.23 4:3283500 
0.7984374999999999 1:479.8 2:489.37 3:478.48 4:2585300 
0.7984374999999999 1:466.65 2:470.94 3:462 4:2534600 
0.7984374999999999 1:459.06 2:466.27 3:458.8 4:2195400 
0.7984374999999999 1:464.29 2:466.99 3:455.84 4:2656700 
-1 1:457.57 2:462.6 3:455.78 4:1499200 
0.7984374999999999 1:455.82 2:458.25 3:455 4:1646200 
0.7984374999999999 1:455.82 2:458.33 3:452.59 4:1804800 
-1 1:459.68 2:466.82 3:454.42 4:2594900 
-1 1:459.79 2:461.86 3:458 4:1957900 
-1 1:469.26 2:472.37 3:463.38 4:1771600 
-1 1:468.58 2:468.58 3:460.73 4:1998900 
-1 1:472.76 2:473 3:466.7 4:1987800 
-1 1:469.13 2:474.35 3:468.72 4:2341000 
0.7984374999999999 1:467.35 2:470.09 3:464.42 4:2453400 
0.7984374999999999 1:452 2:462.18 3:451.23 4:3998900 
0.7984374999999999 1:439.99 2:445 3:438.56 4:2255000 
-1 1:445.1 2:447.7 3:442.32 4:2351100 
0.7984374999999999 1:451.5 2:451.99 3:443.12 4:2620200 
-1 1:462.78 2:463.18 3:456.89 4:1675100 
-1 1:462.15 2:464.72 3:458.91 4:1995200 
0.7984374999999999 1:455.41 2:461.75 3:454.92 4:2341400 
0.7984374999999999 1:454.3 2:454.88 3:448.53 4:2110900 
-1 1:456 2:456.91 3:447.88 4:2342000 
0.7984374999999999 1:448.74 2:453.9 3:447.64 4:2590300 
-1 1:442.61 2:451.47 3:442.61 4:3198600 
0.7984374999999999 1:437.23 2:437.8 3:431.89 4:1987000 
-1 1:441 2:442.81 3:436.1 4:2532500 
-1 1:446.04 2:446.75 3:437.61 4:2504400 
-1 1:435.81 2:450.49 3:435 4:3626900 
0.7984374999999999 1:430.94 2:431.9 3:425.72 4:2968200 
0.7984374999999999 1:433 2:435.48 3:426.7 4:6854100 
-1 1:436.68 2:445.75 3:434.1 4:6554500 
0.7984374999999999 1:429.66 2:438.68 3:428.49 4:3777000 
0.7984374999999999 1:423.71 2:426.73 3:420.87 4:2895800 
0.7984374999999999 1:416.17 2:424.52 3:415.18 4:4045700 
0.7984374999999999 1:409.58 2:417.37 3:408.7 4:2926600 
0.7992187499999999 1:406.12 2:414.45 3:405.8 4:3275600 
0.7992187499999999 1:400 2:406 3:398.06 4:3441200 
-1 1:424.2 2:426.4 3:418.15 4:2310800 
-1 1:424 2:427.21 3:418.22 4:2593900 
-1 1:426 2:427.8 3:422.24 4:2169300 
-1 1:413.68 2:428.23 3:413.11 4:3256700 
0.7992187499999999 1:407 2:415.9 3:406.51 4:3044500 
0.7992187499999999 1:408.74 2:412.23 3:406.56 4:2457800 
0.7992187499999999 1:406.65 2:408.99 3:402.55 4:2899600 
-1 1:416.95 2:417.49 3:401.89 4:4124400 
0.7992187499999999 1:415.68 2:418.69 3:413 4:3085200 
-1 1:416.19 2:419.72 3:411.56 4:3490100 
-1 1:419.31 2:421.09 3:415.42 4:3049700 
-1 1:426.86 2:427.7 3:421.21 4:2918400 
-1 1:439.5 2:440.92 3:434.12 4:3098700 
-1 1:445.07 2:447.34 3:439.46 4:3680800 
0.7992187499999999 1:426 2:432.46 3:424 4:3532800 
0.7992187499999999 1:426.25 2:429.96 3:423.4 4:2623600 
0.7992187499999999 1:418.73 2:429.6 3:418.53 4:3322400 
0.7992187499999999 1:408.68 2:411.62 3:404.61 4:2668800 
0.7992187499999999 1:405.64 2:411.86 3:404.81 4:3034300 
0.7992187499999999 1:396.66 2:398.65 3:392 4:1718600 
-1 1:396.3 2:402.84 3:393.84 4:2719800 
-1 1:396.1 2:401.64 3:393 4:2837500 
0.7992187499999999 1:394.73 2:397.31 3:385.4 4:3351700 
0.7992187499999999 1:391.1 2:394.11 3:389.09 4:3008700 
0.7992187499999999 1:388.8 2:392.21 3:384.69 4:2937000 
-1 1:394.09 2:396.39 3:388.35 4:2842800 
0.7992187499999999 1:402.85 2:410.13 3:395 4:3865100 
0.7992187499999999 1:404.1 2:404.99 3:392.5 4:2999800 
0.7992187499999999 1:399.98 2:405 3:397.25 4:2400800 
0.7992187499999999 1:398.17 2:402.4 3:394.79 4:3203000 
0.7992187499999999 1:395.03 2:397.59 3:391.55 4:2427700 
-1 1:395.76 2:403.75 3:394.8 4:4355700 
0.7992187499999999 1:385.97 2:394.97 3:385.83 4:3610000 
0.7992187499999999 1:383.75 2:389.05 3:381.54 4:2943600 
-1 1:384.34 2:389.49 3:382.75 4:2290600 
-1 1:386.05 2:393.18 3:380.5 4:3385400 
0.7992187499999999 1:387.51 2:389.75 3:381.11 4:2609000 
0.7992187499999999 1:381.75 2:390 3:379.01 4:3501800 
0.798828125 1:376.17 2:384.3 3:376.1 4:3695400 
-1 1:386.02 2:399.82 3:384.81 4:10730800 
0.798828125 1:381.5 2:392.9 3:381.02 4:10185100 
0.798828125 1:367.1 2:381.06 3:364.16 4:4930700 
0.798828125 1:376.94 2:376.99 3:365.6 4:3428600 
-1 1:371.33 2:379.1 3:370.3 4:3050100 
0.798828125 1:369.5 2:374.35 3:366.25 4:3382600 
0.798828125 1:363.5 2:365 3:356.21 4:2765200 
0.798828125 1:362.6 2:363.75 3:355.31 4:3680100 
-1 1:367 2:369.82 3:361.4 4:3280300 
0.798828125 1:363.31 2:369.76 3:360.32 4:4488000 
0.798828125 1:343.78 2:355.24 3:340.61 4:3301200 
0.798828125 1:348.93 2:353.51 3:346.18 4:3655300 
-1 1:333.56 2:349.45 3:333.03 4:4271500 
0.798828125 1:330.3 2:332.99 3:326.34 4:4737900 
0.798828125 1:325.99 2:329.73 3:318.59 4:4946800 
-1 1:326.1 2:327.46 3:319.03 4:3906400 
0.798828125 1:317.54 2:325 3:313.65 4:5024100 
0.798828125 1:310.1 2:320 3:305.71 4:5923600 
0.798828125 1:298.25 2:310.5 3:294.25 4:6730200 
0.798828125 1:299.98 2:306.57 3:289.45 4:6471300 
-1 1:307.22 2:310.19 3:294.25 4:7234200 
0.798828125 1:316.48 2:319.08 3:302.64 4:6529900 
-1 1:330.07 2:333.69 3:322.35 4:6524800 
-1 1:333.33 2:340.7 3:326 4:5788500 
0.798828125 1:345.96 2:352.49 3:337.16 4:5605600 
-1 1:342.15 2:352.3 3:338.92 4:6439100 
-1 1:331.02 2:349.62 3:330.89 4:6095900 
0.798828125 1:347 2:349.8 3:329.55 4:5221100 
-1 1:338.05 2:348.92 3:335 4:6217100 
0.798828125 1:357.47 2:359.8 3:341.41 4:4988700 
-1 1:347.24 2:353.38 3:340.52 4:6024500 
-1 1:362.19 2:362.99 3:355.23 4:4146700 
0.798828125 1:375.98 2:377.5 3:357.89 4:7103700 
0.798828125 1:356.46 2:373.81 3:355.44 4:7038100 
0.798828125 1:340.91 2:355.38 3:337 4:7264400 
0.798828125 1:340.07 2:354.44 3:339.17 4:6817400 
0.7984374999999999 1:342.57 2:343 3:333.83 4:6556500 
-1 1:344.54 2:345.05 3:340.11 4:7283800 
-1 1:337.98 2:352.33 3:336.31 4:7691400 
0.7984374999999999 1:326.45 2:333.87 3:324.27 4:4927300 
0.7984374999999999 1:324.85 2:328 3:320.56 4:4610700 
-1 1:309.27 2:331.96 3:304.22 4:10732800 
0.7984374999999999 1:288.35 2:303.5 3:288.35 4:4924500 
0.7984374999999999 1:297.57 2:303.58 3:286.79 4:5934500 
-1 1:310 2:313.8 3:297.75 4:5467900 
-1 1:311.77 2:320.6 3:310.39 4:4432500 
0.7984374999999999 1:316.31 2:318.95 3:310.23 4:3304300 
-1 1:327.5 2:327.5 3:313.4 4:4340500 
0.7984374999999999 1:328.32 2:330.91 3:318.75 4:4494500 
-1 1:332.98 2:340.8 3:326.39 4:6425200 
0.7984374999999999 1:321 2:331.24 3:315 4:4889000 
0.7984374999999999 1:308.6 2:321.82 3:305.5 4:3610500 
0.7984374999999999 1:304.2 2:311 3:302.61 4:2886800 
0.7984374999999999 1:300.8 2:306.81 3:298.71 4:3843500 
0.7984374999999999 1:300.22 2:301.38 3:291.58 4:3701900 
-1 1:304.07 2:305.26 3:298.31 4:1959100 
-1 1:301.48 2:306.34 3:298.38 4:1921500 
0.7984374999999999 1:300.43 2:303.31 3:296.67 4:3777700 
0.7984374999999999 1:308.56 2:309.5 3:290.63 4:3917600 
-1 1:310.99 2:317.79 3:309 4:5612600 
0.7984374999999999 1:316.7 2:320.35 3:309.11 4:4763500 
-1 1:318.64 2:322.13 3:312.42 4:5789700 
-1 1:314.52 2:329.5 3:311.27 4:7059600 
0.7984374999999999 1:314.01 2:318.49 3:305.11 4:6737900 
0.7984374999999999 1:304.17 2:312.88 3:297.8 4:6179200 
-1 1:309.24 2:314.9 3:304.51 4:5237000 
0.7984374999999999 1:297.69 2:318 3:297.01 4:6889900 
0.7984374999999999 1:289.99 2:309.44 3:282 4:8144300 
0.7984374999999999 1:271.02 2:284.24 3:264.02 4:6521200 
0.7984374999999999 1:276.53 2:283.49 3:268.77 4:4886600 
-1 1:269.85 2:281.36 3:265.34 4:5904800 
0.7984374999999999 1:269.73 2:277.78 3:262.58 4:5839700 
0.7984374999999999 1:286.68 2:287.38 3:265.98 4:5711200 
-1 1:290.58 2:296.45 3:288.28 4:2565500 
0.7984374999999999 1:280.28 2:295.46 3:276.2 4:6356600 
0.7984374999999999 1:269.26 2:269.95 3:249.01 4:10054700 
0.7984374999999999 1:274.89 2:282.94 3:259.04 4:9779400 
-1 1:295.39 2:300.19 3:278.58 4:7834600 
-1 1:301.57 2:303.73 3:285.35 4:8346100 
-1 1:291.77 2:313 3:280 4:13234700 
-1 1:328 2:329.44 3:309.47 4:8080100 
-1 1:333.12 2:341.15 3:325.33 4:4681300 
-1 1:362.15 2:368.88 3:341.31 4:6946500 
-1 1:353.44 2:372.36 3:345.5 4:7349900 
0.7984374999999999 1:357.58 2:362.99 3:341.43 4:5954500 
-1 1:356.16 2:371.96 3:354.27 4:7423300 
0.7984374999999999 1:365.79 2:371 3:352.37 4:9756600 
-1 1:339.05 2:369.31 3:328.51 4:8105400 
0.7984374999999999 1:334.81 2:343 3:325.6 4:6200700 
-1 1:372.39 2:383.78 3:362 4:5782000 
-1 1:379.75 2:380.98 3:359.59 4:6753400 
0.7984374999999999 1:378.96 2:386 3:363.55 4:14249200 
0.7984374999999999 1:332.76 2:356.5 3:309.44 4:16239700 
0.7984374999999999 1:344.52 2:348.57 3:321.67 4:8075000 
-1 1:330.16 2:358.99 3:326.11 4:11826400 
-1 1:373.33 2:374.98 3:345.37 4:11054400 
-1 1:373.98 2:375.99 3:357.16 4:11220600 
-1 1:397.35 2:412.5 3:383.07 4:7992900 
-1 1:409.79 2:409.98 3:386 4:5984900 
0.7984374999999999 1:395.98 2:425.08 3:392.32 4:3086300 
0.7984374999999999 1:419.51 2:423.51 3:380.71 4:10762900 
-1 1:428 2:437.16 3:421.03 4:5292500 
-1 1:438.84 2:450 3:435.98 4:5020300 
0.7984374999999999 1:433.25 2:440.79 3:425.72 4:5204200 
0.7984374999999999 1:438.48 2:439.14 3:413.44 4:9126900 
-1 1:425.96 2:449.28 3:425.49 4:6990700 
0.7984374999999999 1:424 2:441.97 3:423.71 4:6567400 
-1 1:430.21 2:441.99 3:429 4:6028000 
0.7984374999999999 1:408.35 2:435.09 3:406.38 4:6471400 
0.7984374999999999 1:424.47 2:424.48 3:409.68 4:6226800 
-1 1:423.17 2:432.38 3:415 4:7229600 
-1 1:452.02 2:452.94 3:417.55 4:9017900 
-1 1:460 2:463.24 3:449.4 4:4848500 
-1 1:468.73 2:474.29 3:459.58 4:4314600 
-1 1:476.77 2:482.18 3:461.42 4:6111500 
0.7984374999999999 1:469.75 2:471.01 3:462.33 4:3848200 
-1 1:472.49 2:476.45 3:470.33 4:3029700 
-1 1:483.46 2:483.46 3:470.59 4:3308200 
-1 1:491.5 2:494.88 3:489.48 4:2297200 
0.7984374999999999 1:482.92 2:489.9 3:479.27 4:3514100 
0.7984374999999999 1:494.72 2:496.69 3:482.57 4:3982100 
-1 1:490.43 2:498.28 3:486.63 4:3046500 
-1 1:509.84 2:510 3:495.51 4:3333900 
-1 1:506.99 2:510.66 3:505.5 4:3545700 
0.7984374999999999 1:497.7 2:507.61 3:496.29 4:2918600 
-1 1:502 2:506.13 3:498 4:2755700 
0.7984374999999999 1:482 2:484 3:476.41 4:2773800 
-1 1:478.37 2:489.77 3:472.51 4:3375800 
0.7984374999999999 1:467.59 2:480.08 3:466.33 4:3584500 
0.7984374999999999 1:468.12 2:473.01 3:461.9 4:2487000 
-1 1:474.56 2:480.89 3:471.44 4:2865100 
-1 1:479.3 2:487.26 3:478 4:2802800 
0.7984374999999999 1:492.09 2:492.09 3:475.13 4:3160000 
0.7984374999999999 1:496.7 2:496.87 3:475.62 4:3540900 
-1 1:481.61 2:497.23 3:478.1 4:4894100 
0.7984374999999999 1:466.72 2:480.25 3:465.6 4:4691500 
0.7984374999999999 1:480.88 2:484.09 3:465.7 4:5901500 
-1 1:514.04 2:536.5 3:510.6 4:4742200 
0.7984374999999999 1:516.28 2:527.5 3:501.1 4:6071000 
-1 1:539 2:540.06 3:515.45 4:4424800 
-1 1:545 2:549.5 3:530.72 4:4331700 
0.7984374999999999 1:542.3 2:549 3:535.6 4:4255200 
0.7984374999999999 1:530.88 2:539.23 3:527.5 4:2400500 
0.7984374999999999 1:536.51 2:540.38 3:526.06 4:4223000 
-1 1:519.58 2:536.72 3:517 4:4959900 
0.7984374999999999 1:532.47 2:538 3:523.06 4:3765300 
-1 1:527.68 2:530 3:515.09 4:5447500 
0.7984374999999999 1:545.14 2:551.19 3:535.1 4:4672600 
-1 1:545.36 2:553.15 3:542.02 4:3635900 
-1 1:556.98 2:556.98 3:544.51 4:5983100 
-1 1:566.5 2:579.1 3:566.5 4:3542800 
0.7984374999999999 1:548.76 2:558 3:546.88 4:5491600 
0.7984374999999999 1:556.24 2:557.34 3:544.46 4:3812900 
-1 1:549.56 2:558.82 3:546.78 4:3657400 
-1 1:568.06 2:570 3:545.4 4:5288300 
-1 1:579.75 2:580.72 3:567 4:4734500 
-1 1:577.08 2:588.04 3:576.21 4:3916700 
0.7984374999999999 1:576.5 2:580.5 3:560.61 4:4305300 
-1 1:582.5 2:583.89 3:571.27 4:3674200 
-1 1:583.47 2:589.92 3:581.3 4:3225200 
0.7984374999999999 1:574.79 2:585.88 3:573.2 4:4845000 
0.7984374999999999 1:567.94 2:571.49 3:561.1 4:4050400 
0.7984374999999999 1:546.96 2:553 3:537.81 4:4431500 
-1 1:551.95 2:554.21 3:540.25 4:5076300 
0.7984374999999999 1:578.52 2:581.41 3:547.89 4:6468100 
-1 1:574.63 2:582.48 3:572.91 4:3313600 
0.7984374999999999 1:578.55 2:588.88 3:573.52 4:5604500 
-1 1:581.43 2:584.68 3:578.32 4:4274100 
-1 1:579 2:582.95 3:575.61 4:4342700 
0.7984374999999999 1:586.49 2:591.19 3:575.25 4:4375800 
-1 1:586.23 2:587.95 3:578.55 4:5163500 
-1 1:574.75 2:586.75 3:568.91 4:4863900 
0.7984374999999999 1:579 2:585 3:571.3 4:4484900 
-1 1:586.2 2:589.3 3:578.91 4:5122900 
0.7984374999999999 1:590.27 2:599.49 3:576.43 4:6613000 
-1 1:591 2:592 3:583 4:4629300 
-1 1:598.86 2:599 3:587.13 4:6281000 
0.7984374999999999 1:598.49 2:602.45 3:579.3 4:6998800 
-1 1:578.31 2:594.93 3:576.97 4:6602800 
0.7984374999999999 1:550.83 2:563.4 3:550.01 4:4346000 
0.7984374999999999 1:545.88 2:556.81 3:539 4:4008600 
0.7984374999999999 1:551.29 2:554.49 3:540.02 4:4135100 
-1 1:557.94 2:559.31 3:540.95 4:4921500 
0.7984374999999999 1:539.39 2:542.59 3:530.29 4:7439700 
-1 1:535.21 2:547.7 3:524.77 4:18235600 
0.7984374999999999 1:455.63 2:459.37 3:446.52 4:13353000 
-1 1:444.4 2:458.28 3:441 4:7630700 
0.7984374999999999 1:458.13 2:459.72 3:443.72 4:4577600 
-1 1:457.16 2:457.45 3:450.15 4:3842600 
-1 1:464.07 2:467.26 3:455.01 4:4169700 
-1 1:464.96 2:473.86 3:461.85 4:5072400 
0.7984374999999999 1:469.13 2:472 3:457.54 4:6048100 
-1 1:473.04 2:474.14 3:462.01 4:4547000 
-1 1:477.03 2:485.44 3:473.53 4:5943500 
-1 1:469.9 2:475.74 3:460.39 4:5999000 
0.7984374999999999 1:447.74 2:466.5 3:446.87 4:6093100 
0.7984374999999999 1:447.46 2:453.57 3:434.31 4:4376200 
-1 1:446 2:448.61 3:440.49 4:5832200 
-1 1:452.59 2:462.87 3:449.29 4:5225700 
0.7984374999999999 1:457.46 2:457.47 3:446 4:5831600 
-1 1:438.43 2:465.78 3:437.72 4:6763500 
0.7984374999999999 1:427.32 2:435.7 3:417.5 4:9913400 
0.7984374999999999 1:441.11 2:447.5 3:431.67 4:6179000 
-1 1:442.98 2:449.34 3:430.62 4:6574400 
-1 1:432.67 2:446.98 3:428.78 4:7726600 
0.7984374999999999 1:425.26 2:440.15 3:424.65 4:8826900 
-1 1:428.88 2:440 3:426.24 4:8071800 
0.7984374999999999 1:447.69 2:453.3 3:431.18 4:7470100 
-1 1:445.25 2:454.17 3:444 4:7436600 
-1 1:471.87 2:479.74 3:464.65 4:9425400 
0.7984374999999999 1:461.2 2:466.47 3:446.85 4:23287300 
-1 1:502.06 2:509 3:497.55 4:5515900 
0.7984374999999999 1:512.85 2:513.21 3:499.5 4:5677800 
-1 1:503.51 2:511.01 3:498.82 4:6662200 
0.7984374999999999 1:534.94 2:535.06 3:506.5 4:6350400 
0.7984374999999999 1:523.39 2:530.6 3:513.03 4:6662300 
-1 1:520.52 2:523.71 3:513.4 4:5826000 
0.7984374999999999 1:509.41 2:517.73 3:508.7 4:6828900 
0.7984374999999999 1:496.86 2:514.19 3:494.76 4:7928900 
0.7984374999999999 1:511.14 2:511.17 3:497.93 4:7636400 
0.7984374999999999 1:509.07 2:512.78 3:492.55 4:13157100 
-1 1:539.01 2:573 3:534.29 4:14871300 
0.7984374999999999 1:549.19 2:560.43 3:543.51 4:7939600 
-1 1:570.97 2:572.24 3:548.6 4:5816700 
-1 1:591.81 2:595 3:566.18 4:6966000 
-1 1:558.8 2:579.69 3:554.14 4:9400900 
-1 1:562.03 2:597.5 3:561.2 4:9501500 
-1 1:608.36 2:609.99 3:598.45 4:8539600 
0.7984374999999999 1:620.76 2:625.74 3:598.01 4:8216800 
-1 1:651.14 2:657.4 3:645.25 4:4447500 
0.7984374999999999 1:642.7 2:649.47 3:630.11 4:4977000 
-1 1:645.01 2:657.2 3:640.11 4:6334200 
-1 1:630.04 2:653.34 3:622.51 4:6739700 
0.7984374999999999 1:653 2:659.96 3:631 4:5339100 
-1 1:653.94 2:662.28 3:637.35 4:6403400 
-1 1:685.26 2:686.85 3:676.52 4:3252500 
-1 1:704.93 2:707.95 3:696.54 4:2562700 
0.7984374999999999 1:707.07 2:716 3:700.74 4:2942500 
-1 1:698.99 2:713.22 3:698.21 4:2530000 
0.7984374999999999 1:685.83 2:691 3:680.61 4:4422200 
0.7984374999999999 1:674.21 2:679.5 3:669 4:4421100 
0.7984374999999999 1:674.16 2:676.71 3:652.5 4:7166700 
0.7984374999999999 1:688 2:695.42 3:663.67 4:5486000 
-1 1:687.51 2:699.7 3:687.26 4:3673500 
-1 1:696.31 2:697.62 3:681.21 4:5040800 
-1 1:714 2:714.32 3:688.5 4:6159100 
0.7984374999999999 1:719.94 2:720.99 3:698.78 4:6139100 
-1 1:697.8 2:716.56 3:697.01 4:4909000 
0.7984374999999999 1:692.73 2:698.93 3:687.5 4:4209600 
-1 1:711 2:711.06 3:682.11 4:7895500 
-1 1:690.75 2:702.79 3:687.77 4:6208000 
0.7984374999999999 1:682.11 2:694.3 3:672.14 4:7916500 
0.7984374999999999 1:674.8 2:676.43 3:650.26 4:8904500 
0.7984374999999999 1:680.2 2:693.4 3:665 4:6790100 
-1 1:670 2:678.28 3:668.11 4:2738700 
-1 1:633.94 2:635.49 3:616.02 4:9042800 
-1 1:673.28 2:675.49 3:636.27 4:8094700 
-1 1:644.99 2:660.92 3:632.07 4:8426100 
0.7984374999999999 1:657.74 2:669.93 3:626.21 4:10227300 
-1 1:675.78 2:681.88 3:661.21 4:11388100 
-1 1:734.6 2:734.89 3:677.18 4:16512200 
-1 1:741.13 2:747.24 3:723.14 4:8252900 
-1 1:737.56 2:741.79 3:725 4:8436300 
0.7984374999999999 1:706.99 2:730.23 3:706.07 4:8883700 
0.7984374999999999 1:710.51 2:713.58 3:697.34 4:5841500 
0.7984374999999999 1:702.79 2:713.72 3:701.78 4:6527200 
-1 1:700.69 2:707 3:696.04 4:6876800 
0.7984374999999999 1:677.77 2:680 3:672.09 4:3066300 
0.7984374999999999 1:674.03 2:676.54 3:668.06 4:3353900 
-1 1:672.71 2:677.47 3:659.56 4:7404200 
0.7984374999999999 1:661.25 2:677.6 3:660 4:6793700 
0.7984374999999999 1:638.67 2:655 3:636.28 4:6664400 
0.7984374999999999 1:654.56 2:658.49 3:643.23 4:15789000 
0.7984374999999999 1:635.41 2:641.37 3:628.5 4:12289200 
0.7984374999999999 1:630.45 2:634 3:621.59 4:6030500 
0.7984374999999999 1:618.49 2:625.92 3:611.99 4:6025300 
-1 1:623.98 2:638.4 3:618.24 4:6823700 
-1 1:621.36 2:625.68 3:616.8 4:5385600 
0.7984374999999999 1:615.11 2:623.78 3:608.39 4:8767800 
0.7984374999999999 1:595 2:610.26 3:593.95 4:5028000 
0.7984374999999999 1:585.09 2:585.09 3:577.06 4:2986700 
-1 1:586.25 2:588.99 3:580.36 4:3879500 
0.7984374999999999 1:583.38 2:596.81 3:580.01 4:7067500 
0.7984374999999999 1:567 2:569.55 3:564.12 4:2639500 
0.7984374999999999 1:571.73 2:571.74 3:565.78 4:2056300 
-1 1:564 2:569.56 3:562.86 4:2730600 
0.7984374999999999 1:561 2:571.46 3:560 4:5297000 
0.7984374999999999 1:547 2:556.8 3:546.03 4:5525000 
0.7984374999999999 1:526.52 2:537.25 3:524.27 4:4215700 
0.7984374999999999 1:526.53 2:529.28 3:524.07 4:2197500 
0.7984374999999999 1:524.06 2:527.21 3:523.22 4:1891100 
0.7984374999999999 1:520.53 2:527.98 3:519 4:2986000 
-1 1:517.86 2:521.24 3:516.8 4:3663600 
-1 1:529.36 2:529.83 3:518.24 4:3625900 
-1 1:523.4 2:529.48 3:522.25 4:3312900 
0.7984374999999999 1:515.02 2:528 3:514.62 4:3693700 
0.7984374999999999 1:513.1 2:516.5 3:511.47 4:2977600 
0.7984374999999999 1:512.36 2:515.4 3:510.58 4:2651700 
-1 1:512.61 2:515.55 3:508.5 4:2472700 
0.7984374999999999 1:516 2:516.13 3:507 4:3076700 
0.7984374999999999 1:509.96 2:516.25 3:509.25 4:3252700 
0.7984374999999999 1:502.46 2:502.56 3:496 4:2697300 
-1 1:497.44 2:501 3:491.65 4:5479400 
0.7984374999999999 1:492.02 2:496.43 3:480.46 4:8645600 
-1 1:509 2:511.69 3:496.71 4:5409500 
-1 1:515.72 2:517.4 3:508 4:3633700 
0.7984374999999999 1:520.8 2:526.82 3:514.63 4:4846500 
0.7984374999999999 1:509.75 2:519.88 3:509.04 4:4264300 
0.7984374999999999 1:503 2:510.15 3:502.5 4:3651500 
-1 1:513.72 2:514.99 3:509 4:3154900 
-1 1:510.5 2:516.51 3:508.14 4:4421500 
0.7984374999999999 1:520.23 2:520.44 3:510 4:4270500 
0.7984374999999999 1:508.53 2:516.62 3:505.5 4:5509100 
-1 1:516.98 2:517.02 3:505.56 4:5545000 
-1 1:509.3 2:518.69 3:507.11 4:5572100 
0.7984374999999999 1:519.01 2:520 3:512.15 4:6356700 
-1 1:511.9 2:523.18 3:509.5 4:17772300 
-1 1:553.46 2:553.52 3:542.24 4:11127200 
-1 1:553.89 2:554.5 3:543.81 4:6080000 
-1 1:555.04 2:557.73 3:552.38 4:4328600 
0.7984374999999999 1:550.3 2:558.58 3:549.31 4:6599500 
0.7984374999999999 1:547.91 2:552.67 3:547.25 4:5237100 
0.7984374999999999 1:543.61 2:546.5 3:540.01 4:3309300 
0.7984374999999999 1:543.79 2:547 3:541.65 4:3856000 
0.7984374999999999 1:543 2:548.74 3:540.26 4:3729800 
-1 1:535.56 2:544.4 3:532.15 4:4942900 
0.7984374999999999 1:531.06 2:534.4 3:527.5 4:1871800 
0.7984374999999999 1:525.49 2:531.85 3:524.2 4:3487600 
-1 1:524.88 2:529.5 3:523.8 4:4168400 
-1 1:525 2:527.99 3:519.56 4:6123100 
-1 1:532.73 2:533.2 3:526.24 4:5689500 
0.7984374999999999 1:516.96 2:518.75 3:509.06 4:4338200 
-1 1:514.01 2:517.25 3:511.54 4:4355300 
-1 1:506.18 2:516 3:504.24 4:4835900 
0.7984374999999999 1:505.38 2:505.88 3:501.7 4:4621200 
-1 1:507.09 2:508.54 3:498.69 4:7034000 
0.7984374999999999 1:508.71 2:511.67 3:503.17 4:6419500 
-1 1:516.2 2:519.64 3:509.46 4:6358200 
-1 1:516.75 2:520.78 3:515.26 4:7886700 
0.7984374999999999 1:509.75 2:519 3:506.61 4:10447100 
0.7984374999999999 1:497.91 2:510.51 3:497.59 4:7101000 
0.7984374999999999 1:501 2:505.02 3:497.93 4:4799000 
-1 1:484.5 2:498.84 3:483 4:7245800 
0.7984374999999999 1:485 2:491.8 3:484 4:5218000 
0.7984374999999999 1:479.7 2:484.95 3:477.27 4:5348500 
0.7984374999999999 1:475.15 2:479.2 3:471.5 4:4173600 
0.7984374999999999 1:480.82 2:483.41 3:473.75 4:5060200 
0.7984374999999999 1:469.53 2:479.2 3:466.72 4:6159300 
-1 1:462 2:473.14 3:459.02 4:6554200 
0.7984374999999999 1:461.96 2:462.54 3:457.41 4:4119000 
-1 1:465.48 2:467.51 3:460 4:3872700 
-1 1:461.83 2:467 3:461 4:2944100 
-1 1:472.14 2:472.82 3:466.47 4:3020100 
-1 1:470.12 2:474.84 3:465.88 4:3950000 
-1 1:466.22 2:474.07 3:465.29 4:3594200 
-1 1:472.19 2:472.81 3:464.17 4:3658200 
-1 1:479.15 2:481.35 3:471.38 4:3641200 
-1 1:480.07 2:482.4 3:478.33 4:2925700 
0.7984374999999999 1:480 2:481.37 3:476.11 4:3966800 
0.7984374999999999 1:478.61 2:479.98 3:475.55 4:3694700 
-1 1:480.1 2:485 3:478.26 4:5674600 
-1 1:490.52 2:492.5 3:482.02 4:12161500 
0.7984374999999999 1:473.8 2:476.39 3:471.6 4:3210100 
-1 1:468.46 2:476.99 3:468.15 4:5077900 
0.7984374999999999 1:468.45 2:468.77 3:463.36 4:2794800 
0.7984374999999999 1:466.06 2:469.4 3:462.61 4:3812000 
-1 1:467.09 2:470.79 3:465.16 4:2979300 
-1 1:472.98 2:473 3:465.59 4:3062100 
-1 1:471.3 2:472.09 3:469.62 4:2715800 
-1 1:464.05 2:474.25 3:464 4:6501800 
0.7984374999999999 1:457.76 2:458.53 3:452.12 4:3448500 
0.7984374999999999 1:462.1 2:463.4 3:456.14 4:3380200 
-1 1:464.55 2:466 3:455 4:3988500 
-1 1:461.87 2:465.44 3:460.15 4:4591600 
-1 1:463.55 2:465.23 3:460.34 4:3741200 
-1 1:460.55 2:465 3:455.62 4:4710300 
0.7984374999999999 1:461.45 2:463.39 3:457.08 4:4111300 
0.7984374999999999 1:445.3 2:456.57 3:445.21 4:5798300 
-1 1:447.86 2:449.82 3:443.94 4:3944200 
-1 1:443.23 2:448.66 3:439 4:8016900 
0.7984374999999999 1:450.11 2:451.93 3:442.83 4:6377300 
-1 1:452.57 2:455.25 3:451.11 4:3465400 
0.7984374999999999 1:458 2:458.4 3:450.1 4:4977700 
-1 1:462.69 2:463.14 3:454.29 4:6534100 
-1 1:447.47 2:459 3:447.38 4:7533700 
0.7984374999999999 1:437.02 2:445.5 3:437 4:6355100 
-1 1:442.67 2:452.42 3:440 4:8685200 
0.7984374999999999 1:455 2:459.8 3:447.17 4:9312800 
-1 1:475.75 2:476.95 3:467.8 4:3882600 
-1 1:478.69 2:484.24 3:474.39 4:5743900 
0.7984374999999999 1:469.84 2:478.68 3:467.74 4:5640600 
0.7984374999999999 1:468.47 2:472.75 3:464.71 4:4067600 
0.7984374999999999 1:466 2:466.13 3:460.72 4:4042400 
0.7984374999999999 1:460.68 2:462.39 3:455.02 4:5754500 
-1 1:471.65 2:472.68 3:461.5 4:4858600 
-1 1:468.05 2:473.75 3:465.15 4:4076700 
-1 1:468.1 2:473.3 3:467.26 4:5321900 
0.7984374999999999 1:477.5 2:478 3:466.19 4:7206900 
-1 1:482.61 2:485 3:477.81 4:6286500 
-1 1:496.49 2:505 3:495.51 4:12206100 
0.7984374999999999 1:498 2:498.75 3:490.5 4:4775700 
-1 1:490.93 2:497.9 3:487.03 4:5496500 
0.7984374999999999 1:501 2:504.5 3:485.66 4:6368500 
-1 1:484.45 2:499.54 3:483.29 4:6059300 
0.7984374999999999 1:480.79 2:484.75 3:477.29 4:4665500 
-1 1:487.98 2:490.76 3:486.74 4:4978300 
0.7984374999999999 1:494.52 2:496.48 3:487.43 4:5932000 
-1 1:503.39 2:507.77 3:494.38 4:6699100 
-1 1:501.99 2:505 3:500 4:4473700 
0.7984374999999999 1:497.2 2:501.75 3:496.18 4:7208200 
0.7984374999999999 1:484.43 2:493.55 3:482.04 4:5968500 
0.7984374999999999 1:485.45 2:488.25 3:481.2 4:5381400 
0.7984374999999999 1:487.69 2:489.87 3:482.2 4:4754400 
0.7984374999999999 1:462.1 2:464.47 3:459.86 4:2559200 
-1 1:467.12 2:468.58 3:462.25 4:3116200 
-1 1:460 2:468.08 3:459.1 4:4231500 
0.7984374999999999 1:457.5 2:458.64 3:452.73 4:3988300 
-1 1:470 2:471.5 3:462.33 4:4367800 
-1 1:461.72 2:469.31 3:458.5 4:6587000 
0.7984374999999999 1:482.51 2:482.74 3:460.72 4:8016600 
-1 1:482.64 2:484.11 3:479.84 4:5190800 
-1 1:480.25 2:483.75 3:477.26 4:4748900 
0.7984374999999999 1:484.69 2:485.5 3:477.02 4:4662100 
-1 1:483.85 2:486.36 3:480.28 4:4181000 
-1 1:481.94 2:488.6 3:480 4:3974900 
0.7984374999999999 1:490.23 2:491.8 3:482.42 4:4664300 
0.7984374999999999 1:487.4 2:489.44 3:484.89 4:4103000 
0.7984374999999999 1:483 2:487.43 3:479.35 4:4899900 
0.7984374999999999 1:485.98 2:488.39 3:478.5 4:5631400 
-1 1:484.19 2:490.4 3:481.55 4:5577500 
-1 1:481.13 2:489.86 3:477.03 4:7797600 
0.7984374999999999 1:501.37 2:501.78 3:484.75 4:7324700 
-1 1:504.5 2:507.5 3:504 4:1732700 
-1 1:510.97 2:513 3:505.78 4:4500700 
-1 1:496.54 2:510 3:495.83 4:8427500 
-1 1:493.25 2:499.66 3:493 4:5511000 
0.7984374999999999 1:495 2:497.68 3:492.56 4:5092600 
0.7984374999999999 1:493.43 2:499.85 3:491.93 4:8370700 
0.7984374999999999 1:480.7 2:489.95 3:480.5 4:7223400 
0.7984374999999999 1:474.9 2:481.17 3:474.14 4:4341900 
0.7984374999999999 1:476.5 2:479.49 3:471.86 4:4879200 
0.7984374999999999 1:476.95 2:479.02 3:471.77 4:4897100 
0.7984374999999999 1:472.23 2:473.75 3:465.06 4:4907700 
0.7984374999999999 1:467.5 2:473.73 3:466.38 4:5236700 
0.7984374999999999 1:483.9 2:485.24 3:472.49 4:6604000 
-1 1:477.49 2:488.5 3:475.11 4:9187500 
-1 1:462.28 2:484.64 3:460.37 4:15104500 
0.7984374999999999 1:458.99 2:460.1 3:453.59 4:11647900 
0.7984374999999999 1:422.99 2:424.75 3:417.5 4:6017300 
-1 1:427.7 2:429.2 3:421.34 4:4319400 
0.7984374999999999 1:428.56 2:429.68 3:424 4:4844000 
0.7984374999999999 1:425.02 2:429.91 3:423.76 4:5635400 
0.7984374999999999 1:431.56 2:437.85 3:422.39 4:9788600 
-1 1:424.8 2:431.95 3:423.42 4:7583300 
0.7984374999999999 1:410.22 2:421.91 3:409.75 4:7336500 
0.7984374999999999 1:414.7 2:418.24 3:410.86 4:5789800 
0.7984374999999999 1:401.29 2:406.46 3:398.19 4:5464700 
0.7984374999999999 1:401.9 2:406 3:400.8 4:3651900 
0.7984374999999999 1:405.13 2:405.62 3:401.41 4:3310900 
-1 1:404.08 2:406.98 3:400.54 4:5107400 
0.7984374999999999 1:406.3 2:411.22 3:402.37 4:5876700 
-1 1:405.5 2:407.68 3:401.77 4:5289400 
0.7984374999999999 1:405.58 2:409.45 3:402.5 4:5737300 
0.7984374999999999 1:404.98 2:407.45 3:401.36 4:4649600 
-1 1:400.3 2:408.45 3:399.86 4:10692100 
-1 1:410 2:418.69 3:409.47 4:7106700 
0.7984374999999999 1:404.3 2:406.28 3:401.93 4:5366100 
0.7984374999999999 1:385 2:392.73 3:384.88 4:5442200 
0.7984374999999999 1:376.72 2:380.79 3:376.72 4:3083400 
-1 1:379.39 2:381.75 3:377.4 4:3842000 
-1 1:382.1 2:383.19 3:379.66 4:3724100 
-1 1:379.87 2:385.4 3:377.44 4:4074300 
0.7984374999999999 1:380.99 2:381.28 3:377.19 4:2672900 
0.7984374999999999 1:381.49 2:382.15 3:378.2 4:2959900 
-1 1:379.21 2:384.65 3:378.51 4:4044400 
0.7984374999999999 1:380.78 2:382.32 3:377.2 4:4460000 
-1 1:375.61 2:380.95 3:375 4:4164000 
0.7984374999999999 1:373.08 2:375.32 3:372.5 4:2466700 
0.7984374999999999 1:374.44 2:376.4 3:372.26 4:3482500 
-1 1:377.73 2:379.26 3:374.84 4:4164100 
0.7984374999999999 1:378.1 2:379 3:375.22 4:4023300 
-1 1:386.31 2:387.09 3:380.75 4:4952200 
-1 1:386.39 2:390 3:383.92 4:5080200 
-1 1:383.48 2:388.45 3:382.12 4:5853200 
0.7984374999999999 1:374.11 2:381.67 3:372.6 4:6698200 
0.7984374999999999 1:371.5 2:375.13 3:368.67 4:4968300 
0.7984374999999999 1:374.4 2:375.28 3:368 4:3766500 
-1 1:382.8 2:384.68 3:376.36 4:4311000 
-1 1:382.82 2:384.5 3:379.09 4:5743200 
0.7984374999999999 1:379.56 2:380.68 3:371.75 4:5095200 
-1 1:364.98 2:377.91 3:363.36 4:6327000 
-1 1:385.11 2:385.77 3:375.51 4:5463200 
-1 1:388 2:389.17 3:383.31 4:4595300 
-1 1:382 2:389.56 3:381.73 4:4083600 
0.7984374999999999 1:387.37 2:387.49 3:377.95 4:5641100 
-1 1:388.2 2:391.91 3:383 4:5531900 
0.7984374999999999 1:386.14 2:391.75 3:377.69 4:11754600 
0.7984374999999999 1:404.28 2:404.44 3:385.66 4:12538700 
-1 1:395.01 2:401.14 3:394.66 4:8518500 
-1 1:409.75 2:410.57 3:397.74 4:8536800 
0.7984374999999999 1:410.33 2:411.49 3:398.61 4:7552100 
-1 1:414 2:418.34 3:406.83 4:6924500 
-1 1:422.09 2:422.74 3:416.73 4:4906700 
0.7984374999999999 1:423.44 2:425.23 3:416.38 4:4436400 
-1 1:426.05 2:427.89 3:415.88 4:6041900 
-1 1:423.38 2:425.38 3:421.98 4:3687100 
0.7984374999999999 1:421.52 2:422.8 3:415.64 4:4985600 
0.7984374999999999 1:415.6 2:419.33 3:412.33 4:6258000 
0.7984374999999999 1:407.99 2:418.2 3:405.82 4:6658200 
0.7984374999999999 1:404.01 2:406.48 3:401.13 4:3710500 
0.7984374999999999 1:405.71 2:408 3:401.01 4:4107100 
-1 1:406.75 2:408.3 3:403.25 4:3551200 
0.7984374999999999 1:402.76 2:409.75 3:400.74 4:5314800 
-1 1:390.85 2:394.8 3:386.98 4:7633100 
-1 1:389.1 2:390.93 3:388 4:5304600 
0.7984374999999999 1:389.83 2:391.1 3:378.52 4:7772000 
0.7984374999999999 1:388.34 2:390.49 3:381 4:5019100 
-1 1:392.19 2:395.43 3:385.35 4:6157500 
-1 1:387.75 2:394.27 3:378.59 4:10359500 
0.7984374999999999 1:393.24 2:394.86 3:386.5 4:8911300 
-1 1:376.58 2:390 3:376.3 4:10259800 
0.7984374999999999 1:376.18 2:381.45 3:374.15 4:5558500 
-1 1:386.84 2:387.08 3:377.45 4:6386400 
-1 1:373.54 2:382.99 3:371.6 4:6278000 
0.7984374999999999 1:378.28 2:381 3:371.45 4:4316000 
-1 1:379.08 2:383 3:372.31 4:8194600 
0.7984374999999999 1:374.21 2:383.88 3:373.56 4:8983000 
0.7984374999999999 1:367.85 2:373.03 3:365.25 4:8604400 
0.7984374999999999 1:373.28 2:374.5 3:360.57 4:11398200 
-1 1:370.61 2:379.84 3:370.22 4:10643800 
-1 1:375.93 2:380.15 3:368.25 4:8590100 
0.7984374999999999 1:383.54 2:384.87 3:373.55 4:10087600 
-1 1:403.42 2:404.71 3:384.98 4:8892800 
-1 1:408.31 2:411.71 3:401.86 4:6187200 
0.7984374999999999 1:397.6 2:400.68 3:391.78 4:6065000 
0.7984374999999999 1:395.03 2:398.87 3:392.21 4:4652000 
0.798828125 1:396.35 2:401.5 3:390.88 4:8072200 
0.798828125 1:401.08 2:402.49 3:388.4 4:13104300 
-1 1:418.47 2:419.44 3:398.55 4:10361200 
-1 1:418.63 2:425.73 3:416.3 4:7421300 
-1 1:422.91 2:426.91 3:419.39 4:8337900 
-1 1:427.74 2:430.04 3:423.53 4:7277800 
-1 1:439.63 2:441.04 3:426 4:9569000 
-1 1:439.4 2:444.7 3:436.52 4:8836400 
0.798828125 1:448.9 2:450.72 3:436.17 4:22551300 
0.798828125 1:411.01 2:416 3:408.2 4:12271500 
0.798828125 1:412.57 2:413.64 3:406.73 4:6781700 
0.798828125 1:407.93 2:409.83 3:401.5 4:8137600 
-1 1:403.45 2:412.5 3:400.84 4:8259500 
0.798828125 1:408.63 2:409.76 3:400.5 4:6552900 
-1 1:416.42 2:419.1 3:406.22 4:11107200 
-1 1:407.08 2:417.17 3:405.25 4:9320100 
0.798828125 1:412.41 2:412.85 3:404.02 4:7025900 
-1 1:406.49 2:413.89 3:405.43 4:8598500 
0.798828125 1:408.2 2:414.57 3:402.82 4:13410500 
0.798828125 1:389.9 2:404.9 3:388.14 4:15715700 
0.798828125 1:389.53 2:392.47 3:387.93 4:8122700 
0.798828125 1:371.71 2:377.86 3:371.17 4:8945800 
0.7984374999999999 1:367.09 2:371.71 3:365 4:7023700 
0.7984374999999999 1:339.75 2:344.1 3:337.5 4:7596000 
0.7984374999999999 1:350.01 2:351.66 3:339.08 4:9831100 
-1 1:342.34 2:350.09 3:341.54 4:10407600 
0.7984374999999999 1:338.8 2:341.78 3:334.93 4:8551700 
0.7984374999999999 1:348.61 2:348.75 3:337.9 4:10016700 
-1 1:350.77 2:352.3 3:340.53 4:12768800 
-1 1:337.14 2:352.37 3:332.62 4:18450700 
0.7984374999999999 1:340.93 2:346.1 3:335.45 4:13642400 
0.7984374999999999 1:343.5 2:344.5 3:331.55 4:19325600 
-1 1:355.39 2:358.53 3:341.5 4:13910400 
-1 1:384.3 2:387.24 3:375.76 4:11962000 
0.7984374999999999 1:364.28 2:381.1 3:362.2 4:18330300 
0.7984374999999999 1:368.56 2:369.45 3:361.3 4:12061200 
0.7984374999999999 1:393.2 2:397.54 3:338.51 4:39437600 
-1 1:381.27 2:391.7 3:380.28 4:10212200 
0.7984374999999999 1:377.3 2:380.07 3:373.49 4:6484300 
0.7984374999999999 1:367.15 2:368.95 3:363.86 4:6476200 
-1 1:366.44 2:373.54 3:365.11 4:8686000 
-1 1:369.86 2:372.14 3:363.62 4:14320200 
0.7984374999999999 1:345.67 2:367 3:344.49 4:21315500 
0.7984374999999999 1:371.2 2:374.4 3:356.11 4:11912400 
-1 1:368.48 2:370.69 3:354.67 4:20804100 
0.7984374999999999 1:382.99 2:383.7 3:363.35 4:16630200 
0.7984374999999999 1:393.62 2:393.9 3:372.57 4:18281800 
-1 1:389.03 2:402 3:387.52 4:27122500 
-1 1:430.57 2:439.6 3:423.97 4:22066000 
0.7984374999999999 1:429.23 2:433.28 3:425 4:8588900 
-1 1:439.54 2:439.99 3:423.56 4:12926100 
0.7984374999999999 1:451.26 2:454.23 3:429.22 4:18739800 
0.7984374999999999 1:438.7 2:440.03 3:394.74 4:41116700 
-1 1:447.3 2:457.36 3:443.25 4:20485700 
-1 1:463.06 2:469.9 3:462.53 4:8270300 
0.7984374999999999 1:464.31 2:466.89 3:461.61 4:7656600 
0.7984374999999999 1:473.72 2:474.99 3:461.5 4:10125300 
-1 1:471.27 2:475.11 3:469.18 4:9007400 
0.7984374999999999 1:464.42 2:470.25 3:462.04 4:9097100 
0.7984374999999999 1:466.41 2:473.4 3:460.94 4:12791900 
0.7984374999999999 1:456.87 2:470.5 3:453.24 4:17756900 
0.7984374999999999 1:446 2:451.55 3:441.5 4:10808300 
0.7984374999999999 1:422.52 2:435.67 3:418.22 4:13121200 
-1 1:427.98 2:428.73 3:419.17 4:6945800 
0.7984374999999999 1:431.86 2:431.86 3:422.76 4:6702800 
-1 1:431.77 2:432.86 3:425.93 4:7546600 
0.7984374999999999 1:433.55 2:436.86 3:420.71 4:11221900 
0.7984374999999999 1:432.2 2:446.21 3:420.11 4:21936800 
-1 1:425.34 2:432.5 3:422.75 4:16330500 
0.7984374999999999 1:419.11 2:423.14 3:416.5 4:6045800 
0.7984374999999999 1:414.63 2:415.21 3:409.95 4:6950100 
0.7984374999999999 1:415 2:415.78 3:408.56 4:7643400 
-1 1:405.3 2:410.65 3:402.64 4:8910100 
0.7984374999999999 1:406.16 2:406.7 3:399.01 4:11665900 
0.7984374999999999 1:408.7 2:416.41 3:401.7 4:15114700 
-1 1:416.94 2:419.53 3:413.86 4:7543500 
0.7984374999999999 1:409.2 2:415.44 3:408.29 4:9744900 
0.7984374999999999 1:404.26 2:408.45 3:395.56 4:15596600 
0.7984374999999999 1:424.46 2:426.4 3:402.14 4:21495800 
-1 1:425.78 2:428.75 3:425.3 4:4840100 
0.7984374999999999 1:417.04 2:424.72 3:415.78 4:10085000 
0.7984374999999999 1:399.17 2:409.98 3:393.49 4:10335100 
0.7984374999999999 1:403.49 2:404.5 3:399.85 4:7025700 
-1 1:401.8 2:403.81 3:399.53 4:9212200 
0.7984374999999999 1:394.38 2:397 3:390.95 4:8624900 
-1 1:392.12 2:398.22 3:391.53 4:7807900 
0.7984374999999999 1:395.12 2:396.9 3:388.85 4:7063900 
-1 1:378.36 2:391.35 3:377.43 4:9128700 
0.7984374999999999 1:386.67 2:388.29 3:378.03 4:10466900 
-1 1:394.25 2:395.59 3:388.58 4:7897500 
-1 1:395.1 2:397.47 3:392.15 4:9591500 
0.7984374999999999 1:382.41 2:386.58 3:381.38 4:7448400 
0.7984374999999999 1:381.7 2:385 3:377.17 4:10565400 
0.7984374999999999 1:371.86 2:383.9 3:369.01 4:16356100 
0.7984374999999999 1:360.24 2:374.75 3:359.51 4:14342900 
0.7984374999999999 1:355.27 2:358.95 3:355.02 4:5903500 
0.7984374999999999 1:356.6 2:357.09 3:351.68 4:5134400 
-1 1:343.37 2:349.3 3:342.19 4:9431700 
0.7984374999999999 1:345.8 2:346.43 3:333 4:22892400 
0.7984374999999999 1:309.99 2:311.13 3:301.21 4:13911700 
-1 1:304 2:309.87 3:303.96 4:7010700 
-1 1:297.5 2:305.2 3:294.56 4:7566700 
-1 1:302 2:302 3:290.68 4:10567700 
-1 1:305.2 2:307.19 3:299 4:9306200 
-1 1:310.61 2:312.65 3:304.86 4:8542600 
-1 1:313.31 2:314.82 3:309.15 4:5572200 
-1 1:314.79 2:316.67 3:310.54 4:6770300 
0.7984374999999999 1:314.14 2:314.48 3:310.09 4:7993800 
0.7984374999999999 1:312.69 2:314.9 3:308 4:8328400 
-1 1:313.63 2:320.11 3:312.79 4:9160300 
0.7984374999999999 1:314.22 2:317.5 3:312.29 4:9151300 
0.7984374999999999 1:306.68 2:310.72 3:306.08 4:5613800 
-1 1:314.95 2:318.41 3:313.38 4:6873100 
-1 1:319.5 2:320.95 3:312.56 4:9894400 
-1 1:313 2:317.21 3:312.59 4:8483800 
0.7984374999999999 1:306.15 2:311.3 3:305.23 4:9351000 
0.7984374999999999 1:301 2:306 3:300.71 4:5761900 
0.7984374999999999 1:304.02 2:304.5 3:299.87 4:7579800 
-1 1:299.52 2:306.75 3:297.91 4:15466200 
-1 1:308.73 2:313.28 3:300.3 4:11275800 
-1 1:309 2:315.53 3:306.17 4:10299900 
0.7984374999999999 1:301.75 2:311.42 3:301 4:10386500 
0.7984374999999999 1:297.28 2:299.1 3:296.56 4:4390500 
0.7984374999999999 1:294.83 2:299.28 3:293.36 4:6613300 
0.7984374999999999 1:289 2:289.39 3:286.8 4:4212300 
-1 1:286.51 2:289.99 3:286.44 4:3434500 
0.7984374999999999 1:285.91 2:287.5 3:285 4:2742100 
0.7984374999999999 1:288.23 2:288.5 3:284.36 4:5034000 
-1 1:287.39 2:289.51 3:285.88 4:4792000 
0.7984374999999999 1:283.48 2:285.02 3:282.66 4:3755300 
0.7984374999999999 1:282.55 2:284 3:279.97 4:4376600 
0.7984374999999999 1:277.57 2:284.75 3:276.45 4:8593100 
0.7984374999999999 1:276.16 2:279.74 3:274.12 4:5821700 
0.7984374999999999 1:281.24 2:281.47 3:273.35 4:6813000 
0.7984374999999999 1:275.91 2:280.5 3:275 4:11872800 
-1 1:285.51 2:286.57 3:284 4:3883300 
0.7984374999999999 1:284.88 2:287.79 3:283.34 4:7109200 
0.7984374999999999 1:289.8 2:292.77 3:283.77 4:8174700 
-1 1:283.36 2:290.2 3:281.64 4:6585900 
0.7984374999999999 1:285.89 2:286.58 3:280.62 4:7514900 
-1 1:291.96 2:292.68 3:288.51 4:5779300 
0.7984374999999999 1:293.6 2:295.65 3:290.49 4:4481800 
-1 1:295.55 2:299 3:295.25 4:5236500 
0.7984374999999999 1:298 2:299.72 3:295.6 4:5930600 
0.7984374999999999 1:288.12 2:292.5 3:288.1 4:5662400 
-1 1:297.41 2:297.41 3:293.28 4:5925600 
-1 1:297.74 2:298.23 3:292.4 4:7217900 
0.7984374999999999 1:295.01 2:298 3:292.09 4:9816900 
0.7984374999999999 1:305.57 2:312.61 3:301.8 4:14310400 
0.7984374999999999 1:302.1 2:310.35 3:301.8 4:12621400 
-1 1:301.24 2:303.4 3:299.78 4:8438400 
0.7984374999999999 1:305.34 2:306.75 3:300.07 4:10667700 
0.7984374999999999 1:292.51 2:299.24 3:292.1 4:11437900 
-1 1:296.4 2:296.6 3:291.02 4:8390300 
-1 1:296.25 2:297.5 3:294.05 4:7457600 
0.7984374999999999 1:289.39 2:295.8 3:288.51 4:10672100 
0.7984374999999999 1:297.3 2:297.6 3:291.38 4:8000300 
-1 1:292.1 2:295.98 3:290.23 4:7494000 
0.7984374999999999 1:295.04 2:296.24 3:289.22 4:9227600 
0.7984374999999999 1:302.5 2:304.38 3:292.15 4:18298700 
-1 1:306.28 2:309.25 3:302 4:19036500 
-1 1:298.9 2:304.47 3:293.86 4:17802900 
0.7984374999999999 1:290.9 2:298 3:289.58 4:17771200 
0.7984374999999999 1:288 2:294.81 3:286.5 4:14056400 
0.7984374999999999 1:288.07 2:290.3 3:284.97 4:15132300 
0.7984374999999999 1:276.09 2:287.67 3:271.73 4:21024700 
0.7984374999999999 1:279 2:280.3 3:275.9 4:10434400 
0.7984374999999999 1:275 2:277.3 3:267.43 4:20883100 
-1 1:278.59 2:281.24 3:277.75 4:10091900 
-1 1:279.82 2:284.19 3:276.52 4:12803200 
0.7984374999999999 1:286.99 2:287.28 3:280.02 4:12696600 
-1 1:284.72 2:288.5 3:280.56 4:16441100 
0.7984374999999999 1:282.39 2:293.75 3:281.83 4:22525900 
0.7984374999999999 1:286.79 2:289.3 3:277.41 4:18782300 
-1 1:288.73 2:289.78 3:284.6 4:17974100 
-1 1:283.2 2:292.89 3:282.02 4:35191700 
0.7984374999999999 1:269.43 2:278.4 3:269.37 4:22236800 
0.7984374999999999 1:240.34 2:241.17 3:238.27 4:9716500 
0.7984374999999999 1:230.56 2:233.45 3:230.2 4:7808900 
0.7984374999999999 1:230.81 2:232.23 3:228.2 4:8948200 
-1 1:228.97 2:231.98 3:227.93 4:11478800 
0.7984374999999999 1:225.47 2:227.8 3:224.72 4:6345800 
0.7984374999999999 1:228 2:228.5 3:225.43 4:5536800 
-1 1:228.4 2:229.25 3:226.47 4:6763900 
0.7984374999999999 1:228.62 2:228.62 3:225.88 4:7509600 
-1 1:227.23 2:229.88 3:227 4:12083500 
0.7984374999999999 1:221.85 2:228.15 3:221.32 4:17780200 
0.7984374999999999 1:221.91 2:222.25 3:217.82 4:9170200 
0.7984374999999999 1:219.5 2:222.08 3:217.71 4:8682800 
0.7984374999999999 1:220.22 2:222 3:218.29 4:17272000 
0.7984374999999999 1:222.9 2:224 3:214.26 4:33205100 
0.7984374999999999 1:189.33 2:192 3:188.03 4:8430000 
-1 1:193.27 2:194.36 3:190.1 4:6152700 
-1 1:193 2:194.42 3:189.41 4:7319600 
0.7984374999999999 1:193.69 2:195.1 3:191.45 4:5116600 
-1 1:188.78 2:194.62 3:188.64 4:9692200 
0.7992187499999999 1:179.95 2:185.32 3:179.84 4:8076400 
0.7992187499999999 1:177.95 2:181.39 3:177.64 4:6768600 
0.7992187499999999 1:180.64 2:181.45 3:179.6 4:6236100 
0.7992187499999999 1:181.05 2:183.28 3:178.07 4:6473000 
0.7992187499999999 1:180.7 2:180.86 3:179.2 4:3705200 
0.7992187499999999 1:177.97 2:180.24 3:177.97 4:4845000 
0.7992187499999999 1:181.18 2:181.94 3:177.85 4:5631700 
-1 1:179.27 2:182.17 3:177.25 4:7483700 
0.7992187499999999 1:177.13 2:179.64 3:175.8 4:8260600 
-1 1:175.3 2:180 3:174.21 4:10422100 
0.7992187499999999 1:178.33 2:178.4 3:172.57 4:11146600 
-1 1:181.01 2:181.2 3:177.4 4:10960500 
-1 1:184.21 2:184.65 3:180.16 4:11360400 
-1 1:189.1 2:189.85 3:184.97 4:8046100 
-1 1:187.78 2:189.6 3:187.03 4:8667400 
-1 1:186.13 2:187.75 3:184.31 4:7608600 
-1 1:189.29 2:189.75 3:182 4:9311200 
-1 1:186 2:189.87 3:185.85 4:7818400 
0.7992187499999999 1:189.15 2:189.92 3:185.51 4:9973500 
-1 1:183.37 2:189.85 3:182.23 4:25814300 
-1 1:193.3 2:194.48 3:188.66 4:15586000 
0.7992187499999999 1:196.5 2:198.9 3:190.39 4:13483700 
0.7992187499999999 1:197.83 2:199.75 3:196.81 4:10414400 
-1 1:194.7 2:199.33 3:194.3 4:16532300 
0.7992187499999999 1:193.6 2:199.84 3:193.08 4:25782800 
0.7992187499999999 1:182.85 2:193.08 3:181 4:38562200 
0.7992187499999999 1:186.66 2:192.32 3:186.07 4:13116000 
0.7992187499999999 1:191.97 2:192.21 3:185.25 4:18982700 
-1 1:200.76 2:201.6 3:189.46 4:17171500 
-1 1:196.96 2:200.02 3:194.53 4:11480000 
0.7992187499999999 1:205.26 2:206.4 3:195.51 4:12960400 
-1 1:206.47 2:207.75 3:202.6 4:14819300 
-1 1:205.99 2:213.37 3:205.81 4:12988100 
0.7992187499999999 1:194.38 2:196.66 3:190.63 4:18839000 
-1 1:193.69 2:196.36 3:191.72 4:9596700 
0.7992187499999999 1:190.02 2:194.7 3:186.34 4:12208200 
-1 1:179.27 2:189.41 3:179.15 4:12307900 
0.7992187499999999 1:181.94 2:182.24 3:176.29 4:10659200 
-1 1:188.69 2:189.33 3:180.32 4:14022700 
-1 1:194.54 2:195.36 3:188.12 4:9258400 
-1 1:192.5 2:196.25 3:192 4:9001600 
0.7992187499999999 1:195.38 2:197.39 3:194.05 4:6849400 
0.7992187499999999 1:194.33 2:195.93 3:190.5 4:8177800 
0.7992187499999999 1:190.64 2:194.25 3:188.78 4:9662900 
0.7992187499999999 1:195.08 2:195.9 3:187.72 4:10387100 
-1 1:193.45 2:196.9 3:192.23 4:8236600 
-1 1:197.4 2:203.64 3:195.46 4:15844200 
-1 1:192.97 2:198.23 3:191.85 4:5904300 
0.7992187499999999 1:191.78 2:193.52 3:191.78 4:2678100 
0.7992187499999999 1:192.11 2:193.55 3:191.01 4:4145800 
0.7992187499999999 1:187.45 2:188.6 3:186 4:3614600 
0.7992187499999999 1:186.31 2:187.88 3:183.4 4:5516300 
0.7992187499999999 1:176.76 2:180.5 3:176.55 4:7386200 
-1 1:177.99 2:180.69 3:176.66 4:11471000 
0.7992187499999999 1:171 2:178.82 3:169.6 4:11088400 
0.7992187499999999 1:172.17 2:173.18 3:169.45 4:4818600 
-1 1:170.25 2:173.5 3:168.47 4:7654000 
0.7992187499999999 1:170.35 2:173.68 3:168.73 4:7541800 
-1 1:176 2:176.2 3:170.55 4:6870900 
0.7992187499999999 1:181.95 2:182.5 3:179.55 4:7864100 
0.7992187499999999 1:180.36 2:182.95 3:177.51 4:10666600 
0.7992187499999999 1:175.8 2:180.03 3:175.32 4:6480100 
0.7992187499999999 1:174.82 2:177.21 3:172.51 4:15281000 
0.7992187499999999 1:167.97 2:170.83 3:166.5 4:12413300 
0.7992187499999999 1:164.47 2:169.5 3:161.31 4:12368200 
-1 1:169.1 2:169.98 3:166.52 4:8769300 
0.7992187499999999 1:170.29 2:174.42 3:165.73 4:16629600 
-1 1:169.02 2:177.5 3:169 4:18132900 
-1 1:180.45 2:188.32 3:178.75 4:11901500 
0.7992187499999999 1:185.23 2:189.8 3:177.4 4:16746100 
-1 1:169.13 2:183.75 3:167.57 4:14985500 
-1 1:174.1 2:175.2 3:165.27 4:11064200 
-1 1:170.93 2:175.44 3:169.4 4:11191800 
-1 1:188.44 2:190.4 3:183.35 4:14409600 
-1 1:198.18 2:201.6 3:190.75 4:13888700 
-1 1:198.78 2:199.25 3:193.34 4:11346300 
-1 1:193.55 2:197.67 3:191.27 4:12224900 
-1 1:186.68 2:194.39 3:185.6 4:14846800 
0.7992187499999999 1:182.72 2:189.52 3:181.77 4:13356500 
0.7992187499999999 1:148.03 2:148.99 3:139.6 4:11372700 
-1 1:150.5 2:152.4 3:147.35 4:9064000 
-1 1:143.2 2:149.2 3:141.21 4:7025200 
0.7992187499999999 1:144.93 2:145.5 3:141.95 4:6604000 
0.7992187499999999 1:141.01 2:142.38 3:138.56 4:5226300 
0.7992187499999999 1:137 2:138.86 3:133.85 4:5241300 
-1 1:138.72 2:139.68 3:137.02 4:5540300 
-1 1:136.92 2:139.88 3:136.55 4:7064600 
0.7992187499999999 1:137.55 2:138.45 3:136 4:6697400 
-1 1:134.66 2:138.53 3:132.24 4:7494100 
0.7992187499999999 1:130.8 2:134.24 3:128.9 4:7570000 
0.7992187499999999 1:121.3 2:127.4 3:120.21 4:8473000 
0.7992187499999999 1:119.56 2:120.88 3:117.8 4:3536600 
0.7992187499999999 1:117.4 2:119.67 3:116.81 4:3794400 
0.7992187499999999 1:114.42 2:117.49 3:113.55 4:4741000 
0.7992187499999999 1:112.34 2:115.8 3:111.65 4:4637800 
0.7992187499999999 1:107.45 2:112 3:106.79 4:5419900 
0.7992187499999999 1:100.74 2:103.03 3:100.5 4:2495300 
0.798828125 1:101.01 2:102 3:99.61 4:2926700 
0.798828125 1:100.95 2:101.74 3:99.32 4:2578800 
-1 1:99.19 2:102.37 3:98.94 4:7566900 
-1 1:102.3 2:103.71 3:102.16 4:2461400 
0.798828125 1:105.28 2:105.49 3:102.01 4:2601000 
-1 1:108.1 2:108.62 3:105.69 4:3109000 
-1 1:104.95 2:107.95 3:104.66 4:3551000 
0.798828125 1:104.96 2:108 3:103.88 4:4598900 
0.798828125 1:111.24 2:111.6 3:103.57 4:7631300 
0.798828125 1:100 2:104.06 3:95.96 4:22351900 
