svm_type c_svc
kernel_type rbf
gamma 0.333333
nr_class 2
total_sv 1473
rho -0.0522287
label 1 -1
nr_sv 764 709
SV
0.94778588021883 1:100 2:100.34 3:50 
0.9478055747689795 1:111.24 2:37.4715 3:47.4818 
0.9477291941707927 1:108.1 2:61.6312 3:57.3842 
0.9477596729955966 1:105.28 2:67.015 3:44.5671 
0.9474244120063123 1:102.3 2:71.729 3:55.9577 
0.9475746028600266 1:102.7 2:75.5318 3:45.4133 
0.9478002037479675 1:100.95 2:81.7975 3:45.8566 
0.9483194059351214 1:102.53 2:88.8829 3:68.1274 
0.9491950019786436 1:119.81 2:106.378 3:76.8122 
0.9478504781089246 1:120.94 2:111.042 3:71.1273 
0.9477772584063519 1:119.56 2:112.005 3:61.0779 
0.9478708613461917 1:129.9 2:118.043 3:61.3209 
0.9478386305901264 1:137.55 2:125.896 3:65.0263 
0.9481034960499915 1:138.72 2:128.971 3:60.114 
0.9477858995622124 1:137 2:129.809 3:51.756 
0.9473719150099541 1:150.5 2:138.282 3:66.5489 
0.9482391284097683 1:148.03 2:138.577 3:57.5509 
0.9478060375702894 1:186.34 2:154.31 3:62.7853 
0.9480144820280414 1:198.89 2:166.83 3:62.3564 
0.9478102835362978 1:198.78 2:173.943 3:57.9439 
0.9475637781647694 1:198.18 2:176.306 3:49.5444 
0.9477850363290576 1:188.44 2:177.426 3:42.6674 
0.9225155031248841 1:181.98 2:176.349 3:37.204 
0.5219228229536022 1:174.1 2:174.89 3:39.5784 
0.558620666039254 1:170.67 2:173.953 3:34.486 
0.9230306790999631 1:185.23 2:176.073 3:37.6023 
0.9352922052447193 1:177.5 2:176.619 3:40.2518 
0.8681118237806415 1:169.02 2:176.07 3:34.9936 
0.944665394514943 1:170.29 2:174.932 3:30.5249 
0.9475406247715527 1:164.47 2:172.982 3:34.5024 
0.9478375905292562 1:180.71 2:175.499 3:68.4347 
1 1:181.95 2:176.094 3:59.1097 
0.7587498403009951 1:179.9 2:176.535 3:51.1005 
0.7148686030375661 1:179.13 2:176.949 3:50.0733 
0.6318128255387544 1:176 2:176.213 3:43.578 
1 1:170.35 2:175.382 3:37.9466 
0.5372455707349679 1:173.43 2:174.659 3:40.0944 
0.6801138304607597 1:172.17 2:174.098 3:34.8605 
0.6540189033807126 1:176.95 2:175.53 3:44.538 
0.9474726335918871 1:186.31 2:178.179 3:50.6826 
0.9936975063566969 1:191.78 2:184.656 3:76.7324 
0.9700864203781893 1:199.23 2:187.236 3:69.0355 
0.9493827186341209 1:201.4 2:189.993 3:63.43 
0.8753349911580495 1:193.45 2:190.462 3:54.8373 
0.893276914592073 1:195.08 2:190.207 3:47.5894 
0.8075571057083695 1:195.62 2:191.577 3:52.6567 
0.9318807586479367 1:195.38 2:192.517 3:51.0853 
0.9473814467674346 1:204.65 2:195.216 3:55.123 
0.9779166884005436 1:192.5 2:195.044 3:47.8156 
0.9330472022388678 1:194.54 2:194.142 3:41.6327 
0.8250895107021029 1:188.69 2:192.352 3:36.4174 
0.9364333329308516 1:181.94 2:190.321 3:31.8985 
0.8522527405255144 1:188.76 2:189.897 3:35.5284 
0.8956391422345245 1:194.38 2:190.87 3:44.8399 
0.9464807749359346 1:206.47 2:196.49 3:51.2524 
0.9471599571977547 1:205.26 2:196.429 3:44.4326 
0.9471456268742954 1:200.76 2:196.038 3:45.1494 
0.9321903085609598 1:191.97 2:194.963 3:39.3451 
0.9277870347209772 1:186.66 2:193.955 3:34.2764 
0.6863303963655744 1:197.83 2:195.04 3:49.5982 
0.9650085946713569 1:198.51 2:195.428 3:56.4052 
0.6219448018637277 1:196.5 2:194.887 3:49.0202 
0.9689922455767552 1:183.37 2:193.979 3:48.5458 
0.6279989117862987 1:189.15 2:192.898 3:42.3088 
1 1:189.29 2:191.419 3:43.3727 
0.8115633762356121 1:185.95 2:190.587 3:37.7537 
0.8029088553499989 1:186.7 2:189.549 3:39.9134 
0.928198162463885 1:189.1 2:188.884 3:41.636 
0.9345591501747501 1:184.21 2:187.879 3:36.2775 
0.9333513236748566 1:181.01 2:186.826 3:31.6177 
0.9433603743627084 1:180.44 2:185.622 3:27.5797 
0.945449574462765 1:178.33 2:184.205 3:24.0863 
0.9483678315090728 1:176.7 2:182.411 3:29.5842 
0.6204339812665498 1:179.27 2:181.62 3:53.9624 
1 1:181.18 2:181.218 3:46.8713 
0.6467201650649952 1:177.97 2:180.919 3:53.8792 
0.7132295731597821 1:181.05 2:180.63 3:56.6739 
0.953772345784396 1:177.95 2:180.593 3:67.4507 
1 1:181.76 2:180.519 3:58.4811 
0.9181516880741198 1:193.69 2:185.516 3:66.4433 
0.9376180489020982 1:193 2:187.533 3:75.0663 
0.9170533789687846 1:193.47 2:188.253 3:64.8088 
0.7775753031188269 1:193.27 2:188.679 3:56.0407 
1 1:190.1 2:188.188 3:48.6952 
0.9482027975347624 1:220.22 2:201.391 3:67.9108 
0.9475708180845537 1:219.5 2:205.924 3:62.2189 
0.9485623137526227 1:228.62 2:215.849 3:68.3556 
0.9470744384990436 1:228 2:218.612 3:62.7467 
0.9476917865738722 1:230.81 2:222.345 3:62.441 
0.9853552644398729 1:240.34 2:228.887 3:82.1606 
0.9486844618971534 1:260.96 2:242.595 3:77.5245 
0.9473589708629291 1:288.73 2:259.387 3:73.3419 
0.9477824455191897 1:286.79 2:262.17 3:62.8882 
0.9477875826729602 1:292.85 2:270.946 3:62.8669 
0.9477896437785115 1:286.99 2:274.262 3:58.7123 
0.9706394813438733 1:279.82 2:275.394 3:64.3644 
0.9495398283433588 1:278.59 2:275.788 3:55.7027 
0.9477881804058187 1:275 2:275.656 3:48.2988 
0.9534801468801543 1:288 2:281.751 3:78.5654 
0.9486278528150418 1:306.28 2:288.586 3:72.4242 
0.9470243249681914 1:302.5 2:289.137 3:62.648 
0.8785912956769441 1:295.04 2:289.998 3:58.6369 
0.881492186744577 1:297.3 2:290.861 3:55.6603 
0.8174017149770051 1:296.4 2:292.282 3:57.8948 
0.9299333194930239 1:293.39 2:292.215 3:50.187 
0.6014124899162493 1:300 2:295.674 3:58.7182 
1 1:306.37 2:301.551 3:63.7932 
1 1:302.39 2:300.791 3:55.4272 
0.9522252503190243 1:297.74 2:299.733 3:66.4027 
0.921735462887412 1:297.41 2:298.902 3:57.709 
0.9194874095442773 1:292.14 2:297.416 3:50.2643 
0.7374191132001737 1:298 2:297.024 3:54.2354 
0.9676005574432259 1:295.55 2:297.118 3:60.3499 
0.7432932772828901 1:297.5 2:296.483 3:52.4155 
0.9006876231154755 1:293.6 2:295.785 3:45.5339 
0.9186435907611502 1:291.96 2:295.223 3:52.7062 
0.8633332465324243 1:291.3 2:293.951 3:45.8764 
0.9415751583832199 1:285.89 2:292.631 3:39.9389 
0.9367500088907357 1:289.8 2:291.143 3:41.6508 
0.6099054518476065 1:285.51 2:289.703 3:42.8339 
0.9477228009772707 1:275.91 2:288.408 3:37.2894 
0.9478182529537323 1:281.24 2:285.517 3:39.6244 
0.9413532819675098 1:282.55 2:284.191 3:60.5144 
0.9159618397586306 1:287.39 2:285.033 3:60.9342 
0.9258017685742458 1:288.23 2:285.162 3:52.7858 
0.8198831362800216 1:285.91 2:285.307 3:59.1018 
0.924470690452516 1:289 2:285.91 3:55.9565 
0.9482184954672733 1:308.73 2:295.994 3:68.3234 
0.7384193626318947 1:299.52 2:296.878 3:59.0374 
0.9477638936513261 1:304.02 2:297.321 3:51.0895 
0.9489811319841616 1:311.5 2:302.501 3:59.1545 
0.7752864884602473 1:319.5 2:305.557 3:55.9134 
0.8775657387417998 1:314.95 2:306.675 3:48.2817 
0.932680417136462 1:314.22 2:306.585 3:41.8564 
0.9469767185228578 1:319.95 2:309.824 3:54.1562 
0.857753858819985 1:312.69 2:309.942 3:46.9175 
1 1:314.79 2:310.673 3:60.2229 
1 1:313.31 2:310.67 3:52.1937 
0.8606144463575477 1:310.61 2:310.06 3:45.3234 
0.9481883199255361 1:305.2 2:308.848 3:39.4345 
0.9330787805157236 1:302 2:307.327 3:34.3457 
0.9477357490910686 1:299.9 2:305.836 3:29.9115 
0.9320177832027564 1:304.96 2:305.398 3:34.0395 
0.8050303006120713 1:309.99 2:305.487 3:37.2371 
0.9476000879282989 1:345.78 2:319.444 3:46.4491 
0.9474599463635987 1:356.6 2:328.086 3:46.4885 
0.9478068664181305 1:381.7 2:347.915 3:71.5312 
0.9480259819251806 1:394.25 2:366.517 3:70.57 
0.9364808813967384 1:386.67 2:368.201 3:60.8808 
0.9473159190231439 1:395.12 2:373.807 3:57.1326 
0.9480614819428455 1:394.38 2:379.016 3:54.4261 
0.9479114132442361 1:403.49 2:386.582 3:57.1103 
0.9476816168011324 1:429.82 2:404.3 3:65.9824 
0.9475624079340016 1:424.46 2:404.199 3:57.1991 
0.9546770515277117 1:417 2:407.031 3:62.7265 
0.9959584362921428 1:408.7 2:406.699 3:54.4074 
0.9477297547541219 1:406.16 2:406.369 3:47.1914 
0.9464804958641834 1:415 2:407.241 3:47.0224 
0.9481330939397463 1:432.2 2:415.874 3:64.4035 
0.9470697791938331 1:433.55 2:418.87 3:59.8836 
0.8915562326980456 1:432.15 2:422 3:56.4761 
0.7889258068954836 1:431.86 2:422.352 3:48.9052 
0.9339729522381035 1:427.98 2:422.56 3:48.3837 
0.9499728243172527 1:417.27 2:421.533 3:42.0346 
0.9479432522604271 1:473.72 2:448.969 3:68.9091 
0.9477917707461097 1:447.3 2:452.255 3:66.7912 
1 1:451.17 2:450.147 3:58.1567 
0.9599394877080694 1:438.7 2:443.389 3:51.1707 
1 1:451.26 2:440.371 3:54.886 
0.9489751925108194 1:435 2:438.749 3:52.8155 
0.875858480086414 1:429.23 2:437.158 3:45.94 
0.947647276843463 1:389.03 2:431.921 3:46.4997 
0.9477282157819424 1:403.82 2:427.137 3:40.7511 
0.9477881593568929 1:393.62 2:421.059 3:35.8275 
0.9477854432087992 1:382.99 2:409.818 3:38.5071 
0.9478200579811829 1:371.2 2:398.304 3:40.4669 
0.9477347345673776 1:346.64 2:387.166 3:42.0922 
0.9482856843413005 1:345.33 2:381.32 3:37.0392 
0.9480698500580779 1:341.27 2:376.128 3:32.5438 
0.9916083619498592 1:366.44 2:373.035 3:42.6215 
0.9476003865238502 1:367.15 2:372.029 3:37.0385 
0.9476622878844563 1:377.3 2:373.443 3:39.4134 
0.9430064482108501 1:393.2 2:373.957 3:41.6262 
0.9522096310494221 1:380.91 2:373.119 3:53.8394 
1 1:365.02 2:371.963 3:46.8058 
0.9450659530817569 1:353.93 2:369.552 3:40.8297 
0.830372994107473 1:355.39 2:366.012 3:35.728 
0.9477932182270528 1:343.5 2:362.21 3:31.2893 
0.947443789768709 1:340.93 2:358.857 3:27.3708 
0.947664637572622 1:350.77 2:356.053 3:32.1171 
0.9477802220443083 1:348.61 2:353.749 3:28.0162 
0.948288020268654 1:350.01 2:349.865 3:39.6666 
0.9473721970886541 1:389.19 2:364.814 3:64.5535 
0.9446809631883099 1:389.53 2:371.042 3:59.8189 
0.9478047456235884 1:412.41 2:386.953 3:64.2681 
0.9471423816041228 1:416.42 2:393.381 3:59.7148 
0.9472729766313571 1:409 2:395.457 3:51.4812 
0.8261085732632388 1:408.63 2:396.351 3:44.5164 
0.8273462667815426 1:407.93 2:398.612 3:45.0405 
0.9477921618766387 1:439.63 2:413.43 3:60.3148 
1 1:427.74 2:415.102 3:52.0623 
0.7843312730290877 1:422.91 2:415.759 3:45.0493 
0.956476980990393 1:418.63 2:416.05 3:39.0155 
0.9473938961512703 1:418.47 2:413.763 3:34.0003 
0.9478077743769396 1:401.08 2:411.235 3:29.6481 
0.9481511120331494 1:396.35 2:408.96 3:25.838 
0.9246393695955421 1:395.03 2:407.065 3:35.4271 
0.9473742832792925 1:397.6 2:405.363 3:30.8324 
0.9477392216677121 1:395.11 2:403.952 3:39.8453 
0.9478052904144351 1:408.31 2:404.383 3:41.5782 
0.948207490316288 1:403.42 2:402.065 3:36.2422 
0.9469835185898539 1:383.54 2:398.34 3:31.7036 
0.9477975903119915 1:375.99 2:392.176 3:35.272 
0.947562650735571 1:378.78 2:387.309 3:37.9995 
0.947174312769671 1:373.28 2:385.004 3:33.1301 
0.9519001130461178 1:367.85 2:383.13 3:41.7626 
1 1:384.55 2:382.033 3:53.7405 
1 1:378.28 2:380.687 3:46.7397 
0.7043134135922458 1:373.8 2:379.505 3:40.634 
0.6413486718572866 1:386.84 2:379.856 3:42.132 
0.7286970792084353 1:376.18 2:379.134 3:36.584 
0.9043227432818716 1:393.24 2:381.372 3:39.1341 
0.8880229270020206 1:392.19 2:383.443 3:41.0878 
0.908534368467835 1:388.34 2:383.19 3:35.633 
0.8318150383165933 1:389.83 2:383.734 3:38.3658 
0.902460221480094 1:389.1 2:385.503 3:40.4051 
0.9357028413320914 1:390.85 2:385.854 3:34.9859 
0.9477813906300967 1:388.03 2:386.03 3:30.3073 
0.9477233476160706 1:401.58 2:389.746 3:34.4698 
0.9476571555624129 1:406.75 2:393.423 3:37.5402 
0.9477222698508357 1:405.71 2:394.609 3:32.437 
0.9474950925689097 1:421.52 2:406.848 3:54.1469 
0.9478534270310624 1:426.05 2:410.55 3:52.2149 
0.85851899704006 1:423.44 2:411.57 3:45.1408 
0.6778478766562976 1:422.09 2:413.828 3:45.5759 
0.9475517084347528 1:414 2:413.162 3:39.5629 
0.8794939413307956 1:410.33 2:411.874 3:34.3951 
0.9327113396628187 1:409.75 2:410.237 3:37.427 
0.9236982268741545 1:395.01 2:408.739 3:32.5557 
0.9481940478780202 1:404.28 2:405.856 3:28.4153 
0.9492741584398823 1:392.82 2:402.042 3:45.7219 
0.950631107572222 1:385.02 2:400.351 3:39.793 
0.9456388632577943 1:388.2 2:398.371 3:34.6587 
0.9459026025869503 1:387.37 2:396.242 3:30.199 
0.945429284192843 1:388 2:394.018 3:34.1934 
0.9479144625933548 1:385.11 2:391.55 3:29.8211 
0.9477251674517786 1:375.6 2:388.307 3:26.0607 
0.9478056832449968 1:379.56 2:384.887 3:31.0189 
0.9667528662781044 1:382.8 2:382.683 3:41.7041 
0.9278956601016987 1:373.88 2:381.552 3:36.2507 
0.9475132042826916 1:374.4 2:379.812 3:31.5612 
1 1:386.39 2:380.739 3:47.9725 
0.6284427585942014 1:386.31 2:381.089 3:41.538 
0.8038589712602738 1:378.1 2:380.583 3:36.0474 
0.8192692472975985 1:377.64 2:379.365 3:38.6854 
1 1:374.44 2:378.613 3:46.7552 
1 1:373.08 2:377.9 3:40.5978 
0.4227359777968396 1:380.78 2:378.392 3:42.0874 
0.5519923989348338 1:381.49 2:378.683 3:43.2067 
0.9759237175353304 1:380.99 2:378.672 3:50.7777 
0.6407738760046766 1:382.1 2:379.525 3:49.7567 
0.8673695970765293 1:379.39 2:379.387 3:43.1382 
0.9475057564205492 1:404.3 2:387.353 3:51.5261 
0.9470760856073703 1:415.46 2:394.962 3:55.4212 
0.914336000600778 1:407.1 2:395.234 3:47.9987 
0.9245129198382065 1:404.98 2:397.716 3:47.6483 
0.9461522254312494 1:405.58 2:398.551 3:54.7236 
0.6803411476316231 1:406.3 2:400.095 3:52.6961 
0.8083515808444141 1:405.13 2:400.738 3:51.1546 
0.9473921326305417 1:401.9 2:400.832 3:44.3236 
0.9466116216826184 1:414.7 2:404.335 3:50.4909 
0.9486174224894046 1:431.56 2:411.779 3:54.5392 
0.8915233727047875 1:425.02 2:413.742 3:47.0431 
0.9131093420818499 1:427.76 2:417.133 3:46.8885 
0.944176199589828 1:427.7 2:417.748 3:40.5768 
0.9548437785519873 1:420.3 2:418.134 3:35.1341 
0.9195908115177649 1:422.99 2:418.291 3:30.4382 
0.9475035272935759 1:476.28 2:437.666 3:48.0736 
0.947781556724259 1:487.68 2:449.645 3:47.6519 
0.948239199425331 1:483.9 2:453.052 3:40.9877 
0.9482182104661826 1:478.06 2:458.882 3:42.3962 
0.9477856446142877 1:478.76 2:460.031 3:36.6516 
0.8164337104465917 1:476.95 2:465.694 3:51.1653 
0.8352342741749458 1:476.5 2:467.694 3:50.0025 
1 1:498.4 2:482.689 3:68.5339 
0.9467552670388901 1:510.97 2:489.18 3:62.8326 
0.9137999760083451 1:504.5 2:491.29 3:54.2211 
0.5524994942710643 1:501.37 2:490.418 3:47.0752 
0.7866878459707987 1:494.24 2:489.543 3:46.9764 
1 1:484.19 2:488.912 3:53.9869 
1 1:485.98 2:487.83 3:46.8924 
0.9886740452485187 1:490.23 2:486.898 3:56.7643 
1 1:484.92 2:486.18 3:54.2056 
0.9962832900075872 1:483.85 2:485.593 3:47.035 
0.8349673085840457 1:484.69 2:484.713 3:40.8377 
0.8131513568800343 1:482.64 2:483.825 3:42.2448 
0.9470316568428568 1:482.51 2:481.022 3:36.8255 
0.8065367710755057 1:470 2:477.173 3:39.2318 
0.948343114535193 1:464.18 2:474.377 3:34.2013 
0.9477234766254694 1:457.5 2:471.871 3:29.7986 
0.9167192140809051 1:467.12 2:468.749 3:40.8399 
0.9350945718353471 1:462.1 2:467.647 3:35.478 
0.948215269196111 1:487.69 2:473.588 3:50.4408 
0.946652341755153 1:507.55 2:486.201 3:62.5677 
0.9366864270104671 1:503.39 2:487.678 3:54.0611 
0.4788903885471981 1:494.52 2:487.698 3:46.851 
0.7725526822559693 1:492.5 2:487.021 3:46.8596 
0.7662484785724647 1:480.79 2:485.958 3:40.7004 
0.934305596832562 1:501 2:487.758 3:42.2813 
0.9329202168242061 1:498 2:489.32 3:43.3661 
0.9453044084004439 1:506 2:490.219 3:50.0981 
1 1:482.61 2:489.056 3:43.5215 
0.9405403415774415 1:477.5 2:486.137 3:37.9452 
0.9440947455584644 1:473.82 2:482.293 3:40.0247 
0.8812277832693098 1:471.65 2:478.271 3:41.6964 
0.7181462060623304 1:460.68 2:475.607 3:36.3393 
0.9663992835877603 1:466 2:470.951 3:45.0846 
1 1:478.69 2:472.199 3:55.6639 
1 1:475.75 2:471.988 3:48.2636 
0.9288962327158143 1:472.83 2:471.047 3:41.912 
0.9701195191642705 1:455 2:468.077 3:36.5542 
0.9478694698360445 1:442.67 2:463.278 3:38.9513 
0.9478055609346765 1:445.11 2:459.998 3:33.9985 
0.8365841957178138 1:462.69 2:457.227 3:43.488 
0.768730163609753 1:459.22 2:456.892 3:37.7171 
0.6148991554454431 1:458 2:456.368 3:32.7257 
0.9408363926075126 1:450.11 2:454.403 3:36.2514 
0.9321092544758635 1:447.86 2:452.568 3:38.7781 
0.9275016784519827 1:445.65 2:451.005 3:33.7241 
0.9221416903565263 1:445.79 2:449.806 3:36.8875 
0.7603032102662085 1:461.45 2:453.498 3:45.6723 
0.8679004812907366 1:463.55 2:456.177 3:45.8826 
0.8902260376953791 1:461.87 2:456.937 3:39.6987 
0.9475454734221226 1:464.55 2:457.468 3:34.3656 
0.9462834554575116 1:462.1 2:457.561 3:29.7776 
0.4397116884462367 1:457.76 2:457.69 3:39.1577 
0.8648462983028117 1:472.14 2:461.19 3:41.03 
0.9538854582237234 1:471.3 2:462.566 3:49.0447 
0.8695566442955061 1:472.98 2:463.319 3:42.4364 
0.7553150140292397 1:467.09 2:463.743 3:36.7446 
0.9463040810905746 1:466.06 2:463.848 3:31.8381 
0.7530891802563103 1:468.45 2:464.583 3:35.5015 
0.8830183383353077 1:473.8 2:466.798 3:38.2796 
0.8639796444310435 1:474.5 2:468.509 3:40.3877 
0.6848832688314041 1:480.1 2:471.533 3:41.965 
0.9368311799224165 1:478.61 2:472.333 3:36.3081 
0.6820983013229703 1:480 2:473.087 3:44.8883 
0.7085489919989412 1:480.07 2:474.812 3:45.3042 
0.9335000364827991 1:479.15 2:474.354 3:39.3015 
0.8254238823390265 1:472.19 2:473.64 3:34.1126 
0.9204335938626059 1:468.65 2:472.592 3:29.6298 
0.8251604127515787 1:470.12 2:472.47 3:33.8352 
0.9160351906870561 1:472.14 2:471.776 3:29.367 
0.9475956049361102 1:466.13 2:471.114 3:25.4871 
0.9332945636437767 1:467.04 2:469.613 3:30.7515 
1 1:465.48 2:468.237 3:34.6843 
0.9473188703673843 1:461.96 2:466.872 3:30.1476 
0.945248326946815 1:472.46 2:468.08 3:34.2532 
0.9283008725774762 1:472.03 2:468.379 3:29.6671 
0.8995697680329238 1:469.53 2:468.675 3:39.0834 
0.7186169866374688 1:480.82 2:470.211 3:40.9544 
0.946764874384734 1:500.56 2:480.342 3:57.9179 
0.9477615849905637 1:516.75 2:494.263 3:62.9469 
0.9375342750649752 1:519.75 2:497.036 3:54.2496 
1 1:516.2 2:499.496 3:60.545 
0.9476225005154911 1:514.02 2:501.076 3:52.3069 
0.9276637089943467 1:508.71 2:501.568 3:45.2882 
0.9275270666867412 1:505.38 2:502.162 3:45.6026 
0.9611169867170696 1:514.01 2:505.662 3:51.273 
0.9111184856965044 1:516.96 2:506.236 3:44.3862 
1 1:525 2:516.027 3:59.7253 
1 1:524.88 2:517.225 3:51.642 
0.947495501611242 1:526.02 2:517.955 3:44.6933 
0.9478112363774225 1:541.25 2:526.269 3:55.6247 
0.9494768572938304 1:550.3 2:538.659 3:81.6284 
0.9530905600971261 1:553.89 2:541.992 3:72.7677 
0.9476828971151923 1:553.46 2:542.872 3:62.9632 
0.9477834230398216 1:511.9 2:539.839 3:54.8747 
0.9487510766719415 1:519.01 2:536.195 3:47.8813 
0.9480998264715268 1:516.98 2:530.105 3:47.5818 
0.9123759519790347 1:508.74 2:527.158 3:41.4681 
0.9474126645597177 1:520.23 2:522.065 3:48.5009 
0.9503668619700267 1:513.72 2:519.536 3:48.0157 
0.937310540235881 1:510.05 2:517.331 3:41.791 
1 1:520.8 2:517.193 3:53.8817 
0.7833767198578785 1:519.54 2:516.801 3:52.034 
0.8866139915670049 1:515.72 2:515.707 3:45.1917 
0.6091236136102082 1:509 2:513.286 3:39.3509 
0.9458068331427137 1:492.02 2:510.384 3:34.298 
0.9472992266956941 1:502.46 2:507.527 3:37.2918 
0.713795024719025 1:516 2:508.66 3:45.8444 
0.7862543559725614 1:514.43 2:510.006 3:46.012 
0.7382682416739846 1:511.53 2:509.525 3:39.9147 
0.7382696414207511 1:512.36 2:510.163 3:41.56 
0.9476876479005962 1:529.36 2:515.924 3:53.8686 
1 1:517.86 2:516.381 3:46.6448 
0.9474695550678293 1:521.28 2:516.128 3:40.4454 
0.9484922356524769 1:526.53 2:520.633 3:57.6802 
0.9477927841533236 1:570.4 2:545.688 3:71.2892 
0.9482839683237787 1:571.73 2:548.597 3:61.4564 
0.9477685049806879 1:567 2:551.086 3:53.0216 
1 1:586.25 2:562.477 3:56.1941 
0.9158552168195278 1:585.09 2:564.684 3:48.5112 
0.9477284688885732 1:633.64 2:590.507 3:61.8813 
0.9473744642834693 1:638.47 2:599.872 3:58.0324 
0.9477243102575789 1:618.49 2:602.022 3:50.1151 
0.9477046133242163 1:672.71 2:633.848 3:79.9225 
0.9474784851413931 1:678.68 2:638.47 3:68.7648 
0.9473322691655756 1:702.79 2:666.915 3:71.3201 
0.9477027254381251 1:741.13 2:694.101 3:70.374 
0.9475811363352111 1:734.6 2:694.066 3:60.9939 
0.9490319129617689 1:675.78 2:690.053 3:53.1688 
0.9454269563613684 1:657.74 2:682.322 3:46.6017 
0.9475750883712094 1:673.28 2:674.387 3:46.7334 
0.9477267444576724 1:638.57 2:668.422 3:40.8637 
0.9481176249788396 1:629.59 2:658.726 3:42.2603 
0.9478076592096805 1:680.2 2:661.068 3:54.1078 
0.947575461013261 1:711 2:673.687 3:60.8784 
0.9475530398198305 1:691.01 2:674.733 3:52.6795 
0.9478122564346676 1:714.99 2:687.967 3:59.9621 
0.9482391977584143 1:719.94 2:692.984 3:56.6919 
0.9523632154129694 1:714 2:693.833 3:62.5122 
0.9417822060837825 1:696.31 2:693.862 3:54.175 
0.9476850247276374 1:687.51 2:693.341 3:46.9869 
0.9478107834442761 1:688 2:690.126 3:40.9117 
0.9478906205660286 1:707.07 2:693.754 3:64.9456 
0.9477239686025863 1:698.57 2:694.465 3:60.4212 
0.9422533406572954 1:692.87 2:693.229 3:52.4584 
0.9480253049913823 1:685.26 2:692.175 3:58.7346 
0.9472613455806302 1:679.69 2:687.485 3:51.2506 
0.9458083019583551 1:653.94 2:682.387 3:44.749 
0.9478129729239594 1:653 2:675.626 3:39.1706 
0.9477861754217876 1:645.01 2:669.182 3:40.9844 
0.9478058051869641 1:642.7 2:665.058 3:35.7401 
0.9478048723964218 1:645.9 2:660.105 3:38.4917 
0.9478109167968319 1:628.97 2:654.217 3:33.6597 
0.9475287776450024 1:620.76 2:647.094 3:29.4929 
0.9474963137330039 1:608.36 2:640.848 3:25.8096 
0.947459572314444 1:562.03 2:633.315 3:22.6344 
0.9472995422059094 1:560.71 2:622.022 3:19.9726 
0.9478099903598071 1:591.81 2:609.113 3:26.2183 
0.9478003955368497 1:570.97 2:602.029 3:22.9899 
0.9478098377372459 1:560.47 2:595.161 3:20.1545 
0.947807242802365 1:549.19 2:588.909 3:17.6527 
0.9477947932160564 1:528.67 2:576.331 3:24.8628 
0.9477864233110898 1:509.07 2:565.544 3:21.9588 
0.947379666306718 1:511.14 2:550.245 3:27.5953 
0.9442129904497502 1:523.39 2:535.305 3:45.107 
0.9478105140660383 1:538.35 2:534.818 3:45.4624 
0.9465849968025057 1:528.31 2:534.128 3:39.4517 
0.9480872091268818 1:534.94 2:530.771 3:34.4077 
0.9475791086171874 1:512.85 2:524.534 3:37.3647 
0.9445424147363252 1:505.95 2:517.521 3:39.7838 
0.9481926176723461 1:461.2 2:510.41 3:34.9597 
0.9478120467676079 1:471.87 2:497.372 3:43.9201 
0.9454214046232116 1:471.51 2:491.992 3:38.4804 
0.9476809073852635 1:450.95 2:485.673 3:33.7835 
0.9477282063676583 1:447.69 2:474.222 3:36.8972 
0.9477881712346963 1:428.83 2:461.419 3:39.3355 
0.9479195150443951 1:442.98 2:452.158 3:52.1606 
0.9585884202251199 1:427.99 2:447.853 3:45.6404 
0.9479931226593156 1:441.11 2:444.735 3:45.9321 
0.9699738660400874 1:457.46 2:446.249 3:51.4546 
0.9513446062829279 1:446 2:447.34 3:50.3897 
0.947841084595999 1:447.46 2:446.105 3:43.7919 
0.9477149546525883 1:469.9 2:450.419 3:49.9754 
0.8711369072846661 1:461.73 2:451.046 3:43.2518 
1 1:473.04 2:458.267 3:50.0301 
0.5285960928164584 1:469.13 2:459.057 3:43.2848 
0.9495245311382587 1:464.07 2:460.001 3:44.2286 
1 1:457.16 2:458.889 3:38.4244 
0.5061855308998744 1:458.13 2:457.282 3:33.4181 
0.9742899976953799 1:455.63 2:455.99 3:36.7031 
0.9477921665621901 1:539.39 2:476.536 3:39.4597 
0.9478666949482344 1:557.94 2:494.93 3:41.4951 
0.9478854957058713 1:551.29 2:501.345 3:35.5023 
0.9480695198814555 1:598.49 2:541.472 3:60.3806 
0.9481117916662839 1:591 2:553.631 3:56.7734 
0.9476028023583043 1:590.27 2:557.014 3:48.9048 
0.9472168686369114 1:579 2:562.176 3:48.3795 
0.9160833950839498 1:586.23 2:567.583 3:47.9011 
0.9476353180479805 1:586.49 2:568.745 3:41.4295 
0.9463006134245413 1:581.43 2:571.671 3:42.703 
0.9312867818889243 1:578.55 2:572.451 3:36.9588 
0.9301959408620303 1:578.52 2:570.167 3:39.5979 
0.9478074396229503 1:551.95 2:567.406 3:34.4851 
0.9473816987341801 1:546.96 2:564.368 3:30.048 
0.9208773623443188 1:582.5 2:570.203 3:52.7018 
0.954590123200365 1:576.5 2:569.816 3:45.7059 
1 1:579.75 2:571.586 3:51.5397 
0.9477923155340022 1:568.06 2:569.757 3:44.8111 
0.9476927288287054 1:549.56 2:567.679 3:38.9785 
0.8763336797335675 1:556.24 2:564.682 3:33.9606 
0.9468438058327856 1:576.35 2:565.924 3:49.4078 
0.9475308710108324 1:564.51 2:565.451 3:42.8559 
0.9267356946418585 1:555.35 2:564.751 3:37.1878 
0.8997941541981672 1:556.98 2:562.308 3:32.3695 
0.9458638629429422 1:545.36 2:560.029 3:28.1677 
0.946031048333018 1:545.14 2:557.665 3:24.5155 
0.9478996192972387 1:544.1 2:553.049 3:30.0803 
0.9476806526809115 1:527.68 2:549.718 3:26.2276 
0.9478033472973071 1:532.47 2:546.612 3:22.8597 
0.9471110078934281 1:536.51 2:542.629 3:28.6836 
0.9409326748349306 1:550.76 2:543.5 3:46.5445 
0.9477753024814876 1:545 2:543.109 3:40.3676 
0.9461324010397473 1:536.5 2:541.868 3:35.0654 
0.9470952347462623 1:539 2:539.168 3:30.5422 
0.9476446031044156 1:516.28 2:536.091 3:26.6218 
0.9475432933760893 1:534.16 2:535.681 3:31.5651 
0.9479040126252176 1:498.35 2:528.433 3:27.7316 
0.9479155157877852 1:480.88 2:520.482 3:24.4012 
0.9473851517951379 1:496.7 2:506.544 3:36.9146 
0.9478501584628022 1:492.09 2:500.938 3:39.3862 
0.9482201764394287 1:485.5 2:496.446 3:41.0962 
0.9456872969079677 1:474.56 2:493.42 3:35.8351 
0.9475698253448651 1:472.51 2:490.012 3:31.2731 
0.9478115088484227 1:468.12 2:486.41 3:27.3041 
0.7205598575677886 1:482 2:484.773 3:39.34 
0.9202304982675427 1:501.6 2:491.366 3:52.6683 
0.9477951161907734 1:509.84 2:495.876 3:56.0705 
0.9475799631739759 1:490.43 2:495.159 3:48.6648 
0.9521515908365252 1:494.72 2:493.804 3:42.2918 
0.9653918952418137 1:486.11 2:491.265 3:49.1307 
0.552749517549309 1:483.46 2:488.985 3:42.7785 
0.9400382384900962 1:473.73 2:486.264 3:37.2821 
0.9422355701868327 1:469.75 2:481.758 3:39.6291 
0.796235846310546 1:468.73 2:477.537 3:41.2872 
0.7198606528737208 1:460 2:473.9 3:36.0568 
0.9478132862903077 1:445.49 2:469.947 3:31.5121 
0.9482315748565506 1:452.02 2:463.281 3:27.7035 
0.9473984984526633 1:423.17 2:457.331 3:24.322 
0.9478120593389042 1:424.47 2:451.575 3:21.3478 
0.9478062971663778 1:424 2:445.82 3:35.1637 
0.9477898570482992 1:438.48 2:441.309 3:38.2799 
0.7961448344207414 1:454.13 2:440.502 3:46.7293 
0.9475258907688309 1:433.25 2:439.005 3:40.6369 
0.9641846864656554 1:428 2:437.622 3:48.1018 
0.9477223040190294 1:419.51 2:430.072 3:42.4201 
0.9478459502268964 1:409.79 2:419.714 3:49.1876 
0.9502719066901599 1:397.35 2:415.34 3:43.0782 
0.947793981556594 1:373.98 2:409.456 3:37.871 
0.947792164692759 1:373.33 2:400.997 3:33.5139 
0.9480707104236635 1:330.16 2:392.612 3:29.6657 
0.9482489566984421 1:344.52 2:384.128 3:26.2781 
0.9429750912392469 1:393.53 2:375.692 3:38.0597 
0.9476548380263778 1:354.65 2:370.823 3:33.4182 
0.9476317415592062 1:372.39 2:369.355 3:49.1925 
0.9449718569919917 1:356.99 2:367.53 3:42.8452 
0.8304854569793185 1:353.65 2:365.502 3:37.3385 
0.9477817601169741 1:326.47 2:362.007 3:32.6725 
0.9476174821406836 1:334.81 2:357.672 3:28.6594 
0.9476499919728332 1:365.79 2:358.996 3:33.3165 
0.9475344744834727 1:356.16 2:359.124 3:36.5892 
0.9476801095541093 1:357.58 2:357.44 3:31.8601 
0.9475386602472363 1:362.15 2:356.511 3:35.8864 
0.9477999057673491 1:339.97 2:353.139 3:31.3985 
0.9482853488768338 1:333.12 2:350.206 3:27.44 
0.9478129630039824 1:328 2:346.016 3:24.0693 
0.9477917011968136 1:308.69 2:341.408 3:21.1416 
0.9477046261125163 1:302.05 2:334.687 3:18.6907 
0.9480022832989422 1:303.25 2:328.786 3:25.2591 
0.9470861596250659 1:303 2:324.964 3:22.1487 
0.9472990973325323 1:301.57 2:321.291 3:19.415 
0.9477011783638634 1:295.39 2:315.81 3:17.1184 
0.9481109011915194 1:274.89 2:308.31 3:15.1968 
0.9476539516977015 1:269.26 2:296.225 3:22.1174 
0.8921843800627373 1:290.58 2:293.893 3:48.8988 
0.5686665510970604 1:286.68 2:290.172 3:42.9223 
1 1:276.53 2:285.311 3:49.391 
1 1:304.17 2:293.443 3:62.2994 
0.9474626730272414 1:314.01 2:298.319 3:58.2601 
0.7758070928261872 1:318.64 2:303.691 3:55.3629 
0.8801769336540739 1:316.7 2:304.569 3:47.8427 
0.9301138454001219 1:310.99 2:305.316 3:41.3623 
0.8049251512236549 1:308.56 2:304.222 3:35.9762 
0.9782212384934577 1:304.07 2:302.939 3:44.9266 
0.9492959187485706 1:300.22 2:302.203 3:39.0312 
1 1:328.32 2:313.242 3:61.3682 
0.9465264032969054 1:327.5 2:314.866 3:57.791 
0.9482114807720997 1:316.31 2:314.576 3:50.1317 
0.9463956405485354 1:310 2:312.732 3:49.4907 
0.9475666700355303 1:297.57 2:310.9 3:43.1447 
1 1:299.14 2:305.849 3:44.2638 
0.9475764283830902 1:324.85 2:310.255 3:55.0835 
0.9481845695252382 1:344.54 2:321.228 3:57.5096 
0.947424747518155 1:344.69 2:323.535 3:49.4862 
0.9470970028805945 1:342.57 2:327.759 3:48.6979 
0.9478135477904829 1:375.98 2:345.512 3:62.37 
0.9474943149061607 1:358.95 2:347.182 3:53.7939 
0.9031521997218052 1:362.19 2:350.416 3:52.0046 
0.9300903525098294 1:346.51 2:349.382 3:45.204 
0.9478064254456744 1:357.47 2:348.914 3:45.6933 
0.9295634655454166 1:347 2:346.115 3:46.165 
0.9508574877897271 1:342.15 2:345.442 3:46.2985 
0.9480652881658203 1:345.96 2:344.34 3:40.2537 
0.9477868349580324 1:332.95 2:343.493 3:48.0923 
0.948288845908861 1:333.33 2:341.316 3:41.9459 
0.94773877141576 1:330.07 2:339.204 3:36.5794 
0.947715109716108 1:323.16 2:336.5 3:31.9569 
0.9475750883643651 1:316.48 2:332.385 3:28.0389 
0.9482392178916543 1:299.98 2:324.1 3:32.6005 
0.9478089239785364 1:325.99 2:321.757 3:53.5575 
0.9487711761713352 1:334.81 2:324.839 3:51.7751 
0.9474683109558816 1:331.68 2:325.519 3:44.778 
0.9481054486038349 1:346.5 2:331.538 3:50.7431 
0.9462190734228164 1:350.4 2:333.209 3:43.7568 
0.9720974314015761 1:350 2:337.461 3:44.5496 
0.9477773816282147 1:342.55 2:338.158 3:38.5301 
0.9526722879290469 1:367 2:350.389 3:56.981 
0.9032894383649831 1:362.6 2:351.49 3:49.2288 
0.9476420584655686 1:376.94 2:359.905 3:58.3593 
0.9454012731008931 1:386.15 2:370.816 3:63.5605 
0.9478832715384273 1:384.34 2:378.315 3:68.9338 
0.9513325158693015 1:383.75 2:379.034 3:59.6292 
1 1:395.03 2:384.191 3:60.4099 
0.9478387606863071 1:404.1 2:391.501 3:64.5743 
0.9486153086259318 1:402.8 2:395.527 3:73.6622 
1 1:410.01 2:395.992 3:63.7657 
0.9692474321832141 1:394.09 2:395.132 3:55.3839 
0.9481663681482049 1:388.8 2:394.114 3:48.1233 
0.9703600013011339 1:402.09 2:394.989 3:57.3904 
0.9486227932465361 1:396.3 2:395.191 3:49.713 
0.9478062741039954 1:396.66 2:394.965 3:43.1092 
0.9546922798143759 1:439.5 2:421.615 3:73.3831 
0.9482822903557717 1:438.58 2:423.482 3:63.3182 
0.9478191993470113 1:436.23 2:424.698 3:54.7187 
0.8041836109651822 1:431.77 2:425.272 3:47.3589 
0.7402777008243233 1:426.86 2:425.214 3:41.05 
0.9478878765333453 1:421.5 2:424.088 3:35.6711 
0.9612066445434497 1:419.31 2:423.01 3:30.9938 
0.932362837733448 1:416.19 2:421.963 3:26.9279 
0.9388569899491915 1:415.68 2:420.909 3:23.3959 
0.7942585634774094 1:416.95 2:419.007 3:29.2382 
0.9478126425142655 1:406.65 2:417.23 3:25.4477 
0.9089348947438117 1:426 2:418.251 3:44.5215 
0.9498599099844324 1:424 2:418.696 3:38.5443 
0.9173917460860104 1:424.2 2:418.735 3:33.4019 
0.8021850927509091 1:415.41 2:417.369 3:29.0431 
0.9404681886309489 1:408.24 2:413.707 3:33.4488 
0.9477134610661323 1:423.71 2:415.333 3:67.5875 
1 1:433 2:422.76 3:65.7018 
0.8920520983372475 1:429.88 2:423.748 3:56.8088 
0.6367285314257397 1:430.94 2:424.302 3:49.17 
0.7400390020973823 1:428 2:424.753 3:42.5687 
0.9478081454101691 1:446.04 2:431.225 3:49.4224 
0.9527281546994432 1:441 2:432.375 3:42.7188 
0.9475813021021592 1:437.23 2:432.89 3:36.9789 
0.9474948080283763 1:449.98 2:435.718 3:39.4137 
0.8144018763005395 1:456 2:441.508 3:47.4535 
0.9418881791441347 1:454.3 2:442.688 3:41.0167 
0.948503359374582 1:455.14 2:446.21 3:42.4025 
0.947671729888122 1:453.67 2:447.24 3:36.6642 
0.7051794543409654 1:462.78 2:451.815 3:45.6133 
0.9439878704289658 1:451.5 2:450.892 3:39.6125 
0.9589504572592437 1:439.99 2:449.32 3:41.3091 
0.9486282902411439 1:472.76 2:458.519 3:58.27 
0.9534933281475325 1:468.58 2:459.524 3:50.3901 
0.7138421957521567 1:469.26 2:460.221 3:43.6053 
0.8924587180732161 1:459.79 2:460.414 3:37.7754 
0.9176611206835841 1:459.68 2:459.794 3:32.7829 
0.9477184587932757 1:455.82 2:458.889 3:28.4678 
0.9138839849113559 1:464.29 2:458.995 3:40.1235 
0.947861722182437 1:496.77 2:474.637 3:67.7643 
1 1:500.78 2:482.875 3:65.6101 
0.9448737038897415 1:500.47 2:484.728 3:56.6448 
0.8833420403522674 1:494.29 2:485.761 3:48.9877 
0.9483465660307053 1:499.53 2:488.939 3:55.9437 
0.686146123376065 1:500 2:489.861 3:47.3871 
0.8692349018748725 1:493 2:489.506 3:40.3843 
0.9596701234559348 1:483.74 2:488.849 3:34.5285 
0.9369526892433822 1:519.57 2:496.504 3:50.6155 
0.948121846026225 1:533.75 2:512.284 3:63.0961 
0.9482719844544832 1:551.64 2:525.904 3:62.604 
0.947785925490125 1:549.91 2:529.263 3:53.8004 
0.9475291668280113 1:555.25 2:535.389 3:51.8888 
0.9477726359494499 1:550.97 2:539.284 3:50.5588 
0.8379297250459841 1:547.87 2:539.42 3:43.7652 
0.8289891151085869 1:550 2:540.324 3:44.6063 
0.9446092038205526 1:537.08 2:539.479 3:38.6958 
0.9475070091191505 1:569.56 2:552.997 3:67.3086 
0.9481015978709722 1:576.65 2:562.967 3:68.2264 
0.9562779892369235 1:573.77 2:564.303 3:58.984 
0.752382027528781 1:569.5 2:565.057 3:51.0472 
0.9480686722688352 1:572 2:572.715 3:59.2566 
0.9482616004821229 1:591 2:577.7 3:60.1469 
0.9477237837927226 1:589.04 2:578.772 3:52.0294 
0.9476719894232464 1:593.02 2:579.604 3:45.0265 
0.9461333097659158 1:594.68 2:584.522 3:59.8782 
0.9453316017079764 1:593.3 2:586.966 3:56.5158 
0.9471530520376876 1:596.44 2:589.143 3:54.0172 
0.9477225951155308 1:624.74 2:603.903 3:69.8502 
0.9478872392935118 1:624.75 2:608.222 3:63.9238 
0.9473169515339474 1:627.18 2:612.465 3:59.5062 
0.9477882707765912 1:625.86 2:611.905 3:51.6193 
0.9482141133991293 1:609.4 2:609.531 3:44.9109 
0.9478015126995476 1:604.46 2:607.54 3:45.2942 
0.9477928629623608 1:597.65 2:605.265 3:39.4025 
0.9481326315034678 1:576.49 2:602.842 3:34.2861 
0.9475287775713585 1:593.34 2:598.295 3:37.3408 
0.9478002137637663 1:585.98 2:594.677 3:39.6362 
0.9481079464176617 1:564.5 2:587.37 3:41.6107 
0.948185981189175 1:546.59 2:581.054 3:36.4546 
0.9475792540009556 1:541.27 2:571.396 3:38.8139 
0.947381512440813 1:544.49 2:566.448 3:33.9325 
0.9477876308867751 1:538.49 2:561.58 3:29.6631 
0.9473493452529816 1:534.96 2:554.219 3:33.6898 
0.9476913825081013 1:537 2:549.012 3:36.9279 
0.8752809267293422 1:534.07 2:542.523 3:50.8562 
0.8375493795691498 1:532.97 2:540.562 3:49.8038 
0.3444752529914653 1:542 2:540.333 3:49.0002 
0.7685735425403262 1:540.53 2:540.724 3:48.387 
0.8040497636847174 1:543 2:540.21 3:47.9895 
0.9457047288068922 1:533.98 2:539.045 3:41.6808 
0.9467789345040388 1:527.12 2:537.363 3:36.2364 
0.8768642830654326 1:527.42 2:535.954 3:44.593 
0.948055025289346 1:564.78 2:545.607 3:63.1908 
0.9475201086909477 1:559.85 2:547.551 3:54.5709 
1 1:588.14 2:558.592 3:57.1785 
0.6618832659998293 1:566.68 2:559.204 3:49.5005 
0.9526489173330418 1:568.3 2:560.744 3:62.1735 
1 1:566.23 2:561.298 3:58.3136 
0.947450675549019 1:556.11 2:560.792 3:50.5841 
0.947481302586224 1:557.04 2:559.22 3:43.9628 
0.7643552192856389 1:565.27 2:559.916 3:50.1679 
0.947361921794458 1:563 2:560.254 3:43.4526 
0.9626493828482355 1:569.46 2:564.496 3:59.1379 
0.4853608713224327 1:567.3 2:564.369 3:51.2644 
0.6316957184587989 1:567.49 2:564.976 3:50.0709 
0.9477939440440072 1:563 2:571.384 3:63.0233 
0.9478114862145207 1:548.75 2:568.546 3:54.8929 
0.9474477700359014 1:556.46 2:565.086 3:52.8332 
0.9483462871822084 1:552 2:562.683 3:45.9844 
0.9533738236245267 1:547.25 2:560.324 3:40.0209 
1 1:544.97 2:556.499 3:34.9232 
0.9482309078367858 1:528.95 2:552.841 3:30.467 
0.948314908639678 1:532.1 2:549.687 3:39.3924 
0.9527098872267614 1:531.13 2:544.445 3:41.1644 
0.87874330068977 1:526.52 2:537.769 3:42.7044 
0.9118827688951453 1:508.75 2:529.319 3:43.7164 
0.947789698970395 1:499.97 2:524.495 3:38.236 
0.9481303424644418 1:515.67 2:522.107 3:40.3963 
0.9461575323680741 1:512.04 2:519.878 3:35.1602 
0.9339747765289197 1:509.77 2:517.192 3:37.9609 
0.9476585783830355 1:506.78 2:515.962 3:46.1047 
0.596912562513583 1:510 2:513.617 3:40.1398 
0.9456712200790125 1:496.26 2:511.058 3:34.962 
0.9478072427990597 1:485.07 2:506.252 3:30.5881 
0.947870462797247 1:469.06 2:501.692 3:26.7506 
0.9475356131777197 1:468.15 2:495.574 3:31.4669 
0.9050475941969619 1:482.07 2:492.893 3:27.4196 
0.9272318070576915 1:492.74 2:491.644 3:32.1753 
0.9049545810427263 1:480.43 2:490.407 3:27.9556 
0.8909677036816359 1:499.72 2:493.568 3:39.9295 
0.549034943414231 1:499.06 2:492.495 3:34.681 
0.7736197406381742 1:487.85 2:491.466 3:30.1198 
0.626255872914096 1:487.22 2:489.14 3:26.228 
0.8694598557222953 1:494.48 2:488.059 3:38.6705 
0.8996432450272225 1:503.45 2:492.183 3:46.864 
0.8912750577943799 1:502.51 2:493.23 3:40.5293 
0.5485303608381522 1:499.9 2:492.607 3:35.1698 
0.7470341499653459 1:489.9 2:491.759 3:30.533 
0.6157368156852704 1:486.89 2:490.465 3:26.5318 
0.9464136122315792 1:479.66 2:488.416 3:23.0907 
0.9461667468330353 1:477.06 2:486.318 3:20.0983 
-1 1:101.01 2:14.4413 3:100 
-1 1:110.75 2:27.1025 3:100 
-1 1:104.96 2:46.6086 3:67.4308 
-1 1:104.95 2:54.7821 3:77.4792 
-1 1:99.19 2:78.9956 3:55.2626 
-1 1:101.01 2:84.4352 3:54.8607 
-1 1:100.74 2:86.8171 3:62.171 
-1 1:101.6 2:91.0758 3:73.1496 
-1 1:106.63 2:93.2657 3:77.3521 
-1 1:107.45 2:95.6956 3:80.9248 
-1 1:110.56 2:97.8695 3:83.8736 
-1 1:112.34 2:100.016 3:86.351 
-1 1:114.42 2:102.346 3:88.4598 
-1 1:116.95 2:104.615 3:90.2293 
-1 1:117.4 2:107.978 3:80.2213 
-1 1:118.84 2:109.69 3:83.1404 
-1 1:121.3 2:113.985 3:66.8714 
-1 1:126.7 2:116.265 3:71.8644 
-1 1:130.8 2:119.981 3:67.0305 
-1 1:135.25 2:121.992 3:71.9052 
-1 1:134.66 2:124.175 3:76.0852 
-1 1:136.92 2:127.623 3:70.1047 
-1 1:134.44 2:130.821 3:58.5163 
-1 1:143.32 2:132.165 3:64.4163 
-1 1:141.01 2:133.477 3:69.4661 
-1 1:144.93 2:134.894 3:73.8172 
-1 1:143.2 2:136.796 3:77.6251 
-1 1:144.4 2:140.017 3:63.5906 
-1 1:170.54 2:144.339 3:69.3911 
-1 1:176.4 2:150.08 3:74.4879 
-1 1:182.72 2:158.531 3:68.6067 
-1 1:186.68 2:163.167 3:73.566 
-1 1:193.55 2:170.723 3:68.1199 
-0.404718060844157 1:170.93 2:175.842 3:45.4203 
-0.7341646329710343 1:169.13 2:175.162 3:43.6133 
-1 1:180.45 2:177.246 3:46.28 
-1 1:169.1 2:174.195 3:39.5334 
-1 1:167.97 2:172.254 3:42.9955 
-1 1:174.82 2:172.588 3:50.6918 
-1 1:175.8 2:173.495 3:57.4896 
-1 1:180.36 2:174.502 3:63.3704 
-0.9935396575465664 1:179.95 2:177.05 3:57.7438 
-0.6732900754828707 1:170.25 2:175.122 3:46.1405 
-0.6541297029411438 1:171 2:174.71 3:43.7436 
-1 1:177.99 2:175.386 3:51.4324 
-0.6603098527306367 1:176.76 2:176.137 3:52.0985 
-1 1:182 2:177.321 3:58.7627 
-1 1:183.9 2:179.261 3:57.5165 
-1 1:187.45 2:180.413 3:63.416 
-0.7216651737969496 1:189.15 2:181.946 3:68.561 
-0.9905475621808677 1:192.11 2:183.388 3:72.9671 
-1 1:192.97 2:186.382 3:80.0215 
-1 1:197.4 2:189.3 3:73.4566 
-1 1:190.64 2:190.693 3:54.6932 
-0.8547521300848958 1:194.5 2:191.275 3:60.8536 
-0.6980265448206585 1:194.33 2:192.084 3:59.0774 
-0.7797405330648476 1:196 2:193.511 3:57.825 
-1 1:200.97 2:194.896 3:63.7081 
-1 1:179.27 2:190.177 3:40.934 
-1 1:190.02 2:189.956 3:44.1419 
-1 1:193.69 2:190.712 3:51.7814 
-1 1:215.55 2:192.882 3:52.6933 
-1 1:205.99 2:195.279 3:59.5041 
-1 1:196.96 2:196.723 3:51.9138 
-1 1:182.85 2:193.826 3:43.0017 
-1 1:193.6 2:194.013 3:50.6491 
-0.5396902311714664 1:194.7 2:194.6 3:57.3581 
-0.9198058373966644 1:193.3 2:194.762 3:55.7892 
-1 1:186 2:192.243 3:49.8308 
-0.9564748221379941 1:186.13 2:190.11 3:45.9179 
-1 1:187.78 2:189.45 3:47.8978 
-1 1:175.3 2:183.459 3:33.9406 
-1 1:177.13 2:181.995 3:38.8334 
-1 1:178.81 2:181.734 3:46.9129 
-1 1:180.7 2:180.697 3:59.9794 
-0.8793716446647957 1:181.68 2:180.793 3:65.334 
-0.6930043651046225 1:180.64 2:180.606 3:62.4457 
-0.658195281165465 1:179.95 2:181.156 3:64.1433 
-0.7204081738046155 1:187.73 2:182.144 3:69.0929 
-0.9891812412289763 1:189.24 2:183.088 3:73.3519 
-1 1:188.78 2:184.511 3:77.0831 
-1 1:193.09 2:186.544 3:71.0779 
-1 1:184.58 2:188.026 3:55.4974 
-1 1:189.33 2:188.476 3:61.5232 
-1 1:198.58 2:189.759 3:66.8789 
-1 1:200.42 2:191.687 3:71.5838 
-1 1:222.9 2:194.904 3:75.779 
-1 1:217.82 2:198.72 3:79.4117 
-1 1:217.99 2:203.843 3:72.5239 
-1 1:221.91 2:207.801 3:67.5521 
-1 1:222.05 2:209.733 3:72.1375 
-1 1:221.85 2:211.927 3:76.1025 
-1 1:227.23 2:214.137 3:79.5026 
-1 1:228.4 2:217.472 3:72.7795 
-1 1:225.47 2:219.837 3:67.8938 
-1 1:228.97 2:221.364 3:72.3665 
-1 1:229.18 2:223.264 3:67.5829 
-1 1:229.68 2:224.302 3:72.0352 
-1 1:230.56 2:225.479 3:75.8904 
-1 1:233.61 2:227.303 3:79.2727 
-1 1:241.21 2:230.583 3:84.6529 
-1 1:243.16 2:233.899 3:86.8877 
-1 1:256.96 2:236.846 3:88.7774 
-1 1:252.73 2:240.041 3:90.4032 
-1 1:260.46 2:245.716 3:80.7686 
-1 1:269.43 2:249.923 3:83.6133 
-1 1:283.2 2:255 3:86.081 
-1 1:282.39 2:266.006 3:68.3002 
-1 1:297.1 2:269.621 3:72.8953 
-1 1:284.72 2:272.995 3:68.0595 
-1 1:274.26 2:275.894 3:55.2309 
-1 1:279 2:276.482 3:61.2825 
-1 1:276.09 2:277.844 3:66.6094 
-1 1:288.07 2:279.177 3:71.1997 
-1 1:289.67 2:280.527 3:75.1598 
-1 1:290.9 2:283.818 3:81.5586 
-1 1:298.9 2:286.522 3:84.1683 
-0.7126170951589834 1:294.34 2:289.805 3:67.7029 
-1 1:292.1 2:290.76 3:64.2459 
-1 1:289.39 2:291.485 3:61.6545 
-0.9468477528345544 1:296.25 2:292.117 3:66.8392 
-1 1:292.51 2:293.101 3:56.9592 
-1 1:305.34 2:294.139 3:62.8297 
-1 1:301.24 2:295.08 3:67.8884 
-1 1:302.1 2:297.571 3:64.4505 
-1 1:305.57 2:299.495 3:69.3884 
-1 1:314.05 2:301.421 3:73.6394 
-1 1:295.01 2:300.164 3:61.2896 
-1 1:288.12 2:296.642 3:56.7832 
-1 1:291.6 2:296.982 3:62.5883 
-0.9770573280491229 1:283.36 2:292.242 3:47.8779 
-0.9768074635979468 1:284.88 2:290.411 3:49.3032 
-1 1:280.99 2:287.287 3:45.4387 
-1 1:276.16 2:284.725 3:47.529 
-1 1:277.57 2:284.438 3:54.4792 
-1 1:283.48 2:284.11 3:65.7694 
-1 1:282.24 2:284.688 3:70.3938 
-0.9980504519241538 1:286.51 2:285.726 3:64.6069 
-1 1:285.89 2:287.105 3:61.9878 
-0.7681851213516325 1:294.83 2:288.21 3:67.1824 
-1 1:297.28 2:289.66 3:71.7005 
-1 1:301.75 2:292.338 3:75.6984 
-1 1:309 2:294.917 3:79.1228 
-1 1:301 2:298.183 3:57.7335 
-1 1:306.15 2:299.48 3:63.5277 
-1 1:308.41 2:301.136 3:68.5645 
-0.9816626410796941 1:313 2:304.215 3:64.8001 
-1 1:306.68 2:306.99 3:49.6753 
-1 1:314.22 2:308.252 3:56.5639 
-1 1:313.63 2:309.643 3:62.5244 
-1 1:314.14 2:310.316 3:54.0507 
-1 1:297.5 2:305.724 3:39.2345 
-1 1:304 2:305.839 3:42.9165 
-1 1:345.8 2:310.075 3:46.4104 
-1 1:343.37 2:315.218 3:54.3135 
-1 1:346.28 2:324.243 3:54.2762 
-1 1:355.27 2:332.097 3:54.1835 
-1 1:360.24 2:337.436 3:60.9206 
-1 1:371.86 2:343.029 3:66.6834 
-1 1:382.41 2:352.987 3:75.6815 
-1 1:389.98 2:357.979 3:79.2179 
-1 1:395.1 2:362.919 3:82.234 
-1 1:378.36 2:371.254 3:66.3755 
-1 1:392.12 2:376.895 3:63.1527 
-1 1:396.2 2:381.567 3:60.7667 
-1 1:401.8 2:384.485 3:66.2558 
-1 1:399.17 2:389.619 3:63.1187 
-0.9990380047184574 1:408.65 2:393.199 3:68.3272 
-1 1:417.04 2:397.154 3:72.8236 
-1 1:425.78 2:401.349 3:76.6933 
-1 1:404.26 2:404.294 3:62.9146 
-1 1:409.2 2:405.6 3:67.9628 
-0.9978910990245485 1:416.94 2:407.213 3:72.3445 
-1 1:405.3 2:406.939 3:54.2968 
-1 1:414.63 2:407.957 3:54.1666 
-1 1:412.5 2:409.228 3:60.4011 
-1 1:417.04 2:410.525 3:65.7895 
-1 1:419.11 2:412.129 3:70.4662 
-1 1:425.34 2:414.532 3:74.5524 
-1 1:427.86 2:417.723 3:69.2863 
-1 1:431.77 2:420.626 3:65.3776 
-1 1:424.34 2:422.931 3:55.7784 
-1 1:422.52 2:423.359 3:49.9801 
-1 1:443.9 2:426.277 3:56.9461 
-1 1:446 2:429.605 3:62.9757 
-1 1:456.87 2:434.413 3:68.2674 
-1 1:466.41 2:438.744 3:72.7699 
-1 1:464.42 2:442.88 3:76.6209 
-1 1:471.27 2:446.713 3:79.912 
-1 1:464.31 2:451.273 3:73.1922 
-1 1:463.06 2:453.384 3:76.8748 
-1 1:407.38 2:441.27 3:57.4781 
-1 1:436.03 2:441.505 3:63.1673 
-1 1:439.54 2:439.558 3:60.8288 
-1 1:430.57 2:436.558 3:53.0836 
-1 1:385.31 2:416.264 3:43.7432 
-1 1:368.48 2:404.387 3:45.9903 
-1 1:361.95 2:393.545 3:47.7807 
-1 1:345.67 2:374.839 3:41.3369 
-0.7956229383554729 1:369.86 2:374.027 3:49.0483 
-1 1:365.61 2:372.835 3:45.5513 
-1 1:381.27 2:375.702 3:47.8072 
-0.796932522372413 1:368.56 2:372.736 3:49.2436 
-1 1:364.28 2:373.232 3:56.0695 
-1 1:384.3 2:373.891 3:61.9941 
-0.9793018383544536 1:337.14 2:357.831 3:36.8741 
-1 1:338.8 2:351.888 3:37.284 
-1 1:342.34 2:351.395 3:45.5699 
-1 1:339.75 2:348.579 3:47.5182 
-1 1:342.35 2:347.687 3:54.3991 
-1 1:368.62 2:350.102 3:60.7518 
-1 1:367.09 2:352.714 3:66.2368 
-1 1:371.71 2:355.979 3:71.0069 
-1 1:379.94 2:361.179 3:75.2344 
-1 1:388.74 2:368.172 3:69.5599 
-1 1:389.9 2:375.482 3:65.5881 
-1 1:408.2 2:379.816 3:70.5167 
-1 1:406.49 2:383.998 3:74.7261 
-1 1:407.08 2:390.877 3:69.3432 
-1 1:403.45 2:397.747 3:52.083 
-1 1:412.57 2:400.197 3:52.5571 
-1 1:411.01 2:402.171 3:59.0846 
-1 1:448.9 2:406.828 3:64.9459 
-1 1:439.4 2:411.318 3:69.9514 
-1 1:395.7 2:404.598 3:47.9493 
-1 1:375.93 2:395.388 3:40.3678 
-1 1:370.61 2:389.82 3:43.5632 
-0.9592829257448629 1:374.21 2:382.123 3:49.3947 
-1 1:377.35 2:382.007 3:56.1287 
-1 1:379.08 2:382.138 3:61.9912 
-0.5771309176614338 1:373.54 2:379.92 3:48.6057 
-0.7089214102404068 1:376.58 2:380.581 3:45.2485 
-0.977996906891159 1:387.75 2:382.962 3:47.4686 
-1 1:380.9 2:383.634 3:44.2799 
-0.8598280903825756 1:386.62 2:384.703 3:46.7182 
-1 1:391.06 2:388.177 3:39.9337 
-1 1:402.76 2:391.761 3:43.4993 
-1 1:404.01 2:396.142 3:41.6721 
-1 1:407.99 2:399.031 3:49.8151 
-1 1:415.6 2:401.738 3:56.7995 
-1 1:420.04 2:404.6 3:62.8243 
-1 1:423.38 2:409.027 3:60.4724 
-1 1:418.51 2:413.302 3:52.6546 
-1 1:404.63 2:411.342 3:43.069 
-1 1:386.14 2:403.757 3:37.6373 
-1 1:382 2:395.159 3:39.34 
-1 1:364.98 2:386.585 3:35.6338 
-1 1:371.5 2:383.962 3:40.0724 
-1 1:382.82 2:383.567 3:48.0092 
-1 1:371.5 2:378.428 3:40.4694 
-0.6822301877161575 1:374.11 2:378.767 3:48.453 
-1 1:383.48 2:379.961 3:55.4663 
-0.5114328065019232 1:377.73 2:380.278 3:44.5298 
-0.8876492595309075 1:375.61 2:378.306 3:48.5734 
-1 1:379.21 2:378.706 3:49.8507 
-1 1:379.87 2:379.43 3:57.4259 
-1 1:378.26 2:379.836 3:45.8459 
-1 1:385 2:381.445 3:53.2643 
-1 1:395.15 2:384.795 3:59.8484 
-1 1:407.48 2:390.357 3:58.3125 
-1 1:410 2:393.601 3:64.1687 
-1 1:400.3 2:396.783 3:55.1081 
-0.9303686148336475 1:405.5 2:399.66 3:60.8694 
-0.8561917638491376 1:404.08 2:400.559 3:59.0509 
-1 1:401.29 2:401.26 3:51.7986 
-0.9912946895565197 1:404.97 2:403.185 3:58.4249 
-1 1:410.22 2:406.49 3:57.3197 
-1 1:424.8 2:409.492 3:63.2815 
-1 1:428.56 2:415.569 3:54.3057 
-1 1:420.23 2:419.327 3:39.862 
-1 1:458.99 2:424.706 3:48.5405 
-1 1:462.28 2:432.182 3:56.1733 
-1 1:477.49 2:444.191 3:55.6581 
-1 1:474.82 2:456.188 3:49.2076 
-1 1:467.5 2:461.348 3:45.2548 
-1 1:472.23 2:462.742 3:52.6971 
-1 1:473.77 2:464.636 3:59.1713 
-1 1:470.35 2:466.935 3:57.789 
-1 1:473.78 2:468.475 3:56.7411 
-1 1:474.9 2:470.149 3:62.6424 
-1 1:480.7 2:472.702 3:67.7983 
-1 1:493.43 2:475.266 3:72.2424 
-1 1:495 2:478.017 3:76.0819 
-1 1:493.25 2:480.787 3:79.3904 
-1 1:496.54 2:486.284 3:72.931 
-1 1:481.13 2:490.295 3:54.1204 
-1 1:483 2:487.433 3:53.9359 
-1 1:487.4 2:487.375 3:60.0731 
-1 1:486.96 2:487.553 3:65.4093 
-1 1:481.94 2:486.526 3:62.5004 
-0.8660800698919373 1:480.25 2:484.367 3:48.6894 
-1 1:461.72 2:479.369 3:45.0601 
-1 1:456.52 2:469.959 3:38.9112 
-1 1:460 2:469.701 3:47.0274 
-1 1:466 2:467.639 3:44.08 
-1 1:469 2:469.722 3:51.7509 
-1 1:482.5 2:472.051 3:58.3904 
-1 1:485.45 2:475.176 3:57.1923 
-0.9957180597033613 1:484.43 2:477.081 3:63.0481 
-1 1:497.2 2:480.099 3:68.1763 
-1 1:501.99 2:483.42 3:72.6089 
-1 1:487.98 2:487.972 3:53.9634 
-1 1:484.45 2:487.706 3:48.7913 
-0.9400317290573098 1:490.93 2:488.835 3:50.0874 
-0.9402091015124598 1:494 2:489.987 3:50.9841 
-0.9682122546719846 1:496.49 2:491.522 3:57.6522 
-1 1:468.1 2:484.183 3:46.0021 
-1 1:468.05 2:480.791 3:47.859 
-1 1:459.15 2:473.406 3:44.5709 
-1 1:460 2:472.409 3:51.8601 
-1 1:462.8 2:470.816 3:52.393 
-1 1:468.47 2:470.987 3:58.7556 
-1 1:469.84 2:471.637 3:64.3041 
-1 1:450.41 2:465.593 3:44.7204 
-1 1:437.02 2:457.459 3:42.4811 
-1 1:447.47 2:457.471 3:50.1516 
-1 1:452.57 2:456.152 3:41.6681 
-1 1:443.23 2:453.549 3:44.6472 
-1 1:443.25 2:450.502 3:42.4967 
-0.8575027055245597 1:445.3 2:450.705 3:45.4116 
-0.9657356562707159 1:455.61 2:452.216 3:52.8482 
-1 1:460.55 2:455.032 3:53.0747 
-1 1:464.05 2:459.678 3:47.4981 
-1 1:464 2:464.32 3:40.9864 
-1 1:468.46 2:465.874 3:44.2563 
-0.9331148152304537 1:471.26 2:468.026 3:46.6493 
-1 1:490.52 2:470.372 3:48.5406 
-1 1:478.1 2:474.166 3:52.3453 
-1 1:466.22 2:472.677 3:39.0235 
-1 1:466.15 2:470.866 3:35.3881 
-0.7488759764450209 1:461.83 2:469.23 3:39.9356 
-0.74870478720043 1:462 2:467.637 3:39.5603 
-0.8768379146812384 1:473 2:469.633 3:47.3133 
-1 1:475.15 2:470.76 3:48.8869 
-1 1:479.7 2:472.462 3:55.8615 
-0.9973853058387203 1:485 2:474.415 3:61.9041 
-1 1:484.5 2:477.639 3:67.2064 
-1 1:501 2:483.017 3:63.7307 
-1 1:497.91 2:486.224 3:68.774 
-1 1:509.75 2:490.573 3:73.1774 
-0.6674164180905012 1:507.09 2:502.058 3:52.6293 
-0.6666092837630503 1:508.19 2:502.659 3:52.9022 
-1 1:506.18 2:504.331 3:59.3172 
-0.7439735638167713 1:510.98 2:507.286 3:51.9011 
-1 1:516.42 2:509.645 3:58.5073 
-1 1:528.98 2:512.015 3:64.2061 
-1 1:532.73 2:514.448 3:69.1253 
-1 1:525.49 2:519.611 3:52.2204 
-1 1:531.06 2:521.575 3:58.7469 
-1 1:535.56 2:524.249 3:64.4297 
-1 1:543 2:528.441 3:61.6995 
-1 1:543.79 2:530.428 3:66.9306 
-1 1:543.61 2:532.3 3:71.4406 
-1 1:545.86 2:534.037 3:75.3291 
-1 1:547.91 2:536.454 3:78.7148 
-1 1:555.04 2:540.837 3:84.1421 
-1 1:509.3 2:533.235 3:54.5798 
-1 1:508.53 2:525.122 3:49.0757 
-1 1:512.92 2:523.921 3:55.7644 
-1 1:510.5 2:520.848 3:55.2632 
-1 1:503 2:516.354 3:49.4567 
-1 1:509.75 2:516.309 3:56.192 
-1 1:519.34 2:517.572 3:62.1257 
-1 1:510.18 2:517.001 3:60.016 
-1 1:497.44 2:509.005 3:42.904 
-1 1:498.94 2:507.405 3:45.6398 
-0.7151645504307271 1:509.96 2:508.117 3:52.9539 
-0.9768061582401139 1:512.61 2:509.506 3:53.143 
-1 1:507.84 2:509.973 3:47.9718 
-1 1:513.1 2:510.841 3:49.4193 
-1 1:515.02 2:512.749 3:56.3265 
-1 1:523.4 2:514.756 3:62.2972 
-1 1:516.99 2:516.821 3:48.4553 
-1 1:520.53 2:517.598 3:55.395 
-1 1:524.06 2:518.556 3:61.4137 
-1 1:523.2 2:519.915 3:66.646 
-1 1:526.52 2:522.585 3:63.4598 
-1 1:539.27 2:525.82 3:68.5267 
-1 1:547 2:529.421 3:72.9087 
-1 1:556.34 2:533.512 3:76.7009 
-1 1:561 2:538.113 3:79.9801 
-1 1:564 2:542.231 3:82.7812 
-1 1:569.97 2:555.282 3:59.593 
-1 1:583.38 2:559.163 3:65.2236 
-1 1:587.11 2:568.6 3:55.6836 
-1 1:595 2:574.069 3:61.9584 
-1 1:615.11 2:579.55 3:67.3425 
-1 1:621.36 2:585.662 3:71.9922 
-1 1:623.98 2:596.758 3:67.3098 
-1 1:630.45 2:606.217 3:57.0656 
-1 1:635.41 2:610.67 3:63.0615 
-1 1:654.56 2:615.209 3:68.2228 
-1 1:638.67 2:619.948 3:72.6703 
-1 1:661.25 2:627.391 3:76.5953 
-1 1:674.03 2:643.287 3:73.1322 
-1 1:677.77 2:648.079 3:76.8868 
-1 1:677.51 2:654.305 3:80.1591 
-1 1:700.69 2:661.331 3:82.9873 
-1 1:710.51 2:672.826 3:75.3625 
-1 1:706.99 2:679.869 3:78.8687 
-1 1:737.56 2:688.125 3:81.9059 
-1 1:644.99 2:679.419 3:53.5237 
-1 1:633.94 2:663.783 3:48.3903 
-1 1:636.48 2:657.367 3:49.8556 
-1 1:643.77 2:657.788 3:56.5693 
-1 1:670 2:660.309 3:62.5038 
-1 1:674.8 2:662.735 3:60.3268 
-1 1:682.11 2:666.672 3:65.8196 
-1 1:690.75 2:670.715 3:70.5555 
-1 1:678.31 2:675.99 3:59.0652 
-1 1:692.73 2:678.992 3:64.6801 
-1 1:697.8 2:683.828 3:69.6059 
-1 1:715.99 2:692.027 3:65.5041 
-1 1:674.16 2:687.89 3:48.6236 
-1 1:674.21 2:686.487 3:55.3828 
-1 1:685.83 2:686.914 3:61.3558 
-1 1:697.88 2:688.218 3:66.5718 
-1 1:694.99 2:689.886 3:71.0989 
-1 1:698.99 2:692.68 3:75.0535 
-1 1:704.93 2:694.925 3:69.6706 
-1 1:630.04 2:672.636 3:47.0468 
-1 1:651.14 2:663.559 3:44.1823 
-1 1:558.8 2:615.685 3:29.929 
-1 1:539.01 2:585.628 3:28.2325 
-1 1:489.43 2:557.711 3:31.4144 
-1 1:496.86 2:544.205 3:36.5529 
-1 1:509.41 2:540.537 3:44.6393 
-1 1:520.52 2:537.953 3:51.7903 
-1 1:522.5 2:535.213 3:52.4179 
-1 1:503.51 2:527.868 3:42.8408 
-1 1:502.06 2:522.302 3:45.4842 
-1 1:460.13 2:505.403 3:43.0733 
-1 1:470.5 2:501.402 3:50.2698 
-1 1:445.25 2:480.61 3:42.0078 
-1 1:428.88 2:468.772 3:44.6751 
-1 1:425.26 2:458.541 3:47.0942 
-1 1:440.01 2:456.093 3:53.9022 
-1 1:432.67 2:454.349 3:59.8952 
-1 1:428.98 2:446.694 3:52.7661 
-1 1:427.32 2:443.244 3:52.9835 
-1 1:438.43 2:445.552 3:59.4635 
-1 1:452.59 2:447.842 3:58.0769 
-1 1:435.64 2:445.354 3:51.2042 
-1 1:447.74 2:448.068 3:57.9664 
-0.9638372686307103 1:457.01 2:453.718 3:51.1079 
-1 1:477.03 2:456.799 3:57.9126 
-1 1:464.96 2:460.393 3:50.9895 
-1 1:444.4 2:456.982 3:42.2578 
-1 1:535.21 2:467.112 3:46.4489 
-1 1:537.57 2:486.998 3:48.6589 
-1 1:549.02 2:507.04 3:44.7299 
-1 1:545.88 2:513.051 3:52.6604 
-1 1:550.83 2:519.107 3:59.451 
-1 1:562.21 2:526.464 3:65.3487 
-1 1:578.31 2:535.347 3:70.4671 
-1 1:598.86 2:548.596 3:66.109 
-1 1:586.2 2:560.48 3:55.9914 
-0.8151939683456586 1:574.75 2:565.211 3:55.5024 
-1 1:579 2:570.379 3:49.3843 
-1 1:574.63 2:573.271 3:45.4425 
-1 1:544.96 2:563.905 3:39.3252 
-1 1:567.94 2:564.483 3:47.469 
-0.8013987601410542 1:574.79 2:566.952 3:54.6714 
-0.9800770948574016 1:583.47 2:569.465 3:60.8886 
-1 1:565.33 2:570.137 3:52.9716 
-1 1:577.08 2:572.292 3:59.3955 
-1 1:548.76 2:563.118 3:42.6069 
-1 1:561.49 2:564.237 3:50.358 
-0.5714667145420549 1:566.5 2:565.38 3:57.0639 
-1 1:544.97 2:556.776 3:34.4757 
-1 1:519.58 2:545.027 3:32.9508 
-1 1:530.88 2:541.879 3:38.1068 
-1 1:542.3 2:542.149 3:46.386 
-1 1:545.99 2:543.8 3:53.6756 
-1 1:514.04 2:536.026 3:36.3978 
-1 1:466.72 2:514.699 3:33.7449 
-1 1:481.61 2:511.302 3:42.1974 
-1 1:486.49 2:504.602 3:45.1156 
-1 1:479.3 2:498.561 3:47.2175 
-1 1:467.59 2:485.536 3:36.8833 
-1 1:478.37 2:485.643 3:45.311 
-0.7994651524466191 1:480.15 2:486.138 3:47.5756 
-0.9805010998921034 1:492.47 2:488.098 3:54.748 
-1 1:502 2:490.033 3:60.9364 
-0.5565655940626925 1:497.7 2:493.249 3:59.1358 
-1 1:506.99 2:495.503 3:64.7454 
-1 1:482.92 2:492.835 3:49.8878 
-1 1:491.5 2:492.535 3:56.5431 
-1 1:472.49 2:484.599 3:45.4578 
-1 1:476.77 2:479.557 3:47.4384 
-1 1:408.35 2:449.198 3:31.4741 
-1 1:430.21 2:447.66 3:40.4068 
-1 1:425.96 2:445.435 3:43.76 
-1 1:422.64 2:441.012 3:46.4732 
-1 1:461 2:442.097 3:53.724 
-1 1:430.34 2:438.485 3:48.491 
-1 1:438.84 2:438.634 3:55.374 
-1 1:395.98 2:426.132 3:49.636 
-1 1:411.15 2:424.21 3:56.1534 
-1 1:313.16 2:377.177 3:34.9304 
-1 1:355.79 2:377.69 3:43.6828 
-1 1:332.76 2:368.449 3:41.9241 
-1 1:378.96 2:368.994 3:49.7419 
-1 1:379.75 2:370.371 3:56.6049 
-0.979022091063167 1:339.05 2:359.149 3:38.4258 
-1 1:368.46 2:359.088 3:42.2226 
-1 1:353.44 2:358.707 3:41.154 
-1 1:291.77 2:331.673 3:28.8915 
-1 1:262.51 2:302.192 3:25.0161 
-1 1:268.68 2:294.335 3:32.0683 
-1 1:280.28 2:294.036 3:41.0659 
-1 1:269.73 2:288.164 3:50.1879 
-0.8918542372898609 1:269.85 2:286.999 3:56.6544 
-0.8913068449975523 1:271.02 2:285.135 3:56.1117 
-1 1:289.99 2:287.399 3:62.263 
-0.9391026400085611 1:297.69 2:289.875 3:67.574 
-1 1:309.24 2:292.401 3:72.1402 
-1 1:295.71 2:296.419 3:67.6542 
-0.9813453068368003 1:314.52 2:301.914 3:64.2562 
-1 1:300.43 2:303.395 3:44.3615 
-1 1:301.48 2:303.336 3:51.7705 
-1 1:300.8 2:302.324 3:47.1815 
-1 1:304.2 2:303.034 3:54.3312 
-1 1:308.6 2:305.472 3:60.7363 
-1 1:321 2:308.483 3:66.3035 
-1 1:332.98 2:311.893 3:71.1157 
-1 1:318.28 2:314.835 3:66.6885 
-1 1:311.77 2:314.542 3:56.7761 
-1 1:305.02 2:309.403 3:50.487 
-1 1:288.35 2:305.48 3:51.6369 
-1 1:298.04 2:305.616 3:58.104 
-1 1:309.27 2:308.16 3:63.9899 
-1 1:326.45 2:313.085 3:61.4242 
-1 1:337.98 2:317.83 3:67.0668 
-1 1:334.29 2:325.807 3:56.5266 
-1 1:340.07 2:329.791 3:55.8121 
-1 1:340.91 2:332.982 3:62.0708 
-1 1:356.46 2:338.088 3:67.6245 
-1 1:371.28 2:343.512 3:72.3843 
-1 1:353.16 2:349.298 3:60.1973 
-1 1:347.24 2:349.879 3:52.5776 
-1 1:338.05 2:348.585 3:52.8899 
-1 1:331.02 2:346.026 3:53.3311 
-1 1:307.22 2:329.21 3:37.0321 
-1 1:298.25 2:321.976 3:41.2017 
-1 1:310.1 2:321.434 3:48.9556 
-1 1:317.54 2:321.714 3:55.7999 
-1 1:326.1 2:322.074 3:61.7362 
-1 1:320.18 2:323.568 3:59.9752 
-1 1:330.3 2:326.138 3:52.2317 
-1 1:333.56 2:329.133 3:58.9776 
-1 1:353.13 2:335.886 3:51.6445 
-1 1:348.93 2:339.479 3:46.9332 
-1 1:343.78 2:341.427 3:54.2712 
-1 1:363.31 2:344.237 3:60.6919 
-1 1:364.5 2:347.642 3:66.2667 
-1 1:363.5 2:352.892 3:56.173 
-1 1:369.5 2:355.506 3:62.2959 
-1 1:371.33 2:358.52 3:67.5978 
-1 1:367.1 2:362.518 3:64.1715 
-1 1:381.5 2:366.014 3:69.2452 
-1 1:386.02 2:369.511 3:73.5981 
-1 1:376.17 2:372.237 3:68.5396 
-1 1:381.75 2:373.786 3:72.8474 
-1 1:387.51 2:375.24 3:76.5589 
-1 1:386.05 2:377.14 3:79.7867 
-1 1:385.97 2:380.692 3:65.1644 
-1 1:395.76 2:382.729 3:69.9698 
-1 1:398.17 2:386.563 3:65.8991 
-1 1:399.98 2:388.753 3:70.6124 
-1 1:406.79 2:390.715 3:74.6586 
-1 1:402.85 2:393.612 3:69.4623 
-1 1:391.1 2:393.565 3:54.9776 
-1 1:394.73 2:394.002 3:61.0238 
-1 1:396.1 2:394.652 3:66.2763 
-1 1:391.95 2:396.218 3:50.8505 
-1 1:405.64 2:397.464 3:57.5373 
-1 1:408.68 2:399.188 3:63.358 
-1 1:412.11 2:401.594 3:68.4338 
-0.9976912550936983 1:418.73 2:404.923 3:72.8675 
-1 1:426.25 2:408.053 3:76.6656 
-1 1:426 2:411.199 3:79.9316 
-1 1:435.3 2:415.077 3:82.7698 
-1 1:445.07 2:418.976 3:85.2062 
-1 1:418.21 2:420.8 3:33.5926 
-1 1:408.74 2:416.171 3:35.2236 
-1 1:407 2:416.118 3:43.8532 
-1 1:413.68 2:417.345 3:51.4825 
-1 1:406.5 2:416.335 3:38.3512 
-1 1:400 2:412.212 3:42.113 
-1 1:406.12 2:411.969 3:49.8017 
-1 1:409.58 2:412.293 3:56.529 
-1 1:416.17 2:413.894 3:62.4709 
-1 1:429.66 2:418.378 3:72.1136 
-1 1:436.68 2:421.608 3:76.0169 
-1 1:428.68 2:426.432 3:50.4221 
-1 1:435.81 2:429.137 3:57.3033 
-1 1:442.61 2:434.59 3:45.5953 
-1 1:448.74 2:437.917 3:47.7555 
-1 1:449.37 2:440.026 3:54.9384 
-1 1:455.67 2:444.609 3:49.1021 
-1 1:455.41 2:448.752 3:45.2939 
-1 1:462.15 2:450.556 3:52.7778 
-0.8960317369759088 1:445.1 2:450.144 3:47.5772 
-1 1:452 2:450.799 3:49.3014 
-1 1:465.54 2:452.724 3:56.2481 
-1 1:467.35 2:454.859 3:62.2596 
-1 1:469.13 2:457.06 3:67.4492 
-1 1:455.82 2:458.707 3:37.9808 
-0.9329381123249316 1:457.57 2:459.052 3:46.2905 
-0.9320755895089415 1:459.06 2:459.658 3:48.1819 
-1 1:466.65 2:461.162 3:55.2375 
-1 1:470.4 2:462.626 3:61.3286 
-1 1:470.51 2:464.292 3:66.605 
-1 1:475.08 2:466.058 3:71.1674 
-1 1:479.8 2:469.023 3:75.1696 
-1 1:490.57 2:472.049 3:78.6183 
-1 1:487.74 2:477.619 3:72.2368 
-1 1:500.92 2:480.478 3:76.0818 
-0.9671385863318827 1:494.84 2:487.464 3:55.9437 
-1 1:487.65 2:488.805 3:43.9779 
-0.8149874918113815 1:491.7 2:490.13 3:52.1185 
-0.7554881052343532 1:499 2:493.785 3:59.2146 
-1 1:516.65 2:499.137 3:57.7273 
-1 1:523.42 2:502.457 3:63.8284 
-1 1:524.39 2:505.611 3:69.0096 
-1 1:532.46 2:509.572 3:73.4711 
-1 1:547.33 2:517.293 3:68.4331 
-1 1:552.69 2:521.932 3:72.963 
-1 1:550 2:532.574 3:60.2802 
-1 1:555.75 2:537.899 3:58.5525 
-1 1:543.01 2:540.97 3:51.4433 
-1 1:530.01 2:539.187 3:46.8691 
-1 1:540.8 2:539.34 3:53.9875 
-1 1:543.49 2:540.581 3:60.2302 
-1 1:547.72 2:541.984 3:65.6341 
-1 1:555.45 2:544.72 3:70.375 
-1 1:562.73 2:547.659 3:74.4695 
-1 1:570.48 2:550.712 3:78.0013 
-1 1:569.29 2:555.538 3:71.8018 
-1 1:575 2:558.303 3:75.6862 
-1 1:574.87 2:560.862 3:79.0268 
-1 1:576.49 2:567.363 3:57.7496 
-0.9796529740284035 1:582.52 2:569.46 3:63.52 
-1 1:586.41 2:571.631 3:68.5057 
-1 1:580.63 2:574.086 3:64.7748 
-1 1:588.13 2:576.191 3:69.584 
-1 1:584.21 2:580.49 3:52.4299 
-1 1:583.5 2:581.364 3:58.8353 
-1 1:587.5 2:582.385 3:64.3869 
-1 1:590.44 2:583.601 3:69.2 
-1 1:595.35 2:586.016 3:65.3167 
-1 1:598.6 2:588.405 3:62.4061 
-1 1:596.03 2:590.113 3:60.214 
-1 1:597.61 2:591.256 3:65.5856 
-1 1:601.34 2:592.571 3:70.2405 
-1 1:603.5 2:595.119 3:74.3189 
-1 1:612.93 2:598.234 3:77.859 
-1 1:621.66 2:601.518 3:80.916 
-1 1:618.5 2:606.413 3:73.9784 
-1 1:626.95 2:610.692 3:68.8605 
-1 1:592 2:608.529 3:52.1776 
-1 1:583.9 2:601.11 3:42.8838 
-1 1:581.2 2:596.872 3:45.5659 
-1 1:583.44 2:593.117 3:47.5471 
-1 1:537.97 2:575.903 3:44.4348 
-1 1:534.6 2:557.772 3:38.6251 
-1 1:528.67 2:552.432 3:42.3453 
-1 1:528.4 2:546.649 3:45.1012 
-1 1:532.5 2:544.892 3:52.2676 
-1 1:539.54 2:543.765 3:58.5462 
-1 1:533.32 2:541.707 3:57.3445 
-0.5947464741385407 1:536.87 2:540.66 3:56.5046 
-0.6053714527606002 1:537.54 2:540.718 3:55.8317 
-1 1:547.35 2:541.001 3:55.2916 
-1 1:529.2 2:535.519 3:51.9416 
-1 1:535.48 2:536.258 3:58.4068 
-1 1:542.36 2:537.466 3:64.0336 
-1 1:546.5 2:539.749 3:68.961 
-1 1:561.35 2:543.011 3:73.2611 
-1 1:563.76 2:551.404 3:60.9032 
-1 1:574.26 2:555.369 3:66.358 
-1 1:561.83 2:560.003 3:56.2962 
-1 1:564.72 2:561.498 3:67.261 
-1 1:545.51 2:558.968 3:51.4126 
-1 1:559.02 2:559.489 3:57.9301 
-1 1:562.83 2:561.115 3:51.0674 
-1 1:565.05 2:561.915 3:57.6522 
-1 1:571.35 2:562.833 3:63.3584 
-1 1:570.9 2:563.924 3:68.3054 
-1 1:563.32 2:564.785 3:57.7936 
-0.6817015785554774 1:567.35 2:566.01 3:56.8071 
-1 1:572.53 2:568.778 3:62.7483 
-1 1:590.06 2:571.474 3:67.8675 
-1 1:592.17 2:574.651 3:72.3058 
-1 1:554.17 2:566.746 3:60.7829 
-1 1:533.37 2:547.329 3:47.2471 
-1 1:526.5 2:542.599 3:48.8356 
-1 1:500.98 2:534.034 3:49.9966 
-1 1:513.97 2:524.116 3:46.4324 
-1 1:516.5 2:518.678 3:43.6755 
-1 1:480.73 2:498.421 3:36.1006 
-0.9425477107224738 1:484.95 2:492.569 3:37.0556 
-0.9416854416729531 1:486.68 2:490.802 3:37.6117 
-1 1:495.11 2:492.775 3:46.1467 
-1 1:480.37 2:488.856 3:36.0271 
-1 1:482.5 2:488.809 3:44.5514 
-0.9230701693189685 1:483.08 2:489.384 3:46.9916 
-1 1:496.17 2:490.968 3:54.2077 
