svm_type c_svc
kernel_type rbf
gamma 0.333333
nr_class 2
total_sv 1110
rho -0.736445
label 1 -1
nr_sv 776 334
SV
0.2636651018115362 1:66.65 2:67.04 3:50 
0.2636652092675519 1:69.25 2:17.1866 3:0 
0.2635267692953697 1:69.75 2:24.0364 3:0 
0.2634741447625471 1:69.72 2:35.2326 3:26.702 
0.2635726480817988 1:69.52 2:43.6173 3:35.3287 
0.2635784073001725 1:68.3 2:46.931 3:27.9213 
0.2636779050261366 1:68.85 2:52.3366 3:34.4812 
0.267249763991711 1:67.1 2:56.1966 3:38.6264 
0.2578218954180602 1:66.61 2:57.2984 3:32.6599 
0.2636691456633653 1:64.05 2:58.1573 3:27.7664 
0.2549144217408437 1:64.19 2:59.6541 3:32.9395 
0.2180045785222208 1:64.23 2:60.2096 3:42.5666 
0.3602193592642822 1:63.9 2:60.491 3:36.64 
0.1015016116101615 1:64.15 2:61.3884 3:45.8274 
1 1:60.8 2:61.3256 3:47.7644 
1 1:60.49 2:60.8752 3:45.1002 
0.9799367102739092 1:62 2:61.0917 3:45.4493 
0.1095214340004917 1:59.91 2:60.7039 3:34.3356 
0.74570763010583 1:59.72 2:60.2571 3:37.4724 
0.1241101976848483 1:58.05 2:59.9549 3:32.6341 
0.5718123339415215 1:59.1 2:59.6665 3:36.0754 
0.170063373935676 1:59.07 2:59.4963 3:31.3511 
0.2628745520892616 1:58.78 2:59.3421 3:27.2387 
0.4036827975358889 1:63 2:60.5009 3:39.646 
0.09830495407316986 1:62.91 2:60.9181 3:48.0545 
0.03119605642121631 1:63.67 2:61.1584 3:41.4816 
0.7925619821540326 1:62.52 2:61.9898 3:48.9675 
0.1488245680801181 1:62.14 2:61.8999 3:36.8316 
0.06502958141086856 1:62.74 2:62.0001 3:39.267 
0.6197433445893519 1:61.05 2:61.5491 3:42.6113 
0.1172328307798762 1:59.1 2:60.9519 3:32.3189 
0.8905300963844816 1:58.8 2:60.7503 3:41.1488 
0.3072425986746006 1:59.83 2:60.6501 3:55.7236 
1 1:58.9 2:60.2007 3:48.6541 
0.9281956426238436 1:57.44 2:59.6846 3:42.5313 
0.5695795232591463 1:55.98 2:59.2533 3:49.8314 
0.02117379680050457 1:57.33 2:58.0951 3:44.4666 
0.03794063942062131 1:55.89 2:57.447 3:45.101 
0.3753473472220075 1:57.95 2:57.0724 3:45.8222 
0.217025001267734 1:56.79 2:56.9787 3:39.7778 
0.1599257473452371 1:56.52 2:56.8191 3:41.5945 
0.2044300735407963 1:55.7 2:56.4419 3:36.2895 
0.2307839793438331 1:53.85 2:55.9857 3:31.7072 
0.1649095144795481 1:52.9 2:55.6849 3:40.4932 
0.136340275053475 1:54.07 2:55.1269 3:35.4494 
0.7568840172120765 1:52.1 2:54.4111 3:50.8774 
0.1915695250730669 1:52.16 2:54.1896 3:57.2531 
0.6431617195138087 1:52.64 2:53.7923 3:49.9858 
1 1:51.26 2:53.228 3:43.7803 
0.9713174456951309 1:49.44 2:52.6136 3:38.386 
0.1065513213995595 1:54.49 2:52.8844 3:48.0564 
0.2481398035372938 1:55.5 2:53.6839 3:53.276 
0.0589913403973918 1:54.14 2:53.6296 3:51.9252 
0.7325479221623923 1:53.59 2:53.455 3:45.1488 
0.1787555392873882 1:52.9 2:52.8808 3:41.2123 
0.06942787093363034 1:50.99 2:52.4194 3:36.0317 
0.458101712200841 1:49.5 2:52.0941 3:44.2147 
0.8485756587189398 1:51.5 2:52.0181 3:58.0378 
0.4089308298108578 1:49.89 2:52.013 3:63.6292 
0.3866704071398134 1:53.24 2:52.1805 3:59.3363 
1 1:54.84 2:52.8406 3:56.1573 
0.9081469868809566 1:55.66 2:53.4976 3:67.4736 
0.3799736911556707 1:55.53 2:53.83 3:71.9845 
0.4820297689190838 1:55.47 2:53.9006 3:62.3048 
1 1:54.37 2:53.9272 3:53.9709 
1 1:54.6 2:53.8814 3:60.3348 
0.3771352212358643 1:54.55 2:53.9906 3:52.1844 
0.6835015076622735 1:51.24 2:53.2759 3:47.3999 
0.7156691281827086 1:54.41 2:53.4103 3:47.38 
0.150565574075472 1:53.69 2:53.2311 3:47.2584 
1 1:52.04 2:53.1883 3:54.2538 
0.07988866932154813 1:51.39 2:52.8497 3:41.0117 
0.02617799623744611 1:51.31 2:52.6364 3:35.6875 
0.2526714165721054 1:46.49 2:50.272 3:26.0507 
0.2247289406539287 1:45.45 2:48.8127 3:31.0961 
0.3898886905487279 1:47.55 2:48.3059 3:41.399 
0.1869295923551447 1:47.58 2:47.9274 3:31.3408 
0.2444739699797221 1:45.51 2:47.4584 3:27.4304 
0.2603726009096091 1:44.29 2:46.996 3:24.007 
0.2469154627944849 1:48.15 2:47.2614 3:43.7923 
1 1:47.61 2:47.4225 3:51.4522 
0.5451323586580255 1:49.96 2:47.9635 3:58.9275 
0.4056016475037543 1:52.66 2:50.2753 3:60.7351 
0.3729675198627255 1:52.5 2:50.5186 3:52.3836 
0.3905752261201639 1:52.33 2:50.5615 3:45.3607 
0.3024210519110561 1:50.48 2:50.4039 3:39.4355 
0.1706497670735434 1:50.14 2:50.2478 3:41.3444 
0.3397759790294427 1:48.52 2:49.8174 3:36.1414 
1 1:47.5 2:49.1107 3:38.8805 
0.2314794341441149 1:50.23 2:48.9653 3:52.1875 
0.8790592536453924 1:48.15 2:48.7232 3:45.4539 
1 1:46.9 2:48.6148 3:52.6212 
0.3169223790925309 1:47.6 2:48.5035 3:45.7097 
1 1:46.72 2:48.2628 3:47.696 
0.4737475679250723 1:46.68 2:48.1211 3:41.4582 
0.3396017759439298 1:47.71 2:48.0329 3:49.1707 
1 1:46.6 2:47.6592 3:42.9488 
0.4586921977405347 1:44.83 2:47.39 3:50.2747 
0.4072706026359771 1:47.11 2:47.1296 3:49.3741 
0.2412962478086737 1:46.04 2:46.879 3:43.0197 
0.4348355804830458 1:44.87 2:46.4605 3:37.6196 
0.2521092686030216 1:46.1 2:46.3205 3:39.8749 
0.8752205960845444 1:45.3 2:46.1177 3:34.7102 
0.2496566992196502 1:45.39 2:45.8047 3:30.2877 
0.8630334094530616 1:44.75 2:45.4933 3:47.2799 
0.522169792912615 1:44.23 2:45.2929 3:41.1573 
0.577866413397484 1:52.28 2:48.0021 3:64.3373 
0.4812449703678887 1:51.97 2:49.198 3:59.6336 
0.1147035605682521 1:51.43 2:49.5276 3:51.3385 
0.03972684058093588 1:53.36 2:50.179 3:50.3116 
0.2042500001070917 1:53.4 2:50.7041 3:49.4041 
0.6684732438408338 1:53.19 2:51.4877 3:67.5652 
0.1993318923845876 1:52.43 2:51.6893 3:58.3281 
0.004749590866731046 1:55.78 2:52.8644 3:69.3955 
0.8881995104286959 1:56.2 2:53.7652 3:63.5077 
1 1:56 2:53.9432 3:54.8584 
0.896704576468354 1:56.6 2:54.8463 3:57.1232 
0.2974078918703998 1:56.95 2:54.9802 3:49.3863 
0.1020250724905373 1:55.55 2:54.9641 3:42.8139 
0.3183978322588011 1:58.06 2:56.2075 3:68.4512 
0.3650392315005697 1:57.64 2:56.2999 3:59.227 
0.2591106359924994 1:58.43 2:56.6896 3:56.0192 
0.4810541624905941 1:58.65 2:56.823 3:61.9728 
0.776149265714138 1:57.28 2:56.8079 3:53.724 
0.4021124966420523 1:56.13 2:56.7722 3:46.5901 
0.05325330635871428 1:54.87 2:56.4331 3:48.3104 
0.5481068450183451 1:53.85 2:55.6259 3:56.2263 
1 1:55 2:55.4318 3:48.9001 
0.4069340394264996 1:53.68 2:55.0409 3:42.6811 
0.7944753461443914 1:53.84 2:54.7046 3:37.9283 
0.01968770950801965 1:53.25 2:54.492 3:32.9995 
0.6069601016733014 1:53.49 2:54.2984 3:28.7015 
0.1914656670164713 1:53.54 2:54.2001 3:33.11 
0.2515598920795713 1:53.28 2:53.9425 3:24.9881 
0.2393621896843069 1:53.01 2:53.7835 3:21.7203 
0.2465667218270512 1:52.74 2:53.5057 3:18.922 
0.3134395903946816 1:53.59 2:53.5684 3:39.1727 
0.7673454249697913 1:55.1 2:54.4923 3:60.7946 
0.1449801679114471 1:56.33 2:55.0419 3:70.8464 
0.3314787231116202 1:57 2:55.2057 3:61.2181 
0.3701611727620477 1:56.32 2:55.2249 3:53.0372 
0.1927348817217689 1:52.94 2:54.7229 3:46.3873 
0.09482147589729426 1:51.87 2:54.2705 3:40.5374 
0.1905525365760646 1:51.59 2:53.8345 3:35.417 
0.3703980463958527 1:52.03 2:53.1236 3:38.3301 
0.1726301406847956 1:49.32 2:52.5964 3:33.5524 
0.2900106807396178 1:49.69 2:52.0929 3:29.3598 
0.1500147429590707 1:50.16 2:51.3269 3:33.6181 
0.1372753171058506 1:47.45 2:50.8114 3:29.4314 
0.1042111569308719 1:47.8 2:50.0857 3:33.6301 
0.1312101100664154 1:47.83 2:49.6689 3:29.3906 
0.1338047083031478 1:47.88 2:48.9972 3:33.5619 
0.1844435838492106 1:47.3 2:48.4694 3:36.779 
0.1669110104770424 1:46.55 2:48.1988 3:36.779 
0.3085959489912809 1:46.41 2:48.0376 3:46.0617 
0.2634030736475631 1:24.62 2:44.9909 3:49.6689 
0.2630569121825923 1:24.82 2:42.2628 3:45.4788 
0.2621501838581888 1:24.77 2:39.8464 3:41.5031 
0.2605450028957741 1:24.29 2:37.8176 3:46.9615 
0.2533648406425442 1:24.44 2:35.9846 3:42.4907 
0.2606923780467149 1:23.54 2:34.4119 3:48.2083 
0.2443632375554015 1:24.07 2:32.9717 3:43.3541 
0.2379716216085812 1:23.9 2:31.7195 3:38.8465 
0.2422399937926676 1:23.74 2:30.6502 3:45.4268 
0.2206052289391028 1:24.02 2:29.7022 3:40.4398 
0.2467085064732235 1:23.58 2:28.8179 3:35.974 
0.4033190310640895 1:23.07 2:28.1008 3:43.313 
0.0912530647366383 1:23.17 2:27.4567 3:38.286 
0.1986670016351885 1:22.95 2:26.9372 3:45.6545 
0.349600885835217 1:23.31 2:26.4055 3:40.2526 
0.1336437810392619 1:23.06 2:25.9248 3:35.4451 
1 1:26.75 2:25.8339 3:67.8272 
1 1:25.6 2:25.7252 3:64.3573 
1 1:25.46 2:25.6619 3:55.8818 
1 1:25.31 2:25.3046 3:63.3574 
0.3936037369033771 1:24.71 2:25.1244 3:60.9775 
0.1528558949161792 1:24.89 2:25.0012 3:53.1022 
1 1:24.68 2:24.9198 3:51.4965 
0.1200741236982379 1:25.06 2:25.1235 3:61.2653 
0.06579099739420694 1:25.75 2:25.203 3:52.9269 
0.0296368400679639 1:25.33 2:25.2385 3:39.6956 
0.02951555034731607 1:26.25 2:25.5728 3:52.6194 
0.08208710145387359 1:24.86 2:25.5243 3:28.0427 
0.1252850940782283 1:24.63 2:25.3251 3:24.4948 
1 1:24.2 2:25.0431 3:42.6488 
1 1:24.25 2:25.0094 3:50.2287 
0.342171267580045 1:24.47 2:24.8589 3:37.9556 
0.123595582750862 1:24.73 2:24.8257 3:46.1564 
0.4820046893363424 1:24.75 2:24.8115 3:59.5344 
0.3745728931545882 1:24.44 2:24.5818 3:39.1167 
0.6410732913851426 1:23.72 2:24.4709 3:46.9954 
0.8680581786807358 1:25.64 2:24.883 3:67.9902 
0.04775804321811576 1:26.09 2:25.1785 3:72.4335 
1 1:26.34 2:25.332 3:76.7695 
0.1308705917716551 1:25.64 2:25.4098 3:47.5674 
0.5450222402908528 1:25.39 2:25.4551 3:55.1453 
1 1:27.26 2:26.284 3:68.7633 
0.06230391326854852 1:27.56 2:26.4422 3:59.0396 
1 1:27.63 2:26.717 3:63.5833 
1 1:26.78 2:26.5817 3:55.2013 
0.1977661639655134 1:26.88 2:26.601 3:46.0064 
0.02469351438194424 1:26.6 2:26.5326 3:47.9206 
1 1:25.72 2:26.1757 3:45.5247 
0.858322655169706 1:25.71 2:25.9912 3:54.4366 
1 1:28.1 2:26.9027 3:74.8292 
0.2519592517430692 1:28.23 2:27.0996 3:64.38 
0.05439181834812501 1:28.03 2:27.4808 3:51.8374 
0.1226203506741317 1:27.66 2:27.5287 3:58.3319 
1 1:29.76 2:28.4124 3:72.8467 
1 1:29.12 2:28.6467 3:68.0454 
0.883058109639472 1:28.41 2:28.5614 3:51.9622 
0.358185751022632 1:28.59 2:28.4599 3:45.1946 
0.117243718272805 1:28.98 2:28.7722 3:38.9357 
0.09015363698883953 1:29.35 2:28.988 3:51.2967 
0.5779969788556272 1:27.27 2:28.6521 3:44.8721 
0.3925287470427933 1:26.91 2:28.4198 3:52.4182 
0.6090787960997484 1:27.01 2:27.7969 3:44.2652 
0.6975922305328891 1:26.35 2:27.4565 3:58.1644 
0.6499758574640246 1:26.59 2:27.2716 3:50.4875 
0.1881884872249807 1:26.15 2:27.1154 3:57.0379 
1 1:26.12 2:26.7607 3:47.2448 
0.1112004718477264 1:25.39 2:26.153 3:32.1096 
0.140914957095516 1:25.33 2:25.7255 3:53.1394 
1 1:25.5 2:25.659 3:59.846 
1 1:26.44 2:25.9125 3:69.0728 
0.669400120657166 1:26.45 2:26.0028 3:73.3584 
0.1443927004487166 1:26.59 2:26.0838 3:77.0333 
0.8348178547819741 1:27.17 2:26.795 3:49.718 
0.2184533518545163 1:28.19 2:27.3919 3:70.8667 
1 1:28.17 2:27.501 3:61.163 
0.2268757883657709 1:28.3 2:27.9959 3:47.9979 
1 1:27.4 2:27.7908 3:35.9944 
0.4186537920706965 1:26.98 2:27.204 3:36.809 
1 1:26.72 2:27.1754 3:45.1772 
0.01783759013798601 1:26.9 2:27.1214 3:39.2315 
0.04814029130188857 1:26.66 2:26.9714 3:42.766 
0.4290542236990146 1:26.61 2:26.7306 3:49.5097 
0.104948830830487 1:26.35 2:26.6825 3:42.9857 
0.1249907445275267 1:26.23 2:26.6021 3:36.5741 
0.06835710959605117 1:25.8 2:26.3953 3:26.8426 
0.05235592113961575 1:25.65 2:26.2586 3:23.1021 
0.03407119195367092 1:25.18 2:26.1027 3:19.9326 
0.1989098720694711 1:24.38 2:25.0794 3:28.8358 
0.03813860390129374 1:25.21 2:25.1268 3:36.6621 
1 1:25.48 2:25.1981 3:49.0635 
1 1:25.39 2:25.4457 3:47.0468 
0.266652156386552 1:25.53 2:25.4156 3:40.8085 
0.03388871363527787 1:25.36 2:25.3996 3:46.4704 
0.1315877321667433 1:27.45 2:25.9474 3:51.8967 
0.04465366869945243 1:27.16 2:26.1171 3:44.68 
0.2370024387083825 1:27.01 2:26.1762 3:38.6318 
0.09036572666852641 1:26.59 2:26.2051 3:28.9805 
0.1018617009197757 1:26.16 2:26.2298 3:25.0528 
0.06356400480947858 1:26.03 2:26.1698 3:21.7615 
0.2241458628213512 1:25.63 2:26.1379 3:32.1122 
0.2368270064699896 1:25.7 2:25.9688 3:45.6228 
1 1:25.97 2:25.8958 3:55.0577 
0.721459314457275 1:25.99 2:25.9383 3:61.0371 
1 1:26.38 2:26.2582 3:67.9048 
0.2674436022780544 1:27.31 2:26.7535 3:70.4385 
0.01947741699121511 1:28.15 2:27.3028 3:62.8505 
0.04308204320678903 1:28.18 2:27.8716 3:70.9581 
0.6425607148454053 1:28.57 2:27.9634 3:75.1243 
0.4192321268130305 1:28.7 2:28.0523 3:78.6646 
0.389082830793339 1:28.32 2:28.1078 3:58.2999 
1 1:27.67 2:28.1068 3:64.0215 
0.1048195078379775 1:27.78 2:28.0199 3:61.4381 
1 1:27.91 2:27.9489 3:57.7354 
0.5145209654979164 1:28.18 2:27.8954 3:47.6484 
0.3627446012854224 1:29.89 2:28.0786 3:66.2703 
0.253457101169713 1:28.78 2:28.3331 3:54.906 
0.1752118649009603 1:28.27 2:28.3762 3:66.205 
0.8362735910170621 1:28.38 2:28.3353 3:57.444 
0.7862267820676518 1:27.3 2:27.9095 3:53.0078 
1 1:27.22 2:27.4842 3:47.552 
1 1:27.4 2:27.4109 3:67.3957 
1 1:27.29 2:27.3694 3:63.6037 
0.2367309016518909 1:27.37 2:27.3611 3:63.1722 
0.1310369144799467 1:27.39 2:27.3521 3:66.1698 
1 1:27.44 2:27.3732 3:66.1698 
0.6420032723976382 1:28.3 2:28.1078 3:42.2032 
0.4206399296824807 1:27.67 2:28.0441 3:36.3864 
0.650268842051057 1:29.21 2:28.378 3:71.1004 
0.3204689484141282 1:29.18 2:28.4983 3:61.2517 
0.9318345239527723 1:29.43 2:28.6678 3:66.6682 
0.8059439030702432 1:27.34 2:28.8715 3:47.6447 
0.2796570358591998 1:27.33 2:28.638 3:41.6007 
0.0667566877101571 1:27.25 2:28.4423 3:49.0693 
0.6955414661804225 1:27.13 2:28.2593 3:42.7798 
0.2872421226015255 1:27.03 2:28.0727 3:37.3053 
0.08924396762212233 1:26.52 2:27.7026 3:28.3738 
0.2698497330814235 1:26.62 2:27.5609 3:37.6238 
0.4003282200076195 1:26.56 2:27.4328 3:32.7509 
0.5935056102041467 1:26.64 2:27.3444 3:41.5427 
1 1:26.75 2:27.2732 3:49.215 
0.5536228420268075 1:27.16 2:27.2439 3:55.4205 
0.4668748065070962 1:27.01 2:27.2479 3:59.5069 
0.7135324141820371 1:26.85 2:27.0494 3:48.2682 
1 1:26.77 2:26.8222 3:43.9398 
0.1277373343544692 1:26.4 2:26.6648 3:33.1983 
0.1510924570964785 1:25.84 2:26.4438 3:31.7594 
0.7019794226949533 1:26.35 2:26.1932 3:60.5472 
1 1:26.42 2:26.2515 3:70.4324 
0.953450167841903 1:26.17 2:26.2524 3:66.2685 
0.4858924961397166 1:26.25 2:26.2174 3:54.7614 
0.01018793139341394 1:25.1 2:25.278 3:35.8173 
0.006595206858705937 1:24.82 2:25.1916 3:30.9414 
0.1334883813502405 1:24.64 2:25.1047 3:26.7543 
0.183661972372957 1:24.35 2:24.8923 3:20.0805 
0.218968237947745 1:24.19 2:24.772 3:17.423 
0.8708851179713979 1:24.14 2:24.4916 3:28.5944 
1 1:24.25 2:24.4104 3:46.3741 
0.2875965354597003 1:24.11 2:24.3528 3:48.1949 
0.2429825211711437 1:25.03 2:24.6141 3:63.288 
0.7652088142752586 1:25.23 2:24.7525 3:59.0792 
0.1593072486719158 1:25.01 2:24.7641 3:51.1583 
0.4263519692967785 1:25.05 2:24.768 3:40.9453 
1 1:24.66 2:24.8189 3:50.1145 
0.9618481021855707 1:25.23 2:25.112 3:62.8826 
1 1:25.5 2:25.2306 3:60.591 
0.01583817741218103 1:25.68 2:25.5126 3:47.0873 
0.2294708611304896 1:25.99 2:25.6541 3:52.3368 
1 1:25.71 2:25.6903 3:50.8648 
0.2842792807354551 1:25.38 2:25.6175 3:38.3135 
0.00838722473606226 1:25.4 2:25.4647 3:38.859 
0.6572438169453047 1:25.08 2:25.3023 3:51.9313 
0.271039345592793 1:25.22 2:25.1846 3:64.9662 
0.2358109782828536 1:24.97 2:25.0189 3:48.0262 
1 1:25.53 2:25.1782 3:67.6121 
0.1211925791433373 1:26.3 2:25.6916 3:70.3805 
1 1:25.99 2:25.6901 3:60.9606 
0.7934133763669262 1:25.69 2:25.6901 3:66.1848 
1 1:25.75 2:25.6865 3:68.0312 
0.5116077068148442 1:25.81 2:25.7088 3:64.4912 
0.0434811247922241 1:27.29 2:26.4184 3:80.5208 
0.5016194916072179 1:27.8 2:26.5133 3:69.5257 
0.4324233900571907 1:27.22 2:26.6248 3:73.7027 
0.2704186541750962 1:27.41 2:26.6682 3:63.7655 
0.7227331818422795 1:26.98 2:26.8342 3:64.9106 
0.01855264057233465 1:26.84 2:26.8376 3:46.6398 
0.1734058636182218 1:26.09 2:26.5195 3:17.949 
0.1815459582233674 1:26.07 2:26.4289 3:15.6091 
0.1755264868063515 1:25.8 2:26.3037 3:13.5923 
0.1063716032759367 1:25.49 2:26.1752 3:11.8378 
0.09291106254177148 1:25.31 2:26.0545 3:10.3069 
0.1187924437130587 1:25.4 2:25.9499 3:10.3069 
0.4665071120268888 1:25.61 2:25.8552 3:44.2814 
0.1289608369102649 1:24.51 2:25.1045 3:22.4587 
0.0141837170953098 1:24.31 2:24.9429 3:30.2875 
0.07530247028996491 1:24.71 2:24.9065 3:39.6654 
0.3262991317302919 1:24.91 2:24.837 3:38.1378 
0.4013971391290627 1:26.6 2:25.5147 3:58.4675 
0.1089938741728709 1:26.53 2:25.6674 3:64.2313 
0.9083012976997705 1:26.94 2:26.0069 3:73.4986 
0.353581476173101 1:26.98 2:26.134 3:63.3757 
1 1:27.36 2:26.5269 3:76.5233 
0.1145321874040452 1:27.48 2:26.8011 3:82.5506 
1 1:27.85 2:26.957 3:84.9659 
0.6064723156183089 1:28.07 2:27.246 3:88.8291 
0.2177090731911568 1:28.06 2:27.3345 3:76.7316 
0.07732143791409608 1:27.92 2:27.4126 3:79.8925 
0.4961388821788788 1:27.8 2:27.4589 3:69.1205 
1 1:27.73 2:27.5893 3:59.1454 
0.2531552745638986 1:27.29 2:27.5868 3:40.7451 
0.1393351847940589 1:27 2:27.5206 3:35.22 
0.03547222062175063 1:26.82 2:27.2966 3:22.8545 
0.001979228787737154 1:26.51 2:26.8809 3:26.305 
0.06877530875046724 1:26.15 2:26.7128 3:19.838 
0.2410762232902357 1:26.9 2:26.9693 3:45.5075 
0.179439546591673 1:26.74 2:26.9507 3:39.4585 
0.8003632435997835 1:26.56 2:26.6715 3:48.1909 
0.5696563297516516 1:27.91 2:27.1342 3:66.8564 
0.9665739295697456 1:27.48 2:27.3421 3:43.1843 
0.8204317593020638 1:26.41 2:26.9468 3:39.1976 
1 1:26.6 2:26.9379 3:47.2878 
0.2082337676287721 1:26.53 2:26.828 3:40.067 
0.5987128291754263 1:27.02 2:26.8806 3:37.3465 
0.3481533736256254 1:26.81 2:26.8872 3:32.3589 
0.6581147436146687 1:27.04 2:27.0366 3:49.4178 
0.3021138969201151 1:27.7 2:27.2554 3:61.6721 
0.7349926594683558 1:27.08 2:27.2377 3:40.1723 
0.5925751339115795 1:27.01 2:27.181 3:48.0914 
1 1:27.88 2:27.3264 3:67.7867 
0.1082356610494097 1:27.61 2:27.3432 3:50.2468 
1 1:27.1 2:27.2941 3:56.2095 
0.1747587076452693 1:27.11 2:27.1854 3:43.2345 
1 1:27.05 2:27.1647 3:43.2345 
0.04146159538048962 1:27.07 2:27.1557 3:44.1355 
0.5886460279123827 1:26.97 2:27.1573 3:47.0105 
0.3073881311083258 1:24.32 2:26.4275 3:48.7721 
0.02732684289268556 1:24.49 2:26.1051 3:42.01 
0.3519118663421735 1:23.35 2:25.4106 3:44.9807 
0.5843411548628004 1:23.66 2:25.1959 3:52.4956 
1 1:23.75 2:24.8164 3:39.2459 
0.300725312714612 1:23.67 2:24.6768 3:47.4748 
0.1131215190836345 1:23.71 2:24.4826 3:41.1869 
0.008212281812078757 1:23.1 2:24.1532 3:31.0073 
0.1883438223800933 1:23.16 2:24.0008 3:26.9209 
0.1447011226529717 1:22.89 2:23.8314 3:23.4052 
0.02215644486560989 1:22.84 2:23.6979 3:33.4739 
0.2345156099373248 1:22.48 2:23.4573 3:38.4926 
0.01562706403947743 1:23.11 2:23.3683 3:33.4106 
0.8312025266412575 1:23.77 2:23.4714 3:43.4668 
0.07453314080586698 1:23.26 2:23.3247 3:32.7746 
1 1:22.74 2:23.2574 3:41.6263 
0.04965859135322202 1:22.55 2:22.9698 3:27.3762 
0.02279582709218355 1:22.15 2:22.8458 3:23.8418 
0.05241483604514368 1:22.15 2:22.6373 3:29.3746 
0.1862157942870996 1:21.96 2:22.5137 3:25.5885 
0.2177945746227414 1:21.73 2:22.3799 3:22.3024 
0.03207159899719891 1:22.14 2:22.2958 3:56.0408 
0.1813113372233251 1:22.54 2:22.331 3:61.9683 
0.3050699434030092 1:22.85 2:22.492 3:50.3191 
0.1300299704286041 1:22.65 2:22.5357 3:57.0307 
0.04477880056875587 1:22.89 2:22.579 3:62.8342 
1 1:23.53 2:22.9514 3:67.6428 
0.2011855782643647 1:23.45 2:23.068 3:64.1213 
0.0366869578064773 1:23.37 2:23.1454 3:53.3321 
0.6489317273815559 1:22.79 2:23.078 3:46.3553 
1 1:22.37 2:22.9689 3:40.3647 
0.9972226369039045 1:22.28 2:22.8784 3:48.1123 
0.1542879315046235 1:22.29 2:22.8253 3:54.9265 
0.7145693760361092 1:24.12 2:23.4352 3:76.5437 
0.2405116937899419 1:24.58 2:23.4932 3:66.174 
0.6246547683438383 1:24.28 2:23.9411 3:50.1043 
0.577569294743471 1:24.49 2:24.0537 3:62.6983 
1 1:24.37 2:24.1079 3:67.7446 
0.7001045114024496 1:24.43 2:24.1508 3:58.6075 
0.2660742151183578 1:24.52 2:24.2014 3:64.2015 
0.3775879256508979 1:24.55 2:24.2572 3:69.046 
1 1:26.01 2:24.8794 3:68.8273 
1 1:25.65 2:24.9848 3:73.4408 
0.1112329195280961 1:25.82 2:25.0855 3:77.3236 
1 1:25.71 2:25.1874 3:80.6087 
0.4135089528972178 1:25.84 2:25.2891 3:83.395 
1 1:25.89 2:25.509 3:59.5106 
0.5349802908415761 1:25.51 2:25.5342 3:51.3598 
1 1:25.82 2:25.6749 3:70.3151 
0.9723207180963435 1:26.74 2:26.025 3:67.0543 
0.4953953241524728 1:26.83 2:26.3989 3:56.1448 
1 1:27.37 2:26.9833 3:65.3669 
0.3266736480176208 1:27.39 2:27.1108 3:70.1656 
0.1225007151664936 1:27.92 2:27.2187 3:60.5001 
0.2787536466531446 1:27.76 2:27.3056 3:52.2155 
0.01105708985756869 1:28.34 2:27.6412 3:50.6985 
0.001923487131940647 1:28.3 2:28.0942 3:61.7596 
0.6997985519932889 1:28.43 2:28.119 3:53.4689 
0.2356557468538586 1:28.28 2:28.1445 3:59.7154 
1 1:28.33 2:28.1719 3:65.125 
1 1:28.85 2:28.4639 3:53.7407 
1 1:28.86 2:28.5722 3:65.3887 
0.06558876665806734 1:28.78 2:28.6266 3:70.0616 
0.6996400654867349 1:29.17 2:28.7816 3:64.0873 
0.3182083844668314 1:29.31 2:29.0591 3:50.3513 
0.01507277866095469 1:29.91 2:29.2699 3:62.9776 
1 1:29.97 2:29.3566 3:62.9776 
0.1733128501050943 1:29.34 2:29.4157 3:38.7763 
0.3570798539194377 1:29.36 2:29.3449 3:38.1059 
0.2405853054458475 1:29.6 2:29.346 3:48.5407 
0.1069818239247015 1:30.14 2:29.5422 3:61.7863 
1 1:29.71 2:29.6421 3:59.7207 
0.3340146533291972 1:29.53 2:29.761 3:55.7465 
0.7319674784234893 1:29.65 2:29.8194 3:43.235 
0.6992544246975793 1:30 2:29.8381 3:51.4695 
0.08346758648079365 1:31.26 2:30.2438 3:50.7059 
0.01550939616646614 1:31.26 2:30.3579 3:43.5133 
0.113548389037305 1:31.15 2:30.4435 3:37.41 
0.1641349412084936 1:31.06 2:30.5574 3:39.8166 
0.110297516666606 1:31.08 2:30.6229 3:47.7724 
0.5040790763606188 1:31.22 2:30.6199 3:54.8268 
0.01069256324379854 1:30.57 2:30.5908 3:41.0806 
0.01255527158810637 1:30.41 2:30.6267 3:49.0665 
0.04897351056736921 1:30.82 2:30.5608 3:36.8532 
0.1390802264715512 1:29.97 2:30.434 3:32.0448 
0.3285639620617066 1:29.59 2:30.3108 3:27.8641 
0.1746674930880253 1:29.64 2:30.1854 3:24.2335 
0.1573457063393837 1:29.24 2:30.062 3:21.0766 
0.1612044673128494 1:29.35 2:29.9177 3:18.3454 
0.1322513165332736 1:28.89 2:29.7874 3:15.9621 
0.01493519607028544 1:28.91 2:29.5036 3:39.1823 
0.01685936256333264 1:28.63 2:29.4138 3:47.1417 
0.8044934670963898 1:29.22 2:29.3362 3:52.3699 
0.2112002931494399 1:28.71 2:29.1099 3:51.1802 
0.1368174841927856 1:27.49 2:28.5622 3:37.9829 
0.2609460805938175 1:27.72 2:28.2132 3:34.9093 
0.0008032043092110913 1:27.18 2:28.0034 3:39.4832 
0.1896613643268235 1:27.93 2:27.7023 3:59.2435 
0.3057716316841995 1:27.58 2:27.8715 3:41.7626 
1 1:28.5 2:28.1305 3:61.7449 
1 1:28.3 2:28.1277 3:53.5173 
1 1:28.06 2:28.1827 3:59.7937 
0.3092569278765348 1:28.43 2:28.2397 3:65.2248 
1 1:28.63 2:28.3777 3:74.0071 
0.4610690704782943 1:28.34 2:28.445 3:68.9041 
0.3092521027051036 1:28.79 2:28.5873 3:68.225 
0.7126536828143026 1:28.86 2:28.641 3:72.5133 
0.8656911845305575 1:30.13 2:29.0311 3:68.5968 
0.9530552706441804 1:30.39 2:29.3998 3:76.7086 
0.9414125105887736 1:30.6 2:29.6092 3:79.9568 
0.4018797640498996 1:30.68 2:29.7359 3:69.0004 
0.4538943322272965 1:30.52 2:29.8658 3:73.2506 
0.331161823835841 1:30.68 2:30.1552 3:69.2331 
0.6471043520822064 1:30.57 2:30.2532 3:73.4217 
0.07895395456566803 1:30.84 2:30.3488 3:77.038 
1 1:30.9 2:30.4223 3:66.605 
0.04686023822492832 1:31.03 2:30.5715 3:61.5275 
0.1307950418194592 1:30.84 2:30.6567 3:44.7587 
0.1238643508400787 1:30.28 2:30.5769 3:46.9976 
0.2902641916975272 1:30.42 2:30.6711 3:52.6183 
0.1899451436691589 1:30.02 2:30.4778 3:34.4698 
0.02609088182708649 1:30.35 2:30.3385 3:49.3703 
0.135634206517561 1:30.69 2:30.3789 3:50.4241 
0.09967863236595757 1:30.48 2:30.3897 3:43.6854 
0.06176036778688126 1:29.98 2:30.3232 3:46.1725 
0.06066861875587852 1:30 2:30.2121 3:40.1633 
1 1:29.55 2:30.0364 3:49.0078 
0.9228651561092757 1:29.36 2:30.0142 3:56.5126 
0.07899781590169354 1:29.87 2:29.9203 3:41.4647 
0.3158785972032991 1:29.67 2:29.8963 3:49.7622 
0.05065599805661574 1:29.7 2:29.8426 3:31.3622 
0.1973943868621863 1:30.02 2:29.9802 3:57.026 
1 1:31.15 2:30.4084 3:58.7738 
0.9472083687973629 1:31.36 2:30.5126 3:64.4408 
0.5532101292291569 1:31.01 2:30.5509 3:55.7144 
1 1:30.24 2:30.4932 3:41.8502 
0.1170176084546239 1:29.41 2:30.2199 3:44.7019 
1 1:29.19 2:29.8971 3:53.9289 
0.170048578181014 1:29.45 2:29.7722 3:46.9177 
0.2606410302315537 1:29.33 2:29.7157 3:60.0773 
0.1190779912606435 1:29.64 2:29.6931 3:56.8296 
0.7631415060337303 1:28.9 2:29.5621 3:49.462 
0.09237770069700545 1:28.94 2:29.4378 3:43.0414 
0.5596447705616988 1:28.77 2:29.2821 3:37.496 
0.1145234781997354 1:28.18 2:28.7765 3:45.9682 
1 1:28.28 2:28.5779 3:54.749 
0.7940916000941 1:28.21 2:28.6089 3:60.8266 
1 1:28.61 2:28.593 3:52.7436 
1 1:28.7 2:28.5369 3:53.2718 
1 1:28.56 2:28.6074 3:58.153 
1 1:28.7 2:28.7858 3:57.0413 
0.3281304129741975 1:29.68 2:28.9531 3:54.3925 
0.03813913279675146 1:29.46 2:29.1744 3:48.6258 
1 1:30.04 2:29.6345 3:65.9832 
0.214195646829064 1:30.3 2:29.6712 3:56.1974 
1 1:30.24 2:29.8503 3:60.2756 
0.4910393676499258 1:31.22 2:30.167 3:70.9573 
1 1:31.09 2:30.1674 3:61.1108 
1 1:30.12 2:30.2131 3:66.5302 
0.504065755057123 1:30.71 2:30.3047 3:71.2174 
0.02085179073353899 1:31.57 2:30.6386 3:78.7809 
0.2746862550446874 1:34.85 2:31.6703 3:69.8869 
1 1:37.22 2:33.8649 3:81.511 
0.1900690387672639 1:36.76 2:34.2469 3:68.0796 
0.2033422593233442 1:36.59 2:34.5353 3:57.2831 
0.2182664496903392 1:36.04 2:34.6666 3:48.6064 
0.4260840796472205 1:35.6 2:34.6764 3:41.5107 
0.2523573669954678 1:33.32 2:34.3942 3:30.742 
0.5683947130521883 1:34.4 2:34.2496 3:37.4886 
0.2552428549532489 1:34.36 2:34.231 3:32.4032 
0.1096733727674153 1:34.09 2:34.0629 3:28.145 
0.6157068257878996 1:33.38 2:33.8986 3:46.0091 
1 1:33.58 2:33.8575 3:39.8507 
0.05925241405656333 1:33.92 2:33.8231 3:47.8997 
0.8212007311481433 1:33.5 2:33.7027 3:41.6056 
0.4948821143491514 1:32.74 2:33.5784 3:36.1497 
0.3591517259940713 1:34.26 2:33.774 3:52.4127 
0.1431732511833058 1:34.61 2:33.8748 3:45.2535 
0.1231435896625365 1:35.05 2:34.3673 3:65.0511 
0.2479368007100179 1:35.03 2:34.3704 3:56.3546 
0.176287569270087 1:34.64 2:34.4196 3:62.2387 
0.1917071945985076 1:34.69 2:34.469 3:67.3283 
0.4054554159425022 1:36.13 2:35.0396 3:79.09 
0.1374915177301904 1:36.41 2:35.249 3:81.9881 
0.6825997069084901 1:36.35 2:35.3451 3:70.8548 
0.1793924811547454 1:35.9 2:35.4686 3:64.7989 
0.04457681843422215 1:35.79 2:35.4355 3:56.2075 
0.08950492196453891 1:35.19 2:35.2872 3:53.9773 
1 1:34.55 2:35.1969 3:60.0133 
0.4802875516668814 1:34.71 2:34.964 3:52.3559 
0.7206147360165289 1:34.35 2:34.8189 3:50.9185 
1 1:34.14 2:34.6977 3:44.2823 
0.004581283875894859 1:34.03 2:34.5691 3:44.8804 
0.9802903830156045 1:33.42 2:34.3906 3:39.0976 
0.4257403604434994 1:33.54 2:34.2198 3:34.0531 
0.1088454768560122 1:31.54 2:33.7787 3:25.9111 
0.09770371595832852 1:31.48 2:33.5322 3:22.6211 
0.1647872081911962 1:34.9 2:33.4206 3:28.5445 
0.1862157812954874 1:33.02 2:33.3272 3:24.8078 
0.1908552005782883 1:32.85 2:33.2303 3:21.5627 
0.2409910806943328 1:32.56 2:33.0929 3:18.7651 
0.2202065260153594 1:31.91 2:33.0272 3:29.4567 
0.1425072890827232 1:31.06 2:32.6836 3:25.7974 
0.1536179027482423 1:30.49 2:32.3511 3:22.5875 
0.1774389107515077 1:29.91 2:31.9136 3:19.8441 
0.1324792745571631 1:29.28 2:31.4611 3:17.4455 
0.1751443511884835 1:28.34 2:31.0156 3:15.3366 
0.3227784201301913 1:28.29 2:30.6882 3:25.8423 
0.1233541118864069 1:28.52 2:30.3578 3:22.6404 
0.09677365690052607 1:28.43 2:30.0888 3:32.3557 
0.1371544778698989 1:28.62 2:29.9383 3:41.0803 
0.02520335592373711 1:28.31 2:29.5696 3:31.2404 
0.8820119918755338 1:28.8 2:29.383 3:27.247 
0.2750102283764678 1:28.15 2:29.2279 3:36.6129 
0.7139511097978559 1:27.65 2:28.751 3:37.1398 
0.03173071330893941 1:27.69 2:28.368 3:29.9192 
0.04371353583668224 1:27.24 2:28.1842 3:26.099 
0.6802440035283246 1:27.34 2:28.0134 3:46.6804 
1 1:28.54 2:28.2955 3:45.0404 
0.02249359391985005 1:29.38 2:28.4401 3:47.2004 
0.04246702072684414 1:29.03 2:28.6743 3:35.2441 
0.1153606674166444 1:28.48 2:28.591 3:30.6338 
0.005763690240254957 1:28.23 2:28.5002 3:26.6339 
0.05298493743561053 1:29 2:28.7328 3:33.7595 
0.1985210676282617 1:29.55 2:28.8391 3:42.7052 
1 1:30.05 2:29.8542 3:62.2874 
0.1801621374974319 1:29.8 2:29.739 3:54.0659 
1 1:28.8 2:29.5925 3:46.9951 
1 1:29.21 2:29.3743 3:54.3861 
1 1:29.89 2:29.557 3:58.8601 
0.07648777656264441 1:30.47 2:29.7179 3:55.805 
0.506708138801668 1:29.3 2:29.5604 3:42.1178 
0.4438428492657356 1:28.28 2:29.2636 3:44.9311 
0.4449211041627061 1:28.26 2:29.1018 3:39.1508 
0.2984480937831989 1:28.21 2:28.8234 3:48.7158 
0.644879748687236 1:28.38 2:28.7563 3:55.4539 
0.07830329049240255 1:27.28 2:28.3312 3:49.5987 
0.2114091885156482 1:27.65 2:28.1481 3:55.6933 
0.5537027133181324 1:27.36 2:28.1136 3:61.5552 
1 1:27.85 2:27.9812 3:53.5989 
0.1950034146701427 1:28.55 2:28.3486 3:42.2599 
0.2837333453762361 1:28.9 2:28.4 3:43.4558 
0.387337290837541 1:28.3 2:28.3427 3:37.7375 
0.1635159076562336 1:27.27 2:27.8879 3:23.8987 
0.169485375621404 1:26.9 2:27.6202 3:20.9129 
0.1512425293328344 1:25.97 2:27.4015 3:30.911 
0.09295215847187439 1:25.93 2:27.0361 3:34.6569 
1 1:25.2 2:26.6159 3:39.1915 
0.05986882612179333 1:25.16 2:26.4338 3:34.1999 
0.0477267720640779 1:27.58 2:26.5343 3:54.7916 
0.1909719032120285 1:26.36 2:26.4444 3:47.6475 
0.4903998119675286 1:25.54 2:26.2655 3:49.1293 
0.102549662728975 1:25.39 2:25.88 3:40.1852 
0.009514513557816393 1:27.86 2:26.6843 3:57.6946 
0.03093098403721821 1:28.07 2:27.0136 3:54.8356 
0.04546714178342966 1:27.54 2:27.2902 3:28.7518 
0.02071576783260468 1:27.61 2:27.392 3:30.4775 
0.1009620173168765 1:27.58 2:27.3757 3:26.2464 
0.01856272054767585 1:26.03 2:26.9963 3:22.2249 
0.3971352176358384 1:26.09 2:26.7842 3:40.4579 
0.01009777603053628 1:25.58 2:25.9484 3:59.4168 
0.9279367653926934 1:26.94 2:26.0573 3:60.8973 
0.4154511959961958 1:26.18 2:26.1952 3:49.6248 
0.9439361220539831 1:26.37 2:26.2118 3:56.3756 
1 1:25.63 2:26.0383 3:49.1786 
0.5474293185292339 1:24.98 2:25.6638 3:43.239 
0.6481542540128615 1:22.9 2:25.31 3:37.9943 
0.08705109201187773 1:23.77 2:24.9086 3:33.4564 
0.2047154895258422 1:21.79 2:24.4542 3:29.5325 
0.1566273568428697 1:25.64 2:24.5278 3:34.1309 
0.007863948699250587 1:23.57 2:24.222 3:34.0387 
0.2054671645982177 1:21.06 2:23.3937 3:36.2066 
0.103858023768306 1:21.67 2:23.0985 3:31.7795 
0.09091893423140865 1:23.13 2:23.0855 3:35.4465 
0.1410127617213368 1:23.69 2:23.0248 3:30.801 
0.08598884457177283 1:21.87 2:22.5928 3:34.4682 
0.2270092060252822 1:21.85 2:22.2942 3:37.3803 
0.08017697907318173 1:21.29 2:22.1483 3:32.6095 
0.1487491924784433 1:20.89 2:21.9019 3:28.5795 
0.06189825675122308 1:20.56 2:21.5809 3:33.164 
0.1013192214317109 1:19.74 2:21.2795 3:29.1493 
1 1:19.5 2:21.0582 3:37.9509 
0.1592543800666526 1:19.63 2:20.6891 3:33.4776 
0.1756890250866824 1:18.12 2:20.2679 3:29.6168 
0.2765178995680277 1:20.86 2:20.2208 3:40.8952 
0.1692523027282101 1:20.23 2:20.2518 3:42.3613 
0.3251663629115248 1:18.65 2:19.9091 3:52.4723 
1 1:19.4 2:19.8026 3:45.7207 
0.8302610241856522 1:20.11 2:20.0386 3:50.5359 
0.2103613038836699 1:19.15 2:19.9481 3:43.9964 
0.01450185671886711 1:19.86 2:19.7658 3:35.2395 
0.8955433688113743 1:19.24 2:19.6131 3:39.7138 
0.9253356077726513 1:19.28 2:19.5687 3:47.6334 
0.3782922669716904 1:19.26 2:19.5155 3:41.3947 
0.1223809883217003 1:19.15 2:19.3969 3:31.2822 
0.006420917022694614 1:20.2 2:19.6538 3:61.7385 
0.3357227128012509 1:20.17 2:19.7715 3:55.4964 
1 1:19.71 2:19.7313 3:48.1948 
1 1:19.52 2:19.7431 3:55.1291 
0.6522266757597066 1:19.53 2:19.656 3:47.9902 
0.5159155183205308 1:19.07 2:19.6006 3:54.7973 
0.3475709056609837 1:19.63 2:19.6151 3:60.8535 
0.8199632054266761 1:16.97 2:18.8816 3:58.0905 
0.4973904996936677 1:17.29 2:18.7147 3:63.3545 
0.4843799439504524 1:17.78 2:18.5741 3:68.0001 
1 1:17.74 2:18.2103 3:55.0709 
0.225363793000976 1:17.03 2:18.1596 3:60.9527 
0.6901361400647481 1:18.54 2:18.2617 3:70.835 
0.284682989262536 1:19.16 2:18.5381 3:78.4205 
0.3084736977157526 1:19.64 2:18.6583 3:67.5264 
0.4110180020181146 1:19.25 2:18.6772 3:58.4637 
0.377244070116711 1:19.27 2:18.8529 3:59.7124 
0.2240258373248106 1:18.49 2:18.7512 3:52.0315 
1 1:18.22 2:18.6671 3:58.2399 
0.5772444133022545 1:18.3 2:18.5661 3:50.749 
0.424144199992423 1:17.03 2:18.1666 3:43.6853 
0.2239820571676979 1:17.01 2:18.0057 3:38.1989 
0.2054471925717489 1:17.05 2:17.7943 3:33.499 
0.253532411221051 1:16.29 2:17.575 3:29.3946 
0.2599157557282195 1:15.96 2:17.337 3:25.8251 
0.1120428109541529 1:16.03 2:17.1428 3:34.9866 
0.1037578465734022 1:15.86 2:16.7749 3:37.9596 
0.1676292448795527 1:15.35 2:16.5756 3:45.5851 
0.183361613552364 1:15.2 2:16.3855 3:39.9653 
0.938103768482197 1:17.01 2:16.5619 3:47.642 
0.3310436012090287 1:16.98 2:16.5737 3:41.2605 
0.1423185308588176 1:16.82 2:16.5305 3:35.8524 
0.5641626046230484 1:16.32 2:16.5798 3:44.5706 
0.3975472413654271 1:17.03 2:16.6305 3:52.1077 
0.4302667107118761 1:17.32 2:16.7466 3:50.6942 
0.1817660187871111 1:18.04 2:17.0874 3:49.7135 
0.1788414994922961 1:17.98 2:17.1931 3:42.8202 
0.2493567941059333 1:19.13 2:18.1323 3:40.2373 
0.2746138653565277 1:18.54 2:18.216 3:48.4436 
1 1:19.45 2:18.5769 3:63.388 
0.5724658215720955 1:19.69 2:18.712 3:53.6963 
0.08731338778089742 1:19.44 2:18.797 3:45.728 
0.1277510135574863 1:18.89 2:18.918 3:35.6707 
0.2113154745346743 1:18.59 2:18.9249 3:44.5937 
0.2618238638341978 1:18.76 2:18.9056 3:38.4944 
0.9467338611887126 1:18.92 2:18.9075 3:46.9319 
0.5091952751052077 1:20.55 2:19.3379 3:46.9621 
0.5505192762685187 1:20.6 2:19.6255 3:55.9258 
1 1:20.19 2:19.7075 3:48.1813 
0.08577944526691439 1:20.14 2:19.7742 3:35.9654 
0.1050318846368042 1:19.96 2:19.7155 3:30.6116 
0.04013166688370624 1:19.2 2:19.6286 3:34.9251 
0.1473686118608787 1:20.36 2:19.8999 3:61.1691 
1 1:20.41 2:20.0113 3:59.2027 
0.3580488542942508 1:20.25 2:20.0223 3:44.8518 
0.4482665415630299 1:20.32 2:20.0793 3:52.4639 
0.1289092037981913 1:20.56 2:20.1874 3:59.1155 
1 1:21.36 2:20.4892 3:64.9179 
0.1853599450886455 1:21.31 2:20.6547 3:70.5653 
0.146723501277159 1:21.77 2:20.8114 3:75.1941 
1 1:21.98 2:21.1301 3:67.0704 
0.1447382877866733 1:22.06 2:21.2567 3:71.977 
0.1933188142708255 1:22.17 2:21.4292 3:76.1625 
0.976060275446822 1:22.59 2:21.6159 3:79.7037 
0.3474494345566733 1:23.23 2:22.0545 3:85.2719 
0.1182208404521334 1:23.47 2:22.2406 3:87.413 
0.2234312540544796 1:23.5 2:22.4325 3:89.2362 
1 1:23.95 2:22.8416 3:68.8572 
0.7959313614464838 1:23.43 2:23.0906 3:80.0765 
0.8036643058666028 1:23.57 2:23.1252 3:69.186 
0.6080247564406467 1:23.6 2:23.2232 3:73.4443 
0.7367779020841228 1:23.97 2:23.2961 3:63.3768 
0.611762262617201 1:23.76 2:23.3919 3:59.2606 
0.0742631411833614 1:22.31 2:23.1622 3:51.9186 
0.583462189287601 1:22.65 2:23.0659 3:45.1622 
0.4623983210246148 1:22.19 2:22.9758 3:39.2776 
0.6077380844783041 1:23.2 2:23.023 3:41.1046 
0.6618589086490924 1:24.4 2:23.4656 3:48.5925 
0.01394033364977167 1:24.7 2:23.9078 3:53.3277 
0.1058495535342882 1:23.68 2:23.7991 3:53.5411 
0.513776248632951 1:23.84 2:23.8005 3:59.7393 
0.0464693825259325 1:23.46 2:23.6879 3:50.5649 
0.5509449109275757 1:23.32 2:23.6135 3:43.9602 
0.1323792941132571 1:23.62 2:23.6161 3:63.5257 
1 1:23.25 2:23.5798 3:66.3454 
0.4202638004555315 1:23.6 2:23.5918 3:70.8477 
0.6649673077762223 1:24.6 2:23.9346 3:78.319 
0.5194634548317818 1:24.41 2:24.1065 3:71.3495 
0.622733853577604 1:25.07 2:24.1829 3:60.6986 
0.9186477823791781 1:23.82 2:24.1655 3:38.2473 
0.8209779335873849 1:24.09 2:24.2197 3:54.419 
0.7699386114358892 1:24.93 2:24.5035 3:50.8411 
-1 1:67.11 2:9.23067 3:100 
-1 1:68.69 2:30.0822 3:38.427 
-1 1:68.48 2:39.7722 3:45.905 
-1 1:68.66 2:49.9468 3:42.1401 
-1 1:68.53 2:54.673 3:46.1131 
-1 1:64.1 2:59.0163 3:38.5359 
-1 1:63.06 2:61.1928 3:53.1193 
-1 1:60.12 2:60.9665 3:44.5264 
-0.7840734774465887 1:60.01 2:60.9883 3:51.9673 
-0.9693361268150144 1:60.26 2:61.0012 3:52.5389 
-1 1:59.4 2:60.5967 3:43.0037 
-1 1:57.94 2:59.8382 3:41.5115 
-1 1:59.05 2:59.6125 3:37.2321 
-1 1:61.24 2:60.1041 3:46.0506 
-1 1:63.63 2:61.5306 3:49.5931 
-1 1:63.51 2:61.9052 3:56.58 
-1 1:61 2:61.9786 3:45.3246 
-1 1:60.21 2:61.7182 3:49.0327 
-1 1:59.95 2:60.6916 3:48.9466 
-1 1:54.3 2:58.5913 3:50.8732 
-0.3102172028551611 1:55.12 2:57.8558 3:51.672 
-0.7622679638394556 1:55.15 2:57.2447 3:52.2528 
-1 1:56.4 2:57.1404 3:52.8089 
-1 1:57.44 2:57.0082 3:47.8345 
-1 1:51.47 2:54.742 3:43.6627 
-1 1:49.18 2:52.1945 3:46.1724 
-1 1:51.27 2:52.5645 3:53.6779 
-1 1:50.45 2:52.2462 3:48.6018 
-1 1:54.4 2:52.5973 3:55.7523 
-1 1:54.71 2:53.2651 3:55.304 
-1 1:56.21 2:53.6338 3:61.5298 
-0.2327914016691258 1:51.87 2:53.5121 3:53.5223 
-1 1:53.7 2:53.6865 3:59.8502 
-1 1:50.43 2:52.0362 3:51.599 
-1 1:51.65 2:52.1206 3:68.5437 
-1 1:52.58 2:52.6284 3:65.0581 
-1 1:53.15 2:53.1619 3:62.2326 
-0.800883763219302 1:52.09 2:53.7679 3:54.0888 
-0.8868102443192303 1:51.05 2:53.7217 3:54.0963 
-0.910240832143405 1:53.31 2:53.3836 3:54.3732 
-1 1:52.52 2:52.5516 3:44.1725 
-1 1:41.75 2:49.7331 3:35.2161 
-1 1:43.74 2:48.351 3:39.7131 
-1 1:46.85 2:48.3375 3:47.7368 
-1 1:44.9 2:46.8192 3:33.8907 
-1 1:47 2:46.8553 3:42.7494 
-1 1:47.11 2:47.1293 3:50.6712 
-1 1:47.25 2:47.6856 3:52.3325 
-1 1:49.43 2:48.2351 3:64.6042 
-1 1:50.04 2:48.7371 3:69.6396 
-1 1:51.56 2:49.4756 3:65.6154 
-1 1:52.85 2:49.9762 3:70.4985 
-1 1:48.89 2:50.4274 3:47.5352 
-1 1:47.45 2:49.6031 3:44.4167 
-1 1:47.75 2:48.9386 3:46.8435 
-1 1:47.25 2:48.9068 3:53.9011 
-1 1:48.54 2:49.0245 3:60.1436 
-1 1:46.4 2:47.2727 3:56.7978 
-1 1:44.32 2:46.4298 3:45.9012 
-1 1:43.81 2:45.5707 3:39.2725 
-1 1:44 2:45.4378 3:49.1657 
-1 1:47.36 2:45.8954 3:56.3829 
-1 1:48.25 2:46.348 3:62.5676 
-1 1:51.26 2:47.1403 3:68.1038 
-1 1:52.6 2:48.6885 3:69.5281 
-1 1:51.43 2:50.0173 3:58.2396 
-0.9565568764782839 1:51.25 2:50.5124 3:57.2211 
-1 1:52.15 2:50.8862 3:56.3072 
-1 1:52.2 2:51.1827 3:62.3522 
-1 1:56.75 2:52.2774 3:64.2906 
-1 1:56.99 2:53.4198 3:73.7519 
-0.02800652347116331 1:54.1 2:54.0091 3:54.6114 
-1 1:54.24 2:54.1893 3:60.794 
-1 1:55.99 2:54.5627 3:66.254 
-1 1:55.01 2:55.1849 3:50.637 
-1 1:56.98 2:55.5389 3:57.4914 
-1 1:57.45 2:55.8964 3:63.3948 
-1 1:57.6 2:56.5372 3:64.8118 
-1 1:53.56 2:55.7745 3:49.6265 
-1 1:53 2:54.9661 3:50.256 
-1 1:53.05 2:54.2586 3:38.1627 
-1 1:52.3 2:53.5343 3:29.7699 
-1 1:54.02 2:53.7286 3:47.4402 
-1 1:54.92 2:54.0048 3:54.6811 
-1 1:54.72 2:54.2726 3:54.5799 
-0.9501111984720578 1:56.52 2:54.7453 3:66.179 
-1 1:51.95 2:53.6272 3:43.8117 
-1 1:48.73 2:51.8019 3:38.4345 
-1 1:47.93 2:50.5112 3:38.4771 
-1 1:46.86 2:49.3691 3:38.4335 
-1 1:46.8 2:48.7816 3:42.1658 
-1 1:47.25 2:48.0726 3:54.0614 
-1 1:22.81 2:25.5868 3:43.4411 
-1 1:23.72 2:25.4646 3:50.8499 
-1 1:24.52 2:25.4568 3:63.2005 
-1 1:25.89 2:25.5345 3:68.2497 
-1 1:25.1 2:25.2398 3:52.5089 
-1 1:24.77 2:24.9972 3:63.6861 
-1 1:25.65 2:25.5286 3:60.8205 
-1 1:25.86 2:25.6791 3:59.1072 
-1 1:25.9 2:25.8081 3:51.9025 
-1 1:23.94 2:24.4987 3:54.115 
-1 1:24.8 2:24.7173 3:62.818 
-1 1:25.98 2:25.0413 3:72.4335 
-1 1:25.59 2:25.5867 3:61.1805 
-1 1:27.02 2:26.0662 3:63.5114 
-1 1:26.95 2:26.6119 3:57.7254 
-1 1:25.85 2:25.9354 3:60.3889 
-1 1:26.7 2:26.4166 3:65.8711 
-1 1:27.42 2:26.6677 3:70.7005 
-1 1:27.48 2:27.6369 3:64.0292 
-1 1:28.49 2:28.1743 3:68.4044 
-1 1:28.03 2:28.4679 3:52.5154 
-1 1:29.16 2:28.5532 3:52.9063 
-1 1:29.2 2:28.8013 3:42.6733 
-1 1:28.95 2:28.9323 3:51.2967 
-1 1:27.09 2:28.2572 3:58.9686 
-1 1:25.72 2:25.7482 3:67.6696 
-1 1:26.12 2:25.8406 3:64.1084 
-1 1:26.83 2:26.3465 3:85.2724 
-1 1:27.73 2:27.2615 3:66.2166 
-1 1:27.98 2:27.6782 3:53.1733 
-1 1:27.03 2:27.5219 3:36.7793 
-1 1:26.87 2:27.3831 3:40.9221 
-1 1:24.6 2:25.0942 3:38.5192 
-1 1:24.95 2:25.0978 3:40.9271 
-1 1:27.4 2:25.7486 3:60.351 
-1 1:25.82 2:26.0901 3:49.9823 
-1 1:25.71 2:25.9073 3:54.7575 
-1 1:26.02 2:26.0632 3:68.3607 
-1 1:26.99 2:26.4859 3:76.1464 
-1 1:27.77 2:26.9664 3:74.5972 
-1 1:27.4 2:27.9731 3:63.4828 
-1 1:28 2:27.9583 3:60.8711 
-1 1:29.07 2:28.2014 3:70.9223 
-1 1:27.01 2:27.6219 3:47.9051 
-1 1:27.82 2:27.4961 3:67.8393 
-1 1:28.2 2:27.8928 3:58.0989 
-1 1:28.07 2:27.9859 3:58.4939 
-1 1:27.86 2:28.0416 3:52.7929 
-1 1:28.16 2:28.0353 3:47.6097 
-1 1:28.38 2:28.2346 3:66.4155 
-1 1:26.95 2:27.2701 3:55.9892 
-1 1:27 2:27.1329 3:44.147 
-1 1:26.87 2:27.0977 3:46.4929 
-1 1:25.76 2:26.2184 3:45.3983 
-1 1:25.93 2:26.1454 3:49.0101 
-1 1:23.99 2:24.693 3:28.4375 
-1 1:24.04 2:24.4474 3:38.118 
-1 1:24.66 2:24.5008 3:66.5742 
-1 1:24.92 2:24.7082 3:68.3207 
-1 1:24.48 2:24.7354 3:47.3145 
-1 1:24.88 2:24.8404 3:51.1895 
-1 1:24.84 2:25.0159 3:50.3919 
-1 1:25.83 2:25.6317 3:60.4417 
-1 1:24.64 2:24.9857 3:49.5371 
-1 1:25.79 2:25.4821 3:60.1752 
-1 1:25.9 2:25.8556 3:69.408 
-1 1:26.76 2:26.0415 3:73.6819 
-1 1:26.98 2:26.7484 3:68.6937 
-1 1:26.9 2:26.8601 3:48.4203 
-1 1:26.81 2:26.9114 3:49.7513 
-1 1:24.56 2:24.8544 3:50.8915 
-1 1:24.89 2:24.8721 3:46.5266 
-1 1:25.1 2:24.9948 3:49.8141 
-1 1:25.93 2:25.3723 3:67.8672 
-1 1:26.72 2:25.8464 3:69.224 
-1 1:26.94 2:26.2614 3:68.4187 
-1 1:28.12 2:27.1054 3:87.0428 
-1 1:27.82 2:27.6454 3:65.2805 
-1 1:26.65 2:26.8396 3:44.6578 
-1 1:26.87 2:26.96 3:47.5586 
-1 1:27.23 2:26.8207 3:55.3522 
-1 1:27.82 2:26.9779 3:61.5335 
-1 1:26.75 2:26.8179 3:39.5407 
-1 1:26.98 2:26.8668 3:43.1143 
-1 1:26.9 2:26.9129 3:37.6882 
-1 1:26.71 2:27.2073 3:48.0914 
-1 1:26.95 2:27.1271 3:49.6277 
-1 1:26.94 2:27.2093 3:49.946 
-1 1:22.99 2:23.3859 3:42.4506 
-1 1:22.01 2:22.2808 3:41.4116 
-1 1:22.61 2:22.4309 3:67.1906 
-1 1:22.96 2:22.6564 3:67.902 
-1 1:22.82 2:22.8921 3:66.2442 
-1 1:24.08 2:23.0176 3:63.3124 
-1 1:24.01 2:23.1486 3:68.3842 
-1 1:24.08 2:23.5941 3:70.8096 
-1 1:24.12 2:23.7806 3:59.3572 
-1 1:25.05 2:24.5571 3:77.4786 
-1 1:25.66 2:24.7655 3:80.9971 
-1 1:25.99 2:25.7622 3:74.6396 
-1 1:27.01 2:26.2755 3:75.8026 
-1 1:26.91 2:26.5694 3:67.4976 
-1 1:27.58 2:27.529 3:42.8548 
-1 1:29.11 2:28.711 3:74.1305 
-1 1:28.82 2:29.2595 3:38.2802 
-1 1:29.54 2:29.4426 3:55.661 
-1 1:29.99 2:29.7018 3:65.2101 
-1 1:29.99 2:29.7955 3:61.7212 
-1 1:29.76 2:29.9325 3:52.2583 
-1 1:30.65 2:30.1028 3:59.2035 
-1 1:30.78 2:30.6495 3:55.2076 
-1 1:29.04 2:29.6837 3:26.9403 
-1 1:28.75 2:29.4053 3:54.1849 
-1 1:28.96 2:29.3007 3:58.6757 
-1 1:27.95 2:28.9846 3:57.5104 
-1 1:26.82 2:27.7747 3:43.0545 
-1 1:27.9 2:27.8113 3:64.8166 
-1 1:28.01 2:27.9327 3:61.6421 
-1 1:28.98 2:28.5217 3:73.1227 
-1 1:29.09 2:28.7022 3:76.229 
-1 1:30.17 2:28.8912 3:79.5333 
-1 1:29.94 2:29.2136 3:72.954 
-1 1:31 2:30.5086 3:71.1396 
-1 1:30.73 2:30.6652 3:59.5735 
-1 1:30.55 2:30.6726 3:60.3135 
-1 1:29.58 2:30.4208 3:43.1007 
-1 1:29.97 2:30.3106 3:41.5272 
-1 1:29.79 2:29.9128 3:56.8811 
-1 1:29.56 2:29.8322 3:48.841 
-1 1:29.76 2:29.8571 3:50.087 
-1 1:31.05 2:30.2928 3:68.182 
-1 1:28.95 2:29.9552 3:46.9217 
-1 1:29.05 2:29.7412 3:53.9621 
-1 1:29.72 2:29.7536 3:65.4528 
-1 1:28.09 2:28.856 3:37.8224 
-1 1:28.13 2:28.516 3:53.0913 
-1 1:29.12 2:28.727 3:68.5136 
-1 1:28.81 2:28.7626 3:57.2045 
-1 1:30.03 2:29.5429 3:59.8608 
-1 1:30.03 2:29.7377 3:62.6453 
-1 1:30.75 2:30.0142 3:66.0627 
-1 1:30.85 2:30.4307 3:75.2604 
-1 1:36.01 2:31.2241 3:82.0146 
-1 1:34.37 2:32.1902 3:74.384 
-1 1:35.52 2:32.8062 3:78.2606 
-1 1:36.53 2:33.3734 3:81.511 
-1 1:33.54 2:34.403 3:40.5379 
-1 1:33.86 2:34.2396 3:39.7614 
-1 1:34.23 2:34.2527 3:43.4146 
-1 1:33.27 2:33.9292 3:37.6282 
-1 1:33.14 2:33.6546 3:44.8463 
-1 1:34.48 2:34.2223 3:59.488 
-1 1:35.29 2:34.6092 3:71.8052 
-1 1:35.9 2:34.8026 3:75.7049 
-1 1:36.1 2:35.4484 3:74.817 
-1 1:33.36 2:34.8941 3:58.6273 
-1 1:34.46 2:34.6567 3:51.6553 
-1 1:32.35 2:33.4946 3:32.8636 
-1 1:27.74 2:28.7016 3:45.4273 
-1 1:27.02 2:28.105 3:35.7719 
-1 1:27.75 2:28.107 3:44.3396 
-1 1:27.83 2:28.0182 3:53.7978 
-1 1:28.4 2:28.1865 3:60.1971 
-1 1:27.3 2:28.2574 3:47.2295 
-1 1:28.67 2:28.4124 3:54.5151 
-1 1:28.74 2:28.5387 3:54.3986 
-1 1:27.88 2:28.4842 3:36.3802 
-1 1:28.83 2:28.6196 3:45.1238 
-1 1:28.83 2:28.8722 3:53.7409 
-1 1:29.12 2:28.7502 3:61.7607 
-1 1:30.01 2:28.9168 3:67.254 
-1 1:30.45 2:29.5592 3:67.3228 
-1 1:28.5 2:29.4429 3:48.81 
-1 1:29.98 2:29.676 3:64.502 
-1 1:27.72 2:28.3271 3:56.3147 
-1 1:27.4 2:28.0157 3:59.8363 
-1 1:28.63 2:28.1562 3:65.366 
-1 1:27.81 2:28.2728 3:41.785 
-1 1:26.11 2:27.2186 3:39.7207 
-1 1:24.93 2:26.2476 3:39.1539 
-1 1:26.13 2:26.3826 3:47.5366 
-1 1:25.86 2:26.2874 3:55.9489 
-1 1:25.64 2:26.1725 3:55.5353 
-1 1:25.52 2:26.0865 3:55.1961 
-1 1:25.64 2:25.924 3:48.2485 
-1 1:26.73 2:26.0701 3:55.4001 
-1 1:27.35 2:26.4973 3:67.0406 
-1 1:27.78 2:26.8757 3:63.5965 
-1 1:26.21 2:26.8794 3:32.4453 
-1 1:26.1 2:26.812 3:46.2917 
-1 1:24.8 2:26.3251 3:43.7271 
-1 1:25.82 2:26.0366 3:64.9596 
-1 1:26.17 2:26.2184 3:69.8517 
-1 1:25.77 2:26.1416 3:66.2281 
-1 1:22.86 2:24.5936 3:39.2786 
-1 1:22.94 2:24.2669 3:39.2042 
-1 1:24.2 2:24.2884 3:42.9917 
-1 1:21.55 2:23.6142 3:41.3874 
-1 1:21.64 2:23.0987 3:40.877 
-1 1:23.13 2:22.9758 3:45.1253 
-1 1:21.32 2:22.4471 3:42.8374 
-1 1:20.15 2:21.8149 3:37.8558 
-1 1:18.02 2:20.1895 3:38.7645 
-1 1:19.89 2:20.2563 3:47.1041 
-1 1:19.73 2:20.2567 3:48.8667 
-1 1:18.99 2:19.9151 3:45.1769 
-1 1:20.35 2:19.9714 3:59.5748 
-1 1:19.21 2:19.8648 3:46.6828 
-1 1:19.01 2:19.3893 3:40.4213 
-1 1:19.53 2:19.5206 3:55.5507 
-1 1:19.63 2:19.8102 3:63.9092 
-1 1:18.87 2:19.4526 3:59.3732 
-1 1:17.8 2:18.5029 3:72.1601 
-1 1:17.85 2:18.205 3:66.2434 
-1 1:18.51 2:18.3654 3:74.8665 
-1 1:18.94 2:18.7482 3:64.1382 
-1 1:17.77 2:18.4906 3:57.1416 
-1 1:16.12 2:17.0064 3:43.2032 
-1 1:15.37 2:16.3981 3:48.01 
-1 1:16.63 2:16.493 3:55.2013 
-1 1:17.37 2:16.6984 3:58.6622 
-0.9492479720414841 1:17.37 2:16.9577 3:57.8003 
-1 1:18.17 2:17.4113 3:51.0654 
-1 1:17.83 2:17.6191 3:46.7514 
-1 1:18.23 2:17.8445 3:54.4343 
-1 1:18.97 2:18.4087 3:56.5661 
-1 1:19.16 2:18.9292 3:48.1617 
-1 1:19.82 2:19.1745 3:54.8331 
-1 1:20.11 2:19.5279 3:48.7841 
-1 1:19.83 2:19.7263 3:47.0007 
-1 1:19.54 2:20.0058 3:51.9485 
-1 1:21 2:20.3491 3:64.9179 
-1 1:21.96 2:20.9885 3:79.0495 
-1 1:22.9 2:21.8445 3:82.729 
-1 1:24.04 2:22.7742 3:79.9175 
-1 1:24.05 2:23.3953 3:68.4272 
-1 1:22.42 2:23.0097 3:47.4713 
-1 1:23.75 2:23.1693 3:49.2943 
-1 1:24.93 2:24.1281 3:59.9248 
-1 1:23.93 2:23.7009 3:74.8511 
-1 1:23.91 2:24.1581 3:46.8967 
-1 1:24.8 2:24.4486 3:59.0223 
