svm_type epsilon_svr
kernel_type rbf
gamma 1
nr_class 2
total_sv 388
rho -29.2894
SV
-1 1:22.11 
-1 1:2.91733 
-1 1:5.44969 
-1 1:7.76973 
1 1:9.9031 
1 1:11.5134 
1 1:12.8529 
1 1:14.0205 
1 1:15.2844 
1 1:16.3079 
1 1:17.3001 
1 1:18.1375 
1 1:18.8031 
0.6292567445551658 1:19.5014 
1 1:20.2572 
1 1:20.8869 
1 1:21.238 
1 1:21.5356 
1 1:21.6002 
1 1:21.9281 
1 1:22.2997 
1 1:22.6478 
-1 1:22.7801 
0.1552326976987621 1:23.0387 
1 1:23.2802 
-1 1:23.3549 
-1 1:23.1729 
-1 1:22.7632 
-1 1:22.3281 
-1 1:21.859 
-1 1:21.5431 
-1 1:21.4467 
-0.3922358232599123 1:21.3912 
-1 1:21.219 
-1 1:21.1738 
-1 1:21.092 
-1 1:21.0504 
-1 1:21.0436 
1 1:21.2782 
1 1:21.4184 
1 1:21.7533 
1 1:22.0342 
-0.6530648682943635 1:22.1016 
-1 1:22.0881 
-1 1:22.051 
-1 1:22.0095 
-1 1:21.9083 
-1 1:21.7018 
-1 1:21.5736 
-1 1:21.4358 
-1 1:21.3265 
-1 1:21.1617 
1 1:21.4001 
1 1:21.5761 
1 1:21.6299 
1 1:21.7486 
1 1:21.9581 
1 1:22.157 
-1 1:22.2561 
1 1:22.5233 
1 1:23.0242 
1 1:23.405 
1 1:23.6443 
1 1:23.8957 
1 1:24.1563 
-1 1:24.0648 
-1 1:24.0268 
-1 1:23.9206 
-1 1:23.8645 
-1 1:23.8066 
1 1:23.9217 
-1 1:23.994 
-1 1:23.9975 
1 1:24.4176 
1 1:24.742 
0.9456629950983228 1:24.995 
1 1:25.474 
-1 1:25.5682 
1 1:26.2191 
1 1:26.5646 
1 1:26.9106 
1 1:27.2146 
1 1:27.5286 
1 1:27.8875 
1 1:28.1945 
1 1:28.4432 
1 1:28.6881 
1 1:29.0764 
1 1:29.5368 
1 1:29.8746 
-0.2451082177794124 1:29.9593 
1 1:30.2541 
1 1:30.4655 
1 1:30.6341 
1 1:30.8282 
1 1:30.9765 
1 1:31.2343 
1 1:31.483 
1 1:31.8933 
1 1:32.4249 
1 1:32.9829 
1 1:33.5518 
1 1:33.9716 
1 1:34.478 
1 1:34.8676 
1 1:35.288 
1 1:35.5962 
1 1:35.7554 
1 1:35.8973 
1 1:36.351 
1 1:36.7229 
1 1:36.8718 
1 1:37.1796 
1 1:37.4116 
1 1:37.5101 
1 1:37.5807 
1 1:37.7393 
1 1:38.1207 
1 1:38.5526 
1 1:39.0963 
1 1:39.7101 
1 1:40.1754 
1 1:40.8907 
1 1:41.5266 
1 1:42.1457 
1 1:42.801 
1 1:43.3595 
1 1:43.4022 
1 1:43.3739 
1 1:43.5961 
1 1:43.4593 
1 1:43.5794 
1 1:43.7501 
1 1:44.0568 
1 1:44.1879 
1 1:44.5922 
1 1:44.9652 
1 1:45.5658 
1 1:46.1757 
1 1:47.0696 
1 1:48.0617 
1 1:49.0268 
1 1:49.8512 
1 1:50.7511 
1 1:51.7949 
1 1:52.6303 
1 1:53.3702 
1 1:54.3369 
1 1:55.4066 
1 1:55.9751 
1 1:56.0064 
1 1:55.9629 
1 1:55.6612 
1 1:54.9943 
1 1:54.3524 
1 1:53.7628 
1 1:53.4171 
1 1:53.5535 
1 1:53.5463 
1 1:53.4095 
1 1:53.2016 
1 1:52.9427 
0.1575955814521386 1:52.3663 
1 1:51.6961 
1 1:50.878 
1 1:50.6969 
1 1:50.9267 
1 1:51.3364 
1 1:51.8236 
1 1:52.3311 
1 1:52.7483 
1 1:53.0179 
1 1:53.2221 
1 1:53.1179 
1 1:52.8421 
1 1:52.7005 
1 1:52.7005 
1 1:52.5164 
1 1:52.5209 
1 1:52.2568 
1 1:52.2265 
1 1:52.0763 
1 1:51.7221 
1 1:51.2659 
1 1:50.8824 
1 1:50.3621 
1 1:50.1191 
1 1:50.1166 
1 1:50.2397 
1 1:50.5918 
1 1:51.1809 
-1 1:48.0647 
-1 1:45.7041 
-1 1:43.6302 
-1 1:41.9435 
-0.1275258604627361 1:40.5777 
-0.2302564818374577 1:39.4247 
-1 1:38.3161 
-1 1:37.3659 
-1 1:36.4585 
-1 1:35.5987 
-1 1:35.0682 
-1 1:34.5644 
-1 1:33.9972 
-1 1:33.7242 
1 1:33.745 
1 1:33.979 
1 1:34.1671 
1 1:34.4008 
1 1:34.5581 
1 1:34.669 
1 1:34.9278 
1 1:35.1534 
1 1:35.4836 
1 1:35.8005 
1 1:36.1324 
1 1:36.4748 
1 1:36.5808 
1 1:36.9874 
-1 1:36.809 
-1 1:36.5698 
-1 1:36.4925 
-1 1:36.4122 
1 1:36.4385 
1 1:36.4467 
1 1:36.6218 
-1 1:36.5443 
-1 1:36.1597 
-1 1:35.8437 
-1 1:35.6019 
-1 1:34.9363 
-1 1:34.2648 
-1 1:33.8455 
-1 1:33.3261 
0.7287227817473949 1:33.1173 
-1 1:32.8603 
1 1:32.9923 
1 1:33.128 
1 1:33.2509 
1 1:33.9388 
1 1:34.4709 
1 1:34.8668 
1 1:35.2872 
1 1:35.4449 
1 1:35.7576 
1 1:35.9793 
1 1:36.0234 
-1 1:35.9136 
1 1:35.9811 
1 1:36.0396 
-0.1745025446172139 1:36.0117 
-1 1:35.9328 
-1 1:35.8271 
1 1:35.8368 
-1 1:35.7972 
-1 1:35.5416 
-1 1:35.3721 
-1 1:35.0504 
-1 1:34.7784 
-1 1:34.5079 
-1 1:33.8909 
-1 1:33.4134 
-1 1:33.0356 
-0.7666666204378723 1:32.6255 
-1 1:32.2352 
1 1:32.1585 
1 1:32.0707 
-1 1:31.8879 
-1 1:31.5842 
-1 1:31.233 
-1 1:30.8832 
-1 1:30.6495 
-1 1:30.2522 
-1 1:29.9213 
-1 1:29.3371 
-1 1:28.9241 
-1 1:28.6076 
-1 1:28.2692 
-1 1:28.1933 
-1 1:28.0249 
-1 1:27.7962 
1 1:27.8287 
-1 1:27.6782 
0.1149080762751625 1:27.6665 
-1 1:27.5855 
1 1:27.5928 
1 1:27.5764 
-1 1:27.3929 
-1 1:27.3192 
-1 1:27.1886 
-1 1:27.0435 
-1 1:26.927 
-1 1:26.7407 
-1 1:26.1846 
-1 1:25.7827 
-1 1:25.421 
-1 1:25.1502 
-1 1:24.8128 
-1 1:24.3378 
-1 1:23.9007 
-1 1:23.398 
-1 1:22.6929 
-1 1:22.3059 
-1 1:21.8197 
-1 1:21.5318 
-1 1:21.2235 
-1 1:20.8284 
-1 1:20.49 
-1 1:20.1913 
-1 1:19.8965 
-1 1:19.5236 
-1 1:19.2391 
-1 1:19.0112 
-1 1:18.7497 
-1 1:18.7164 
-1 1:18.5222 
-1 1:18.4899 
-1 1:18.1393 
-1 1:17.9154 
-1 1:17.6413 
-1 1:17.5625 
-1 1:17.4808 
-0.6503006666987411 1:17.5754 
-1 1:17.588 
-1 1:17.6656 
-1 1:17.6075 
-1 1:17.4398 
-1 1:17.1892 
-1 1:16.772 
-1 1:16.4477 
-1 1:16.1773 
-1 1:15.943 
-1 1:15.8333 
-1 1:15.9475 
-1 1:15.9599 
-1 1:15.9065 
-1 1:15.8097 
-1 1:15.7457 
-1 1:15.7983 
-1 1:15.6865 
-1 1:15.4163 
-1 1:14.8381 
-1 1:14.2531 
-1 1:13.6433 
-1 1:13.5749 
-1 1:13.1716 
-1 1:12.5633 
-1 1:11.9322 
-1 1:11.5319 
-1 1:11.2103 
-1 1:10.961 
-1 1:10.8168 
-1 1:10.6213 
-1 1:10.5171 
-1 1:10.4175 
-1 1:10.2898 
-1 1:10.1285 
-1 1:10.0367 
-1 1:10.1038 
-1 1:10.1073 
-1 1:10.037 
-1 1:9.91873 
-1 1:9.7109 
-1 1:9.82411 
-1 1:10.0022 
-1 1:10.2379 
-1 1:10.4315 
-0.7449235617943231 1:10.6407 
-1 1:10.8299 
-1 1:11.1873 
-1 1:11.5356 
-1 1:11.8189 
-1 1:11.9684 
-1 1:12.1059 
-1 1:12.4105 
-1 1:12.7677 
-1 1:13.0054 
-1 1:13.17 
-1 1:13.3513 
-1 1:13.3565 
-1 1:13.3689 
-1 1:13.5118 
-1 1:14.0062 
-1 1:14.4987 
-1 1:15.1029 
0.6476352740116677 1:15.6385 
1 1:16.1814 
-0.394429505656582 1:16.6012 
