svm_type c_svc
kernel_type rbf
gamma 0.333333
nr_class 2
total_sv 1309
rho -0.810881
label 1 -1
nr_sv 931 378
SV
0.1674215724570419 1:10.42 2:7.51196 3:46.7343 
0.1318697533303135 1:10.43 2:11.1803 3:47.0851 
0.1707268996454478 1:10.44 2:13.9115 3:47.0876 
0.1994077313825723 1:10.45 2:14.9766 3:58.142 
0.1923872403418257 1:10.45 2:15.9011 3:66.2754 
0.2026522035556798 1:10.14 2:16.6143 3:54.4379 
0.5898260268955037 1:10.45 2:17.9439 3:51.9552 
0.2125922926525325 1:10.2 2:18.402 3:43.6871 
0.04175558443762843 1:10.9 2:19.967 3:51.0748 
0.626103371986804 1:10.91 2:20.3554 3:58.508 
0.3978081514203322 1:10.65 2:20.6174 3:49.9636 
0.8859542968724617 1:10.86 2:20.903 3:57.3005 
1 1:10.63 2:21.4193 3:54.8074 
1 1:10.67 2:21.546 3:61.1029 
0.9573516276345698 1:10.33 2:21.5883 3:45.7332 
0.07424381991635058 1:10.37 2:21.6981 3:41.5747 
0.06558112192680504 1:10.29 2:21.6797 3:36.0511 
0.3390768959685554 1:10.18 2:21.6357 3:31.2996 
0.9448972427421575 1:10.31 2:21.5698 3:43.8521 
0.7902187240840233 1:10.7 2:21.8295 3:63.8991 
1 1:11.2 2:22.5769 3:66.4475 
1 1:11.03 2:22.7144 3:49.6024 
0.2256461913244541 1:10.95 2:22.7471 3:42.9251 
0.4834046765349856 1:11.33 2:22.9616 3:54.9868 
0.8470284221487365 1:11.33 2:23.0654 3:47.44 
0.1514933981703692 1:11.07 2:23.3475 3:40.8884 
0.5747926263566566 1:11.2 2:23.3803 3:42.2785 
0.02759366194325195 1:11.03 2:23.3469 3:36.6935 
0.4889008339893765 1:11.12 2:23.3407 3:45.1199 
0.1823080279374649 1:11.9 2:23.8062 3:70.8243 
0.8051230267948544 1:11.89 2:24.0996 3:64.5653 
1 1:11.98 2:24.358 3:59.922 
1 1:12.23 2:24.6457 3:70.2484 
0.5080946746108812 1:12.12 2:24.7463 3:60.6345 
1 1:11.91 2:24.8018 3:45.4413 
0.6771983670653681 1:11.01 2:24.5425 3:49.4291 
0.7581373580229797 1:10.88 2:23.7261 3:50.6197 
0.1614906121822631 1:10.85 2:23.5959 3:44.1123 
0.1015805578799212 1:11.39 2:23.2944 3:56.8789 
0.5383625220837875 1:10.7 2:23.1519 3:41.6443 
1 1:11.29 2:23.2999 3:51.2369 
1 1:11.92 2:23.6302 3:64.1564 
1 1:11.88 2:23.884 3:61.5418 
1 1:11.75 2:23.9835 3:53.0002 
1 1:11.66 2:24.1066 3:47.7644 
0.314137687545778 1:11.79 2:24.2904 3:47.4921 
0.9495420961725541 1:11.81 2:24.3517 3:54.6303 
1 1:11.91 2:24.465 3:48.9947 
0.6452306062674069 1:10.82 2:23.8998 3:28.3928 
0.04314771984643111 1:10.74 2:23.7145 3:24.7969 
0.1493647913702701 1:10.68 2:23.5379 3:21.6501 
0.1715532867225416 1:10.49 2:23.3315 3:18.928 
0.0007216966410770742 1:10.12 2:22.9158 3:25.6571 
0.2806479424205543 1:10 2:22.4798 3:30.647 
0.05060655748930046 1:9.36 2:21.8235 3:23.71 
0.0835217117214363 1:9 2:21.4297 3:20.9257 
0.5373640724790366 1:9.55 2:21.2 3:27.379 
0.3255356372248698 1:9.41 2:20.7296 3:29.549 
0.1403701316319343 1:9.36 2:20.583 3:25.7912 
0.1246885005439526 1:8.99 2:20.3506 3:22.6074 
0.1244391511998058 1:8.97 2:20.1452 3:19.7927 
0.1717699987716577 1:8.89 2:19.9431 3:17.3273 
0.2149765933622725 1:9.2 2:19.7561 3:37.3167 
0.09061403783046519 1:9.25 2:19.7073 3:45.5403 
0.2220886042228189 1:9.3 2:19.6783 3:52.7323 
0.4984017283956826 1:9.41 2:19.6839 3:59.0464 
0.1223797029914763 1:9.93 2:20.035 3:55.2392 
1 1:10.04 2:20.3754 3:53.1666 
0.2647657467254269 1:9.96 2:20.4414 3:45.929 
1 1:10.01 2:20.6515 3:39.8407 
0.01555649289292137 1:9.59 2:20.4466 3:34.2595 
0.06817445803251609 1:9.53 2:20.3844 3:29.7822 
1 1:9.65 2:20.4003 3:34.0776 
0.3108003656613387 1:9.77 2:20.579 3:49.8561 
1 1:9.81 2:20.5357 3:57.4479 
0.8780159067133103 1:9.7 2:20.4604 3:56.5634 
1 1:9.72 2:20.4483 3:62.3327 
0.6039978311023202 1:9.91 2:20.4926 3:67.4255 
0.7917268907582046 1:9.68 2:20.4655 3:58.5125 
1 1:10.02 2:20.5987 3:54.7335 
0.7214771046798012 1:10.12 2:20.8478 3:60.618 
0.01135188664482238 1:10.07 2:20.8828 3:52.4477 
0.7509063551405476 1:10.27 2:21.0681 3:50.9715 
1 1:10.81 2:21.4087 3:63.76 
1 1:11.17 2:22.0902 3:63.0069 
0.7303851913987565 1:10.36 2:22.0408 3:54.7283 
0.9634796431447894 1:10.78 2:22.2666 3:57.3015 
0.07982592388241873 1:11.06 2:22.6744 3:52.7919 
1 1:11.21 2:22.7844 3:59.284 
1 1:11.37 2:23.0402 3:69.7572 
0.7245737083052704 1:11.38 2:23.1495 3:73.9134 
0.4688440105123145 1:10.91 2:23.1109 3:64.1653 
1 1:11.05 2:23.1453 3:59.7765 
0.05936728195055298 1:10.42 2:22.7339 3:47.1433 
0.3251801093738149 1:10.5 2:22.5268 3:52.2544 
1 1:10.45 2:22.2089 3:47.6505 
0.653097159411598 1:10.37 2:22.0476 3:48.2068 
0.005920030787870033 1:10.29 2:21.9853 3:41.8977 
0.1880041663115185 1:10.01 2:21.8512 3:36.5341 
0.03079308033547238 1:9.89 2:21.0222 3:34.8995 
0.8569132872928592 1:9.8 2:20.8911 3:40.0094 
1 1:10.13 2:20.9981 3:43.8477 
0.4661175240568705 1:9.92 2:20.9704 3:38.0517 
0.4992426264486962 1:9.97 2:20.94 3:53.4024 
0.6304101280438262 1:9.67 2:20.8171 3:40.3478 
0.5266068441007402 1:9.71 2:20.7548 3:48.1463 
0.1711406079424197 1:9.66 2:20.6875 3:41.8625 
0.4943009300287901 1:9.45 2:20.5001 3:31.7308 
0.09781739836907155 1:10.79 2:20.9787 3:38.4298 
0.3932944466326512 1:10.82 2:21.2069 3:47.2133 
0.1125821687351311 1:10.89 2:21.4233 3:54.7136 
0.04094360920710263 1:10.73 2:21.5655 3:47.1058 
0.4667510446447667 1:10.79 2:21.8395 3:46.9592 
0.9028995518064817 1:10.59 2:21.9453 3:35.1016 
0.3321016201066193 1:10.54 2:21.9659 3:30.3929 
0.08337864778392178 1:10.47 2:22.0129 3:23.5623 
0.308627302556946 1:10.89 2:22.2763 3:37.1655 
0.4299018512861065 1:10.78 2:22.3181 3:32.1497 
0.04713085084569088 1:10.74 2:22.4595 3:35.9943 
0.1853112178543392 1:10.89 2:22.5075 3:44.6469 
1 1:11.16 2:22.9031 3:60.4766 
0.6558299201007717 1:11.15 2:22.9667 3:52.2679 
0.533831024102626 1:10.7 2:22.8311 3:34.2266 
0.08543939457464117 1:11.57 2:23.1304 3:57.7381 
0.2239381408423754 1:11.96 2:23.6548 3:54.8292 
0.8754403827940589 1:12.06 2:24.4518 3:52.6859 
0.1954686849452919 1:12.54 2:24.8745 3:65.0657 
1 1:12.54 2:25.0619 3:65.0657 
0.5914461243508825 1:12.29 2:25.2495 3:46.5817 
0.09135077952010313 1:12.08 2:25.2602 3:39.7355 
0.2069221797147875 1:12.02 2:25.4159 3:35.827 
0.1002935764787017 1:12.29 2:25.4751 3:52.6475 
0.1236659367870608 1:12.13 2:25.4678 3:45.3646 
1 1:12.27 2:25.5027 3:52.9638 
0.1940151159033686 1:12.02 2:25.6778 3:50.569 
0.05088243516586165 1:11.73 2:25.467 3:38.1676 
0.1666867304335447 1:11.38 2:23.7046 3:45.4524 
0.09296716609808663 1:11.63 2:23.9331 3:28.7898 
0.04402633079192599 1:11.75 2:24.0273 3:38.5281 
0.07682502602990719 1:11.68 2:24.0877 3:33.3066 
0.1288325521480026 1:11.44 2:24.1523 3:25.0096 
0.1957503982179229 1:11.66 2:24.2622 3:30.4928 
0.1356368440472862 1:11.53 2:24.2381 3:36.2223 
0.781488649570025 1:11.47 2:24.1729 3:35.1541 
0.987563958871045 1:11.49 2:24.1619 3:43.7747 
0.03285658079808666 1:11.66 2:24.2003 3:51.3489 
0.6813955346845381 1:11.71 2:24.2469 3:57.9169 
0.4311300245341375 1:12.72 2:25.0194 3:59.313 
0.4907175596514842 1:13.03 2:25.5874 3:70.8389 
0.04307297629122794 1:12.8 2:26.1413 3:50.2768 
0.2068345934182877 1:12.74 2:26.3854 3:58.5077 
0.3057378348092646 1:12.83 2:26.4527 3:64.214 
0.9959059301618474 1:12.8 2:26.5043 3:55.4338 
0.6787326051625485 1:12.59 2:26.4891 3:47.9895 
0.05711113104045421 1:12.58 2:26.5096 3:41.2544 
0.2375985476278842 1:12.82 2:26.5577 3:49.2279 
0.1143510967501025 1:12.86 2:26.7512 3:42.0168 
0.1329135754143026 1:12.55 2:26.691 3:36.4777 
0.1652569102240241 1:12.47 2:26.6162 3:31.6886 
0.1594168255642432 1:12.46 2:26.55 3:27.5211 
0.5551827394815979 1:12.86 2:26.5688 3:53.0891 
1 1:12.94 2:26.791 3:53.3839 
0.5304830908249258 1:12.94 2:26.8362 3:53.3839 
0.110847472110608 1:12.78 2:26.8314 3:45.3289 
0.2292107467587544 1:13.19 2:27.0297 3:60.3277 
0.1991876057018477 1:13.82 2:27.6221 3:75.358 
0.4384756717483427 1:13.74 2:27.9617 3:67.7414 
0.1475198107396452 1:13.83 2:28.0988 3:72.3011 
0.9381683248809729 1:13.78 2:28.2029 3:62.1958 
0.5914885663826913 1:13.91 2:28.4602 3:65.6286 
0.2766583456864631 1:13.77 2:28.5148 3:56.6533 
0.2659269323489251 1:13.89 2:28.6976 3:54.0997 
0.8439579089548175 1:14.11 2:28.8153 3:60.4348 
0.9021526907778616 1:13.92 2:28.8652 3:52.2271 
0.08214616605627303 1:14.3 2:29.3079 3:39.2844 
0.5855591755653369 1:14.11 2:29.3428 3:33.9876 
0.1842318062550984 1:13.95 2:29.3291 3:29.4561 
0.1856030739995608 1:13.74 2:29.2586 3:25.58 
0.04832573656941807 1:14.04 2:29.2862 3:44.1915 
0.2532675027254018 1:14.33 2:29.4946 3:44.7988 
1 1:14.45 2:29.6007 3:52.3399 
0.101486188638316 1:14.27 2:29.6419 3:45.2904 
1 1:14.5 2:29.8619 3:52.9713 
0.09058052308364641 1:14.34 2:30.0372 3:41.4162 
0.4746732900227333 1:14.4 2:30.0576 3:49.2645 
0.05957398236913835 1:14.31 2:30.0486 3:42.7068 
0.5195141526211342 1:14.27 2:30.0314 3:37.0322 
0.9759981426343709 1:14.44 2:30.0632 3:52.7573 
0.8226370008192234 1:14.32 2:30.0561 3:45.7326 
0.2781791878022935 1:14.84 2:30.3044 3:59.5748 
0.8406886162644305 1:15.07 2:30.6084 3:69.9387 
0.05399373705429593 1:15.13 2:30.7553 3:74.0716 
1 1:15.06 2:30.8639 3:63.9687 
0.196543545491747 1:15.51 2:31.231 3:73.2551 
0.1817176974668612 1:15.52 2:31.4042 3:76.9491 
0.4892089810247797 1:15.3 2:31.4943 3:66.498 
1 1:15.3 2:31.8978 3:59.2283 
0.1255195279115759 1:14.77 2:31.7524 3:44.6905 
0.0808749081429363 1:14.65 2:31.6121 3:38.9036 
0.1286465954083173 1:14.53 2:31.4585 3:33.8811 
0.4912816556635113 1:15.03 2:31.3289 3:56.7812 
1 1:15.35 2:31.5279 3:67.7428 
1 1:15.29 2:31.7017 3:62.4243 
1 1:15.24 2:31.7348 3:54.0446 
0.3139766885324136 1:15.1 2:31.8269 3:50.8661 
0.7512615678651649 1:15.13 2:31.8113 3:57.3964 
1 1:15.14 2:31.8442 3:54.7475 
0.09493104657621472 1:15.31 2:31.9148 3:47.1179 
0.09975174416577631 1:15.27 2:31.9262 3:40.821 
0.02202843472849266 1:15.3 2:31.9467 3:48.7444 
0.08448915206696189 1:15.19 2:31.9338 3:42.2622 
0.6537497652945969 1:15.24 2:31.9346 3:49.9619 
1 1:15.6 2:32.0802 3:62.5864 
0.2227815856316808 1:15.7 2:32.3156 3:58.5244 
1 1:16.13 2:32.6427 3:69.1593 
0.3221445006516945 1:16.07 2:32.781 3:59.6852 
0.03815609120870744 1:15.79 2:32.8927 3:44.6779 
0.085266305694331 1:15.8 2:32.9757 3:45.1639 
0.1391074473408933 1:16.04 2:33.0629 3:52.6007 
0.1823165252137847 1:17.04 2:34.0153 3:77.4732 
0.2643622582522742 1:17.12 2:34.2639 3:80.6184 
0.3812415628028452 1:17.02 2:34.6926 3:71.9094 
0.1886093212789785 1:16.92 2:34.7949 3:62.1382 
1 1:17.4 2:35.5121 3:67.2818 
0.03217547054988321 1:17.58 2:35.6919 3:71.787 
0.03184223995264703 1:17.54 2:35.8343 3:61.9682 
0.72091160852805 1:17.57 2:36.1306 3:58.0768 
0.09780558665723041 1:17.61 2:36.2359 3:63.7721 
0.3033249771394782 1:17.64 2:36.4662 3:59.4394 
0.2730923745695933 1:17.51 2:36.4973 3:51.4701 
0.3316869668631071 1:18.03 2:37.2704 3:56.2085 
1 1:18.58 2:37.678 3:67.4636 
0.0298922257746741 1:17.85 2:37.6423 3:58.5239 
1 1:18.05 2:37.6393 3:57.3623 
1 1:18.04 2:37.6333 3:56.4884 
0.8124410490785001 1:18.09 2:37.6728 3:62.3295 
1 1:17.87 2:37.6846 3:58.4602 
0.7720104435930721 1:17.9 2:37.664 3:63.9792 
1 1:18.05 2:37.6861 3:68.8003 
0.966897103165883 1:17.95 2:37.6786 3:59.6387 
0.4780101482271824 1:17.66 2:37.5817 3:44.9108 
1 1:17.83 2:37.5548 3:52.2219 
0.5512449047769098 1:17.68 2:37.4663 3:39.3171 
0.1551967134425254 1:17.55 2:37.3762 3:34.157 
0.02180348604283261 1:17.56 2:37.279 3:37.2536 
1 1:18.71 2:38.3798 3:58.2491 
0.25218792421841 1:18.67 2:38.4812 3:49.4394 
0.06514129390741943 1:18.7 2:38.577 3:56.9616 
1 1:18.24 2:38.5209 3:41.8302 
0.1431317676519917 1:18.16 2:38.4594 3:35.9689 
0.185471176100793 1:18.05 2:38.3768 3:30.9878 
1 1:18.69 2:38.3269 3:53.8604 
0.873612275032587 1:18.6 2:38.4166 3:45.7096 
0.7760921002542442 1:18.73 2:38.5304 3:53.8277 
0.7333048960379944 1:18.89 2:38.8648 3:60.3406 
0.4351863145779676 1:18.81 2:39.0505 3:56.7722 
0.2154736020421616 1:18.2 2:38.9304 3:49.1349 
0.3165382152156515 1:18.02 2:38.587 3:43.5836 
0.2451430232187527 1:18.06 2:38.4888 3:51.1042 
0.4637388460159169 1:17.93 2:38.3157 3:50.0173 
0.3703165155674103 1:18.5 2:38.2552 3:62.013 
1 1:18.49 2:38.3225 3:53.5993 
0.3215942666047658 1:18.92 2:38.6475 3:65.4946 
0.1943011838632082 1:19.37 2:39.0664 3:74.3903 
0.7703360532675072 1:19.76 2:39.6094 3:81.0445 
0.4732945812665696 1:19.65 2:39.8215 3:69.8405 
0.02849462742237391 1:19.73 2:40.0266 3:74.0034 
0.7933535612420837 1:20.39 2:40.9734 3:69.5516 
0.5339645260454011 1:20.34 2:41.1943 3:59.9451 
0.1770424709347333 1:20.03 2:41.2991 3:51.8135 
0.04591646733398488 1:20.47 2:41.6863 3:64.1509 
0.337199776230422 1:20.85 2:42.1135 3:73.3509 
0.3849772403823368 1:20.88 2:42.3331 3:77.0254 
0.5320865792588767 1:20.89 2:42.5287 3:80.1814 
0.5652358653778083 1:20.81 2:42.8663 3:71.6581 
0.7532756847480494 1:20.61 2:42.9108 3:62.0371 
0.9512709698261641 1:20.64 2:42.9587 3:67.1365 
0.5329361366508797 1:20.61 2:42.9922 3:58.1381 
0.1023250328568718 1:20.75 2:43.0586 3:63.7764 
0.5029084840681515 1:21.54 2:44.2618 3:58.8943 
0.8839345665331919 1:21.78 2:44.4483 3:64.5248 
1 1:21.85 2:44.7627 3:61.767 
0.5178159662315977 1:21.93 2:44.9224 3:66.9827 
0.2528092300637267 1:22.03 2:45.2156 3:75.3614 
0.1658564694556494 1:22.22 2:45.3961 3:78.7316 
0.6397798987195075 1:21.77 2:45.5481 3:58.9385 
0.1763010061058855 1:22.29 2:46.1019 3:48.2807 
0.5155305006216793 1:22.84 2:46.5318 3:61.5121 
0.6794324120661618 1:22.42 2:46.7082 3:46.0277 
0.9387266238807116 1:22.17 2:46.6765 3:39.9178 
0.1080024385870371 1:21.87 2:46.5663 3:34.6773 
0.09596949077149433 1:21.67 2:46.4148 3:30.1517 
0.1233617364123331 1:21.61 2:46.2648 3:26.2162 
0.1864458072004446 1:20.84 2:45.9202 3:22.8912 
0.08852438664167811 1:20.97 2:45.6588 3:32.7899 
0.04760207019865873 1:21.28 2:45.4507 3:36.2029 
0.1036160089042096 1:20.86 2:45.2213 3:31.535 
0.1533650656576523 1:20.6 2:44.9505 3:27.495 
0.1429045805729055 1:20.79 2:44.7677 3:36.9059 
0.1554823447097016 1:20.85 2:44.6254 3:45.144 
0.1276728125666043 1:20.31 2:44.4523 3:50.8939 
0.8834610486054374 1:21.16 2:44.079 3:52.5462 
0.4999334630470899 1:21.4 2:44.2959 3:63.3389 
1 1:21.93 2:44.604 3:72.6536 
0.5240514252461046 1:21.67 2:44.7128 3:62.8133 
1 1:21.76 2:44.8337 3:67.8585 
1 1:21.75 2:45.0764 3:62.4999 
1 1:21.82 2:45.1636 3:67.5626 
0.1597914584362739 1:21.31 2:45.0523 3:50.8724 
0.5998811114977871 1:21.27 2:44.9104 3:56.4996 
0.164698928797949 1:21.69 2:45.0518 3:53.9748 
0.2462048568449782 1:22.45 2:45.5688 3:52.0554 
0.1185931497753956 1:22.63 2:45.8169 3:58.6731 
1 1:22.89 2:46.1054 3:64.4074 
1 1:22.46 2:46.2366 3:55.6613 
0.06561184885571775 1:22.8 2:47.011 3:66.9652 
0.2256314088743289 1:24 2:48.0772 3:78.9725 
0.004746397471110442 1:23.98 2:48.3682 3:68.031 
1 1:24.21 2:48.6871 3:72.475 
0.5813486857081429 1:23.92 2:48.8809 3:62.5627 
0.2007473974536327 1:25.23 2:50.3641 3:74.8172 
1 1:25.27 2:51.0521 3:67.503 
0.1833488087694078 1:26 2:52.1721 3:65.369 
0.02542517341488655 1:25.95 2:52.4691 3:56.3324 
1 1:26.31 2:53.8742 3:53.6928 
0.07570908555690456 1:26.07 2:53.9763 3:46.4458 
0.531301823496772 1:26.34 2:54.5109 3:51.9757 
0.3290089728403673 1:27.08 2:55.2297 3:57.3424 
0.5461038885224856 1:26.91 2:55.5454 3:42.8257 
0.09721493587081206 1:26.84 2:55.6407 3:37.052 
0.8920312529170581 1:27.95 2:56.5716 3:45.8908 
1 1:28.02 2:56.8607 3:53.3438 
0.01583684970873173 1:27.32 2:56.9153 3:46.1869 
0.08974996969785504 1:27.98 2:57.2962 3:59.8491 
0.5116858032287894 1:27.7 2:57.398 3:51.7772 
0.1279995227798663 1:28 2:57.5703 3:58.332 
0.1069237520835148 1:28.01 2:57.7236 3:63.9836 
0.09663868234295502 1:27.69 2:57.8763 3:47.932 
0.4150057813921537 1:27.75 2:57.9168 3:54.9059 
0.0363136047788073 1:28.03 2:58.0279 3:60.9933 
0.5986715721124243 1:28.13 2:58.1522 3:66.2665 
0.1414359728904748 1:28.92 2:58.8265 3:61.2129 
0.1931433479802644 1:30.47 2:60.2493 3:75.3474 
0.362939660391167 1:29.88 2:60.5681 3:64.9574 
0.1844576888286863 1:29.75 2:60.807 3:56.0752 
0.1185481422940252 1:29.17 2:60.8514 3:48.563 
0.172793776632586 1:29.15 2:60.8846 3:42.0651 
0.1220569028373498 1:29.39 2:60.98 3:49.8683 
0.1183747078680332 1:28.5 2:60.8146 3:43.3367 
0.1886836773440647 1:28.47 2:60.662 3:37.6529 
0.3686040972594668 1:27.59 2:60.2844 3:32.8369 
0.1321694163338172 1:27.38 2:59.8985 3:28.642 
0.159507142587423 1:27.2 2:59.5147 3:24.9832 
0.1632841254958953 1:26.41 2:58.9621 3:21.855 
0.2032416833907283 1:27.55 2:58.4079 3:35.4647 
0.8816951047546389 1:27.01 2:58.1682 3:30.8628 
0.1569658977150275 1:26.56 2:57.8364 3:26.9011 
0.1563319543687093 1:25.72 2:57.3129 3:23.5273 
0.08949231102180383 1:25.3 2:56.1821 3:36.6319 
0.2581558064289752 1:25.62 2:55.8511 3:44.7555 
0.219424935041997 1:25.93 2:55.4371 3:58.1953 
0.5763045684983841 1:25.76 2:55.2455 3:50.6109 
0.1249173891810292 1:23.65 2:54.4887 3:44.4719 
0.04025166316498313 1:24.6 2:53.313 3:63.0561 
0.5714016387259582 1:24.11 2:52.9446 3:55.0289 
0.29492880029808 1:23.78 2:51.9356 3:41.1073 
0.1338055790592205 1:24.04 2:51.5648 3:42.5382 
0.5053377897541269 1:23.76 2:51.3295 3:36.5987 
0.1386135158819763 1:23.82 2:51.1429 3:45.4157 
0.1834370515876551 1:23.8 2:50.8024 3:47.5401 
0.1783774499620241 1:24.41 2:50.8916 3:61.1598 
1 1:24.72 2:51.014 3:66.5895 
0.4407985645604683 1:25.19 2:51.4344 3:75.3139 
1 1:26.03 2:52.7686 3:72.6043 
0.4963884499245039 1:26.03 2:53.0075 3:72.6043 
0.4510666884999675 1:25.52 2:53.2225 3:52.0308 
0.07210408840963584 1:24.84 2:53.1289 3:43.43 
0.6419406280676052 1:24.87 2:52.997 3:51.3484 
0.4951363230884592 1:25.05 2:52.9334 3:58.156 
0.04009529771114711 1:24.64 2:52.6754 3:43.2832 
0.5588213276505252 1:24.54 2:52.5107 3:37.4199 
1 1:24.73 2:52.4226 3:45.9375 
0.140992161874687 1:25.19 2:52.467 3:65.2269 
0.7705356620672679 1:24.45 2:52.2128 3:48.9834 
0.6642522846613199 1:24.52 2:52.1058 3:55.7849 
0.09646512016390996 1:24.09 2:51.8578 3:58.116 
0.5213675688846112 1:23.19 2:51.4261 3:50.7341 
0.198325222526908 1:22.47 2:50.0568 3:44.9695 
0.267542976255262 1:22.36 2:49.6319 3:39.282 
0.1691582854226286 1:22.42 2:49.0161 3:41.0422 
0.06626408003189302 1:22.05 2:48.6433 3:35.8272 
0.1043588564412021 1:21.79 2:48.2469 3:31.2937 
0.0006436454640793565 1:22.24 2:47.508 3:37.9596 
0.391703785774035 1:23.76 2:48.0575 3:57.0327 
0.5317461001381867 1:25.01 2:49.5476 3:76.497 
1 1:24.92 2:49.9052 3:65.8181 
0.1890479743420909 1:24.76 2:50.1712 3:56.737 
0.5654887198691638 1:25.66 2:51.6357 3:62.396 
0.8329516437978107 1:26.28 2:52.7312 3:76.0314 
0.1355660901414733 1:26.23 2:53.0324 3:65.5186 
0.8312894896002677 1:26.2 2:53.2841 3:56.5138 
0.02618573323125056 1:26.33 2:53.8863 3:61.8278 
1 1:26.54 2:54.1188 3:67.0598 
0.1417850799700395 1:26.14 2:54.2083 3:58.0222 
0.07625619433602264 1:26.21 2:54.3072 3:63.6857 
0.6546622907269586 1:26.46 2:54.6854 3:59.3903 
0.7293783017831421 1:26.38 2:54.9949 3:55.5298 
1 1:26.39 2:55.0773 3:54.7281 
0.1984543667887174 1:26.24 2:55.0683 3:47.4387 
0.3658452686890141 1:26.02 2:54.9992 3:41.1651 
0.3585582915380282 1:25.97 2:54.9233 3:35.7257 
0.195996148578963 1:25.7 2:54.7829 3:31.0416 
0.007997908172400333 1:25.75 2:54.6745 3:40.1176 
0.5165266623908893 1:25.38 2:54.4779 3:34.8941 
0.1124007513935934 1:24.79 2:53.9067 3:26.487 
0.0594998481068128 1:24.89 2:53.5773 3:31.461 
0.07469854834750735 1:24.64 2:53.3216 3:27.3969 
0.1273415016519803 1:24.35 2:53.0188 3:23.8796 
0.003624627962291585 1:24.13 2:52.5736 3:29.5133 
0.2259812974219395 1:24.67 2:52.0849 3:33.1987 
1 1:24.97 2:52.2289 3:43.2705 
0.5403914683624578 1:24.63 2:52.0627 3:39.8057 
0.8378622442372912 1:24.48 2:51.9637 3:34.564 
0.07882231748300438 1:25.07 2:51.7126 3:28.7537 
0.07282267176488577 1:24.9 2:51.7762 3:24.8892 
0.1355132496866171 1:24.86 2:51.8207 3:21.5521 
0.1623865467806475 1:24.76 2:51.8313 3:18.6747 
0.1336508464281849 1:24.32 2:51.7178 3:16.2203 
0.1599990007515819 1:24.11 2:51.5608 3:14.1004 
0.2919348564104018 1:24.51 2:51.5023 3:30.72 
1 1:24.82 2:51.6741 3:34.7109 
0.4376764326158874 1:24.92 2:51.7496 3:43.4986 
0.06199348258933494 1:24.49 2:51.6174 3:46.015 
0.4609314400669823 1:24.4 2:51.5551 3:39.9279 
0.09229317568004528 1:23.97 2:51.2284 3:26.1573 
0.02356844126615068 1:23.58 2:50.9873 3:22.7769 
0.7679754244686867 1:23.58 2:50.7797 3:32.7996 
0.007555564731841527 1:23.58 2:50.5984 3:28.5282 
0.1413533317736748 1:23.17 2:50.1675 3:21.6119 
0.05061597689600071 1:23.23 2:49.839 3:27.7079 
0.1125037590820382 1:23.04 2:49.6338 3:24.1128 
0.2465445921075562 1:23.03 2:49.3256 3:29.5961 
0.09855791747851643 1:23 2:49.1768 3:25.7275 
0.04335674699743784 1:23.08 2:49.0719 3:35.4929 
0.09016145317859849 1:23.12 2:48.9903 3:44.0007 
0.09506615454698583 1:22.88 2:48.853 3:38.2412 
0.188415814301463 1:22.5 2:48.6272 3:33.2962 
1 1:22.56 2:48.4489 3:41.9773 
0.1129552970805725 1:22.19 2:48.022 3:31.8099 
0.1074010711744121 1:22.02 2:47.7737 3:27.7119 
0.07550841178058032 1:22.26 2:47.6266 3:37.1567 
0.4850264636049875 1:23.16 2:47.8273 3:52.9958 
0.5182294175156756 1:23.2 2:47.9357 3:59.3551 
1 1:23.16 2:48.0176 3:51.3534 
1 1:22.89 2:48.0126 3:44.5109 
0.9506103207393954 1:24.04 2:48.684 3:64.3768 
0.5634950242107817 1:24.11 2:48.9315 3:69.2827 
1 1:23.76 2:49.0486 3:59.9016 
0.1510064300695796 1:24.35 2:49.6171 3:56.511 
0.640342731580853 1:24.48 2:49.8441 3:62.4812 
1 1:24.4 2:50.0169 3:53.9633 
0.3762638735898399 1:24.2 2:50.1106 3:46.6807 
0.1039093828899635 1:25.85 2:52.0876 3:46.6418 
0.2050373999149783 1:26.61 2:49.1989 3:50.0105 
0.1989848500279329 1:26.61 2:46.3577 3:50.0105 
0.1904685369620884 1:26.4 2:43.866 3:45.4709 
0.1888089198684985 1:25.64 2:41.5999 3:41.273 
0.250190100772535 1:26.86 2:36.8864 3:46.9923 
0.3141792924978182 1:27.51 2:35.8122 3:52.9439 
0.2153980221712111 1:29.01 2:33.8227 3:68.0238 
0.3820212403326043 1:28.15 2:33.2463 3:59.7549 
0.3799006007900664 1:28.59 2:32.3766 3:65.4375 
0.7557080875058548 1:28.92 2:31.8437 3:74.4743 
1 1:29.02 2:31.4732 3:69.0908 
1 1:30.29 2:31.4999 3:64.6304 
0.02436159464901355 1:29.05 2:31.264 3:36.1598 
0.09038997348100923 1:30.46 2:31.3384 3:52.41 
0.4708609785515966 1:29.37 2:31.007 3:48.3218 
1 1:29.16 2:30.8499 3:44.8193 
0.04334051116147693 1:28.63 2:30.6986 3:33.8189 
0.9704155276053708 1:30.17 2:31.0389 3:51.314 
1 1:29.86 2:31.0737 3:44.4189 
0.1414228739561929 1:29.69 2:31.0737 3:46.7176 
1 1:29.91 2:31.1339 3:44.9468 
0.1724055393989021 1:30.48 2:31.0486 3:53.1244 
1 1:30.41 2:31.1581 3:45.8788 
0.1047078402022601 1:30.24 2:31.2304 3:39.6693 
0.1055061938620139 1:29.92 2:31.2477 3:34.3608 
0.1283867730503358 1:32.32 2:31.9629 3:37.668 
0.1031683771808672 1:32.74 2:32.5692 3:40.0033 
0.9284218595933382 1:33.13 2:32.856 3:48.4569 
0.1457372517936789 1:33.87 2:33.4782 3:62.0052 
0.1592619540920757 1:33.08 2:33.7633 3:59.8709 
0.4154592916206265 1:34.2 2:34.2052 3:70.2481 
0.6324831426745359 1:33.77 2:34.3632 3:60.6018 
1 1:33.64 2:34.4828 3:52.3393 
0.6680639325783936 1:34.51 2:34.8854 3:64.6148 
1 1:34.27 2:35.0233 3:55.7788 
1 1:34.61 2:35.5086 3:46.1645 
1 1:33.95 2:35.5114 3:48.0311 
0.05305618676749613 1:33.32 2:35.4523 3:35.9343 
0.7624156467732481 1:33.42 2:35.3888 3:38.595 
1 1:34.52 2:35.7101 3:46.8785 
0.4895448104182479 1:35.2 2:35.9714 3:60.3897 
0.7159508060541245 1:34.88 2:36.0856 3:58.7245 
0.4573956902489536 1:34.91 2:36.219 3:49.7701 
1 1:35.81 2:36.5835 3:62.4983 
0.1710807211895648 1:36.25 2:36.8919 3:73.1531 
0.8406360185592848 1:35.77 2:37.1379 3:65.9621 
0.05992891353085272 1:35.73 2:37.1795 3:56.4791 
0.5332312649275195 1:36.12 2:37.2702 3:62.7294 
0.06933153178393117 1:36.23 2:37.3635 3:68.0407 
0.2897175209352038 1:36.53 2:37.5824 3:69.3469 
0.7000563159773088 1:37.1 2:37.8974 3:70.2249 
0.07355842849364969 1:37.08 2:38.0257 3:60.4832 
1 1:36.92 2:38.1156 3:52.1676 
1 1:36.84 2:38.1815 3:45.0392 
0.6289071118232185 1:36.41 2:38.1787 3:38.967 
0.6677920647899984 1:37.46 2:38.2551 3:45.8162 
0.4796140034319341 1:36.45 2:38.2702 3:34.3721 
0.01196413889946851 1:34.86 2:38.0395 3:29.9607 
0.1113462512244521 1:34.01 2:37.7209 3:26.1784 
0.7379522430690306 1:34.74 2:37.3275 3:38.4473 
0.2528940652378575 1:33.65 2:35.8665 3:30.1017 
0.1386371151186762 1:34.24 2:35.8971 3:41.2083 
0.1690261262521048 1:34.22 2:35.7594 3:40.3029 
0.1037920184765077 1:34.19 2:35.9666 3:31.4844 
0.19399712736901 1:34.82 2:36.0974 3:44.0076 
0.2410050559370627 1:34.81 2:36.1497 3:38.0846 
0.3100390069913449 1:34.09 2:36.0464 3:28.6876 
1 1:36.14 2:36.9569 3:45.379 
0.523861678954625 1:34.33 2:36.5815 3:42.9573 
0.856949025705207 1:32.85 2:36.2946 3:37.5239 
0.04460104037074437 1:32.46 2:35.9913 3:32.7947 
0.02571297406311742 1:32.11 2:35.6805 3:28.6697 
0.1329647100310585 1:31.87 2:35.21 3:33.0591 
0.116963222497208 1:32.29 2:35.0273 3:41.682 
0.2813301538457911 1:31.88 2:34.8117 3:36.3482 
0.07668722029576769 1:32.24 2:34.6754 3:44.6184 
1 1:32.46 2:34.6752 3:50.867 
0.1191375405851725 1:32.04 2:34.5292 3:44.2712 
1 1:32.66 2:34.4316 3:58.0229 
0.1077735203701231 1:31.45 2:34.2354 3:50.5747 
0.09804138409624714 1:29.23 2:33.6479 3:50.0865 
0.1098822339456081 1:29.2 2:33.2429 3:43.9372 
0.1168323902245812 1:28.19 2:32.1704 3:39.1432 
0.06099438316177456 1:28.53 2:31.6123 3:40.8716 
0.1046306843353286 1:28.58 2:31.392 3:48.3958 
0.08714347758412172 1:29.23 2:31.1528 3:60.9419 
0.9805283543427459 1:29.69 2:31.1643 3:57.3595 
0.06727404055851842 1:28.33 2:30.8043 3:37.7752 
0.03971969107114455 1:28.27 2:30.6477 3:32.9058 
0.02970970783405857 1:28.58 2:30.5547 3:41.6746 
0.7996356460286589 1:29.33 2:30.5484 3:50.5403 
0.2282075365185944 1:30.3 2:30.7633 3:63.1097 
1 1:30.52 2:30.9269 3:68.1975 
0.05363716162944171 1:31.51 2:31.7184 3:62.7198 
0.962869404453804 1:32.3 2:32.0026 3:67.9774 
0.08779141652842665 1:32.1 2:32.2209 3:58.5146 
0.1633799920845173 1:32.13 2:32.4155 3:64.2618 
0.6126471979532729 1:32.87 2:33.2272 3:66.0658 
1 1:32.7 2:33.3663 3:55.9899 
0.0198605182559931 1:32.89 2:33.5134 3:62.6084 
0.3722569685163629 1:32.65 2:33.6076 3:53.4081 
0.8059492580655483 1:32.49 2:33.6666 3:45.6982 
0.09772692849329898 1:32.08 2:33.6604 3:39.244 
0.2382555016853153 1:36.65 2:35.1355 3:53.0113 
0.5644143140078057 1:36.64 2:35.5708 3:45.1739 
0.7898755065155498 1:36.29 2:35.9 3:38.6436 
0.05868650856601031 1:35.7 2:36.1027 3:33.1966 
0.7743775548806318 1:36.22 2:36.3503 3:42.6574 
0.4174955009702657 1:36.19 2:36.5609 3:36.6699 
0.5782461445487007 1:36.12 2:36.9467 3:39.294 
0.05040796922643726 1:36.06 2:37.0591 3:33.9013 
0.07893566293873446 1:36.05 2:37.1552 3:29.2678 
0.1483529697086961 1:35.72 2:37.1932 3:25.312 
0.1220085898252023 1:36.46 2:37.4567 3:30.7222 
0.1600903957322364 1:37.09 2:37.7611 3:48.4528 
0.03286415390447167 1:36.39 2:37.8415 3:49.7584 
0.9047128980142728 1:36.02 2:37.8293 3:43.1211 
0.9275465557590634 1:35.87 2:37.7987 3:37.3894 
0.2800165649595243 1:35.62 2:37.4688 3:41.7488 
0.7786753205706616 1:35.23 2:37.3956 3:36.248 
0.02796846436643818 1:36.71 2:37.7004 3:58.8489 
1 1:37.18 2:37.8697 3:64.4981 
0.2878369372355966 1:35.06 2:37.8247 3:52.4716 
0.5362332886499508 1:34.89 2:37.6574 3:45.6754 
0.06981410126509985 1:34.71 2:37.4871 3:39.7637 
0.4655470184212651 1:34.64 2:37.3301 3:34.6056 
0.1547116670932647 1:34.06 2:36.7283 3:35.8563 
0.2394306018290489 1:34.11 2:36.2772 3:36.771 
0.09843190572874398 1:35.17 2:36.4199 3:52.6953 
0.8432391379320591 1:34.81 2:36.4279 3:45.6588 
1 1:34.95 2:36.454 3:47.6682 
1 1:34.62 2:36.4321 3:41.3369 
1 1:34.92 2:36.4138 3:44.4658 
0.03560288241917353 1:34.05 2:36.2497 3:23.9843 
0.506112739110714 1:34.08 2:36.126 3:29.5247 
0.06658023277889268 1:33.26 2:35.545 3:21.3329 
0.1497682507539282 1:33.15 2:35.439 3:18.5438 
0.7958069057315248 1:34.13 2:35.7276 3:47.145 
0.3421021342913753 1:32.41 2:35.2549 3:23.3604 
0.05677932567178071 1:32.32 2:35.0716 3:20.3515 
0.9285602233438254 1:32.97 2:34.9443 3:30.8367 
0.2602315957387888 1:32.7 2:34.7922 3:30.1604 
0.8290131540301183 1:32.46 2:34.6892 3:25.8971 
0.02991667755398009 1:32.12 2:34.4356 3:22.2977 
0.02449857416828063 1:31.89 2:34.3002 3:18.8378 
0.1077261864899644 1:31.45 2:34.1215 3:16.0107 
0.06472238851767592 1:31.17 2:33.9279 3:13.6652 
0.1489736253538261 1:31.16 2:33.7589 3:11.6898 
0.05542174014218221 1:31.49 2:33.5548 3:18.0554 
0.03883570547760994 1:31.31 2:33.4568 3:15.5397 
0.0648530745766561 1:30.91 2:33.3159 3:13.4112 
0.2244874650713041 1:31.25 2:33.2051 3:21.9373 
0.1094323146600556 1:30.54 2:33.0458 3:19.0012 
0.1336226719390558 1:29.34 2:32.7397 3:16.5465 
0.2205374250451442 1:29.48 2:32.4944 3:27.4184 
0.1323481906507579 1:28.99 2:32.2138 3:23.887 
0.1228925157824879 1:28.51 2:31.9026 3:20.8417 
0.1497166728847039 1:28.06 2:31.5703 3:18.2057 
1 1:29.29 2:31.1698 3:46.404 
0.01839556082292706 1:28.69 2:30.9238 3:35.0301 
0.2832778741508384 1:28.01 2:30.7153 3:30.5304 
0.05756245128635949 1:28.23 2:30.404 3:36.1763 
0.1744393164330849 1:29.94 2:30.6253 3:58.84 
0.0256655717806449 1:30.19 2:30.9506 3:55.7702 
0.6672843173506221 1:29.98 2:31.0132 3:48.2181 
0.517880713283009 1:30.26 2:31.2157 3:47.8088 
0.02167735927999887 1:29.84 2:31.2243 3:41.4128 
0.605521315719861 1:29.89 2:31.2384 3:49.2581 
1 1:29.92 2:31.2546 3:56.0546 
1 1:29.73 2:31.2681 3:54.6622 
0.9027691753568865 1:29.35 2:31.0774 3:48.9968 
0.001197515006725491 1:30.12 2:31.1675 3:38.9339 
0.084456097901262 1:30.38 2:31.2771 3:42.7149 
0.1019577337076458 1:30.36 2:31.3495 3:36.9336 
0.1372371109626356 1:30.05 2:31.3696 3:31.9882 
0.145169475806984 1:29.59 2:31.2812 3:24.0941 
0.9345598354222864 1:28.79 2:30.9956 3:28.3277 
0.03148027048286641 1:28.18 2:30.6911 3:21.4882 
0.04496340611380322 1:27.57 2:30.3274 3:27.6159 
0.1590131670391388 1:27.09 2:30.0691 3:24.1394 
0.1540196899351766 1:26.91 2:29.8199 3:21.0956 
0.09740333598209371 1:27.62 2:29.5479 3:40.1887 
0.03973587132411005 1:27.68 2:29.4452 3:41.7822 
0.002219717503572217 1:27.56 2:29.3712 3:36.3024 
0.06781910813141784 1:27.01 2:29.2297 3:31.6144 
0.003908301294136204 1:27.3 2:29.1471 3:40.5645 
0.09311518972688232 1:27.26 2:29.0701 3:35.2489 
0.1749521193721255 1:27.38 2:29.0208 3:43.787 
0.449234761399982 1:27.51 2:28.9869 3:50.1034 
0.09831724396473529 1:26.86 2:28.8294 3:37.8387 
0.1043988480006457 1:26.18 2:28.6442 3:33.0057 
0.06939876135959251 1:26.4 2:28.5143 3:41.6738 
0.05943956383083938 1:26.28 2:28.3844 3:36.2826 
0.1078641182426232 1:26.39 2:28.0374 3:45.4442 
0.005473299417503574 1:26.32 2:27.9778 3:39.4689 
0.02340785282446417 1:26.07 2:27.8901 3:34.314 
0.01135716914318863 1:25.05 2:27.6727 3:29.9724 
0.1546493511175727 1:24.37 2:27.3884 3:26.2457 
0.06572602135910635 1:24.48 2:27.1579 3:35.5372 
0.08375801272426194 1:24.59 2:26.9729 3:43.749 
0.04175038578056403 1:25.24 2:26.8058 3:57.4858 
0.1510947295639724 1:25.04 2:26.7303 3:49.9617 
0.2994286354761664 1:25.15 2:26.6023 3:50.9192 
0.1438525598294866 1:25.33 2:26.565 3:51.6254 
0.7398316963557983 1:24.91 2:26.4784 3:38.9034 
0.2665690645616248 1:24.88 2:26.2838 3:46.8021 
0.2900478932363489 1:26.43 2:26.6231 3:48.0634 
0.5129122045738577 1:26.68 2:27.1489 3:53.1143 
0.004067314772582906 1:25.68 2:27.0645 3:42.8433 
1 1:26.75 2:27.3166 3:56.0377 
0.1667267131482554 1:26.53 2:27.3824 3:48.4494 
0.04006652173756313 1:25.9 2:27.3514 3:42.037 
0.8305120047585746 1:25.47 2:27.1006 3:52.1004 
0.1760582225744986 1:26.28 2:27.1689 3:68.8975 
1 1:26.32 2:27.2656 3:65.0581 
0.7584142020105742 1:26.11 2:27.2796 3:56.3549 
0.6759706224830426 1:25.65 2:27.2263 3:48.9365 
1 1:26.29 2:27.3092 3:55.2876 
0.2037662116150231 1:26.31 2:27.4015 3:59.4202 
0.565319741666412 1:26.37 2:27.3861 3:65.4487 
0.5313408863593025 1:26.55 2:27.4353 3:62.3651 
0.0217029034306798 1:25.9 2:27.4367 3:33.9828 
0.1370827024228462 1:25.85 2:27.3905 3:29.3308 
0.05844832498187353 1:26.42 2:27.4304 3:39.1545 
0.03050590425094637 1:25.32 2:26.9631 3:40.6762 
0.02526790990710796 1:25.3 2:26.904 3:35.2557 
0.1173689559180249 1:24.87 2:26.5416 3:32.8297 
0.0512764958473805 1:25.19 2:26.5227 3:41.7787 
1 1:25.44 2:26.541 3:49.6023 
0.006485671980410616 1:24.9 2:26.4822 3:43.0653 
0.1101964546174103 1:24.99 2:26.4433 3:50.6028 
0.05110956063074233 1:24.94 2:26.4028 3:43.9083 
0.4255746325148668 1:24.87 2:26.3584 3:38.107 
0.6016551538665592 1:25.46 2:26.3338 3:54.3084 
0.1382365860384883 1:24.64 2:26.2667 3:46.604 
0.1070582484422344 1:23.81 2:26.0073 3:34.668 
0.3654600297748544 1:23.8 2:25.8663 3:29.9743 
0.1563082376253078 1:23 2:25.6322 3:26.0429 
0.1761431689020529 1:22.33 2:25.3345 3:22.7076 
0.1798419545089945 1:21.53 2:24.9659 3:19.8748 
0.5338511532789445 1:22.89 2:24.6248 3:39.4878 
0.5814176364225826 1:22.99 2:24.5115 3:41.2635 
0.08717571625556356 1:22.11 2:24.3327 3:35.9343 
0.7266400234867454 1:21.82 2:24.1376 3:31.3265 
0.08624104587731207 1:21.76 2:23.8407 3:35.0613 
0.1535255492757831 1:21.16 2:23.5302 3:38.0375 
0.338999247820835 1:21.57 2:23.4075 3:46.0776 
0.06296809516652469 1:21.91 2:23.3479 3:53.194 
0.1867296849731527 1:22.32 2:23.3179 3:64.8552 
0.1845144562816952 1:21.76 2:23.2502 3:56.3354 
0.2447081172981264 1:21.31 2:23.1288 3:49.0533 
0.09330116223755991 1:21.8 2:23.0363 3:61.6147 
0.02680918431155766 1:21.58 2:22.9808 3:53.5088 
1 1:21.69 2:22.9474 3:59.6618 
0.244161100052827 1:20.89 2:22.8077 3:52.0095 
0.105017124813991 1:20.88 2:22.684 3:45.31 
0.2888698415180009 1:20.51 2:22.5262 3:39.5358 
0.1090521955045904 1:20.27 2:22.356 3:34.5191 
0.1709311494831848 1:19.22 2:22.0619 3:30.3109 
0.08879586409394942 1:19.11 2:21.622 3:34.2425 
0.1452949581070231 1:19.59 2:21.4764 3:42.6298 
0.1398821224827026 1:20.25 2:21.3941 3:56.7504 
1 1:19.86 2:21.3176 3:49.3569 
0.1045075326824487 1:19.21 2:21.0601 3:37.5214 
0.260105149571807 1:19.53 2:20.9814 3:45.6514 
0.04255498074648156 1:18.42 2:20.7586 3:39.9877 
0.0988590879333805 1:17.84 2:20.4841 3:35.1193 
0.1105688388914988 1:17.28 2:20.1676 3:30.9135 
0.0716603800770475 1:17.54 2:19.9292 3:39.4106 
0.7598349452558667 1:18.57 2:19.8587 3:41.2635 
0.05801282654137407 1:18.65 2:19.8548 3:37.1103 
0.08262474210999306 1:17.98 2:19.7195 3:32.3826 
1 1:18.76 2:19.5829 3:48.0992 
1 1:18.76 2:19.5932 3:48.0992 
1 1:19.05 2:19.6434 3:56.0546 
0.2199146460418151 1:18.34 2:19.587 3:47.9009 
0.3208412918078348 1:18.04 2:19.4967 3:41.112 
0.07857843091538667 1:18.31 2:19.4238 3:42.523 
0.02943394843545063 1:17.66 2:19.302 3:36.7538 
0.06192735415990123 1:17.32 2:19.1484 3:31.8629 
0.05443869410076972 1:17.42 2:18.9585 3:35.6096 
1 1:17.98 2:18.8714 3:58.4609 
0.5840040914386233 1:17.45 2:18.714 3:57.2891 
0.2213379490942216 1:17.42 2:18.5825 3:56.4245 
0.5034322002581421 1:17.65 2:18.4577 3:61.8185 
0.3235706048789149 1:18.17 2:18.605 3:57.8758 
0.4944933238952804 1:17.72 2:18.6003 3:50.1247 
0.3881836828438884 1:17.15 2:18.5176 3:43.601 
0.06057177024394411 1:17.03 2:18.4286 3:37.9441 
0.00509560797140036 1:16.31 2:18.0809 3:40.4653 
0.03063858940504137 1:16.03 2:17.9101 3:35.3927 
0.234174466474246 1:16.59 2:17.7636 3:40.2752 
0.08846679442505838 1:16.47 2:17.6964 3:35.0316 
0.007364532672950617 1:16.7 2:17.7331 3:38.1469 
1 1:17.07 2:17.7305 3:53.5447 
0.5578420963660684 1:16.85 2:17.7511 3:51.8816 
0.08005453082999485 1:16.27 2:17.6425 3:39.2042 
0.4103184199961437 1:17.75 2:17.855 3:60.9003 
1 1:17.5 2:17.9196 3:52.5881 
0.1947555476363834 1:17.65 2:17.997 3:59.0875 
1 1:17.15 2:18.0309 3:44.2959 
0.443699050977585 1:16.85 2:17.6566 3:44.4873 
0.3478417775639285 1:15.26 2:17.5421 3:41.4908 
0.01128333366699901 1:15.13 2:17.3178 3:36.4243 
0.1345777428134061 1:14.94 2:17.0968 3:31.9758 
1 1:15.89 2:16.8472 3:55.0631 
0.5115577920976547 1:15.7 2:16.7956 3:47.868 
0.2572045964578505 1:15.59 2:16.7349 3:41.6361 
0.1685727496912633 1:15.12 2:16.4886 3:37.445 
0.5905218268041874 1:15.13 2:16.4048 3:45.5087 
0.9501391309780946 1:15.19 2:16.2511 3:39.7894 
1 1:16.07 2:16.4885 3:52.9028 
0.3792623236428357 1:17.35 2:17.2359 3:56.5168 
0.3450430297580263 1:16.86 2:17.6276 3:49.4549 
0.4298172122792034 1:16.72 2:17.6132 3:42.8958 
0.5101212524942366 1:17.02 2:17.6435 3:50.5945 
1 1:16.76 2:17.6337 3:43.8729 
0.09622678183497276 1:17.51 2:17.8098 3:63.8247 
0.6885276710990964 1:17.29 2:17.8512 3:55.1866 
0.8563322626977559 1:17.16 2:17.8603 3:54.8602 
0.2606833382208038 1:15.6 2:17.1307 3:55.361 
0.01182660280124865 1:15.02 2:16.9453 3:48.5046 
0.09303505728457644 1:14.96 2:16.6234 3:49.7143 
0.05938840851543255 1:14.85 2:16.4816 3:43.4564 
0.09852883091949018 1:13.71 2:15.7493 3:35.4114 
0.08058702874795129 1:13.41 2:15.524 3:31.1352 
0.1408447101701468 1:13.36 2:15.3208 3:27.3417 
0.1479867154207997 1:12.96 2:15.0887 3:24.0607 
0.1775627407238393 1:13.58 2:14.7005 3:32.5918 
0.5263050820530546 1:14.3 2:14.7391 3:41.7326 
0.01069019339243538 1:14 2:14.7298 3:36.1908 
0.854948303393866 1:13.41 2:14.6007 3:33.8433 
0.62969572795414 1:14.25 2:14.6366 3:50.4308 
0.02956019981521074 1:15.61 2:15.0969 3:64.5394 
0.5541806999524436 1:15.55 2:15.2573 3:55.3461 
0.1433481769293643 1:16.14 2:15.479 3:61.8542 
0.2772183460061907 1:15.92 2:15.6405 3:53.0536 
0.3867562047091027 1:15.22 2:15.7822 3:39.4912 
0.143196830916359 1:14.96 2:15.7672 3:29.6906 
0.3189641900403765 1:14.81 2:15.7658 3:34.0595 
0.1435976222988974 1:14.87 2:15.7128 3:38.8979 
0.4106250467562766 1:15.25 2:15.7484 3:47.1647 
0.006039546909267543 1:14.85 2:15.7233 3:40.9414 
0.8776113077001161 1:15.2 2:15.7528 3:55.7235 
0.3053401206231136 1:14.35 2:15.5174 3:53.2837 
0.2319500147705138 1:14.37 2:15.4564 3:59.3528 
0.06256024610096754 1:14.91 2:15.4796 3:64.8251 
0.6878739192683284 1:14.63 2:15.4596 3:56.2542 
0.09243798375739439 1:15.4 2:15.6493 3:61.6508 
0.8645988147516823 1:14.37 2:15.5257 3:46.6751 
0.1122123465707268 1:13.52 2:15.1647 3:48.2187 
1 1:14.12 2:15.082 3:47.8093 
0.05739417764039697 1:13.03 2:14.787 3:36.6265 
0.08865275034572595 1:11.72 2:14.2428 3:28.5618 
0.115487400194952 1:11 2:13.8811 3:25.3986 
0.1183439185600008 1:10.5 2:13.4983 3:22.6363 
0.1008078533105415 1:10.57 2:13.1758 3:31.3107 
0.1163107069713645 1:10.78 2:12.7598 3:34.9166 
0.02597192775719971 1:9.66 2:12.4078 3:31.1195 
0.001204366220660391 1:9.97 2:11.9333 3:34.5295 
0.1207728994852431 1:10.03 2:11.6507 3:37.6037 
0.09413779221477879 1:9.53 2:11.4293 3:33.2212 
0.01193942780961266 1:9.24 2:11.0609 3:36.5027 
0.04796604730297018 1:9.15 2:10.8648 3:32.2067 
0.03416497334880897 1:11.95 2:11.5644 3:54.4113 
0.8426375335392402 1:11.87 2:11.6811 3:46.6852 
0.09282962971683655 1:10.07 2:11.4609 3:30.9743 
0.1517570398940423 1:9.73 2:11.2928 3:27.244 
0.1265927731869608 1:9.53 2:11.1191 3:23.9804 
0.109843790775385 1:8.9 2:10.8805 3:21.2386 
0.1136543195391359 1:8.88 2:10.6711 3:18.768 
0.1492578392006846 1:8.21 2:10.3963 3:16.6956 
0.1134235026277136 1:8.24 2:10.1621 3:26.1391 
0.1251734092153902 1:8 2:9.92451 3:23.1963 
0.1016153095939599 1:7.6 2:9.66391 3:20.6456 
0.1365981993474233 1:6.84 2:9.33139 3:18.5304 
0.1117273993354211 1:7.47 2:9.1312 3:27.8451 
0.1598550262656235 1:7.83 2:8.92966 3:32.3217 
0.1224994213111686 1:7.59 2:8.78409 3:43.1465 
0.9690754569214459 1:8.24 2:8.73552 3:57.0593 
0.5564574323703334 1:8.21 2:8.71878 3:49.5463 
0.05593569870087801 1:9.16 2:8.88264 3:62.8027 
0.1451656370925197 1:8.84 2:8.93429 3:54.1144 
0.03009457378451266 1:9.09 2:9.01372 3:60.5829 
0.7189402957833194 1:8.59 2:9.04521 3:51.2321 
1 1:9.27 2:9.13518 3:58.1507 
1 1:9.15 2:9.27612 3:55.2596 
0.2694596838507138 1:8.92 2:9.33743 3:59.7109 
0.3000829628449975 1:8.93 2:9.30492 3:58.4185 
0.02103498418878486 1:9.39 2:9.39418 3:69.0644 
1 1:9.46 2:9.46429 3:73.3878 
0.3418470240683904 1:9.53 2:9.62171 3:66.4946 
0.6904781105698045 1:8.62 2:9.56374 3:40.6848 
1 1:9.03 2:9.51712 3:55.2294 
0.09785600058990196 1:8.59 2:9.27017 3:46.0495 
0.2697554211211511 1:9.38 2:9.43515 3:59.1738 
0.2054262752746308 1:9.32 2:9.4798 3:49.302 
1 1:10.23 2:9.83279 3:70.5312 
0.2087592460293136 1:9.66 2:9.93412 3:60.6902 
0.1368193023405251 1:9.08 2:9.81762 3:44.348 
0.06643278219963548 1:8.61 2:9.56156 3:39.3996 
0.9151646132001883 1:8.19 2:9.298 3:36.0568 
0.9693726575461802 1:8.17 2:9.14552 3:38.7997 
0.1322101631681152 1:7.89 2:8.93801 3:29.5376 
0.7877944289521996 1:10.29 2:9.52332 3:68.2052 
0.7732487655457555 1:10.97 2:9.9737 3:77.2879 
0.1823767650110492 1:11.06 2:10.1892 3:80.762 
0.7872401208902569 1:10.8 2:10.6534 3:63.2712 
0.7076644592329524 1:11.23 2:11.0537 3:52.6128 
0.2279358413146669 1:10.66 2:11.0964 3:47.5282 
0.8250286943470707 1:11.28 2:11.1928 3:54.9301 
1 1:10.9 2:11.2806 3:40.9184 
0.08045769332838887 1:10.68 2:11.2685 3:35.4941 
0.5229113329934387 1:11.46 2:11.4741 3:58.7792 
0.8329526615398489 1:11.33 2:11.5269 3:50.7034 
0.8076409011465611 1:11.12 2:11.5446 3:43.8714 
0.6101443029462077 1:10.85 2:11.5874 3:40.4787 
0.43071856810696 1:11.27 2:11.6171 3:48.5492 
0.3990048027891079 1:12.89 2:12.1663 3:68.0233 
0.4542176810403768 1:12.59 2:12.3042 3:58.2915 
0.6930871867537269 1:12.88 2:12.4636 3:64.3159 
0.5781798485085872 1:13.06 2:12.6271 3:69.4749 
0.3698816491107533 1:13.17 2:12.9953 3:63.5624 
0.9061794280446832 1:13.57 2:13.3024 3:59.0098 
0.07461068190271038 1:13.03 2:13.5037 3:37.8397 
0.09761296269728501 1:12.57 2:13.4544 3:28.5258 
0.07055631080933117 1:12.16 2:13.3604 3:24.896 
0.1437674709137247 1:12.15 2:13.2764 3:21.7131 
0.06373782401613365 1:12.35 2:13.2315 3:31.9216 
1 1:12.93 2:13.3116 3:55.9505 
0.4295004653575276 1:12.81 2:13.3274 3:48.4329 
0.7943728042467212 1:12.4 2:13.2838 3:42.1131 
0.1467344929795157 1:14.47 2:14.1923 3:52.7106 
0.1539360678479339 1:14.4 2:14.312 3:45.3005 
0.7078749634774556 1:14.22 2:14.5589 3:41.0532 
0.0130600631646674 1:13.46 2:14.3549 3:36.7794 
0.1586396304670348 1:13.59 2:14.3396 3:45.1503 
0.2419306085412969 1:13.08 2:14.2556 3:39.3607 
0.3221245774311594 1:13.86 2:14.3469 3:52.5033 
1 1:13.97 2:14.386 3:58.948 
0.1855078646913013 1:13.25 2:14.3198 3:51.3242 
1 1:12.78 2:14.0577 3:56.7163 
0.6245765763837584 1:13.01 2:13.7755 3:61.8175 
0.3585501148050741 1:13.76 2:13.8993 3:70.2516 
0.1175630904831693 1:13.78 2:14.0304 3:65.9963 
0.9303222958154462 1:14.02 2:14.2212 3:61.0291 
0.5233286932802063 1:16.47 2:14.9925 3:56.8846 
0.2669467282276807 1:16.43 2:15.2895 3:48.3424 
0.232655044827577 1:16.51 2:15.5576 3:56.0015 
0.0443682515288506 1:16.56 2:15.7979 3:62.448 
1 1:16.37 2:15.9795 3:53.5065 
0.2304643387735365 1:16.82 2:16.1996 3:60.253 
0.8953048193376654 1:16.89 2:16.3996 3:65.9728 
0.1797404487489965 1:17.84 2:16.9225 3:75.2315 
0.6495330769374622 1:17.65 2:17.1328 3:64.4002 
0.2709521641753137 1:17.46 2:17.2884 3:55.3111 
0.817673393853802 1:18.32 2:17.7446 3:67.2965 
1 1:17.99 2:17.8933 3:57.8388 
0.5544495390808744 1:18.74 2:18.2806 3:69.0033 
0.7190657296358922 1:18.24 2:18.5837 3:63.8334 
0.2150954199860545 1:18.81 2:18.8074 3:73.158 
0.06559199589848526 1:18.36 2:18.8651 3:63.2097 
0.4985685280600233 1:18.6 2:18.9497 3:68.2576 
0.192360155654596 1:18.55 2:19.0613 3:64.567 
0.1478248002376159 1:18.44 2:19.0972 3:55.8531 
0.3537718237122511 1:18.12 2:19.0829 3:48.4423 
0.1144246181439069 1:19.05 2:19.2306 3:59.3544 
0.9036034808345906 1:18.98 2:19.3185 3:50.7387 
-1 1:9.74 2:2.72267 3:100 
-1 1:10.55 2:5.30764 3:100 
-1 1:10.82 2:9.5357 3:67.4917 
-1 1:10.72 2:12.6856 3:61.0474 
-1 1:10.5 2:17.3337 3:62.4527 
-1 1:10.8 2:18.9671 3:52.8543 
-1 1:11.04 2:19.5235 3:60.4476 
-1 1:11.34 2:21.2853 3:63.7125 
-1 1:10.5 2:21.6916 3:48.002 
-1 1:10.57 2:21.6472 3:51.5199 
-0.7697727018668723 1:10.98 2:21.9869 3:68.9396 
-1 1:11.48 2:22.4395 3:77.1445 
-1 1:11.13 2:22.8403 3:47.7848 
-1 1:11.47 2:23.5059 3:60.6603 
-1 1:11.95 2:23.9734 3:74.8908 
-1 1:12.01 2:24.2423 3:69.4708 
-1 1:12.01 2:24.8509 3:52.8092 
-1 1:11.27 2:24.2205 3:50.6232 
-1 1:11.25 2:23.2043 3:50.0517 
-1 1:11.48 2:23.4641 3:63.5601 
-1 1:11.24 2:23.0834 3:52.7292 
-1 1:11.58 2:23.243 3:59.5361 
-1 1:11.55 2:23.4226 3:58.1282 
-1 1:11.64 2:24.0304 3:53.267 
-1 1:11.6 2:23.9915 3:48.2082 
-1 1:10.58 2:23.1766 3:29.2727 
-1 1:10.06 2:21.3831 3:31.3213 
-1 1:9.69 2:20.8849 3:33.842 
-1 1:9.11 2:19.8294 3:27.9398 
-1 1:9.77 2:19.7041 3:58.1633 
-1 1:10.15 2:19.9142 3:64.1243 
-1 1:10.4 2:20.2716 3:61.6603 
-1 1:10.08 2:20.5332 3:53.3481 
-1 1:9.76 2:20.5 3:39.4273 
-1 1:9.87 2:20.4265 3:39.2699 
-1 1:10.04 2:20.5927 3:57.488 
-1 1:9.87 2:20.438 3:57.4998 
-1 1:10.1 2:20.537 3:63.3439 
-1 1:10.21 2:20.7126 3:54.6606 
-1 1:10.07 2:20.7905 3:54.4341 
-1 1:10.59 2:21.2177 3:57.8082 
-1 1:11.02 2:21.6329 3:68.9174 
-1 1:10.65 2:22.0794 3:60.833 
-1 1:11.02 2:22.2168 3:66.2653 
-1 1:11.03 2:22.3804 3:63.1828 
-1 1:11.42 2:22.595 3:61.1276 
-1 1:11.13 2:23.1415 3:68.9842 
-1 1:10.74 2:22.6078 3:60.0774 
-1 1:10.5 2:22.0683 3:55.9348 
-1 1:10.7 2:22.0949 3:55.5041 
-1 1:10.09 2:21.7577 3:44.7599 
-1 1:10.14 2:21.5505 3:47.0904 
-1 1:10.16 2:21.0591 3:43.7549 
-1 1:10.11 2:20.8461 3:49.5668 
-1 1:9.56 2:20.4401 3:40.6597 
-1 1:10.95 2:20.7262 3:44.8823 
-1 1:10.57 2:21.9921 3:36.2303 
-1 1:10.74 2:22.0805 3:33.9568 
-1 1:11.12 2:22.4517 3:41.5463 
-1 1:11.02 2:22.5497 3:47.125 
-1 1:11.48 2:22.9567 3:50.8672 
-1 1:12.13 2:23.4371 3:63.8522 
-1 1:12.05 2:24.0218 3:54.5687 
-1 1:12.54 2:24.3229 3:61.1137 
-1 1:12.4 2:24.6582 3:59.3377 
-1 1:12.53 2:25.3935 3:48.7464 
-1 1:12.44 2:25.5828 3:53.2568 
-1 1:12.04 2:25.4354 3:46.4203 
-1 1:11.46 2:25.0209 3:48.2625 
-1 1:11.45 2:24.5999 3:44.9476 
-1 1:11.01 2:23.5077 3:42.9189 
-1 1:11.77 2:23.6715 3:44.7196 
-1 1:11.81 2:24.2333 3:35.2262 
-1 1:12.08 2:24.4263 3:64.5002 
-1 1:12.87 2:24.7655 3:70.2231 
-1 1:13.01 2:25.3208 3:65.6175 
-1 1:13.04 2:26.6606 3:56.2043 
-1 1:12.99 2:26.694 3:53.2899 
-1 1:12.97 2:26.8779 3:53.5335 
-1 1:13.54 2:27.2111 3:66.1775 
-1 1:13.92 2:27.8312 3:78.9328 
-1 1:13.86 2:28.3525 3:60.0945 
-1 1:14.03 2:28.6342 3:62.6563 
-1 1:14.4 2:29.0667 3:52.8082 
-1 1:13.98 2:29.2641 3:35.5374 
-1 1:14.42 2:29.4107 3:51.8503 
-1 1:14.41 2:29.7177 3:52.7129 
-1 1:14.32 2:30.0299 3:45.427 
-1 1:14.79 2:30.182 3:53.1654 
-1 1:15.33 2:31.0327 3:68.9431 
-1 1:15.55 2:31.6977 3:63.3355 
-1 1:15.74 2:31.8713 3:68.3974 
-1 1:14.84 2:31.3011 3:50.0878 
-1 1:15.3 2:31.4291 3:62.6631 
-1 1:15.27 2:31.7715 3:60.218 
-1 1:15.42 2:31.8526 3:58.6443 
-1 1:15.36 2:31.8618 3:63.1354 
-1 1:15.27 2:31.8275 3:54.5486 
-1 1:15.42 2:31.8879 3:54.4127 
-1 1:15.41 2:31.9833 3:56.6997 
-1 1:15.82 2:32.2242 3:67.7198 
-0.7570845757228701 1:15.94 2:32.4616 3:64.216 
-1 1:16.49 2:33.3639 3:64.719 
-1 1:16.7 2:33.7515 3:73.8044 
-1 1:17.34 2:34.5407 3:83.3373 
-1 1:17.4 2:35.0196 3:67.397 
-1 1:17.77 2:36.023 3:67.2118 
-1 1:17.83 2:36.3871 3:68.7329 
-1 1:18.49 2:36.7977 3:58.2841 
-1 1:18.15 2:37.1013 3:57.0939 
-1 1:18.54 2:37.4823 3:62.262 
-1 1:18.14 2:37.7191 3:67.3923 
-1 1:17.75 2:37.3527 3:42.9002 
-1 1:17.79 2:37.2459 3:52.8287 
-1 1:17.97 2:37.2532 3:53.1549 
-1 1:18.14 2:37.3568 3:59.5135 
-1 1:18.24 2:37.5325 3:58.073 
-1 1:18.75 2:37.7682 3:63.89 
-1 1:18.17 2:38.3386 3:40.55 
-1 1:18.63 2:38.1956 3:45.3805 
-1 1:18.66 2:38.655 3:53.7878 
-1 1:18.68 2:38.7516 3:53.7694 
-1 1:18.19 2:38.7127 3:50.2706 
-1 1:18.15 2:38.4289 3:57.6509 
-1 1:18.35 2:38.176 3:56.0295 
-1 1:18.88 2:38.4902 3:59.9946 
-1 1:19.09 2:38.8305 3:70.2547 
-1 1:19.58 2:39.3309 3:77.9645 
-1 1:20.19 2:40.3324 3:77.6462 
-1 1:20.56 2:40.7001 3:80.806 
-1 1:20.41 2:41.4965 3:58.4421 
-1 1:20.54 2:41.8695 3:69.0694 
-1 1:21.08 2:42.7488 3:82.9132 
-1 1:21.29 2:43.2668 3:68.758 
-1 1:21.72 2:43.5699 3:73.1124 
-1 1:22.01 2:44.1252 3:68.1662 
-1 1:21.95 2:45.0687 3:71.4781 
-1 1:22.78 2:45.843 3:64.6424 
-1 1:22.79 2:46.3243 3:55.3919 
-1 1:21.51 2:45.5816 3:41.6526 
-1 1:21.22 2:44.6073 3:52.4389 
-1 1:21.49 2:44.6699 3:64.3264 
-1 1:21.78 2:44.8389 3:61.7117 
-1 1:21.96 2:44.9991 3:66.9349 
-1 1:20.63 2:44.0951 3:62.8171 
-1 1:21.18 2:44.0358 3:60.6898 
-1 1:21.48 2:44.3938 3:68.2971 
-1 1:21.97 2:44.9959 3:72.2444 
-1 1:21.49 2:45.0507 3:57.4212 
-1 1:21.71 2:44.989 3:62.3656 
-1 1:22.53 2:45.3409 3:60.3658 
-0.7427871697718071 1:22.92 2:46.7744 3:71.469 
-1 1:23.6 2:47.3389 3:71.5682 
-1 1:24 2:47.7337 3:75.5629 
-1 1:24.1 2:49.1881 3:60.3897 
-1 1:24.71 2:49.535 3:65.9115 
-1 1:25.21 2:49.977 3:70.7179 
-1 1:25.43 2:50.7555 3:78.3433 
-0.1365993528276981 1:25.51 2:51.3759 3:72.0134 
-1 1:26.07 2:51.8124 3:75.9493 
-1 1:26.38 2:53.1169 3:67.6007 
-1 1:26.52 2:54.1915 3:53.7706 
-1 1:26.95 2:54.7747 3:58.5794 
-1 1:27.45 2:55.8953 3:45.6936 
-1 1:27.98 2:56.2626 3:53.2417 
-1 1:27.77 2:57.0879 3:53.503 
-1 1:29.17 2:58.5505 3:70.9632 
-1 1:29.29 2:59.1696 3:66.5795 
-1 1:30.1 2:59.6923 3:71.2892 
-1 1:26.81 2:58.5951 3:31.8502 
-1 1:27.64 2:58.5091 3:40.85 
-1 1:25.76 2:56.8712 3:33.2089 
-1 1:26.4 2:56.667 3:41.9058 
-1 1:25.76 2:55.6043 3:51.9089 
-1 1:24.17 2:53.9782 3:51.4205 
-1 1:24.33 2:53.5811 3:57.5858 
-1 1:24.1 2:51.7456 3:49.5966 
-1 1:24.4 2:50.8487 3:54.8838 
-0.5027333834303183 1:25.08 2:51.2228 3:71.2895 
-1 1:25.56 2:51.7218 3:78.7944 
-1 1:25.97 2:52.0843 3:81.8018 
-1 1:26.31 2:52.493 3:84.3896 
-1 1:24.89 2:52.3903 3:53.3157 
-1 1:24.87 2:52.0667 3:66.8751 
-1 1:22.58 2:49.3263 3:47.0819 
-1 1:22.14 2:48.0019 3:40.1706 
-1 1:22.64 2:47.6462 3:43.6823 
-1 1:23.17 2:47.5214 3:42.1332 
-1 1:23.62 2:47.7879 3:50.1361 
-1 1:23.86 2:48.3178 3:62.9665 
-1 1:24.92 2:49.1057 3:72.6351 
-1 1:25.26 2:50.5417 3:62.782 
-1 1:25.36 2:50.8895 3:67.9661 
-1 1:25.76 2:51.3042 3:72.4626 
-1 1:25.78 2:51.9576 3:67.6126 
-1 1:26.26 2:52.3699 3:72.1525 
-1 1:26.24 2:53.6857 3:55.7903 
-1 1:26.83 2:54.5662 3:68.6772 
-1 1:26.39 2:55.0109 3:55.1027 
-1 1:25.31 2:53.7938 3:36.1551 
-1 1:24.7 2:52.1923 3:35.5577 
-1 1:24.82 2:52.1707 3:44.1268 
-1 1:25.03 2:52.1349 3:42.1611 
-1 1:24.82 2:52.1309 3:45.8696 
-1 1:25.13 2:51.5838 3:33.2602 
-1 1:24.7 2:51.5227 3:35.4322 
-1 1:24.99 2:51.6194 3:40.0935 
-1 1:23.39 2:50.0158 3:31.8576 
-1 1:23.05 2:47.7177 3:45.6398 
-1 1:23.44 2:48.1616 3:52.0582 
-1 1:23.9 2:48.42 3:58.6722 
-1 1:24.65 2:49.3981 3:65.494 
-1 1:25.24 2:50.4826 3:54.1304 
-0.1916166917285014 1:25.33 2:51.1073 3:54.0116 
-0.1577164037150793 1:26.11 2:51.7641 3:54.1538 
-1 1:26.24 2:52.4772 3:54.0996 
-1 1:26.53 2:39.7612 3:47.1047 
-1 1:26.98 2:38.2304 3:52.6247 
-1 1:28.08 2:34.9612 3:58.4401 
-1 1:28.97 2:34.3477 3:63.5129 
-1 1:28.77 2:32.0797 3:70.3047 
-1 1:29.79 2:31.4394 3:73.4603 
-1 1:30.44 2:31.4478 3:68.4487 
-1 1:29.71 2:31.2474 3:44.7945 
-1 1:29.68 2:31.3385 3:46.4891 
-1 1:30.05 2:31.3082 3:48.3778 
-1 1:30.22 2:30.8479 3:50.544 
-1 1:29.85 2:31.0894 3:48.4922 
-1 1:30.04 2:30.9099 3:45.6694 
-1 1:32.82 2:31.668 3:43.8681 
-1 1:32.91 2:32.2999 3:46.5427 
-1 1:33.57 2:33.1672 3:55.7486 
-1 1:33.56 2:33.9522 3:65.415 
-1 1:34.37 2:34.6877 3:58.9382 
-1 1:35.02 2:35.2469 3:61.9181 
-1 1:33.77 2:35.444 3:44.4633 
-1 1:34.59 2:35.5036 3:46.9545 
-1 1:35.81 2:36.4378 3:62.4983 
-1 1:36.57 2:37.0837 3:77.2093 
-1 1:36.27 2:37.4736 3:64.344 
-1 1:36.8 2:37.7462 3:65.3915 
-1 1:35.56 2:37.8547 3:38.7086 
-1 1:37.01 2:37.8651 3:45.523 
-1 1:37.81 2:38.1005 3:53.1061 
-1 1:34.63 2:37.5315 3:35.7134 
-1 1:35.36 2:37.4686 3:44.2031 
-1 1:34.66 2:37.0388 3:42.1849 
-1 1:34.01 2:36.0323 3:37.6524 
-1 1:34.55 2:36.056 3:46.0034 
-1 1:34.58 2:35.8982 3:47.5475 
-1 1:35.1 2:35.8968 3:48.4611 
-1 1:34.75 2:36.0271 3:40.7198 
-1 1:36.23 2:36.3029 3:38.6327 
-1 1:36.27 2:36.7002 3:42.5162 
-1 1:32.67 2:35.4884 3:37.8458 
-1 1:33.12 2:34.68 3:52.009 
-1 1:33.77 2:34.776 3:58.5226 
-1 1:32.47 2:34.4626 3:51.6084 
-1 1:31.77 2:34.1107 3:57.0081 
-1 1:28.8 2:31.2317 3:55.0468 
-1 1:29.85 2:31.1711 3:66.1695 
-1 1:29.07 2:30.5434 3:49.4326 
-1 1:29.59 2:30.61 3:57.2211 
-1 1:30.95 2:31.2822 3:68.4179 
-1 1:31.52 2:31.5166 3:72.8324 
-1 1:33.09 2:32.7174 3:69.3127 
-1 1:32.45 2:33.707 3:47.8424 
-1 1:34.31 2:34.0074 3:55.522 
-1 1:36.91 2:34.6318 3:62.3956 
-1 1:36.64 2:36.8062 3:45.5909 
-1 1:36.54 2:37.3408 3:35.588 
-1 1:35.76 2:37.5547 3:37.8046 
-1 1:36.06 2:37.4482 3:44.8328 
-1 1:36.68 2:37.5804 3:52.3619 
-1 1:37.62 2:38.0777 3:69.402 
-1 1:35.15 2:36.3522 3:45.3154 
-1 1:34.17 2:35.4885 3:29.503 
-1 1:34.56 2:35.6336 3:47.2646 
-1 1:32.97 2:35.0034 3:30.8367 
-1 1:31.81 2:33.703 3:24.5384 
-1 1:31.49 2:33.2751 3:25.4202 
-1 1:28.62 2:31.3609 3:28.804 
-1 1:29.18 2:30.4275 3:44.7728 
-1 1:29.62 2:30.5092 3:52.2979 
-1 1:30.79 2:30.8446 3:64.6006 
-1 1:29.62 2:31.0737 3:55.794 
-1 1:30.21 2:31.1056 3:45.0141 
-1 1:27.94 2:29.5122 3:48.1009 
-1 1:27.79 2:29.011 3:57.7636 
-1 1:24.93 2:26.8605 3:51.0451 
-1 1:24.87 2:26.3151 3:38.6909 
-1 1:25.28 2:26.2648 3:48.6317 
-1 1:26.44 2:26.4575 3:55.8051 
-1 1:26.88 2:26.8294 3:55.3343 
-1 1:25.95 2:27.0868 3:49.394 
-1 1:25.87 2:26.9762 3:52.9038 
-1 1:26.76 2:27.2053 3:64.9234 
-1 1:26.09 2:27.1118 3:64.0369 
-1 1:26.22 2:27.2601 3:55.7999 
-1 1:22.08 2:24.7225 3:30.1789 
-1 1:23.14 2:24.5748 3:47.6313 
-1 1:22.04 2:23.9993 3:40.255 
-1 1:22.01 2:23.738 3:43.5594 
-1 1:21.98 2:23.3068 3:59.3983 
-1 1:20.09 2:21.4209 3:50.155 
-1 1:18.95 2:19.92 3:47.4661 
-1 1:19.38 2:19.9188 3:49.2498 
-1 1:18.41 2:19.6635 3:41.2322 
-1 1:19.05 2:19.4358 3:48.3347 
-1 1:19.51 2:19.5711 3:55.533 
-1 1:18.34 2:19.4598 3:49.505 
-1 1:17.41 2:18.4512 3:55.8645 
-1 1:18.19 2:18.538 3:67.0954 
-1 1:17.31 2:18.329 3:53.1888 
-1 1:16.93 2:17.8874 3:43.9531 
-1 1:17.4 2:17.7689 3:43.9325 
-1 1:17.65 2:17.7403 3:54.5917 
-1 1:16.52 2:17.6524 3:43.8341 
-1 1:17.44 2:17.7397 3:52.1148 
-1 1:15.46 2:16.9772 3:40.6306 
-1 1:15.3 2:16.3562 3:52.6338 
-1 1:15.33 2:16.2269 3:47.7399 
-1 1:16.27 2:16.3367 3:55.0122 
-1 1:16.31 2:16.5909 3:53.2253 
-1 1:16.71 2:16.7549 3:53.5209 
-1 1:17.49 2:17.0892 3:65.7718 
-1 1:17.29 2:17.4827 3:50.0904 
-1 1:17.34 2:17.7267 3:58.0636 
-1 1:16.32 2:17.4002 3:55.884 
-1 1:14.64 2:16.1524 3:45.9686 
-1 1:13.68 2:14.9889 3:33.7476 
-1 1:14.44 2:14.7869 3:41.3887 
-1 1:14.43 2:14.6876 3:51.4736 
-1 1:15.55 2:14.9026 3:58.5505 
-1 1:15.3 2:15.8036 3:39.2054 
-1 1:15.29 2:15.4918 3:55.9619 
-1 1:15.29 2:15.5738 3:55.5364 
-1 1:10.62 2:11.8262 3:42.745 
-1 1:9.79 2:11.2734 3:41.3247 
-1 1:10.36 2:10.8641 3:41.2423 
-1 1:10.81 2:10.9263 3:49.3662 
-1 1:12.04 2:11.1521 3:57.006 
-1 1:12.53 2:11.4158 3:63.5993 
-1 1:8.06 2:9.04038 3:36.8375 
-1 1:8.14 2:8.75021 3:50.5362 
-1 1:8.7 2:8.77228 3:56.5401 
-1 1:8.91 2:9.05217 3:59.0685 
-1 1:9.75 2:9.56505 3:77.179 
-1 1:9.67 2:9.69082 3:71.1691 
-1 1:8.63 2:9.38237 3:54.9402 
-1 1:9.66 2:9.56649 3:57.7371 
-1 1:9.71 2:9.90398 3:70.9758 
-1 1:8.71 2:8.96361 3:39.3655 
-1 1:9.61 2:9.14076 3:55.6548 
-1 1:10.63 2:9.73888 3:73.1124 
-1 1:11.51 2:10.5508 3:73.7796 
-1 1:11.82 2:10.9435 3:61.3523 
-1 1:11.45 2:11.3916 3:52.0874 
-1 1:11.51 2:11.6209 3:46.5744 
-1 1:11.99 2:11.7442 3:55.8937 
-1 1:12.75 2:11.9596 3:62.4647 
-1 1:13.8 2:12.8715 3:74.0477 
-1 1:13.59 2:13.1613 3:68.8193 
-1 1:12.78 2:13.2527 3:41.0929 
-1 1:13.73 2:13.5109 3:57.9586 
-1 1:14.6 2:14.0419 3:61.4715 
-1 1:14.5 2:14.5064 3:47.5404 
-1 1:13.51 2:14.2429 3:47.3989 
-1 1:13.36 2:14.2772 3:57.6883 
-1 1:12.44 2:13.7963 3:56.0098 
-1 1:13.41 2:13.7745 3:60.0352 
-1 1:16.59 2:14.6437 3:67.1997 
-1 1:17.43 2:16.649 3:70.9515 
-1 1:18.16 2:17.5206 3:61.7829 
-1 1:18.35 2:18.0715 3:63.8207 
-1 1:18.14 2:18.5012 3:58.0832 
-1 1:18.15 2:18.9313 3:58.0521 
-1 1:19.17 2:19.1169 3:69.6449 
