svm_type epsilon_svr
kernel_type rbf
gamma 1
nr_class 2
total_sv 99
rho -27.4278
SV
-1 1:23.77 
-1 1:3.068 
-1 1:5.74293 
-1 1:8.01988 
-1 1:10.1879 
-1 1:12.1428 
-1 1:13.1411 
-0.6059252575180706 1:14.069 
-0.2880430088563038 1:14.9478 
1 1:16.1334 
-1 1:16.881 
-1 1:17.3475 
-1 1:18.0638 
1 1:19.7124 
-1 1:20.2187 
-0.2050219377537599 1:20.8122 
-1 1:21.3106 
1 1:22.1132 
1 1:22.9501 
1 1:23.7301 
1 1:24.7794 
1 1:25.7648 
1 1:26.7508 
1 1:28.0654 
1 1:29.31 
1 1:30.4513 
1 1:31.5805 
1 1:32.7831 
1 1:34.2107 
1 1:35.9146 
1 1:36.8913 
1 1:38.0338 
1 1:40.0133 
1 1:42.1795 
1 1:44.8703 
1 1:46.0876 
1 1:46.8505 
1 1:47.4918 
1 1:47.7622 
1 1:48.6993 
1 1:49.094 
1 1:49.5548 
1 1:49.4849 
1 1:49.5669 
-1 1:46.7286 
1 1:44.5581 
1 1:42.6184 
1 1:41.1626 
1 1:40.5169 
1 1:40.132 
1 1:39.7504 
1 1:39.2037 
1 1:39.0112 
1 1:38.3737 
-1 1:37.3919 
1 1:36.9463 
1 1:37.0534 
1 1:36.8183 
1 1:36.6319 
1 1:36.4063 
-0.2657830874672431 1:35.6721 
1 1:35.0972 
1 1:34.5536 
-0.06824695669606129 1:33.7877 
-1 1:32.7814 
-1 1:31.9679 
0.1854515410935284 1:31.3788 
-1 1:30.6883 
-0.9927866530873702 1:30.1539 
-1 1:29.252 
-1 1:28.0811 
-1 1:26.8583 
-1 1:25.6745 
-1 1:24.5846 
-1 1:23.4706 
-1 1:22.7665 
-1 1:21.8297 
-1 1:20.8777 
-1 1:20.1687 
-1 1:19.4622 
-1 1:18.6179 
-1 1:17.3262 
-1 1:16.2774 
-1 1:15.3657 
-1 1:14.5369 
-1 1:14.08 
-1 1:14.1307 
-1 1:14.1653 
-1 1:14.1286 
-1 1:14.6048 
-1 1:15.1895 
-1 1:15.9175 
-1 1:16.3259 
-1 1:17.0691 
0.7406398900307876 1:17.8679 
-1 1:18.3908 
-1 1:18.9934 
-0.500284529745507 1:19.6969 
1 1:20.5347 
